{"learner":{"attributes":{"scikit_learn":"{\"_estimator_type\": \"classifier\"}"},"feature_names":[],"feature_types":[],"gradient_booster":{"model":{"gbtree_model_param":{"num_parallel_tree":"1","num_trees":"100"},"iteration_indptr":[0,1,2,3,4,5,6,7,8,9,10,11,12,13,14,15,16,17,18,19,20,21,22,23,24,25,26,27,28,29,30,31,32,33,34,35,36,37,38,39,40,41,42,43,44,45,46,47,48,49,50,51,52,53,54,55,56,57,58,59,60,61,62,63,64,65,66,67,68,69,70,71,72,73,74,75,76,77,78,79,80,81,82,83,84,85,86,87,88,89,90,91,92,93,94,95,96,97,98,99,100],"tree_info":[0,0,0,0,0,0,0,0,0,0,0,0,0,0,0,0,0,0,0,0,0,0,0,0,0,0,0,0,0,0,0,0,0,0,0,0,0,0,0,0,0,0,0,0,0,0,0,0,0,0,0,0,0,0,0,0,0,0,0,0,0,0,0,0,0,0,0,0,0,0,0,0,0,0,0,0,0,0,0,0,0,0,0,0,0,0,0,0,0,0,0,0,0,0,0,0,0,0,0,0],"trees":[{"base_weights":[-6.207666E-3,-5.92385E-2,2.8518292E-1],"categories":[],"categories_nodes":[],"categories_segments":[],"categories_sizes":[],"default_left":[0,0,0],"id":0,"left_children":[1,-1,-1],"loss_changes":[9.447135E2,0E0,0E0],"parents":[2147483647,0,0],"right_children":[2,-1,-1],"split_conditions":[5E-2,-5.92385E-2,2.8518292E-1],"split_indices":[1,0,0],"split_type":[0,0,0],"sum_hessian":[1.3871689E2,1.1571289E2,2.3004E1],"tree_param":{"num_deleted":"0","num_feature":"2","num_nodes":"3","size_leaf_vector":"1"}},{"base_weights":[-1.8980999E-2,2.0928192E-1,-5.7673573E-1,-3.831833E-1,-7.102455E-1,-3.8254067E-2,7.61586E-3,-4.3525647E-2,-1.8367808E-2],"categories":[],"categories_nodes":[],"categories_segments":[],"categories_sizes":[],"default_left":[0,0,0,0,0,0,0,0,0],"id":1,"left_children":[1,-1,3,5,7,-1,-1,-1,-1],"loss_changes":[3.228536E2,0E0,2.3414993E0,1.1389436E1,2.890236E0,0E0,0E0,0E0,0E0],"parents":[2147483647,0,0,2,2,3,3,4,4],"right_children":[2,-1,4,6,8,-1,-1,-1,-1],"split_conditions":[9.7212464E-1,2.0928192E-1,1.224E1,7.721131E0,2.3579355E1,-3.8254067E-2,7.61586E-3,-4.3525647E-2,-1.8367808E-2],"split_indices":[0,0,0,0,0,0,0,0,0],"split_type":[0,0,0,0,0,0,0,0,0],"sum_hessian":[1.3640892E2,1.5109026E1,1.212999E2,5.2624283E1,6.867561E1,3.101242E1,2.1611864E1,4.4758434E1,2.3917175E1],"tree_param":{"num_deleted":"0","num_feature":"2","num_nodes":"9","size_leaf_vector":"1"}},{"base_weights":[-5.7635296E-2,1.7647001E-1,-6.0966176E-1,-4.582007E-2,-5.458637E-1,-7.949959E-3,-3.545074E-2],"categories":[],"categories_nodes":[],"categories_segments":[],"categories_sizes":[],"default_left":[0,0,0,0,0,0,0],"id":2,"left_children":[1,-1,3,-1,5,-1,-1],"loss_changes":[2.6903415E2,0E0,1.0859756E0,0E0,5.8817997E0,0E0,0E0],"parents":[2147483647,0,0,2,2,4,4],"right_children":[2,-1,4,-1,6,-1,-1],"split_conditions":[9.7212464E-1,1.7647001E-1,4.861432E0,-4.582007E-2,1.173E1,-7.949959E-3,-3.545074E-2],"split_indices":[0,0,0,0,0,0,0],"split_type":[0,0,0,0,0,0,0],"sum_hessian":[1.345169E2,1.7100378E1,1.17416534E2,1.6566065E1,1.0085047E2,3.1410057E1,6.9440414E1],"tree_param":{"num_deleted":"0","num_feature":"2","num_nodes":"7","size_leaf_vector":"1"}},{"base_weights":[4.5821484E-2,1.6332786E-1,-5.271735E-1,-2.0319192E-1,-7.245926E-1,-3.5217885E-2,2.4259014E-2,-4.166661E-2,-2.3949066E-2],"categories":[],"categories_nodes":[],"categories_segments":[],"categories_sizes":[],"default_left":[0,0,0,0,0,0,0,0,0],"id":3,"left_children":[1,-1,3,5,7,-1,-1,-1,-1],"loss_changes":[2.646813E2,0E0,7.1323624E0,1.707586E1,9.1781616E-1,0E0,0E0,0E0,0E0],"parents":[2147483647,0,0,2,2,3,3,4,4],"right_children":[2,-1,4,6,8,-1,-1,-1,-1],"split_conditions":[1.02E0,1.6332786E-1,1.173E1,7.721131E0,2.3579355E1,-3.5217885E-2,2.4259014E-2,-4.166661E-2,-2.3949066E-2],"split_indices":[0,0,0,0,0,0,0,0,0],"split_type":[0,0,0,0,0,0,0,0,0],"sum_hessian":[1.4074721E2,2.0679876E1,1.2006732E2,4.7188644E1,7.287868E1,2.771443E1,1.9474215E1,4.7444805E1,2.5433876E1],"tree_param":{"num_deleted":"0","num_feature":"2","num_nodes":"9","size_leaf_vector":"1"}},{"base_weights":[-2.8337419E-2,1.3845742E-1,-5.352776E-1,-2.8062478E-1,-7.01275E-1,-3.7335526E-2,1.3454184E-2,-4.3544218E-2,-1.6619423E-2],"categories":[],"categories_nodes":[],"categories_segments":[],"categories_sizes":[],"default_left":[0,0,0,0,0,0,0,0,0],"id":4,"left_children":[1,-1,3,5,7,-1,-1,-1,-1],"loss_changes":[1.9509198E2,0E0,4.267933E0,1.30245075E1,3.4331932E0,0E0,0E0,0E0,0E0],"parents":[2147483647,0,0,2,2,3,3,4,4],"right_children":[2,-1,4,6,8,-1,-1,-1,-1],"split_conditions":[1.02E0,1.3845742E-1,1.224E1,7.721131E0,2.3579355E1,-3.7335526E-2,1.3454184E-2,-4.3544218E-2,-1.6619423E-2],"split_indices":[0,0,0,0,0,0,0,0,0],"split_type":[0,0,0,0,0,0,0,0,0],"sum_hessian":[1.3630956E2,2.0075678E1,1.1623389E2,4.8118702E1,6.811518E1,2.633826E1,2.178044E1,4.4800297E1,2.3314886E1],"tree_param":{"num_deleted":"0","num_feature":"2","num_nodes":"9","size_leaf_vector":"1"}},{"base_weights":[1.6874542E-2,-5.7669766E-2,3.4911036E0,1.4012209E-1,2.2672465E-1],"categories":[],"categories_nodes":[],"categories_segments":[],"categories_sizes":[],"default_left":[0,0,0,0,0],"id":5,"left_children":[1,-1,3,-1,-1],"loss_changes":[5.729861E2,0E0,9.163513E0,0E0,0E0],"parents":[2147483647,0,0,2,2],"right_children":[2,-1,4,-1,-1],"split_conditions":[5E-2,-5.7669766E-2,5.1108027E-1,1.4012209E-1,2.2672465E-1],"split_indices":[1,0,1,0,0],"split_type":[0,0,0,0,0],"sum_hessian":[1.3865092E2,1.0410722E2,3.4543697E1,2.3318224E1,1.1225472E1],"tree_param":{"num_deleted":"0","num_feature":"2","num_nodes":"5","size_leaf_vector":"1"}},{"base_weights":[-0E0,-5.7163298E-2,3.1164658E0,1.292954E-1,1.9067894E-1],"categories":[],"categories_nodes":[],"categories_segments":[],"categories_sizes":[],"default_left":[0,0,0,0,0],"id":6,"left_children":[1,-1,3,-1,-1],"loss_changes":[4.831692E2,0E0,4.005127E-1,0E0,0E0],"parents":[2147483647,0,0,2,2],"right_children":[2,-1,4,-1,-1],"split_conditions":[5E-2,-5.7163298E-2,5.1108027E-1,1.292954E-1,1.9067894E-1],"split_indices":[1,0,1,0,0],"split_type":[0,0,0,0,0],"sum_hessian":[1.3360228E2,9.820509E1,3.5397182E1,2.3181175E1,1.2216007E1],"tree_param":{"num_deleted":"0","num_feature":"2","num_nodes":"5","size_leaf_vector":"1"}},{"base_weights":[-6.713364E-2,1.0807164E-1,-5.360691E-1,-5.978373E-1,-2.585368E-1,-2.272388E-2,-4.096327E-2,4.1020837E-2,-3.8295552E-2],"categories":[],"categories_nodes":[],"categories_segments":[],"categories_sizes":[],"default_left":[0,0,0,0,0,0,0,0,0],"id":7,"left_children":[1,-1,3,5,7,-1,-1,-1,-1],"loss_changes":[1.3841158E2,0E0,1.305233E0,1.779438E0,1.3348042E1,0E0,0E0,0E0,0E0],"parents":[2147483647,0,0,2,2,3,3,4,4],"right_children":[2,-1,4,6,8,-1,-1,-1,-1],"split_conditions":[1.02E0,1.0807164E-1,2.3579355E1,1.479E1,2.5476202E1,-2.272388E-2,-4.096327E-2,4.1020837E-2,-3.8295552E-2],"split_indices":[0,0,0,0,0,0,0,0,0],"split_type":[0,0,0,0,0,0,0,0,0],"sum_hessian":[1.3111339E2,2.1980045E1,1.0913334E2,8.6848434E1,2.22849E1,5.5940983E1,3.0907454E1,6.615116E0,1.5669785E1],"tree_param":{"num_deleted":"0","num_feature":"2","num_nodes":"9","size_leaf_vector":"1"}},{"base_weights":[-3.6485318E-2,-5.611498E-2,2.7663405E0,1.1175604E-1,1.6951405E-1],"categories":[],"categories_nodes":[],"categories_segments":[],"categories_sizes":[],"default_left":[0,0,0,0,0],"id":8,"left_children":[1,-1,3,-1,-1],"loss_changes":[3.9914365E2,0E0,1.7313843E0,0E0,0E0],"parents":[2147483647,0,0,2,2],"right_children":[2,-1,4,-1,-1],"split_conditions":[2.4293059E-1,-5.611498E-2,5.1108027E-1,1.1175604E-1,1.6951405E-1],"split_indices":[1,0,1,0,0],"split_type":[0,0,0,0,0],"sum_hessian":[1.2940274E2,9.383072E1,3.557203E1,2.2121508E1,1.3450522E1],"tree_param":{"num_deleted":"0","num_feature":"2","num_nodes":"5","size_leaf_vector":"1"}},{"base_weights":[7.3500853E-3,9.700275E-2,-4.2157578E-1,-8.118125E-1,-3.3581513E-1,8.912325E-3,-4.8264172E-2,8.403027E-3,-2.6455406E-2],"categories":[],"categories_nodes":[],"categories_segments":[],"categories_sizes":[],"default_left":[0,0,0,0,0,0,0,0,0],"id":9,"left_children":[1,-1,3,5,7,-1,-1,-1,-1],"loss_changes":[1.0648576E2,0E0,2.6400127E0,3.15069E0,8.856066E0,0E0,0E0,0E0,0E0],"parents":[2147483647,0,0,2,2,3,3,4,4],"right_children":[2,-1,4,6,8,-1,-1,-1,-1],"split_conditions":[1.02E0,9.700275E-2,5.6190944E0,1.53E0,1.0623108E1,8.912325E-3,-4.8264172E-2,8.403027E-3,-2.6455406E-2],"split_indices":[0,0,0,0,0,0,0,0,0],"split_type":[0,0,0,0,0,0,0,0,0],"sum_hessian":[1.25550385E2,2.2374657E1,1.0317573E2,1.6013462E1,8.716227E1,1.6902257E0,1.4323236E1,2.3485115E1,6.367715E1],"tree_param":{"num_deleted":"0","num_feature":"2","num_nodes":"9","size_leaf_vector":"1"}},{"base_weights":[-3.9000582E-2,-5.594411E-2,2.4755921E0,1.0120522E-1,1.5059905E-1],"categories":[],"categories_nodes":[],"categories_segments":[],"categories_sizes":[],"default_left":[0,0,0,0,0],"id":10,"left_children":[1,-1,3,-1,-1],"loss_changes":[3.436641E2,0E0,5.789032E-1,0E0,0E0],"parents":[2147483647,0,0,2,2],"right_children":[2,-1,4,-1,-1],"split_conditions":[5E-2,-5.594411E-2,5.1108027E-1,1.0120522E-1,1.5059905E-1],"split_indices":[1,0,1,0,0],"split_type":[0,0,0,0,0],"sum_hessian":[1.24787994E2,8.7825554E1,3.696244E1,2.3167604E1,1.3794836E1],"tree_param":{"num_deleted":"0","num_feature":"2","num_nodes":"5","size_leaf_vector":"1"}},{"base_weights":[4.3271724E-3,8.605435E-2,-4.1404164E-1,-3.46233E-1,-3.817315E-2,-2.1878889E-2,2.9816419E-2],"categories":[],"categories_nodes":[],"categories_segments":[],"categories_sizes":[],"default_left":[0,0,0,0,0,0,0],"id":11,"left_children":[1,-1,3,5,-1,-1,-1],"loss_changes":[9.238574E1,0E0,1.6086369E0,7.830678E0,0E0,0E0,0E0],"parents":[2147483647,0,0,2,2,3,3],"right_children":[2,-1,4,6,-1,-1,-1],"split_conditions":[1.02E0,8.605435E-2,2.601E1,2.4004349E1,-3.817315E-2,-2.1878889E-2,2.9816419E-2],"split_indices":[0,0,0,0,0,0,0],"split_type":[0,0,0,0,0,0,0],"sum_hessian":[1.25726135E2,2.4259512E1,1.0146662E2,8.784186E1,1.3624767E1,8.105312E1,6.7887325E0],"tree_param":{"num_deleted":"0","num_feature":"2","num_nodes":"7","size_leaf_vector":"1"}},{"base_weights":[-1.3238085E-2,8.10057E-2,-4.4147068E-1,-4.0971648E-2,-3.637955E-1,9.333337E-4,-2.7955672E-2],"categories":[],"categories_nodes":[],"categories_segments":[],"categories_sizes":[],"default_left":[0,0,0,0,0,0,0],"id":12,"left_children":[1,-1,3,-1,5,-1,-1],"loss_changes":[8.6621124E1,0E0,2.0168228E0,0E0,6.631855E0,0E0,0E0],"parents":[2147483647,0,0,2,2,4,4],"right_children":[2,-1,4,-1,6,-1,-1],"split_conditions":[1.02E0,8.10057E-2,5.61E0,-4.0971648E-2,1.173E1,9.333337E-4,-2.7955672E-2],"split_indices":[0,0,0,0,0,0,0],"split_type":[0,0,0,0,0,0,0],"sum_hessian":[1.2266093E2,2.4658472E1,9.800246E1,1.3981738E1,8.402072E1,2.7843473E1,5.6177246E1],"tree_param":{"num_deleted":"0","num_feature":"2","num_nodes":"7","size_leaf_vector":"1"}},{"base_weights":[-9.437479E-3,-5.523401E-2,2.2502415E0,8.806496E-2,1.3996957E-1],"categories":[],"categories_nodes":[],"categories_segments":[],"categories_sizes":[],"default_left":[0,0,0,0,0],"id":13,"left_children":[1,-1,3,-1,-1],"loss_changes":[2.975494E2,0E0,3.3082123E0,0E0,0E0],"parents":[2147483647,0,0,2,2],"right_children":[2,-1,4,-1,-1],"split_conditions":[5E-2,-5.523401E-2,5.1108027E-1,8.806496E-2,1.3996957E-1],"split_indices":[1,0,1,0,0],"split_type":[0,0,0,0,0],"sum_hessian":[1.1845402E2,8.027701E1,3.8177013E1,2.2902922E1,1.5274094E1],"tree_param":{"num_deleted":"0","num_feature":"2","num_nodes":"5","size_leaf_vector":"1"}},{"base_weights":[-9.765903E-2,1.433758E0,-5.266666E-1,7.5297564E-2,6.7839804E-3,-3.547013E-1,-6.381246E-1,-2.924035E-2,9.016358E-3,-4.018905E-2,-1.8731864E-2],"categories":[],"categories_nodes":[],"categories_segments":[],"categories_sizes":[],"default_left":[0,0,0,0,0,0,0,0,0,0,0],"id":14,"left_children":[1,3,5,-1,-1,7,9,-1,-1,-1,-1],"loss_changes":[7.477881E1,1.3008919E0,9.934559E-1,0E0,0E0,5.1371775E0,1.349371E0,0E0,0E0,0E0,0E0],"parents":[2147483647,0,0,1,1,2,2,5,5,6,6],"right_children":[2,4,6,-1,-1,8,10,-1,-1,-1,-1],"split_conditions":[1.53E0,1.02E0,1.224E1,7.5297564E-2,6.7839804E-3,9.491736E0,2.2747211E1,-2.924035E-2,9.016358E-3,-4.018905E-2,-1.8731864E-2],"split_indices":[0,0,0,0,0,0,0,0,0,0,0],"split_type":[0,0,0,0,0,0,0,0,0,0,0],"sum_hessian":[1.1236141E2,2.3820932E1,8.8540474E1,2.2049324E1,1.7716088E0,3.822801E1,5.031247E1,2.7319778E1,1.090823E1,2.8466932E1,2.1845537E1],"tree_param":{"num_deleted":"0","num_feature":"2","num_nodes":"11","size_leaf_vector":"1"}},{"base_weights":[-1.4668648E-2,-5.4728698E-2,2.1114743E0,8.112608E-2,1.2944196E-1],"categories":[],"categories_nodes":[],"categories_segments":[],"categories_sizes":[],"default_left":[0,0,0,0,0],"id":15,"left_children":[1,-1,3,-1,-1],"loss_changes":[2.6356946E2,0E0,2.70047E0,0E0,0E0],"parents":[2147483647,0,0,2,2],"right_children":[2,-1,4,-1,-1],"split_conditions":[5E-2,-5.4728698E-2,5.1108027E-1,8.112608E-2,1.2944196E-1],"split_indices":[1,0,1,0,0],"split_type":[0,0,0,0,0],"sum_hessian":[1.13008255E2,7.542097E1,3.7587284E1,2.1258781E1,1.6328505E1],"tree_param":{"num_deleted":"0","num_feature":"2","num_nodes":"5","size_leaf_vector":"1"}},{"base_weights":[6.1280083E-2,7.096095E-2,-3.366704E-1,-2.7782822E-1,-3.2869335E-2,-1.950654E-2,2.5613738E-2],"categories":[],"categories_nodes":[],"categories_segments":[],"categories_sizes":[],"default_left":[0,0,0,0,0,0,0],"id":16,"left_children":[1,-1,3,5,-1,-1,-1],"loss_changes":[6.200649E1,0E0,1.0067463E0,6.9923935E0,0E0,0E0,0E0],"parents":[2147483647,0,0,2,2,3,3],"right_children":[2,-1,4,6,-1,-1,-1],"split_conditions":[1.02E0,7.096095E-2,2.601E1,2.3579355E1,-3.2869335E-2,-1.950654E-2,2.5613738E-2],"split_indices":[0,0,0,0,0,0,0],"split_type":[0,0,0,0,0,0,0],"sum_hessian":[1.1185763E2,2.5054272E1,8.680335E1,7.624067E1,1.0562683E1,6.774998E1,8.490698E0],"tree_param":{"num_deleted":"0","num_feature":"2","num_nodes":"7","size_leaf_vector":"1"}},{"base_weights":[-2.5636436E-2,6.8809345E-2,-4.1476437E-1,-2.0378E-1,-6.202469E-1,-3.502981E-2,-0E0,-4.4824228E-2,-1.9689599E-2],"categories":[],"categories_nodes":[],"categories_segments":[],"categories_sizes":[],"default_left":[0,0,0,0,0,0,0,0,0],"id":17,"left_children":[1,-1,3,5,7,-1,-1,-1,-1],"loss_changes":[5.939536E1,0E0,3.1962957E0,4.7257004E0,1.6261368E0,0E0,0E0,0E0,0E0],"parents":[2147483647,0,0,2,2,3,3,4,4],"right_children":[2,-1,4,6,8,-1,-1,-1,-1],"split_conditions":[9.7212464E-1,6.8809345E-2,1.428E1,5.6190944E0,2.0731627E1,-3.502981E-2,-0E0,-4.4824228E-2,-1.9689599E-2],"split_indices":[0,0,0,0,0,0,0,0,0],"split_type":[0,0,0,0,0,0,0,0,0],"sum_hessian":[1.0771955E2,2.2574387E1,8.514516E1,4.4193436E1,4.0951725E1,1.2451395E1,3.1742039E1,1.6120567E1,2.483116E1],"tree_param":{"num_deleted":"0","num_feature":"2","num_nodes":"9","size_leaf_vector":"1"}},{"base_weights":[-1.98258E-3,6.3546844E-2,-3.6939672E-1,-7.266144E-1,-2.8741595E-1,-0E0,-4.1269485E-2,2.865809E-3,-2.2684926E-2],"categories":[],"categories_nodes":[],"categories_segments":[],"categories_sizes":[],"default_left":[0,0,0,0,0,0,0,0,0],"id":18,"left_children":[1,-1,3,5,7,-1,-1,-1,-1],"loss_changes":[5.1915596E1,0E0,1.8374872E0,1.0935926E0,4.4493327E0,0E0,0E0,0E0,0E0],"parents":[2147483647,0,0,2,2,3,3,4,4],"right_children":[2,-1,4,6,8,-1,-1,-1,-1],"split_conditions":[1.02E0,6.3546844E-2,6.266611E0,1.53E0,1.1721519E1,-0E0,-4.1269485E-2,2.865809E-3,-2.2684926E-2],"split_indices":[0,0,0,0,0,0,0,0,0],"split_type":[0,0,0,0,0,0,0,0,0],"sum_hessian":[1.09964615E2,2.377506E1,8.618955E1,1.3481947E1,7.27076E1,1.6535103E0,1.1828437E1,2.2893616E1,4.981399E1],"tree_param":{"num_deleted":"0","num_feature":"2","num_nodes":"9","size_leaf_vector":"1"}},{"base_weights":[6.811606E-2,-5.3661805E-2,1.9841514E0,7.4387826E-2,1.22782305E-1],"categories":[],"categories_nodes":[],"categories_segments":[],"categories_sizes":[],"default_left":[0,0,0,0,0],"id":19,"left_children":[1,-1,3,-1,-1],"loss_changes":[2.4695111E2,0E0,4.2585144E0,0E0,0E0],"parents":[2147483647,0,0,2,2],"right_children":[2,-1,4,-1,-1],"split_conditions":[2.4293059E-1,-5.3661805E-2,4.18509E-1,7.4387826E-2,1.22782305E-1],"split_indices":[1,0,1,0,0],"split_type":[0,0,0,0,0],"sum_hessian":[1.10742386E2,6.951331E1,4.1229076E1,2.2625042E1,1.8604034E1],"tree_param":{"num_deleted":"0","num_feature":"2","num_nodes":"5","size_leaf_vector":"1"}},{"base_weights":[-0E0,6.062291E-2,-3.2435602E-1,-1.4802864E-1,-4.3463978E-1,-3.1295087E-2,2.6490586E-3,-2.9507628E-2,-1.2857387E-2],"categories":[],"categories_nodes":[],"categories_segments":[],"categories_sizes":[],"default_left":[0,0,0,0,0,0,0,0,0],"id":20,"left_children":[1,-1,3,5,7,-1,-1,-1,-1],"loss_changes":[4.260523E1,0E0,1.3097744E0,3.7984061E0,8.1654453E-1,0E0,0E0,0E0,0E0],"parents":[2147483647,0,0,2,2,3,3,4,4],"right_children":[2,-1,4,6,8,-1,-1,-1,-1],"split_conditions":[1.53E0,6.062291E-2,1.173E1,5.6190944E0,2.0731627E1,-3.1295087E-2,2.6490586E-3,-2.9507628E-2,-1.2857387E-2],"split_indices":[0,0,0,0,0,0,0,0,0],"split_type":[0,0,0,0,0,0,0,0,0],"sum_hessian":[1.0649734E2,2.1852781E1,8.4644554E1,3.521577E1,4.9428783E1,1.0537641E1,2.467813E1,2.360493E1,2.5823853E1],"tree_param":{"num_deleted":"0","num_feature":"2","num_nodes":"9","size_leaf_vector":"1"}},{"base_weights":[2.3693755E-2,-5.382194E-2,1.8882414E0,6.8981595E-2,1.158661E-1],"categories":[],"categories_nodes":[],"categories_segments":[],"categories_sizes":[],"default_left":[0,0,0,0,0],"id":21,"left_children":[1,-1,3,-1,-1],"loss_changes":[2.1843118E2,0E0,3.5978088E0,0E0,0E0],"parents":[2147483647,0,0,2,2],"right_children":[2,-1,4,-1,-1],"split_conditions":[5E-2,-5.382194E-2,3.9282963E-1,6.8981595E-2,1.158661E-1],"split_indices":[1,0,1,0,0],"split_type":[0,0,0,0,0],"sum_hessian":[1.0429812E2,6.569238E1,3.8605732E1,2.0127846E1,1.8477884E1],"tree_param":{"num_deleted":"0","num_feature":"2","num_nodes":"5","size_leaf_vector":"1"}},{"base_weights":[-0E0,6.011465E-2,-3.4085166E-1,-1.8170533E-1,-4.539699E-1,-2.8317222E-2,8.9742E-3,-3.786288E-2,-1.2600911E-2],"categories":[],"categories_nodes":[],"categories_segments":[],"categories_sizes":[],"default_left":[0,0,0,0,0,0,0,0,0],"id":22,"left_children":[1,-1,3,5,7,-1,-1,-1,-1],"loss_changes":[4.0978012E1,0E0,1.0005236E0,5.273363E0,1.937088E0,0E0,0E0,0E0,0E0],"parents":[2147483647,0,0,2,2,3,3,4,4],"right_children":[2,-1,4,6,8,-1,-1,-1,-1],"split_conditions":[9.3077296E-1,6.011465E-2,1.224E1,7.721131E0,1.9198576E1,-2.8317222E-2,8.9742E-3,-3.786288E-2,-1.2600911E-2],"split_indices":[0,0,0,0,0,0,0,0,0],"split_type":[0,0,0,0,0,0,0,0,0],"sum_hessian":[9.7909065E1,2.1094305E1,7.681476E1,3.4833664E1,4.198109E1,1.7264551E1,1.7569115E1,1.4691742E1,2.728935E1],"tree_param":{"num_deleted":"0","num_feature":"2","num_nodes":"9","size_leaf_vector":"1"}},{"base_weights":[7.197177E-3,-5.3359844E-2,1.8237004E0,6.904045E-2,1.0916414E-1],"categories":[],"categories_nodes":[],"categories_segments":[],"categories_sizes":[],"default_left":[0,0,0,0,0],"id":23,"left_children":[1,-1,3,-1,-1],"loss_changes":[2.0047476E2,0E0,1.298851E0,0E0,0E0],"parents":[2147483647,0,0,2,2],"right_children":[2,-1,4,-1,-1],"split_conditions":[5E-2,-5.3359844E-2,4.18509E-1,6.904045E-2,1.0916414E-1],"split_indices":[1,0,1,0,0],"split_type":[0,0,0,0,0],"sum_hessian":[1.0053012E2,6.3254616E1,3.7275505E1,1.949473E1,1.7780775E1],"tree_param":{"num_deleted":"0","num_feature":"2","num_nodes":"5","size_leaf_vector":"1"}},{"base_weights":[7.979787E-3,-5.2786738E-2,8.601506E-2],"categories":[],"categories_nodes":[],"categories_segments":[],"categories_sizes":[],"default_left":[0,0,0],"id":24,"left_children":[1,-1,-1],"loss_changes":[1.7729219E2,0E0,0E0],"parents":[2147483647,0,0],"right_children":[2,-1,-1],"split_conditions":[2.4293059E-1,-5.2786738E-2,8.601506E-2],"split_indices":[1,0,0],"split_type":[0,0,0],"sum_hessian":[9.515773E1,5.875183E1,3.6405895E1],"tree_param":{"num_deleted":"0","num_feature":"2","num_nodes":"3","size_leaf_vector":"1"}},{"base_weights":[9.166419E-3,5.766007E-2,-2.7407002E-1,-6.276228E-1,-1.9923082E-1,-0E0,-3.678396E-2,5.2690357E-3,-1.9198246E-2],"categories":[],"categories_nodes":[],"categories_segments":[],"categories_sizes":[],"default_left":[0,0,0,0,0,0,0,0,0],"id":25,"left_children":[1,-1,3,5,7,-1,-1,-1,-1],"loss_changes":[3.1362719E1,0E0,1.4769583E0,8.9095783E-1,3.8653235E0,0E0,0E0,0E0,0E0],"parents":[2147483647,0,0,2,2,3,3,4,4],"right_children":[2,-1,4,6,8,-1,-1,-1,-1],"split_conditions":[1.02E0,5.766007E-2,5.6190944E0,1.2354002E0,1.224E1,-0E0,-3.678396E-2,5.2690357E-3,-1.9198246E-2],"split_indices":[0,0,0,0,0,0,0,0,0],"split_type":[0,0,0,0,0,0,0,0,0],"sum_hessian":[9.345691E1,1.8286947E1,7.516996E1,1.0674513E1,6.4495445E1,1.5314474E0,9.143065E0,2.348823E1,4.1007217E1],"tree_param":{"num_deleted":"0","num_feature":"2","num_nodes":"9","size_leaf_vector":"1"}},{"base_weights":[-1.61343E-2,-5.2964747E-2,1.6351119E0,6.213352E-2,9.743701E-2],"categories":[],"categories_nodes":[],"categories_segments":[],"categories_sizes":[],"default_left":[0,0,0,0,0],"id":26,"left_children":[1,-1,3,-1,-1],"loss_changes":[1.591816E2,0E0,3.7184906E-1,0E0,0E0],"parents":[2147483647,0,0,2,2],"right_children":[2,-1,4,-1,-1],"split_conditions":[5E-2,-5.2964747E-2,3.9282963E-1,6.213352E-2,9.743701E-2],"split_indices":[1,0,1,0,0],"split_type":[0,0,0,0,0],"sum_hessian":[9.0573906E1,5.5912777E1,3.4661133E1,1.8308403E1,1.635273E1],"tree_param":{"num_deleted":"0","num_feature":"2","num_nodes":"5","size_leaf_vector":"1"}},{"base_weights":[5.8372833E-2,4.6679057E-2,-1.7890844E-1,-3.5241432E-2,-1.1426145E-1,6.5318965E-3,-1.4010456E-2],"categories":[],"categories_nodes":[],"categories_segments":[],"categories_sizes":[],"default_left":[0,0,0,0,0,0,0],"id":27,"left_children":[1,-1,3,-1,5,-1,-1],"loss_changes":[2.0007221E1,0E0,2.0299466E0,0E0,2.8768435E0,0E0,0E0],"parents":[2147483647,0,0,2,2,4,4],"right_children":[2,-1,4,-1,6,-1,-1],"split_conditions":[1.53E0,4.6679057E-2,4.861432E0,-3.5241432E-2,1.173E1,6.5318965E-3,-1.4010456E-2],"split_indices":[0,0,0,0,0,0,0],"split_type":[0,0,0,0,0,0,0],"sum_hessian":[9.2719894E1,1.9599642E1,7.3120255E1,6.0735226E0,6.704673E1,2.595019E1,4.1096542E1],"tree_param":{"num_deleted":"0","num_feature":"2","num_nodes":"7","size_leaf_vector":"1"}},{"base_weights":[-1.3842684E-2,-5.2446734E-2,8.096806E-2],"categories":[],"categories_nodes":[],"categories_segments":[],"categories_sizes":[],"default_left":[0,0,0],"id":28,"left_children":[1,-1,-1],"loss_changes":[1.4748604E2,0E0,0E0],"parents":[2147483647,0,0],"right_children":[2,-1,-1],"split_conditions":[5E-2,-5.2446734E-2,8.096806E-2],"split_indices":[1,0,0],"split_type":[0,0,0],"sum_hessian":[8.540713E1,5.2682133E1,3.272499E1],"tree_param":{"num_deleted":"0","num_feature":"2","num_nodes":"3","size_leaf_vector":"1"}},{"base_weights":[-5.7612605E-2,8.651982E-1,-3.161001E-1,4.6021413E-2,2.6816686E-3,-1.6891351E-1,-4.5945773E-1,-1.9918254E-2,5.802497E-3,-3.3731323E-2,-5.6045926E-3],"categories":[],"categories_nodes":[],"categories_segments":[],"categories_sizes":[],"default_left":[0,0,0,0,0,0,0,0,0,0,0],"id":29,"left_children":[1,3,5,-1,-1,7,9,-1,-1,-1,-1],"loss_changes":[2.0153511E1,2.8533077E-1,1.0253096E0,0E0,0E0,2.570022E0,1.9018764E0,0E0,0E0,0E0,0E0],"parents":[2147483647,0,0,1,1,2,2,5,5,6,6],"right_children":[2,4,6,-1,-1,8,10,-1,-1,-1,-1],"split_conditions":[1.53E0,9.7212464E-1,1.41619625E1,4.6021413E-2,2.6816686E-3,9.491736E0,2.4004349E1,-1.9918254E-2,5.802497E-3,-3.3731323E-2,-5.6045926E-3],"split_indices":[0,0,0,0,0,0,0,0,0,0,0],"split_type":[0,0,0,0,0,0,0,0,0,0,0],"sum_hessian":[8.3493126E1,1.7332808E1,6.616032E1,1.5525973E1,1.8068346E0,3.54399E1,3.0720417E1,2.0383686E1,1.5056214E1,1.7499306E1,1.322111E1],"tree_param":{"num_deleted":"0","num_feature":"2","num_nodes":"11","size_leaf_vector":"1"}},{"base_weights":[8.7992605E-3,4.3505535E-2,-2.1552235E-1,-4.0250134E-2,-1.455856E-1,2.8847458E-3,-1.8288987E-2],"categories":[],"categories_nodes":[],"categories_segments":[],"categories_sizes":[],"default_left":[0,0,0,0,0,0,0],"id":30,"left_children":[1,-1,3,-1,5,-1,-1],"loss_changes":[1.6947998E1,0E0,2.2034678E0,0E0,2.9774594E0,0E0,0E0],"parents":[2147483647,0,0,2,2,4,4],"right_children":[2,-1,4,-1,6,-1,-1],"split_conditions":[1.53E0,4.3505535E-2,4.861432E0,-4.0250134E-2,1.428E1,2.8847458E-3,-1.8288987E-2],"split_indices":[0,0,0,0,0,0,0],"split_type":[0,0,0,0,0,0,0],"sum_hessian":[8.405311E1,1.7233393E1,6.681972E1,5.2138286E0,6.1605892E1,3.1236238E1,3.0369652E1],"tree_param":{"num_deleted":"0","num_feature":"2","num_nodes":"7","size_leaf_vector":"1"}},{"base_weights":[1.6055007E-2,4.916935E-2,-2.3874001E-1,-1.6020416E-1,-3.7924945E-2,-1.3704754E-2,3.1402417E-2],"categories":[],"categories_nodes":[],"categories_segments":[],"categories_sizes":[],"default_left":[0,0,0,0,0,0,0],"id":31,"left_children":[1,-1,3,5,-1,-1,-1],"loss_changes":[2.133979E1,0E0,2.1530848E0,5.4075117E0,0E0,0E0,0E0],"parents":[2147483647,0,0,2,2,3,3],"right_children":[2,-1,4,6,-1,-1,-1],"split_conditions":[1.53E0,4.916935E-2,2.601E1,2.4004349E1,-3.7924945E-2,-1.3704754E-2,3.1402417E-2],"split_indices":[0,0,0,0,0,0,0],"split_type":[0,0,0,0,0,0,0],"sum_hessian":[8.3118065E1,1.7141815E1,6.597624E1,5.9288006E1,6.688238E0,5.292737E1,6.360639E0],"tree_param":{"num_deleted":"0","num_feature":"2","num_nodes":"7","size_leaf_vector":"1"}},{"base_weights":[-1.987188E-2,4.5972522E-2,-2.7080888E-1,-3.4202942E-1,-8.516886E-2,-1.1476261E-2,-3.0771548E-2,6.9255754E-3,-2.2743843E-2],"categories":[],"categories_nodes":[],"categories_segments":[],"categories_sizes":[],"default_left":[0,0,0,0,0,0,0,0,0],"id":32,"left_children":[1,-1,3,5,7,-1,-1,-1,-1],"loss_changes":[1.885711E1,0E0,6.111016E-1,8.018093E-1,1.9730573E0,0E0,0E0,0E0,0E0],"parents":[2147483647,0,0,2,2,3,3,4,4],"right_children":[2,-1,4,6,8,-1,-1,-1,-1],"split_conditions":[9.7212464E-1,4.5972522E-2,2.0731627E1,1.479E1,2.55E1,-1.1476261E-2,-3.0771548E-2,6.9255754E-3,-2.2743843E-2],"split_indices":[0,0,0,0,0,0,0,0,0],"split_type":[0,0,0,0,0,0,0,0,0],"sum_hessian":[7.932063E1,1.5741082E1,6.3579556E1,4.3395218E1,2.0184338E1,3.3342976E1,1.0052242E1,1.2122765E1,8.061573E0],"tree_param":{"num_deleted":"0","num_feature":"2","num_nodes":"9","size_leaf_vector":"1"}},{"base_weights":[-0E0,-5.2294474E-2,7.987E-2],"categories":[],"categories_nodes":[],"categories_segments":[],"categories_sizes":[],"default_left":[0,0,0],"id":33,"left_children":[1,-1,-1],"loss_changes":[1.3721896E2,0E0,0E0],"parents":[2147483647,0,0],"right_children":[2,-1,-1],"split_conditions":[5E-2,-5.2294474E-2,7.987E-2],"split_indices":[1,0,0],"split_type":[0,0,0],"sum_hessian":[8.0074776E1,4.8533577E1,3.1541199E1],"tree_param":{"num_deleted":"0","num_feature":"2","num_nodes":"3","size_leaf_vector":"1"}},{"base_weights":[-0E0,3.766797E-2,-2.037129E-1,-1.3563944E-1,-3.1386435E-2,-1.1103947E-2,2.021803E-2],"categories":[],"categories_nodes":[],"categories_segments":[],"categories_sizes":[],"default_left":[0,0,0,0,0,0,0],"id":34,"left_children":[1,-1,3,5,-1,-1,-1],"loss_changes":[1.17008705E1,0E0,1.3204658E0,2.5960953E0,0E0,0E0,0E0],"parents":[2147483647,0,0,2,2,3,3],"right_children":[2,-1,4,6,-1,-1,-1],"split_conditions":[1.53E0,3.766797E-2,2.601E1,2.3579355E1,-3.1386435E-2,-1.1103947E-2,2.021803E-2],"split_indices":[0,0,0,0,0,0,0],"split_type":[0,0,0,0,0,0,0],"sum_hessian":[7.60096E1,1.5088829E1,6.092077E1,5.4646637E1,6.27413E0,4.841187E1,6.23477E0],"tree_param":{"num_deleted":"0","num_feature":"2","num_nodes":"7","size_leaf_vector":"1"}},{"base_weights":[-1.016864E-1,3.6411237E-2,-2.8834122E-1,-3.5827738E-1,-0E0,-9.049797E-3,-2.7647128E-2,2.2324767E-2,-2.2937765E-2],"categories":[],"categories_nodes":[],"categories_segments":[],"categories_sizes":[],"default_left":[0,0,0,0,0,0,0,0,0],"id":35,"left_children":[1,-1,3,5,7,-1,-1,-1,-1],"loss_changes":[1.1803806E1,0E0,1.1617026E0,1.2639632E0,3.1399932E0,0E0,0E0,0E0,0E0],"parents":[2147483647,0,0,2,2,3,3,4,4],"right_children":[2,-1,4,6,8,-1,-1,-1,-1],"split_conditions":[9.7212464E-1,3.6411237E-2,2.4004349E1,1.173E1,2.601E1,-9.049797E-3,-2.7647128E-2,2.2324767E-2,-2.2937765E-2],"split_indices":[0,0,0,0,0,0,0,0,0],"split_type":[0,0,0,0,0,0,0,0,0],"sum_hessian":[7.526367E1,1.2794801E1,6.2468876E1,4.915902E1,1.3309854E1,2.8082552E1,2.107647E1,6.394224E0,6.9156294E0],"tree_param":{"num_deleted":"0","num_feature":"2","num_nodes":"9","size_leaf_vector":"1"}},{"base_weights":[-6.9571674E-2,-5.2073725E-2,7.6363556E-2],"categories":[],"categories_nodes":[],"categories_segments":[],"categories_sizes":[],"default_left":[0,0,0],"id":36,"left_children":[1,-1,-1],"loss_changes":[1.14105965E2,0E0,0E0],"parents":[2147483647,0,0],"right_children":[2,-1,-1],"split_conditions":[5E-2,-5.2073725E-2,7.6363556E-2],"split_indices":[1,0,0],"split_type":[0,0,0],"sum_hessian":[7.165463E1,4.4954453E1,2.6700182E1],"tree_param":{"num_deleted":"0","num_feature":"2","num_nodes":"3","size_leaf_vector":"1"}},{"base_weights":[-2.5501095E-2,-5.200075E-2,7.446479E-2],"categories":[],"categories_nodes":[],"categories_segments":[],"categories_sizes":[],"default_left":[0,0,0],"id":37,"left_children":[1,-1,-1],"loss_changes":[1.1542206E2,0E0,0E0],"parents":[2147483647,0,0],"right_children":[2,-1,-1],"split_conditions":[5E-2,-5.200075E-2,7.446479E-2],"split_indices":[1,0,0],"split_type":[0,0,0],"sum_hessian":[7.3244606E1,4.4251373E1,2.899323E1],"tree_param":{"num_deleted":"0","num_feature":"2","num_nodes":"3","size_leaf_vector":"1"}},{"base_weights":[2.6644172E-2,-5.140118E-2,7.580945E-2],"categories":[],"categories_nodes":[],"categories_segments":[],"categories_sizes":[],"default_left":[0,0,0],"id":38,"left_children":[1,-1,-1],"loss_changes":[1.15559296E2,0E0,0E0],"parents":[2147483647,0,0],"right_children":[2,-1,-1],"split_conditions":[5E-2,-5.140118E-2,7.580945E-2],"split_indices":[1,0,0],"split_type":[0,0,0],"sum_hessian":[7.141144E1,4.17937E1,2.9617739E1],"tree_param":{"num_deleted":"0","num_feature":"2","num_nodes":"3","size_leaf_vector":"1"}},{"base_weights":[5.5860873E-2,-5.099998E-2,7.1804985E-2],"categories":[],"categories_nodes":[],"categories_segments":[],"categories_sizes":[],"default_left":[0,0,0],"id":39,"left_children":[1,-1,-1],"loss_changes":[1.0095467E2,0E0,0E0],"parents":[2147483647,0,0],"right_children":[2,-1,-1],"split_conditions":[5E-2,-5.099998E-2,7.1804985E-2],"split_indices":[1,0,0],"split_type":[0,0,0],"sum_hessian":[6.585894E1,3.6953434E1,2.8905506E1],"tree_param":{"num_deleted":"0","num_feature":"2","num_nodes":"3","size_leaf_vector":"1"}},{"base_weights":[2.6646731E-2,3.647925E-2,-1.1624187E-1,-3.5083976E-1,-6.374868E-2,-0E0,-2.5090331E-2,3.5481013E-3,-9.752841E-3],"categories":[],"categories_nodes":[],"categories_segments":[],"categories_sizes":[],"default_left":[0,0,0,0,0,0,0,0,0],"id":40,"left_children":[1,-1,3,5,7,-1,-1,-1,-1],"loss_changes":[7.0413046E0,0E0,4.5125902E-1,5.867933E-1,9.2753226E-1,0E0,0E0,0E0,0E0],"parents":[2147483647,0,0,2,2,3,3,4,4],"right_children":[2,-1,4,6,8,-1,-1,-1,-1],"split_conditions":[9.627628E-1,3.647925E-2,5.6190944E0,1.53E0,1.428E1,-0E0,-2.5090331E-2,3.5481013E-3,-9.752841E-3],"split_indices":[0,0,0,0,0,0,0,0,0],"split_type":[0,0,0,0,0,0,0,0,0],"sum_hessian":[6.52057E1,1.0912937E1,5.4292767E1,7.146352E0,4.7146416E1,1.8339875E0,5.312364E0,2.1618973E1,2.5527443E1],"tree_param":{"num_deleted":"0","num_feature":"2","num_nodes":"9","size_leaf_vector":"1"}},{"base_weights":[8.950839E-3,-5.0693374E-2,6.9730364E-2],"categories":[],"categories_nodes":[],"categories_segments":[],"categories_sizes":[],"default_left":[0,0,0],"id":41,"left_children":[1,-1,-1],"loss_changes":[9.179239E1,0E0,0E0],"parents":[2147483647,0,0],"right_children":[2,-1,-1],"split_conditions":[5E-2,-5.0693374E-2,6.9730364E-2],"split_indices":[1,0,0],"split_type":[0,0,0],"sum_hessian":[6.2634857E1,3.598218E1,2.6652674E1],"tree_param":{"num_deleted":"0","num_feature":"2","num_nodes":"3","size_leaf_vector":"1"}},{"base_weights":[-3.02753E-2,3.6570307E-2,-1.9655395E-1,-3.2291673E-2,-1.2227768E-1,6.499834E-3,-1.3817497E-2],"categories":[],"categories_nodes":[],"categories_segments":[],"categories_sizes":[],"default_left":[0,0,0,0,0,0,0],"id":42,"left_children":[1,-1,3,-1,5,-1,-1],"loss_changes":[7.7382545E0,0E0,1.2815721E0,0E0,1.9379008E0,0E0,0E0],"parents":[2147483647,0,0,2,2,4,4],"right_children":[2,-1,4,-1,6,-1,-1],"split_conditions":[1.02E0,3.6570307E-2,5.61E0,-3.2291673E-2,1.0663997E1,6.499834E-3,-1.3817497E-2],"split_indices":[0,0,0,0,0,0,0],"split_type":[0,0,0,0,0,0,0],"sum_hessian":[6.1075294E1,9.7961E0,5.1279194E1,5.2282295E0,4.6050964E1,1.6289669E1,2.9761295E1],"tree_param":{"num_deleted":"0","num_feature":"2","num_nodes":"7","size_leaf_vector":"1"}},{"base_weights":[4.7592398E-2,3.87174E-2,-9.014589E-2,-3.546512E-2,-2.156273E-2,-4.0955506E-3,2.5597055E-2],"categories":[],"categories_nodes":[],"categories_segments":[],"categories_sizes":[],"default_left":[0,0,0,0,0,0,0],"id":43,"left_children":[1,-1,3,5,-1,-1,-1],"loss_changes":[6.716743E0,0E0,7.448733E-1,1.0539212E0,0E0,0E0,0E0],"parents":[2147483647,0,0,2,2,3,3],"right_children":[2,-1,4,6,-1,-1,-1],"split_conditions":[1.02E0,3.87174E-2,2.601E1,2.5147112E1,-2.156273E-2,-4.0955506E-3,2.5597055E-2],"split_indices":[0,0,0,0,0,0,0],"split_type":[0,0,0,0,0,0,0],"sum_hessian":[6.198409E1,9.717793E0,5.2266293E1,4.7260128E1,5.0061646E0,4.5189674E1,2.0704548E0],"tree_param":{"num_deleted":"0","num_feature":"2","num_nodes":"7","size_leaf_vector":"1"}},{"base_weights":[1.6982697E-2,-5.058215E-2,6.988413E-2],"categories":[],"categories_nodes":[],"categories_segments":[],"categories_sizes":[],"default_left":[0,0,0],"id":44,"left_children":[1,-1,-1],"loss_changes":[8.667692E1,0E0,0E0],"parents":[2147483647,0,0],"right_children":[2,-1,-1],"split_conditions":[5E-2,-5.058215E-2,6.988413E-2],"split_indices":[1,0,0],"split_type":[0,0,0],"sum_hessian":[5.8898983E1,3.369859E1,2.5200392E1],"tree_param":{"num_deleted":"0","num_feature":"2","num_nodes":"3","size_leaf_vector":"1"}},{"base_weights":[1.1651035E-2,2.855592E-2,-1.1260362E-1,-2.3413472E-2,-1.3589901E-2,1.2942492E-2,-8.7137995E-3],"categories":[],"categories_nodes":[],"categories_segments":[],"categories_sizes":[],"default_left":[0,0,0,0,0,0,0],"id":45,"left_children":[1,-1,3,-1,5,-1,-1],"loss_changes":[4.535314E0,0E0,1.514658E0,0E0,1.8093839E0,0E0,0E0],"parents":[2147483647,0,0,2,2,4,4],"right_children":[2,-1,4,-1,6,-1,-1],"split_conditions":[1.53E0,2.855592E-2,7.721131E0,-2.3413472E-2,1.173E1,1.2942492E-2,-8.7137995E-3],"split_indices":[0,0,0,0,0,0,0],"split_type":[0,0,0,0,0,0,0],"sum_hessian":[6.0017914E1,1.0984935E1,4.9032978E1,8.765914E0,4.0267063E1,1.3557709E1,2.6709356E1],"tree_param":{"num_deleted":"0","num_feature":"2","num_nodes":"7","size_leaf_vector":"1"}},{"base_weights":[-2.4502926E-2,-5.0353985E-2,6.7880936E-2],"categories":[],"categories_nodes":[],"categories_segments":[],"categories_sizes":[],"default_left":[0,0,0],"id":46,"left_children":[1,-1,-1],"loss_changes":[8.178263E1,0E0,0E0],"parents":[2147483647,0,0],"right_children":[2,-1,-1],"split_conditions":[2.4293059E-1,-5.0353985E-2,6.7880936E-2],"split_indices":[1,0,0],"split_type":[0,0,0],"sum_hessian":[5.834334E1,3.4470627E1,2.3872715E1],"tree_param":{"num_deleted":"0","num_feature":"2","num_nodes":"3","size_leaf_vector":"1"}},{"base_weights":[-4.2986374E-2,-5.0399788E-2,6.58497E-2],"categories":[],"categories_nodes":[],"categories_segments":[],"categories_sizes":[],"default_left":[0,0,0],"id":47,"left_children":[1,-1,-1],"loss_changes":[7.6257E1,0E0,0E0],"parents":[2147483647,0,0],"right_children":[2,-1,-1],"split_conditions":[2.4293059E-1,-5.0399788E-2,6.58497E-2],"split_indices":[1,0,0],"split_type":[0,0,0],"sum_hessian":[5.621148E1,3.324681E1,2.2964668E1],"tree_param":{"num_deleted":"0","num_feature":"2","num_nodes":"3","size_leaf_vector":"1"}},{"base_weights":[-1.6920274E-3,-4.9963143E-2,6.488662E-2],"categories":[],"categories_nodes":[],"categories_segments":[],"categories_sizes":[],"default_left":[0,0,0],"id":48,"left_children":[1,-1,-1],"loss_changes":[7.037365E1,0E0,0E0],"parents":[2147483647,0,0],"right_children":[2,-1,-1],"split_conditions":[5E-2,-4.9963143E-2,6.488662E-2],"split_indices":[1,0,0],"split_type":[0,0,0],"sum_hessian":[5.240417E1,2.9993715E1,2.2410458E1],"tree_param":{"num_deleted":"0","num_feature":"2","num_nodes":"3","size_leaf_vector":"1"}},{"base_weights":[3.3893194E-2,-4.971241E-2,6.666177E-2],"categories":[],"categories_nodes":[],"categories_segments":[],"categories_sizes":[],"default_left":[0,0,0],"id":49,"left_children":[1,-1,-1],"loss_changes":[7.437182E1,0E0,0E0],"parents":[2147483647,0,0],"right_children":[2,-1,-1],"split_conditions":[5E-2,-4.971241E-2,6.666177E-2],"split_indices":[1,0,0],"split_type":[0,0,0],"sum_hessian":[5.3552258E1,2.9812368E1,2.373989E1],"tree_param":{"num_deleted":"0","num_feature":"2","num_nodes":"3","size_leaf_vector":"1"}},{"base_weights":[1.18530635E-2,2.6677692E-2,-9.791735E-2,1.7146228E-3,-1.7705418E-1,-8.859309E-3,1.2507281E-2,-1.85782E-2,-1.7404602E-3],"categories":[],"categories_nodes":[],"categories_segments":[],"categories_sizes":[],"default_left":[0,0,0,0,0,0,0,0,0],"id":50,"left_children":[1,-1,3,5,7,-1,-1,-1,-1],"loss_changes":[3.179428E0,0E0,4.1932276E-1,8.273387E-1,5.0955874E-1,0E0,0E0,0E0,0E0],"parents":[2147483647,0,0,2,2,3,3,4,4],"right_children":[2,-1,4,6,8,-1,-1,-1,-1],"split_conditions":[1.53E0,2.6677692E-2,1.071E1,7.721131E0,1.748034E1,-8.859309E-3,1.2507281E-2,-1.85782E-2,-1.7404602E-3],"split_indices":[0,0,0,0,0,0,0,0,0],"split_type":[0,0,0,0,0,0,0,0,0],"sum_hessian":[4.9803253E1,8.778136E0,4.1025116E1,1.5797051E1,2.5228065E1,8.180346E0,7.6167054E0,8.49059E0,1.6737474E1],"tree_param":{"num_deleted":"0","num_feature":"2","num_nodes":"9","size_leaf_vector":"1"}},{"base_weights":[3.583954E-2,5.21705E-1,-7.606127E-2,3.698879E-2,2.3651473E-1,-1.5809638E-2,-3.2168992E-2,-0E0,1.9191032E-2,-0E0,-1.26143815E-2],"categories":[],"categories_nodes":[],"categories_segments":[],"categories_sizes":[],"default_left":[0,0,0,0,0,0,0,0,0,0,0],"id":51,"left_children":[1,3,5,-1,7,-1,9,-1,-1,-1,-1],"loss_changes":[3.11917E0,8.527994E-3,2.661542E-1,0E0,1.2422806E-1,0E0,3.372922E-1,0E0,0E0,0E0,0E0],"parents":[2147483647,0,0,1,1,2,2,4,4,6,6],"right_children":[2,4,6,-1,8,-1,10,-1,-1,-1,-1],"split_conditions":[1.53E0,5.1E-1,5.61E0,3.698879E-2,5.1875216E-1,-1.5809638E-2,2.55E1,-0E0,1.9191032E-2,-0E0,-1.26143815E-2],"split_indices":[0,0,0,0,0,0,0,0,0,0,0],"split_type":[0,0,0,0,0,0,0,0,0,0,0],"sum_hessian":[5.1542442E1,9.799544E0,4.1742897E1,3.6564505E0,6.143094E0,3.7316968E0,3.80112E1,3.5874789E0,2.5556152E0,3.3077682E1,4.9335165E0],"tree_param":{"num_deleted":"0","num_feature":"2","num_nodes":"11","size_leaf_vector":"1"}},{"base_weights":[-4.035258E-2,2.2529127E-2,-1.6579218E-1,-2.336749E-1,2.0016225E-2,-4.5243083E-3,-2.4710359E-2,2.1480216E-2,-1.79699E-2],"categories":[],"categories_nodes":[],"categories_segments":[],"categories_sizes":[],"default_left":[0,0,0,0,0,0,0,0,0],"id":52,"left_children":[1,-1,3,5,7,-1,-1,-1,-1],"loss_changes":[2.9835315E0,0E0,6.287178E-1,8.5980463E-1,1.7314925E0,0E0,0E0,0E0,0E0],"parents":[2147483647,0,0,2,2,3,3,4,4],"right_children":[2,-1,4,6,8,-1,-1,-1,-1],"split_conditions":[1.53E0,2.2529127E-2,2.3579355E1,1.479E1,2.601E1,-4.5243083E-3,-2.4710359E-2,2.1480216E-2,-1.79699E-2],"split_indices":[0,0,0,0,0,0,0,0,0],"split_type":[0,0,0,0,0,0,0,0,0],"sum_hessian":[4.854676E1,8.5411415E0,4.000562E1,3.1083128E1,8.922492E0,2.2166735E1,8.916395E0,4.860734E0,4.061758E0],"tree_param":{"num_deleted":"0","num_feature":"2","num_nodes":"9","size_leaf_vector":"1"}},{"base_weights":[-2.357676E-2,-4.9721625E-2,6.26227E-2],"categories":[],"categories_nodes":[],"categories_segments":[],"categories_sizes":[],"default_left":[0,0,0],"id":53,"left_children":[1,-1,-1],"loss_changes":[6.2535423E1,0E0,0E0],"parents":[2147483647,0,0],"right_children":[2,-1,-1],"split_conditions":[2.4293059E-1,-4.9721625E-2,6.26227E-2],"split_indices":[1,0,0],"split_type":[0,0,0],"sum_hessian":[4.857772E1,2.7935663E1,2.0642057E1],"tree_param":{"num_deleted":"0","num_feature":"2","num_nodes":"3","size_leaf_vector":"1"}},{"base_weights":[4.2328164E-2,-4.9334526E-2,6.550748E-2],"categories":[],"categories_nodes":[],"categories_segments":[],"categories_sizes":[],"default_left":[0,0,0],"id":54,"left_children":[1,-1,-1],"loss_changes":[6.42982E1,0E0,0E0],"parents":[2147483647,0,0],"right_children":[2,-1,-1],"split_conditions":[5E-2,-4.9334526E-2,6.550748E-2],"split_indices":[1,0,0],"split_type":[0,0,0],"sum_hessian":[4.7170467E1,2.59421E1,2.1228365E1],"tree_param":{"num_deleted":"0","num_feature":"2","num_nodes":"3","size_leaf_vector":"1"}},{"base_weights":[-0E0,2.8695092E-2,-1.204795E-1,-7.855787E-4,-2.3690367E-1,-8.061524E-3,6.4129294E-3,-2.269332E-2,-0E0],"categories":[],"categories_nodes":[],"categories_segments":[],"categories_sizes":[],"default_left":[0,0,0,0,0,0,0,0,0],"id":55,"left_children":[1,-1,3,5,7,-1,-1,-1,-1],"loss_changes":[3.0593174E0,0E0,4.136662E-1,4.920322E-1,6.841866E-1,0E0,0E0,0E0,0E0],"parents":[2147483647,0,0,2,2,3,3,4,4],"right_children":[2,-1,4,6,8,-1,-1,-1,-1],"split_conditions":[1.53E0,2.8695092E-2,1.479E1,9.491736E0,2.2747211E1,-8.061524E-3,6.4129294E-3,-2.269332E-2,-0E0],"split_indices":[0,0,0,0,0,0,0,0,0],"split_type":[0,0,0,0,0,0,0,0,0],"sum_hessian":[4.3830444E1,6.603904E0,3.722654E1,2.0969501E1,1.625704E1,1.0963473E1,1.0006028E1,7.0230675E0,9.233973E0],"tree_param":{"num_deleted":"0","num_feature":"2","num_nodes":"9","size_leaf_vector":"1"}},{"base_weights":[6.798607E-2,2.8731495E-2,-1.0733879E-2,-0E0,-1.934958E-2,-2.081081E-3,9.375913E-3],"categories":[],"categories_nodes":[],"categories_segments":[],"categories_sizes":[],"default_left":[0,0,0,0,0,0,0],"id":56,"left_children":[1,-1,3,5,-1,-1,-1],"loss_changes":[2.1723819E0,0E0,3.5240328E-1,3.8754395E-1,0E0,0E0,0E0],"parents":[2147483647,0,0,2,2,3,3],"right_children":[2,-1,4,6,-1,-1,-1],"split_conditions":[1.02E0,2.8731495E-2,2.856E1,2.2747211E1,-1.934958E-2,-2.081081E-3,9.375913E-3],"split_indices":[0,0,0,0,0,0,0],"split_type":[0,0,0,0,0,0,0],"sum_hessian":[4.6244873E1,6.226016E0,4.0018856E1,3.863422E1,1.3846374E0,3.0147413E1,8.486805E0],"tree_param":{"num_deleted":"0","num_feature":"2","num_nodes":"7","size_leaf_vector":"1"}},{"base_weights":[4.39834E-2,2.7787967E-2,-3.2965392E-2,-1.1566701E-2,1.3243979E-2,1.3165176E-2,-3.582481E-3],"categories":[],"categories_nodes":[],"categories_segments":[],"categories_sizes":[],"default_left":[0,0,0,0,0,0,0],"id":57,"left_children":[1,-1,3,-1,5,-1,-1],"loss_changes":[2.1286776E0,0E0,4.871017E-1,0E0,7.957322E-1,0E0,0E0],"parents":[2147483647,0,0,2,2,4,4],"right_children":[2,-1,4,-1,6,-1,-1],"split_conditions":[9.3723214E-1,2.7787967E-2,8.161756E0,-1.1566701E-2,1.173E1,1.3165176E-2,-3.582481E-3],"split_indices":[0,0,0,0,0,0,0],"split_type":[0,0,0,0,0,0,0],"sum_hessian":[4.59511E1,6.041994E0,3.9909107E1,8.827654E0,3.1081453E1,8.837674E0,2.2243778E1],"tree_param":{"num_deleted":"0","num_feature":"2","num_nodes":"7","size_leaf_vector":"1"}},{"base_weights":[-1.6451474E-2,-5.0787367E-2,6.1905283E-2],"categories":[],"categories_nodes":[],"categories_segments":[],"categories_sizes":[],"default_left":[0,0,0],"id":58,"left_children":[1,-1,-1],"loss_changes":[5.6374535E1,0E0,0E0],"parents":[2147483647,0,0],"right_children":[2,-1,-1],"split_conditions":[2.4293059E-1,-5.0787367E-2,6.1905283E-2],"split_indices":[1,0,0],"split_type":[0,0,0],"sum_hessian":[4.305302E1,2.4292303E1,1.8760715E1],"tree_param":{"num_deleted":"0","num_feature":"2","num_nodes":"3","size_leaf_vector":"1"}},{"base_weights":[4.2986865E-3,-4.9099114E-2,6.1001193E-2],"categories":[],"categories_nodes":[],"categories_segments":[],"categories_sizes":[],"default_left":[0,0,0],"id":59,"left_children":[1,-1,-1],"loss_changes":[5.4508076E1,0E0,0E0],"parents":[2147483647,0,0],"right_children":[2,-1,-1],"split_conditions":[5E-2,-4.9099114E-2,6.1001193E-2],"split_indices":[1,0,0],"split_type":[0,0,0],"sum_hessian":[4.3361088E1,2.3818695E1,1.9542395E1],"tree_param":{"num_deleted":"0","num_feature":"2","num_nodes":"3","size_leaf_vector":"1"}},{"base_weights":[4.3760322E-2,-4.8890714E-2,6.001517E-2],"categories":[],"categories_nodes":[],"categories_segments":[],"categories_sizes":[],"default_left":[0,0,0],"id":60,"left_children":[1,-1,-1],"loss_changes":[5.4282825E1,0E0,0E0],"parents":[2147483647,0,0],"right_children":[2,-1,-1],"split_conditions":[5E-2,-4.8890714E-2,6.001517E-2],"split_indices":[1,0,0],"split_type":[0,0,0],"sum_hessian":[4.3856644E1,2.3139626E1,2.0717018E1],"tree_param":{"num_deleted":"0","num_feature":"2","num_nodes":"3","size_leaf_vector":"1"}},{"base_weights":[-0E0,-4.8775952E-2,5.824719E-2],"categories":[],"categories_nodes":[],"categories_segments":[],"categories_sizes":[],"default_left":[0,0,0],"id":61,"left_children":[1,-1,-1],"loss_changes":[4.7316696E1,0E0,0E0],"parents":[2147483647,0,0],"right_children":[2,-1,-1],"split_conditions":[5E-2,-4.8775952E-2,5.824719E-2],"split_indices":[1,0,0],"split_type":[0,0,0],"sum_hessian":[3.969033E1,2.1840918E1,1.7849413E1],"tree_param":{"num_deleted":"0","num_feature":"2","num_nodes":"3","size_leaf_vector":"1"}},{"base_weights":[7.815934E-2,-4.8520233E-2,6.042285E-2],"categories":[],"categories_nodes":[],"categories_segments":[],"categories_sizes":[],"default_left":[0,0,0],"id":62,"left_children":[1,-1,-1],"loss_changes":[5.0345192E1,0E0,0E0],"parents":[2147483647,0,0],"right_children":[2,-1,-1],"split_conditions":[5E-2,-4.8520233E-2,6.042285E-2],"split_indices":[1,0,0],"split_type":[0,0,0],"sum_hessian":[4.0388718E1,2.0795797E1,1.959292E1],"tree_param":{"num_deleted":"0","num_feature":"2","num_nodes":"3","size_leaf_vector":"1"}},{"base_weights":[5.7663335E-3,-4.8013635E-2,5.6725513E-2],"categories":[],"categories_nodes":[],"categories_segments":[],"categories_sizes":[],"default_left":[0,0,0],"id":63,"left_children":[1,-1,-1],"loss_changes":[4.084082E1,0E0,0E0],"parents":[2147483647,0,0],"right_children":[2,-1,-1],"split_conditions":[5E-2,-4.8013635E-2,5.6725513E-2],"split_indices":[1,0,0],"split_type":[0,0,0],"sum_hessian":[3.5375526E1,1.8903336E1,1.647219E1],"tree_param":{"num_deleted":"0","num_feature":"2","num_nodes":"3","size_leaf_vector":"1"}},{"base_weights":[-9.656485E-3,-4.8244324E-2,5.7419043E-2],"categories":[],"categories_nodes":[],"categories_segments":[],"categories_sizes":[],"default_left":[0,0,0],"id":64,"left_children":[1,-1,-1],"loss_changes":[4.0624508E1,0E0,0E0],"parents":[2147483647,0,0],"right_children":[2,-1,-1],"split_conditions":[5E-2,-4.8244324E-2,5.7419043E-2],"split_indices":[1,0,0],"split_type":[0,0,0],"sum_hessian":[3.4805897E1,1.9401085E1,1.5404811E1],"tree_param":{"num_deleted":"0","num_feature":"2","num_nodes":"3","size_leaf_vector":"1"}},{"base_weights":[-2.5856027E-2,7.837338E-2,-1.7510734E-1,1.7346783E-2,-0E0,-3.1902957E-1,-5.5939604E-2,-8.276896E-4,7.819501E-3,-0E0,-2.309856E-2,6.304068E-4,-1.759117E-2],"categories":[],"categories_nodes":[],"categories_segments":[],"categories_sizes":[],"default_left":[0,0,0,0,0,0,0,0,0,0,0,0,0],"id":65,"left_children":[1,3,5,-1,7,9,11,-1,-1,-1,-1,-1,-1],"loss_changes":[5.9481734E-1,2.2411737E-1,7.530862E-2,0E0,1.1660046E-1,4.3964505E-2,4.187358E-1,0E0,0E0,0E0,0E0,0E0,0E0],"parents":[2147483647,0,0,1,1,2,2,4,4,5,5,6,6],"right_children":[2,4,6,-1,8,10,12,-1,-1,-1,-1,-1,-1],"split_conditions":[1.173E1,4.6094996E-1,1.748034E1,1.7346783E-2,9.697642E0,1.428E1,2.601E1,-8.276896E-4,7.819501E-3,-0E0,-2.309856E-2,6.304068E-4,-1.759117E-2],"split_indices":[0,0,0,0,0,0,0,0,0,0,0,0,0],"split_type":[0,0,0,0,0,0,0,0,0,0,0,0,0],"sum_hessian":[3.3244907E1,1.7881927E1,1.5362979E1,1.8255662E0,1.6056362E1,4.298566E0,1.1064412E1,1.2439532E1,3.6168294E0,2.5656497E0,1.7329162E0,8.38856E0,2.6758523E0],"tree_param":{"num_deleted":"0","num_feature":"2","num_nodes":"13","size_leaf_vector":"1"}},{"base_weights":[4.3021675E-2,2.1197176E-2,-1.3262583E-2,8.069864E-3,-7.2119124E-2,-2.5110727E-3,7.6844604E-3,-1.4941022E-2,-0E0],"categories":[],"categories_nodes":[],"categories_segments":[],"categories_sizes":[],"default_left":[0,0,0,0,0,0,0,0,0],"id":66,"left_children":[1,-1,3,5,7,-1,-1,-1,-1],"loss_changes":[9.8083454E-1,0E0,7.166902E-2,2.079918E-1,2.985308E-1,0E0,0E0,0E0,0E0],"parents":[2147483647,0,0,2,2,3,3,4,4],"right_children":[2,-1,4,6,8,-1,-1,-1,-1],"split_conditions":[1.02E0,2.1197176E-2,1.428E1,9.697642E0,1.9198576E1,-2.5110727E-3,7.6844604E-3,-1.4941022E-2,-0E0],"split_indices":[0,0,0,0,0,0,0,0,0],"split_type":[0,0,0,0,0,0,0,0,0],"sum_hessian":[3.4908348E1,4.7966647E0,3.0111683E1,1.6499226E1,1.3612457E1,9.7984295E0,6.700796E0,3.1943927E0,1.0418064E1],"tree_param":{"num_deleted":"0","num_feature":"2","num_nodes":"9","size_leaf_vector":"1"}},{"base_weights":[-2.4890218E-2,2.1166226E-2,-8.45388E-2,-0E0,-2.1282606E-1,-7.654221E-4,2.6093088E-3,-2.8474668E-2,-1.2634372E-3],"categories":[],"categories_nodes":[],"categories_segments":[],"categories_sizes":[],"default_left":[0,0,0,0,0,0,0,0,0],"id":67,"left_children":[1,-1,3,5,7,-1,-1,-1,-1],"loss_changes":[7.805779E-1,0E0,3.4407753E-1,1.6550288E-2,5.3410935E-1,0E0,0E0,0E0,0E0],"parents":[2147483647,0,0,2,2,3,3,4,4],"right_children":[2,-1,4,6,8,-1,-1,-1,-1],"split_conditions":[4.8776206E-1,2.1166226E-2,1.479E1,1.1416841E1,1.9198576E1,-7.654221E-4,2.6093088E-3,-2.8474668E-2,-1.2634372E-3],"split_indices":[0,0,0,0,0,0,0,0,0],"split_type":[0,0,0,0,0,0,0,0,0],"sum_hessian":[3.3193775E1,2.1980045E0,3.0995773E1,1.9350975E1,1.1644796E1,1.5711966E1,3.63901E0,2.3926349E0,9.252162E0],"tree_param":{"num_deleted":"0","num_feature":"2","num_nodes":"9","size_leaf_vector":"1"}},{"base_weights":[-0E0,1.9288253E-2,-3.6103442E-2,-0E0,-1.240734E-2,-6.8972087E-3,2.4875577E-3],"categories":[],"categories_nodes":[],"categories_segments":[],"categories_sizes":[],"default_left":[0,0,0,0,0,0,0],"id":68,"left_children":[1,-1,3,5,-1,-1,-1],"loss_changes":[4.9326244E-1,0E0,1.9052586E-1,2.3673578E-1,0E0,0E0,0E0],"parents":[2147483647,0,0,2,2,3,3],"right_children":[2,-1,4,6,-1,-1,-1],"split_conditions":[5.1E-1,1.9288253E-2,2.601E1,7.721131E0,-1.240734E-2,-6.8972087E-3,2.4875577E-3],"split_indices":[0,0,0,0,0,0,0],"split_type":[0,0,0,0,0,0,0],"sum_hessian":[3.4077106E1,2.0251088E0,3.2052E1,2.9258236E1,2.7937605E0,8.627382E0,2.0630856E1],"tree_param":{"num_deleted":"0","num_feature":"2","num_nodes":"7","size_leaf_vector":"1"}},{"base_weights":[-0E0,2.1512786E-2,-4.6645276E-2,9.478943E-3,-1.6480765E-1,-4.1472977E-3,5.9802406E-3,-2.0691633E-2,-2.839545E-3],"categories":[],"categories_nodes":[],"categories_segments":[],"categories_sizes":[],"default_left":[0,0,0,0,0,0,0,0,0],"id":69,"left_children":[1,-1,3,5,7,-1,-1,-1,-1],"loss_changes":[5.404262E-1,0E0,2.965889E-1,2.3485179E-1,1.0372415E-1,0E0,0E0,0E0,0E0],"parents":[2147483647,0,0,2,2,3,3,4,4],"right_children":[2,-1,4,6,8,-1,-1,-1,-1],"split_conditions":[4.715734E-1,2.1512786E-2,1.479E1,7.721131E0,1.748034E1,-4.1472977E-3,5.9802406E-3,-2.0691633E-2,-2.839545E-3],"split_indices":[0,0,0,0,0,0,0,0,0],"split_type":[0,0,0,0,0,0,0,0,0],"sum_hessian":[3.3310017E1,1.5341023E0,3.1775913E1,1.9298103E1,1.247781E1,8.157956E0,1.1140146E1,1.5180199E0,1.095979E1],"tree_param":{"num_deleted":"0","num_feature":"2","num_nodes":"9","size_leaf_vector":"1"}},{"base_weights":[-0E0,-4.7550514E-2,5.533589E-2],"categories":[],"categories_nodes":[],"categories_segments":[],"categories_sizes":[],"default_left":[0,0,0],"id":70,"left_children":[1,-1,-1],"loss_changes":[3.7175728E1,0E0,0E0],"parents":[2147483647,0,0],"right_children":[2,-1,-1],"split_conditions":[5E-2,-4.7550514E-2,5.533589E-2],"split_indices":[1,0,0],"split_type":[0,0,0],"sum_hessian":[3.3340294E1,1.8069458E1,1.5270837E1],"tree_param":{"num_deleted":"0","num_feature":"2","num_nodes":"3","size_leaf_vector":"1"}},{"base_weights":[-0E0,1.2421781E-2,-4.8222993E-2,-1.4837272E-1,-0E0,-0E0,-9.394918E-3,1.3744265E-2,-3.4844265E-3],"categories":[],"categories_nodes":[],"categories_segments":[],"categories_sizes":[],"default_left":[0,0,0,0,0,0,0,0,0],"id":71,"left_children":[1,-1,3,5,7,-1,-1,-1,-1],"loss_changes":[4.27562E-1,0E0,1.2170584E-1,5.3554013E-2,3.9785185E-1,0E0,0E0,0E0,0E0],"parents":[2147483647,0,0,2,2,3,3,4,4],"right_children":[2,-1,4,6,8,-1,-1,-1,-1],"split_conditions":[1.53E0,1.2421781E-2,9.491736E0,4.08E0,1.0663997E1,-0E0,-9.394918E-3,1.3744265E-2,-3.4844265E-3],"split_indices":[0,0,0,0,0,0,0,0,0],"split_type":[0,0,0,0,0,0,0,0,0],"sum_hessian":[3.2279743E1,4.856505E0,2.7423239E1,7.5308843E0,1.9892355E1,1.6947007E0,5.8361835E0,3.1231887E0,1.6769167E1],"tree_param":{"num_deleted":"0","num_feature":"2","num_nodes":"9","size_leaf_vector":"1"}},{"base_weights":[9.433501E-3,2.139712E-2,-8.484508E-3,1.06678605E-2,-7.890111E-2,-2.6232712E-3,8.34703E-3,-2.3827096E-2,-0E0],"categories":[],"categories_nodes":[],"categories_segments":[],"categories_sizes":[],"default_left":[0,0,0,0,0,0,0,0,0],"id":72,"left_children":[1,-1,3,5,7,-1,-1,-1,-1],"loss_changes":[4.6312535E-1,0E0,7.781101E-2,2.6606822E-1,5.6118697E-1,0E0,0E0,0E0,0E0],"parents":[2147483647,0,0,2,2,3,3,4,4],"right_children":[2,-1,4,6,8,-1,-1,-1,-1],"split_conditions":[4.715734E-1,2.139712E-2,1.479E1,9.697642E0,1.887E1,-2.6232712E-3,8.34703E-3,-2.3827096E-2,-0E0],"split_indices":[0,0,0,0,0,0,0,0,0],"split_type":[0,0,0,0,0,0,0,0,0],"sum_hessian":[3.2307194E1,1.5325733E0,3.077462E1,1.927892E1,1.1495701E1,1.1925729E1,7.35319E0,1.8137356E0,9.681966E0],"tree_param":{"num_deleted":"0","num_feature":"2","num_nodes":"9","size_leaf_vector":"1"}},{"base_weights":[8.111351E-3,1.1426666E-2,-0E0,-4.7790483E-2,1.258247E-1,4.2740136E-4,-7.922198E-3,1.7753795E-2,-0E0],"categories":[],"categories_nodes":[],"categories_segments":[],"categories_sizes":[],"default_left":[0,0,0,0,0,0,0,0,0],"id":73,"left_children":[1,-1,3,5,7,-1,-1,-1,-1],"loss_changes":[1.2594931E-1,0E0,1.7451727E-1,2.3493397E-1,3.8148576E-1,0E0,0E0,0E0,0E0],"parents":[2147483647,0,0,2,2,3,3,4,4],"right_children":[2,-1,4,6,8,-1,-1,-1,-1],"split_conditions":[5.1E-1,1.1426666E-2,2.3579355E1,1.071E1,2.55E1,4.2740136E-4,-7.922198E-3,1.7753795E-2,-0E0],"split_indices":[0,0,0,0,0,0,0,0,0],"split_type":[0,0,0,0,0,0,0,0,0],"sum_hessian":[3.2251724E1,1.4534417E0,3.0798283E1,2.4445993E1,6.3522887E0,1.3815869E1,1.0630124E1,2.9490047E0,3.403284E0],"tree_param":{"num_deleted":"0","num_feature":"2","num_nodes":"9","size_leaf_vector":"1"}},{"base_weights":[3.3444423E-2,-4.7250587E-2,5.651785E-2],"categories":[],"categories_nodes":[],"categories_segments":[],"categories_sizes":[],"default_left":[0,0,0],"id":74,"left_children":[1,-1,-1],"loss_changes":[3.704801E1,0E0,0E0],"parents":[2147483647,0,0],"right_children":[2,-1,-1],"split_conditions":[5E-2,-4.7250587E-2,5.651785E-2],"split_indices":[1,0,0],"split_type":[0,0,0],"sum_hessian":[3.2436855E1,1.6976404E1,1.5460453E1],"tree_param":{"num_deleted":"0","num_feature":"2","num_nodes":"3","size_leaf_vector":"1"}},{"base_weights":[1.683687E-2,-4.722765E-2,5.3780694E-2],"categories":[],"categories_nodes":[],"categories_segments":[],"categories_sizes":[],"default_left":[0,0,0],"id":75,"left_children":[1,-1,-1],"loss_changes":[3.4417538E1,0E0,0E0],"parents":[2147483647,0,0],"right_children":[2,-1,-1],"split_conditions":[5E-2,-4.722765E-2,5.3780694E-2],"split_indices":[1,0,0],"split_type":[0,0,0],"sum_hessian":[3.174989E1,1.6449272E1,1.5300616E1],"tree_param":{"num_deleted":"0","num_feature":"2","num_nodes":"3","size_leaf_vector":"1"}},{"base_weights":[5.4333955E-2,-4.700945E-2,5.6557883E-2],"categories":[],"categories_nodes":[],"categories_segments":[],"categories_sizes":[],"default_left":[0,0,0],"id":76,"left_children":[1,-1,-1],"loss_changes":[3.4430916E1,0E0,0E0],"parents":[2147483647,0,0],"right_children":[2,-1,-1],"split_conditions":[5E-2,-4.700945E-2,5.6557883E-2],"split_indices":[1,0,0],"split_type":[0,0,0],"sum_hessian":[3.0068378E1,1.5456117E1,1.4612261E1],"tree_param":{"num_deleted":"0","num_feature":"2","num_nodes":"3","size_leaf_vector":"1"}},{"base_weights":[9.3809E-3,-4.6621274E-2,5.5126157E-2],"categories":[],"categories_nodes":[],"categories_segments":[],"categories_sizes":[],"default_left":[0,0,0],"id":77,"left_children":[1,-1,-1],"loss_changes":[3.0600794E1,0E0,0E0],"parents":[2147483647,0,0],"right_children":[2,-1,-1],"split_conditions":[5E-2,-4.6621274E-2,5.5126157E-2],"split_indices":[1,0,0],"split_type":[0,0,0],"sum_hessian":[2.7641975E1,1.4682104E1,1.295987E1],"tree_param":{"num_deleted":"0","num_feature":"2","num_nodes":"3","size_leaf_vector":"1"}},{"base_weights":[-4.8705995E-2,-4.6719063E-2,5.2351486E-2],"categories":[],"categories_nodes":[],"categories_segments":[],"categories_sizes":[],"default_left":[0,0,0],"id":78,"left_children":[1,-1,-1],"loss_changes":[2.6768602E1,0E0,0E0],"parents":[2147483647,0,0],"right_children":[2,-1,-1],"split_conditions":[5E-2,-4.6719063E-2,5.2351486E-2],"split_indices":[1,0,0],"split_type":[0,0,0],"sum_hessian":[2.5633183E1,1.450913E1,1.1124053E1],"tree_param":{"num_deleted":"0","num_feature":"2","num_nodes":"3","size_leaf_vector":"1"}},{"base_weights":[-0E0,-4.6274804E-2,5.051146E-2],"categories":[],"categories_nodes":[],"categories_segments":[],"categories_sizes":[],"default_left":[0,0,0],"id":79,"left_children":[1,-1,-1],"loss_changes":[2.6362873E1,0E0,0E0],"parents":[2147483647,0,0],"right_children":[2,-1,-1],"split_conditions":[5E-2,-4.6274804E-2,5.051146E-2],"split_indices":[1,0,0],"split_type":[0,0,0],"sum_hessian":[2.620762E1,1.3783443E1,1.2424176E1],"tree_param":{"num_deleted":"0","num_feature":"2","num_nodes":"3","size_leaf_vector":"1"}},{"base_weights":[1.2997541E-2,5.760208E-2,-9.130599E-3,-0E0,8.4335245E-3,2.9013532E-3,-7.946434E-3],"categories":[],"categories_nodes":[],"categories_segments":[],"categories_sizes":[],"default_left":[0,0,0,0,0,0,0],"id":80,"left_children":[1,3,-1,5,-1,-1,-1],"loss_changes":[1.8290539E-1,9.092155E-2,0E0,1.5032762E-1,0E0,0E0,0E0],"parents":[2147483647,0,0,1,1,3,3],"right_children":[2,4,-1,6,-1,-1,-1],"split_conditions":[2.55E1,2.0731627E1,-9.130599E-3,1.479E1,8.4335245E-3,2.9013532E-3,-7.946434E-3],"split_indices":[0,0,0,0,0,0,0],"split_type":[0,0,0,0,0,0,0],"sum_hessian":[2.5921436E1,2.3764168E1,2.1572692E0,1.8680136E1,5.0840306E0,1.5993963E1,2.686173E0],"tree_param":{"num_deleted":"0","num_feature":"2","num_nodes":"7","size_leaf_vector":"1"}},{"base_weights":[5.139561E-2,-4.5736972E-2,5.3901542E-2],"categories":[],"categories_nodes":[],"categories_segments":[],"categories_sizes":[],"default_left":[0,0,0],"id":81,"left_children":[1,-1,-1],"loss_changes":[2.6925167E1,0E0,0E0],"parents":[2147483647,0,0],"right_children":[2,-1,-1],"split_conditions":[5E-2,-4.5736972E-2,5.3901542E-2],"split_indices":[1,0,0],"split_type":[0,0,0],"sum_hessian":[2.5069393E1,1.2720491E1,1.2348902E1],"tree_param":{"num_deleted":"0","num_feature":"2","num_nodes":"3","size_leaf_vector":"1"}},{"base_weights":[2.4796166E-2,1.34646315E-2,-0E0,-1.0111744E-2,2.3563892E-2,2.9578204E-3,-3.137381E-3],"categories":[],"categories_nodes":[],"categories_segments":[],"categories_sizes":[],"default_left":[0,0,0,0,0,0,0],"id":82,"left_children":[1,-1,3,-1,5,-1,-1],"loss_changes":[1.304855E-1,0E0,1.0595796E-1,0E0,7.545601E-2,0E0,0E0],"parents":[2147483647,0,0,2,2,4,4],"right_children":[2,-1,4,-1,6,-1,-1],"split_conditions":[5.1E-1,1.34646315E-2,5.1875216E-1,-1.0111744E-2,2.55E1,2.9578204E-3,-3.137381E-3],"split_indices":[0,0,0,0,0,0,0],"split_type":[0,0,0,0,0,0,0],"sum_hessian":[2.5225792E1,1.0216963E0,2.4204096E1,1.2657313E0,2.2938364E1,2.056536E1,2.3730054E0],"tree_param":{"num_deleted":"0","num_feature":"2","num_nodes":"7","size_leaf_vector":"1"}},{"base_weights":[-5.277329E-3,-4.6155363E-2,5.088969E-2],"categories":[],"categories_nodes":[],"categories_segments":[],"categories_sizes":[],"default_left":[0,0,0],"id":83,"left_children":[1,-1,-1],"loss_changes":[2.4635183E1,0E0,0E0],"parents":[2147483647,0,0],"right_children":[2,-1,-1],"split_conditions":[2.4293059E-1,-4.6155363E-2,5.088969E-2],"split_indices":[1,0,0],"split_type":[0,0,0],"sum_hessian":[2.428526E1,1.3110153E1,1.1175106E1],"tree_param":{"num_deleted":"0","num_feature":"2","num_nodes":"3","size_leaf_vector":"1"}},{"base_weights":[-0E0,-4.523479E-2,4.857491E-2],"categories":[],"categories_nodes":[],"categories_segments":[],"categories_sizes":[],"default_left":[0,0,0],"id":84,"left_children":[1,-1,-1],"loss_changes":[2.1902046E1,0E0,0E0],"parents":[2147483647,0,0],"right_children":[2,-1,-1],"split_conditions":[5E-2,-4.523479E-2,4.857491E-2],"split_indices":[1,0,0],"split_type":[0,0,0],"sum_hessian":[2.290758E1,1.1813275E1,1.1094305E1],"tree_param":{"num_deleted":"0","num_feature":"2","num_nodes":"3","size_leaf_vector":"1"}},{"base_weights":[-0E0,-4.5242228E-2,4.9408067E-2],"categories":[],"categories_nodes":[],"categories_segments":[],"categories_sizes":[],"default_left":[0,0,0],"id":85,"left_children":[1,-1,-1],"loss_changes":[2.1005615E1,0E0,0E0],"parents":[2147483647,0,0],"right_children":[2,-1,-1],"split_conditions":[2.4293059E-1,-4.5242228E-2,4.9408067E-2],"split_indices":[1,0,0],"split_type":[0,0,0],"sum_hessian":[2.1507212E1,1.13529825E1,1.0154228E1],"tree_param":{"num_deleted":"0","num_feature":"2","num_nodes":"3","size_leaf_vector":"1"}},{"base_weights":[-0E0,-4.499014E-2,5.164052E-2],"categories":[],"categories_nodes":[],"categories_segments":[],"categories_sizes":[],"default_left":[0,0,0],"id":86,"left_children":[1,-1,-1],"loss_changes":[2.1789076E1,0E0,0E0],"parents":[2147483647,0,0],"right_children":[2,-1,-1],"split_conditions":[5E-2,-4.499014E-2,5.164052E-2],"split_indices":[1,0,0],"split_type":[0,0,0],"sum_hessian":[2.142569E1,1.1445112E1,9.9805765E0],"tree_param":{"num_deleted":"0","num_feature":"2","num_nodes":"3","size_leaf_vector":"1"}},{"base_weights":[-0E0,6.516584E-3,-2.6973613E-2,-6.6663E-2,-0E0,-0E0,-1.643453E-2,6.037223E-3,-3.962492E-3],"categories":[],"categories_nodes":[],"categories_segments":[],"categories_sizes":[],"default_left":[0,0,0,0,0,0,0,0,0],"id":87,"left_children":[1,-1,3,5,7,-1,-1,-1,-1],"loss_changes":[8.008734E-2,0E0,3.9265074E-2,2.397838E-1,8.46706E-2,0E0,0E0,0E0,0E0],"parents":[2147483647,0,0,2,2,3,3,4,4],"right_children":[2,-1,4,6,8,-1,-1,-1,-1],"split_conditions":[3.06E0,6.516584E-3,2.0731627E1,1.479E1,2.5476202E1,-0E0,-1.643453E-2,6.037223E-3,-3.962492E-3],"split_indices":[0,0,0,0,0,0,0,0,0],"split_type":[0,0,0,0,0,0,0,0,0],"sum_hessian":[1.9107824E1,2.9812224E0,1.61266E1,1.06396265E1,5.4869742E0,8.9414E0,1.6982276E0,3.5366673E0,1.9503069E0],"tree_param":{"num_deleted":"0","num_feature":"2","num_nodes":"9","size_leaf_vector":"1"}},{"base_weights":[-0E0,-4.449406E-2,4.624905E-2],"categories":[],"categories_nodes":[],"categories_segments":[],"categories_sizes":[],"default_left":[0,0,0],"id":88,"left_children":[1,-1,-1],"loss_changes":[1.8293972E1,0E0,0E0],"parents":[2147483647,0,0],"right_children":[2,-1,-1],"split_conditions":[5E-2,-4.449406E-2,4.624905E-2],"split_indices":[1,0,0],"split_type":[0,0,0],"sum_hessian":[2.0241257E1,1.0544834E1,9.696423E0],"tree_param":{"num_deleted":"0","num_feature":"2","num_nodes":"3","size_leaf_vector":"1"}},{"base_weights":[-0E0,-4.4142988E-2,4.622239E-2],"categories":[],"categories_nodes":[],"categories_segments":[],"categories_sizes":[],"default_left":[0,0,0],"id":89,"left_children":[1,-1,-1],"loss_changes":[1.7977638E1,0E0,0E0],"parents":[2147483647,0,0],"right_children":[2,-1,-1],"split_conditions":[5E-2,-4.4142988E-2,4.622239E-2],"split_indices":[1,0,0],"split_type":[0,0,0],"sum_hessian":[2.0006369E1,1.0030597E1,9.975772E0],"tree_param":{"num_deleted":"0","num_feature":"2","num_nodes":"3","size_leaf_vector":"1"}},{"base_weights":[-0E0,-3.200221E-2,-0E0,-0E0,-3.2918819E-3,5.578396E-2,-3.9435592E-3,-0E0,5.1388843E-3,-5.1436247E-3,-0E0],"categories":[],"categories_nodes":[],"categories_segments":[],"categories_sizes":[],"default_left":[0,0,0,0,0,0,0,0,0,0,0],"id":90,"left_children":[1,3,5,-1,-1,7,9,-1,-1,-1,-1],"loss_changes":[4.3763435E-3,4.346934E-3,2.1343986E-2,0E0,0E0,1.5781373E-3,4.423454E-2,0E0,0E0,0E0,0E0],"parents":[2147483647,0,0,1,1,2,2,5,5,6,6],"right_children":[2,4,6,-1,-1,8,10,-1,-1,-1,-1],"split_conditions":[3.57E0,9.627628E-1,1.0663997E1,-0E0,-3.2918819E-3,9.697642E0,1.748034E1,-0E0,5.1388843E-3,-5.1436247E-3,-0E0],"split_indices":[0,0,0,0,0,0,0,0,0,0,0],"split_type":[0,0,0,0,0,0,0,0,0,0,0],"sum_hessian":[1.9341696E1,3.2731829E0,1.6068512E1,2.2607043E0,1.0124786E0,5.8026357E0,1.0265877E1,4.649234E0,1.1534016E0,3.196428E0,7.0694485E0],"tree_param":{"num_deleted":"0","num_feature":"2","num_nodes":"11","size_leaf_vector":"1"}},{"base_weights":[6.545259E-3,3.8636368E-2,-1.9832638E-3,-0E0,3.682885E-3,6.450344E-4,-1.8872432E-3],"categories":[],"categories_nodes":[],"categories_segments":[],"categories_sizes":[],"default_left":[0,0,0,0,0,0,0],"id":91,"left_children":[1,3,-1,5,-1,-1,-1],"loss_changes":[3.1186854E-2,3.555569E-2,0E0,7.820755E-3,0E0,0E0,0E0],"parents":[2147483647,0,0,1,1,3,3],"right_children":[2,4,-1,6,-1,-1,-1],"split_conditions":[2.601E1,9.491736E0,-1.9832638E-3,3.06E0,3.682885E-3,6.450344E-4,-1.8872432E-3],"split_indices":[0,0,0,0,0,0,0],"split_type":[0,0,0,0,0,0,0],"sum_hessian":[1.9343801E1,1.789824E1,1.4455618E0,7.1450534E0,1.0753186E1,3.1390698E0,4.0059834E0],"tree_param":{"num_deleted":"0","num_feature":"2","num_nodes":"7","size_leaf_vector":"1"}},{"base_weights":[6.1249424E-2,-4.3660305E-2,5.0592642E-2],"categories":[],"categories_nodes":[],"categories_segments":[],"categories_sizes":[],"default_left":[0,0,0],"id":92,"left_children":[1,-1,-1],"loss_changes":[1.897793E1,0E0,0E0],"parents":[2147483647,0,0],"right_children":[2,-1,-1],"split_conditions":[5E-2,-4.3660305E-2,5.0592642E-2],"split_indices":[1,0,0],"split_type":[0,0,0],"sum_hessian":[1.9291702E1,9.504295E0,9.787408E0],"tree_param":{"num_deleted":"0","num_feature":"2","num_nodes":"3","size_leaf_vector":"1"}},{"base_weights":[-0E0,-4.3669835E-2,4.937017E-2],"categories":[],"categories_nodes":[],"categories_segments":[],"categories_sizes":[],"default_left":[0,0,0],"id":93,"left_children":[1,-1,-1],"loss_changes":[1.7045013E1,0E0,0E0],"parents":[2147483647,0,0],"right_children":[2,-1,-1],"split_conditions":[5E-2,-4.3669835E-2,4.937017E-2],"split_indices":[1,0,0],"split_type":[0,0,0],"sum_hessian":[1.7724787E1,9.304202E0,8.420585E0],"tree_param":{"num_deleted":"0","num_feature":"2","num_nodes":"3","size_leaf_vector":"1"}},{"base_weights":[-0E0,-4.308972E-2,4.3905128E-2],"categories":[],"categories_nodes":[],"categories_segments":[],"categories_sizes":[],"default_left":[0,0,0],"id":94,"left_children":[1,-1,-1],"loss_changes":[1.455143E1,0E0,0E0],"parents":[2147483647,0,0],"right_children":[2,-1,-1],"split_conditions":[5E-2,-4.308972E-2,4.3905128E-2],"split_indices":[1,0,0],"split_type":[0,0,0],"sum_hessian":[1.7228258E1,8.684351E0,8.543906E0],"tree_param":{"num_deleted":"0","num_feature":"2","num_nodes":"3","size_leaf_vector":"1"}},{"base_weights":[1.700696E-2,-4.2759236E-2,4.842506E-2],"categories":[],"categories_nodes":[],"categories_segments":[],"categories_sizes":[],"default_left":[0,0,0],"id":95,"left_children":[1,-1,-1],"loss_changes":[1.5502813E1,0E0,0E0],"parents":[2147483647,0,0],"right_children":[2,-1,-1],"split_conditions":[5E-2,-4.2759236E-2,4.842506E-2],"split_indices":[1,0,0],"split_type":[0,0,0],"sum_hessian":[1.661437E1,8.447062E0,8.16731E0],"tree_param":{"num_deleted":"0","num_feature":"2","num_nodes":"3","size_leaf_vector":"1"}},{"base_weights":[-0E0,3.1114783E-2,-6.5574065E-2,-0E0,7.333848E-2,-6.9834627E-3,-0E0,1.1990209E-3,-4.509264E-3,4.271445E-3,-0E0,6.3594535E-4,-2.091138E-4],"categories":[],"categories_nodes":[],"categories_segments":[],"categories_sizes":[],"default_left":[0,0,0,0,0,0,0,0,0,0,0,0,0],"id":96,"left_children":[1,3,5,7,9,-1,11,-1,-1,-1,-1,-1,-1],"loss_changes":[4.093857E-2,2.361548E-2,3.8106546E-2,2.2640187E-2,1.4505908E-4,0E0,5.348123E-4,0E0,0E0,0E0,0E0,0E0,0E0],"parents":[2147483647,0,0,1,1,2,2,3,3,4,4,6,6],"right_children":[2,4,6,8,10,-1,12,-1,-1,-1,-1,-1,-1],"split_conditions":[1.479E1,7.721131E0,2.2747211E1,4.08E0,1.173E1,-6.9834627E-3,2.5476202E1,1.1990209E-3,-4.509264E-3,4.271445E-3,-0E0,6.3594535E-4,-2.091138E-4],"split_indices":[0,0,0,0,0,0,0,0,0,0,0,0,0],"split_type":[0,0,0,0,0,0,0,0,0,0,0,0,0],"sum_hessian":[1.6084373E1,1.00520315E1,6.0323415E0,4.671985E0,5.3800464E0,2.5035408E0,3.5288007E0,3.1842127E0,1.4877726E0,3.7218263E0,1.6582198E0,2.036514E0,1.4922866E0],"tree_param":{"num_deleted":"0","num_feature":"2","num_nodes":"13","size_leaf_vector":"1"}},{"base_weights":[-1.5499679E-2,2.7111953E-2,-1.13152355E-1,-0E0,5.0089112E-3,-1.3777874E-1,-0E0,-0E0,-9.255121E-3],"categories":[],"categories_nodes":[],"categories_segments":[],"categories_sizes":[],"default_left":[0,0,0,0,0,0,0,0,0],"id":97,"left_children":[1,3,5,-1,-1,7,-1,-1,-1],"loss_changes":[1.1918016E-1,6.0502946E-2,1.0140821E-2,0E0,0E0,1.3942584E-2,0E0,0E0,0E0],"parents":[2147483647,0,0,1,1,2,2,5,5],"right_children":[2,4,6,-1,-1,8,-1,-1,-1],"split_conditions":[1.0663997E1,2.6758513E0,2.4482779E1,-0E0,5.0089112E-3,1.479E1,-0E0,-0E0,-9.255121E-3],"split_indices":[0,0,0,0,0,0,0,0,0],"split_type":[0,0,0,0,0,0,0,0,0],"sum_hessian":[1.6565422E1,8.47114E0,8.094283E0,2.7486455E0,5.722494E0,5.668028E0,2.4262552E0,2.5667517E0,3.101276E0],"tree_param":{"num_deleted":"0","num_feature":"2","num_nodes":"9","size_leaf_vector":"1"}},{"base_weights":[-6.952953E-3,-4.0023193E-2,4.4648845E-2],"categories":[],"categories_nodes":[],"categories_segments":[],"categories_sizes":[],"default_left":[0,0,0],"id":98,"left_children":[1,-1,-1],"loss_changes":[1.23481245E1,0E0,0E0],"parents":[2147483647,0,0],"right_children":[2,-1,-1],"split_conditions":[2.4293059E-1,-4.0023193E-2,4.4648845E-2],"split_indices":[1,0,0],"split_type":[0,0,0],"sum_hessian":[1.5355576E1,8.514267E0,6.8413086E0],"tree_param":{"num_deleted":"0","num_feature":"2","num_nodes":"3","size_leaf_vector":"1"}},{"base_weights":[-2.2837672E-2,-1.4191432E-1,-0E0,-0E0,-1.1534689E-2,5.7545982E-2,-1.8418327E-2,-0E0,6.245799E-3,-2.861239E-3,-0E0],"categories":[],"categories_nodes":[],"categories_segments":[],"categories_sizes":[],"default_left":[0,0,0,0,0,0,0,0,0,0,0],"id":99,"left_children":[1,3,5,-1,-1,7,9,-1,-1,-1,-1],"loss_changes":[7.68495E-2,3.4564808E-2,2.3914855E-2,0E0,0E0,3.7181295E-2,1.1696511E-2,0E0,0E0,0E0,0E0],"parents":[2147483647,0,0,1,1,2,2,5,5,6,6],"right_children":[2,4,6,-1,-1,8,10,-1,-1,-1,-1],"split_conditions":[5.6190944E0,1.02E0,1.224E1,-0E0,-1.1534689E-2,9.491736E0,2.2747211E1,-0E0,6.245799E-3,-2.861239E-3,-0E0],"split_indices":[0,0,0,0,0,0,0,0,0,0,0],"split_type":[0,0,0,0,0,0,0,0,0,0,0],"sum_hessian":[1.5453993E1,3.2419372E0,1.2212056E1,1.9872038E0,1.2547332E0,5.4238462E0,6.78821E0,2.6777482E0,2.7460978E0,3.3786144E0,3.4095955E0],"tree_param":{"num_deleted":"0","num_feature":"2","num_nodes":"11","size_leaf_vector":"1"}}]},"name":"gbtree"},"learner_model_param":{"base_score":"1.6620111E-1","boost_from_average":"1","num_class":"0","num_feature":"2","num_target":"1"},"objective":{"name":"binary:logistic","reg_loss_param":{"scale_pos_weight":"1"}}},"version":[3,0,0]}