{"learner":{"attributes":{"scikit_learn":"{\"_estimator_type\": \"classifier\"}"},"feature_names":["Min_Temp","Max_Temp","Mean_Temp","Std_Temp","Median_Temp","Q1","Q3","IQR","Skewness","Kurtosis","High_Temp_Pixels"],"feature_types":["float","float","float","float","float","float","float","float","float","float","int"],"gradient_booster":{"model":{"gbtree_model_param":{"num_parallel_tree":"1","num_trees":"100"},"iteration_indptr":[0,1,2,3,4,5,6,7,8,9,10,11,12,13,14,15,16,17,18,19,20,21,22,23,24,25,26,27,28,29,30,31,32,33,34,35,36,37,38,39,40,41,42,43,44,45,46,47,48,49,50,51,52,53,54,55,56,57,58,59,60,61,62,63,64,65,66,67,68,69,70,71,72,73,74,75,76,77,78,79,80,81,82,83,84,85,86,87,88,89,90,91,92,93,94,95,96,97,98,99,100],"tree_info":[0,0,0,0,0,0,0,0,0,0,0,0,0,0,0,0,0,0,0,0,0,0,0,0,0,0,0,0,0,0,0,0,0,0,0,0,0,0,0,0,0,0,0,0,0,0,0,0,0,0,0,0,0,0,0,0,0,0,0,0,0,0,0,0,0,0,0,0,0,0,0,0,0,0,0,0,0,0,0,0,0,0,0,0,0,0,0,0,0,0,0,0,0,0,0,0,0,0,0,0],"trees":[{"base_weights":[1.5989188E-2,4.8535395E0,-1.0641819E0,6.510692E-2,5.1233606E0,-1.1220673E0,6.5850094E-2,6.686819E-2,2.63589E-1,1.30863255E-2,-5.8065772E-2],"categories":[],"categories_nodes":[],"categories_segments":[],"categories_sizes":[],"default_left":[0,0,0,0,0,0,0,0,0,0,0],"id":0,"left_children":[1,3,5,-1,7,9,-1,-1,-1,-1,-1],"loss_changes":[6.5075696E2,1.19157715E1,1.5361946E1,0E0,1.2608032E0,6.172615E0,0E0,0E0,0E0,0E0,0E0],"parents":[2147483647,0,0,1,1,2,2,4,4,5,5],"right_children":[2,4,6,-1,8,10,-1,-1,-1,-1,-1],"split_conditions":[1.0236989E2,1.181E3,1.268E3,6.510692E-2,1.6360556E0,1.0381366E2,6.5850094E-2,6.686819E-2,2.63589E-1,1.30863255E-2,-5.8065772E-2],"split_indices":[3,5,5,0,8,3,0,0,0,0,0],"split_type":[0,0,0,0,0,0,0,0,0,0,0],"sum_hessian":[1.2218664E2,2.1749777E1,1.0043687E2,2.0780041E0,1.9671772E1,9.877446E1,1.6624033E0,1.2468024E0,1.842497E1,2.2165377E0,9.655792E1],"tree_param":{"num_deleted":"0","num_feature":"11","num_nodes":"11","size_leaf_vector":"1"}},{"base_weights":[-3.9334964E-2,3.9706295E0,-1.0877969E0,2.0778298E-1,1.3753495E0,-1.1592355E0,4.0908194E-1,-0E0,1.0664278E-1,-5.8486488E-2,-0E0,1.0098872E-1,-3.469542E-2],"categories":[],"categories_nodes":[],"categories_segments":[],"categories_sizes":[],"default_left":[0,0,0,0,0,0,0,0,0,0,0,0,0],"id":1,"left_children":[1,3,5,-1,7,9,11,-1,-1,-1,-1,-1,-1],"loss_changes":[5.0813412E2,3.5362244E0,1.1131195E1,0E0,4.0968337E0,7.5196075E-1,1.0592283E1,0E0,0E0,0E0,0E0,0E0,0E0],"parents":[2147483647,0,0,1,1,2,2,4,4,5,5,6,6],"right_children":[2,4,6,-1,8,10,12,-1,-1,-1,-1,-1,-1],"split_conditions":[1.0236989E2,1.01137505E2,3.966E3,2.0778298E-1,3.786E3,1.3281025E3,1.0755074E2,-0E0,1.0664278E-1,-5.8486488E-2,-0E0,1.0098872E-1,-3.469542E-2],"split_indices":[3,3,10,0,10,2,3,0,0,0,0,0,0],"split_type":[0,0,0,0,0,0,0,0,0,0,0,0,0],"sum_hessian":[1.1917622E2,2.4025173E1,9.5151054E1,2.1685234E1,2.339939E0,9.135092E1,3.8001335E0,1.0505462E0,1.289393E0,9.0250885E1,1.1000365E0,1.3909976E0,2.4091358E0],"tree_param":{"num_deleted":"0","num_feature":"11","num_nodes":"13","size_leaf_vector":"1"}},{"base_weights":[-5.8289085E-2,3.643111E0,-1.1302124E0,3.7686322E0,5.1751356E-3,-0E0,-1.1495708E0,4.585398E-3,1.9490321E-1,-8.089258E-3,-5.795997E-2],"categories":[],"categories_nodes":[],"categories_segments":[],"categories_sizes":[],"default_left":[0,0,0,0,0,0,0,0,0,0,0],"id":2,"left_children":[1,3,5,7,-1,-1,9,-1,-1,-1,-1],"loss_changes":[4.7127295E2,9.511627E0,2.2145386E0,9.815186E0,0E0,0E0,1.7494202E-2,0E0,0E0,0E0,0E0],"parents":[2147483647,0,0,1,1,2,2,3,3,6,6],"right_children":[2,4,6,8,-1,-1,10,-1,-1,-1,-1],"split_conditions":[8.3E1,1.0619783E2,1.0073146E2,1.671092E3,5.1751356E-3,-0E0,1.0280068E2,4.585398E-3,1.9490321E-1,-8.089258E-3,-5.795997E-2],"split_indices":[7,3,3,1,0,0,3,0,0,0,0],"split_type":[0,0,0,0,0,0,0,0,0,0,0],"sum_hessian":[1.1705875E2,2.564394E1,9.141481E1,2.4566793E1,1.0771463E0,1.4105115E0,9.0004295E1,1.0248305E0,2.3541964E1,1.5420089E0,8.846229E1],"tree_param":{"num_deleted":"0","num_feature":"11","num_nodes":"11","size_leaf_vector":"1"}},{"base_weights":[-7.6992447E-3,3.199559E0,-1.1417286E0,2.2186272E-2,1.6378811E-1,-2.025727E-3,-5.7539254E-2],"categories":[],"categories_nodes":[],"categories_segments":[],"categories_sizes":[],"default_left":[0,0,0,0,0,0,0],"id":3,"left_children":[1,3,5,-1,-1,-1,-1],"loss_changes":[4.4510883E2,3.39151E0,2.6259613E-1,0E0,0E0,0E0,0E0],"parents":[2147483647,0,0,1,1,2,2],"right_children":[2,4,6,-1,-1,-1,-1],"split_conditions":[8.3E1,1.671092E3,9.923281E1,2.2186272E-2,1.6378811E-1,-2.025727E-3,-5.7539254E-2],"split_indices":[7,1,3,0,0,0,0],"split_type":[0,0,0,0,0,0,0],"sum_hessian":[1.20657814E2,3.0927225E1,8.973059E1,1.1923162E0,2.973491E1,1.2269211E0,8.850367E1],"tree_param":{"num_deleted":"0","num_feature":"11","num_nodes":"7","size_leaf_vector":"1"}},{"base_weights":[-2.5686858E-2,2.7697375E0,-1.1089444E0,1.4656025E-1,-2.3590488E-2,-0E0,-1.1288811E0,-0E0,-5.7000645E-2],"categories":[],"categories_nodes":[],"categories_segments":[],"categories_sizes":[],"default_left":[0,0,0,0,0,0,0,0,0],"id":4,"left_children":[1,3,5,-1,-1,-1,7,-1,-1],"loss_changes":[3.6482303E2,2.0197815E1,1.8788834E0,0E0,0E0,0E0,6.691513E-1,0E0,0E0],"parents":[2147483647,0,0,1,1,2,2,6,6],"right_children":[2,4,6,-1,-1,-1,8,-1,-1],"split_conditions":[8.5E1,1.0690562E2,1.0073146E2,1.4656025E-1,-2.3590488E-2,-0E0,9E1,-0E0,-5.7000645E-2],"split_indices":[7,3,3,0,0,0,7,0,0],"split_type":[0,0,0,0,0,0,0,0,0],"sum_hessian":[1.18736534E2,3.259761E1,8.6138916E1,3.1289034E1,1.3085785E0,1.5762997E0,8.456262E1,1.14793E0,8.341469E1],"tree_param":{"num_deleted":"0","num_feature":"11","num_nodes":"9","size_leaf_vector":"1"}},{"base_weights":[-1.3391009E-2,2.5175815E0,-1.098165E0,1.3361424E-1,-2.5330607E-2,-0E0,-5.6494173E-2,-2.804908E-2,3.0392587E-2],"categories":[],"categories_nodes":[],"categories_segments":[],"categories_sizes":[],"default_left":[0,0,0,0,0,0,0,0,0],"id":5,"left_children":[1,3,5,-1,-1,7,-1,-1,-1],"loss_changes":[3.2938403E2,1.9248383E1,2.6957016E0,0E0,0E0,1.5430465E0,0E0,0E0,0E0],"parents":[2147483647,0,0,1,1,2,2,5,5],"right_children":[2,4,6,-1,-1,8,-1,-1,-1],"split_conditions":[7.8E1,1.0755074E2,1.0236989E2,1.3361424E-1,-2.5330607E-2,1.1137516E3,-5.6494173E-2,-2.804908E-2,3.0392587E-2],"split_indices":[7,3,3,0,0,0,0,0,0],"split_type":[0,0,0,0,0,0,0,0,0],"sum_hessian":[1.18222404E2,3.4933807E1,8.3288605E1,3.3501717E1,1.4320899E0,2.554376E0,8.073422E1,1.5504309E0,1.0039449E0],"tree_param":{"num_deleted":"0","num_feature":"11","num_nodes":"9","size_leaf_vector":"1"}},{"base_weights":[3.949214E-2,2.3534687E0,-5.55302E-2,-0E0,2.4806921E0,8.2216505E-4,-0E0,1.2592803E-1,2.1390418E-2],"categories":[],"categories_nodes":[],"categories_segments":[],"categories_sizes":[],"default_left":[0,0,0,0,0,0,0,0,0],"id":6,"left_children":[1,3,-1,5,7,-1,-1,-1,-1],"loss_changes":[3.1272623E2,1.148642E1,0E0,5.47936E-4,3.28537E-1,0E0,0E0,0E0,0E0],"parents":[2147483647,0,0,1,1,3,3,4,4],"right_children":[2,4,-1,6,8,-1,-1,-1,-1],"split_conditions":[8.6E1,1.6755133E3,-5.55302E-2,1.225E3,4.194E3,8.2216505E-4,-0E0,1.2592803E-1,2.1390418E-2],"split_indices":[7,1,0,6,10,0,0,0,0],"split_type":[0,0,0,0,0,0,0,0,0],"sum_hessian":[1.15293365E2,3.807515E1,7.7218216E1,2.0386548E0,3.6036495E1,1.0265245E0,1.0121303E0,3.4921913E1,1.1145846E0],"tree_param":{"num_deleted":"0","num_feature":"11","num_nodes":"9","size_leaf_vector":"1"}},{"base_weights":[-0E0,2.1532028E0,-1.0902358E0,2.2718968E0,-2.4143053E-2,-2.0982204E-1,-5.5601813E-2,1.5457119E-2,1.1581315E-1,-2.8022466E-2,4.525031E-3],"categories":[],"categories_nodes":[],"categories_segments":[],"categories_sizes":[],"default_left":[0,0,0,0,0,0,0,0,0,0,0],"id":7,"left_children":[1,3,5,7,-1,9,-1,-1,-1,-1,-1],"loss_changes":[2.7329785E2,1.42530365E1,5.850067E-1,1.2678223E0,0E0,6.699461E-1,0E0,0E0,0E0,0E0,0E0],"parents":[2147483647,0,0,1,1,2,2,3,3,5,5],"right_children":[2,4,6,8,-1,10,-1,-1,-1,-1,-1],"split_conditions":[8.6E1,1.0755074E2,1.0280068E2,1.171E3,-2.4143053E-2,1.242E3,-5.5601813E-2,1.5457119E-2,1.1581315E-1,-2.8022466E-2,4.525031E-3],"split_indices":[7,3,3,4,0,4,0,0,0,0,0],"split_type":[0,0,0,0,0,0,0,0,0,0,0],"sum_hessian":[1.1426043E2,3.818853E1,7.607189E1,3.6856804E1,1.3317275E0,2.649059E0,7.342284E1,1.2399368E0,3.5616867E1,1.5906689E0,1.0583901E0],"tree_param":{"num_deleted":"0","num_feature":"11","num_nodes":"11","size_leaf_vector":"1"}},{"base_weights":[-0E0,1.9911754E0,-1.0071132E0,-0E0,1.0420712E-1,-1.0556856E0,4.6065155E-2,-5.727309E-3,-5.522102E-2],"categories":[],"categories_nodes":[],"categories_segments":[],"categories_sizes":[],"default_left":[0,0,0,0,0,0,0,0,0],"id":8,"left_children":[1,3,5,-1,-1,7,-1,-1,-1],"loss_changes":[2.2340659E2,6.1036377E0,7.979805E0,0E0,0E0,2.6117935E0,0E0,0E0,0E0],"parents":[2147483647,0,0,1,1,2,2,5,5],"right_children":[2,4,6,-1,-1,8,-1,-1,-1],"split_conditions":[1.0280068E2,1.069E3,1.1762015E3,-0E0,1.0420712E-1,1.715E3,4.6065155E-2,-5.727309E-3,-5.522102E-2],"split_indices":[3,0,0,0,0,1,0,0,0],"split_type":[0,0,0,0,0,0,0,0,0],"sum_hessian":[1.0948514E2,3.6393547E1,7.309159E1,1.8564221E0,3.4537125E1,7.1990166E1,1.1014248E0,4.214379E0,6.777579E1],"tree_param":{"num_deleted":"0","num_feature":"11","num_nodes":"9","size_leaf_vector":"1"}},{"base_weights":[-1.7160872E-2,1.8069656E0,-1.0071273E0,1.0526999E-1,8.895462E-1,-1.0578701E0,3.9414883E-2,-3.675263E-2,6.773447E-2,-5.4787695E-2,-0E0],"categories":[],"categories_nodes":[],"categories_segments":[],"categories_sizes":[],"default_left":[0,0,0,0,0,0,0,0,0,0,0],"id":9,"left_children":[1,3,5,-1,7,9,-1,-1,-1,-1,-1],"loss_changes":[1.9418198E2,6.960243E0,7.347229E0,0E0,9.923427E0,2.6977692E0,0E0,0E0,0E0,0E0,0E0],"parents":[2147483647,0,0,1,1,2,2,4,4,5,5],"right_children":[2,4,6,-1,8,10,-1,-1,-1,-1,-1],"split_conditions":[1.0357495E2,9.615118E1,1.168E3,1.0526999E-1,1.219E3,3.966E3,3.9414883E-2,-3.675263E-2,6.773447E-2,-5.4787695E-2,-0E0],"split_indices":[3,3,0,0,5,10,0,0,0,0,0],"split_type":[0,0,0,0,0,0,0,0,0,0,0],"sum_hessian":[1.0574467E2,3.6731792E1,6.901288E1,2.6327576E1,1.0404217E1,6.778636E1,1.2265182E0,1.9473897E0,8.456827E0,6.5359116E1,2.4272394E0],"tree_param":{"num_deleted":"0","num_feature":"11","num_nodes":"11","size_leaf_vector":"1"}},{"base_weights":[-6.084281E-2,1.7376789E0,-1.0516123E0,9.186109E-2,-2.1798553E-2,-0E0,-5.449603E-2,-1.9279316E-2,2.8374335E-2],"categories":[],"categories_nodes":[],"categories_segments":[],"categories_sizes":[],"default_left":[0,0,0,0,0,0,0,0,0],"id":10,"left_children":[1,3,5,-1,-1,7,-1,-1,-1],"loss_changes":[1.8851773E2,9.611328E0,3.1608582E0,0E0,0E0,9.5735276E-1,0E0,0E0,0E0],"parents":[2147483647,0,0,1,1,2,2,5,5],"right_children":[2,4,6,-1,-1,8,-1,-1,-1],"split_conditions":[8.6E1,1.0755074E2,1.0280068E2,9.186109E-2,-2.1798553E-2,1.2402885E3,-5.449603E-2,-1.9279316E-2,2.8374335E-2],"split_indices":[7,3,3,0,0,4,0,0,0],"split_type":[0,0,0,0,0,0,0,0,0],"sum_hessian":[1.0396171E2,3.6480656E1,6.748106E1,3.5251125E1,1.2295319E0,2.0685236E0,6.541253E1,1.035478E0,1.0330456E0],"tree_param":{"num_deleted":"0","num_feature":"11","num_nodes":"9","size_leaf_vector":"1"}},{"base_weights":[3.2400314E-2,1.6400546E0,-1.0164448E0,-0E0,1.6920859E0,-5.4113995E-2,-1.5254995E-1,2.435968E-2,8.762065E-2,-3.8323965E-2,3.897093E-2],"categories":[],"categories_nodes":[],"categories_segments":[],"categories_sizes":[],"default_left":[0,0,0,0,0,0,0,0,0,0,0],"id":11,"left_children":[1,3,5,-1,7,-1,9,-1,-1,-1,-1],"loss_changes":[1.8262682E2,3.601715E0,2.9293823E0,0E0,1.0452881E0,0E0,4.2089033E0,0E0,0E0,0E0,0E0],"parents":[2147483647,0,0,1,1,2,2,4,4,6,6],"right_children":[2,4,6,-1,8,-1,10,-1,-1,-1,-1],"split_conditions":[1.0280068E2,1.069E3,1.134E3,-0E0,1.6755133E3,-5.4113995E-2,1.8347197E0,2.435968E-2,8.762065E-2,-3.8323965E-2,3.897093E-2],"split_indices":[3,0,0,0,1,0,8,0,0,0,0],"split_type":[0,0,0,0,0,0,0,0,0,0,0],"sum_hessian":[1.06134445E2,4.1869907E1,6.4264534E1,1.3379936E0,4.0531914E1,5.8941223E1,5.3233128E0,2.7605476E0,3.7771366E1,3.6397288E0,1.6835839E0],"tree_param":{"num_deleted":"0","num_feature":"11","num_nodes":"11","size_leaf_vector":"1"}},{"base_weights":[-5.9852205E-2,1.519036E0,-9.961175E-1,-0E0,1.5850464E0,-1.0505072E0,3.294621E-2,4.091911E-2,8.8079005E-2,-0E0,-5.3880293E-2],"categories":[],"categories_nodes":[],"categories_segments":[],"categories_sizes":[],"default_left":[0,0,0,0,0,0,0,0,0,0,0],"id":12,"left_children":[1,3,5,-1,7,9,-1,-1,-1,-1,-1],"loss_changes":[1.5015218E2,3.2802963E0,6.6521683E0,0E0,2.1304626E0,1.8817673E0,0E0,0E0,0E0,0E0,0E0],"parents":[2147483647,0,0,1,1,2,2,4,4,5,5],"right_children":[2,4,6,-1,8,10,-1,-1,-1,-1,-1],"split_conditions":[1.0280068E2,1.6433268E0,1.168E3,-0E0,1.1E3,1.0381366E2,3.294621E-2,4.091911E-2,8.8079005E-2,-0E0,-5.3880293E-2],"split_indices":[3,8,0,0,0,3,0,0,0,0,0],"split_type":[0,0,0,0,0,0,0,0,0,0,0],"sum_hessian":[9.9727E1,3.6692852E1,6.3034145E1,1.7684611E0,3.492439E1,6.1674706E1,1.3594421E0,8.121572E0,2.6802818E1,1.4920486E0,6.0182655E1],"tree_param":{"num_deleted":"0","num_feature":"11","num_nodes":"11","size_leaf_vector":"1"}},{"base_weights":[-2.079132E-2,1.5289098E0,-1.0626522E0,1.5855173E0,-0E0,-0E0,-5.3896524E-2,8.301429E-2,3.032857E-2],"categories":[],"categories_nodes":[],"categories_segments":[],"categories_sizes":[],"default_left":[0,0,0,0,0,0,0,0,0],"id":13,"left_children":[1,3,5,7,-1,-1,-1,-1,-1],"loss_changes":[1.5969992E2,4.110466E0,7.328644E-1,6.767731E-1,0E0,0E0,0E0,0E0,0E0],"parents":[2147483647,0,0,1,1,2,2,3,3],"right_children":[2,4,6,8,-1,-1,-1,-1,-1],"split_conditions":[8.6E1,1.0690562E2,9E1,6.983602E1,-0E0,-0E0,-5.3896524E-2,8.301429E-2,3.032857E-2],"split_indices":[7,3,7,7,0,0,0,0,0],"split_type":[0,0,0,0,0,0,0,0,0],"sum_hessian":[9.704967E1,3.8635082E1,5.8414585E1,3.7490547E1,1.1445328E0,1.0415773E0,5.737301E1,3.3709213E1,3.7813349E0],"tree_param":{"num_deleted":"0","num_feature":"11","num_nodes":"9","size_leaf_vector":"1"}},{"base_weights":[4.5223036E-3,1.4051942E0,-9.4627273E-1,-3.1704582E-2,1.4963317E0,-5.316601E-2,1.7370913E-2,8.247315E-2,3.5642233E-2,-3.7515886E-2,6.2245812E-2],"categories":[],"categories_nodes":[],"categories_segments":[],"categories_sizes":[],"default_left":[0,0,0,0,0,0,0,0,0,0,0],"id":14,"left_children":[1,3,5,-1,7,-1,9,-1,-1,-1,-1],"loss_changes":[1.3001146E2,8.742638E0,7.065159E0,0E0,2.2564697E0,0E0,7.57596E0,0E0,0E0,0E0,0E0],"parents":[2147483647,0,0,1,1,2,2,4,4,6,6],"right_children":[2,4,6,-1,8,-1,10,-1,-1,-1,-1],"split_conditions":[1.0236989E2,1.647E3,1.134E3,-3.1704582E-2,9.661283E1,-5.316601E-2,1.8347197E0,8.247315E-2,3.5642233E-2,-3.7515886E-2,6.2245812E-2],"split_indices":[3,1,0,0,3,0,8,0,0,0,0],"split_type":[0,0,0,0,0,0,0,0,0,0,0],"sum_hessian":[9.545362E1,3.8615227E1,5.6838394E1,1.162372E0,3.7452858E1,5.1052776E1,5.785617E0,2.9871138E1,7.581719E0,3.5481224E0,2.2374942E0],"tree_param":{"num_deleted":"0","num_feature":"11","num_nodes":"11","size_leaf_vector":"1"}},{"base_weights":[4.4956427E-2,1.3196853E0,-9.467293E-1,1.5323604E0,6.804713E-1,-1.0086578E0,3.0255992E-2,1.3202381E-2,7.896521E-2,-3.4849755E-2,5.0610032E-2,-0E0,-5.2855056E-2],"categories":[],"categories_nodes":[],"categories_segments":[],"categories_sizes":[],"default_left":[0,0,0,0,0,0,0,0,0,0,0,0,0],"id":15,"left_children":[1,3,5,7,9,11,-1,-1,-1,-1,-1,-1,-1],"loss_changes":[1.2133308E2,3.5794067E0,5.9735603E0,4.6135712E-1,6.760303E0,2.521721E0,0E0,0E0,0E0,0E0,0E0,0E0,0E0],"parents":[2147483647,0,0,1,1,2,2,3,3,4,4,5,5],"right_children":[2,4,6,8,10,12,-1,-1,-1,-1,-1,-1,-1],"split_conditions":[1.0381366E2,9.661283E1,1.168E3,1.671092E3,1.097E3,1.7120187E3,3.0255992E-2,1.3202381E-2,7.896521E-2,-3.4849755E-2,5.0610032E-2,-0E0,-5.2855056E-2],"split_indices":[3,3,0,1,0,1,0,0,0,0,0,0,0],"split_type":[0,0,0,0,0,0,0,0,0,0,0,0,0],"sum_hessian":[9.3845604E1,4.11387E1,5.2706905E1,2.9233011E1,1.1905687E1,5.133071E1,1.3761926E0,1.6599748E0,2.7573036E1,1.8044742E0,1.0101213E1,2.429731E0,4.890098E1],"tree_param":{"num_deleted":"0","num_feature":"11","num_nodes":"13","size_leaf_vector":"1"}},{"base_weights":[1.1695145E-2,1.390504E0,-5.2149564E-2,1.4341009E0,-0E0,-0E0,7.382787E-2],"categories":[],"categories_nodes":[],"categories_segments":[],"categories_sizes":[],"default_left":[0,0,0,0,0,0,0],"id":16,"left_children":[1,3,-1,5,-1,-1,-1],"loss_changes":[1.3250266E2,2.8052902E0,0E0,2.2662125E0,0E0,0E0,0E0],"parents":[2147483647,0,0,1,1,3,3],"right_children":[2,4,-1,6,-1,-1,-1],"split_conditions":[8.6E1,1.0619783E2,-5.2149564E-2,1.066E3,-0E0,-0E0,7.382787E-2],"split_indices":[7,3,0,0,0,0,0],"split_type":[0,0,0,0,0,0,0],"sum_hessian":[8.899974E1,3.8640305E1,5.0359432E1,3.763081E1,1.009496E0,1.1501746E0,3.6480637E1],"tree_param":{"num_deleted":"0","num_feature":"11","num_nodes":"7","size_leaf_vector":"1"}},{"base_weights":[3.2715715E-2,1.3800899E0,-9.879057E-1,2.2328047E-3,7.177652E-2,-0E0,-5.271511E-2,-2.9442718E-2,3.4088586E-2],"categories":[],"categories_nodes":[],"categories_segments":[],"categories_sizes":[],"default_left":[0,0,0,0,0,0,0,0,0],"id":17,"left_children":[1,3,5,-1,-1,7,-1,-1,-1],"loss_changes":[1.2281242E2,2.0559921E0,3.2204056E0,0E0,0E0,2.1066666E0,0E0,0E0,0E0],"parents":[2147483647,0,0,1,1,2,2,5,5],"right_children":[2,4,6,-1,-1,8,-1,-1,-1],"split_conditions":[8.3E1,1.671092E3,1.7091881E3,2.2328047E-3,7.177652E-2,1.2402885E3,-5.271511E-2,-2.9442718E-2,3.4088586E-2],"split_indices":[7,1,1,0,0,4,0,0,0],"split_type":[0,0,0,0,0,0,0,0,0],"sum_hessian":[8.717377E1,3.76318E1,4.954196E1,1.9314618E0,3.570034E1,3.268273E0,4.627369E1,1.8975452E0,1.3707279E0],"tree_param":{"num_deleted":"0","num_feature":"11","num_nodes":"9","size_leaf_vector":"1"}},{"base_weights":[-1.6957486E-2,1.2687043E0,-1.0323876E0,1.3519369E0,-2.1077147E-2,-0E0,-5.2313305E-2,-4.0021446E-3,7.056636E-2],"categories":[],"categories_nodes":[],"categories_segments":[],"categories_sizes":[],"default_left":[0,0,0,0,0,0,0,0,0],"id":18,"left_children":[1,3,5,7,-1,-1,-1,-1,-1],"loss_changes":[1.1252209E2,6.3618126E0,1.877861E-1,3.8917618E0,0E0,0E0,0E0,0E0,0E0],"parents":[2147483647,0,0,1,1,2,2,3,3],"right_children":[2,4,6,8,-1,-1,-1,-1,-1],"split_conditions":[9E1,1.0755074E2,1.0073146E2,1.066E3,-2.1077147E-2,-0E0,-5.2313305E-2,-4.0021446E-3,7.056636E-2],"split_indices":[7,3,3,0,0,0,0,0,0],"split_type":[0,0,0,0,0,0,0,0,0],"sum_hessian":[8.427804E1,3.6863014E1,4.7415024E1,3.560566E1,1.2573569E0,1.1043576E0,4.631067E1,1.0688009E0,3.4536858E1],"tree_param":{"num_deleted":"0","num_feature":"11","num_nodes":"9","size_leaf_vector":"1"}},{"base_weights":[-1.798325E-2,1.1256349E0,-9.016517E-1,-7.147539E-3,1.1840534E0,-1.0170791E0,4.108015E-1,3.398579E-2,7.014504E-2,-5.1775392E-2,-0E0,5.9748333E-2,-2.3222128E-2],"categories":[],"categories_nodes":[],"categories_segments":[],"categories_sizes":[],"default_left":[0,0,0,0,0,0,0,0,0,0,0,0,0],"id":19,"left_children":[1,3,5,-1,7,9,11,-1,-1,-1,-1,-1,-1],"loss_changes":[8.480196E1,3.3863182E0,7.9373245E0,0E0,1.8978081E0,6.049919E-1,3.8116918E0,0E0,0E0,0E0,0E0,0E0,0E0],"parents":[2147483647,0,0,1,1,2,2,4,4,5,5,6,6],"right_children":[2,4,6,-1,8,10,12,-1,-1,-1,-1,-1,-1],"split_conditions":[1.0280068E2,2.2812788E0,3.966E3,-7.147539E-3,1.119E3,1.1469419E3,1.0755074E2,3.398579E-2,7.014504E-2,-5.1775392E-2,-0E0,5.9748333E-2,-2.3222128E-2],"split_indices":[3,9,10,0,0,0,3,0,0,0,0,0,0],"split_type":[0,0,0,0,0,0,0,0,0,0,0,0,0],"sum_hessian":[8.202073E1,3.53858E1,4.6634926E1,1.1172911E0,3.426851E1,4.3422066E1,3.212859E0,1.2304096E1,2.1964413E1,4.2419216E1,1.0028507E0,1.80324E0,1.409619E0],"tree_param":{"num_deleted":"0","num_feature":"11","num_nodes":"13","size_leaf_vector":"1"}},{"base_weights":[-0E0,1.1445311E0,-9.488624E-1,-0E0,1.2450426E0,-5.16949E-2,2.5033537E-2,-1.8272938E-2,2.316329E-2,6.967308E-2,3.532533E-2],"categories":[],"categories_nodes":[],"categories_segments":[],"categories_sizes":[],"default_left":[0,0,0,0,0,0,0,0,0,0,0],"id":20,"left_children":[1,3,5,7,9,-1,-1,-1,-1,-1,-1],"loss_changes":[9.091911E1,4.254055E0,6.4040527E0,8.825191E-1,7.563362E-1,0E0,0E0,0E0,0E0,0E0,0E0],"parents":[2147483647,0,0,1,1,2,2,3,3,4,4],"right_children":[2,4,6,8,10,-1,-1,-1,-1,-1,-1],"split_conditions":[1.0381366E2,1.6784318E3,1.268E3,7.239003E0,9.768091E1,-5.16949E-2,2.5033537E-2,-1.8272938E-2,2.316329E-2,6.967308E-2,3.532533E-2],"split_indices":[3,1,5,9,3,0,0,0,0,0,0],"split_type":[0,0,0,0,0,0,0,0,0,0,0],"sum_hessian":[8.166285E1,3.7070484E1,4.459237E1,3.1543744E0,3.391611E1,4.271803E1,1.8743385E0,1.7597036E0,1.3946708E0,2.4616047E1,9.300064E0],"tree_param":{"num_deleted":"0","num_feature":"11","num_nodes":"11","size_leaf_vector":"1"}},{"base_weights":[-2.4748806E-2,1.1400857E0,-9.6047467E-1,1.319162E0,6.114786E-1,-1.0135003E0,1.9589555E-2,5.554045E-3,6.780859E-2,-4.3453027E-2,5.213688E-2,-0E0,-5.1459193E-2],"categories":[],"categories_nodes":[],"categories_segments":[],"categories_sizes":[],"default_left":[0,0,0,0,0,0,0,0,0,0,0,0,0],"id":21,"left_children":[1,3,5,7,9,11,-1,-1,-1,-1,-1,-1,-1],"loss_changes":[8.554598E1,1.5194626E0,3.848034E0,2.0674515E-1,8.252205E0,2.2332382E-1,0E0,0E0,0E0,0E0,0E0,0E0,0E0],"parents":[2147483647,0,0,1,1,2,2,3,3,4,4,5,5],"right_children":[2,4,6,8,10,12,-1,-1,-1,-1,-1,-1,-1],"split_conditions":[1.0236989E2,9.615118E1,1.2815093E3,1.671092E3,1.219E3,1.0357495E2,1.9589555E-2,5.554045E-3,6.780859E-2,-4.3453027E-2,5.213688E-2,-0E0,-5.1459193E-2],"split_indices":[3,3,5,1,5,3,0,0,0,0,0,0,0],"split_type":[0,0,0,0,0,0,0,0,0,0,0,0,0],"sum_hessian":[7.656277E1,3.3770702E1,4.279206E1,2.3401537E1,1.0369165E1,4.1774258E1,1.0178043E0,1.2161175E0,2.218542E1,1.8485184E0,8.520647E0,1.082885E0,4.0691372E1],"tree_param":{"num_deleted":"0","num_feature":"11","num_nodes":"13","size_leaf_vector":"1"}},{"base_weights":[-0E0,1.1065539E0,-4.948667E-2,1.1978095E0,-2.3166617E-2,6.3072704E-2,1.7410195E-2],"categories":[],"categories_nodes":[],"categories_segments":[],"categories_sizes":[],"default_left":[0,0,0,0,0,0,0],"id":22,"left_children":[1,3,-1,5,-1,-1,-1],"loss_changes":[8.327356E1,6.048626E0,0E0,6.159134E-1,0E0,0E0,0E0],"parents":[2147483647,0,0,1,1,3,3],"right_children":[2,4,-1,6,-1,-1,-1],"split_conditions":[8.6E1,1.0690562E2,-4.948667E-2,6.936141E1,-2.3166617E-2,6.3072704E-2,1.7410195E-2],"split_indices":[7,3,0,7,0,0,0],"split_type":[0,0,0,0,0,0,0],"sum_hessian":[7.406434E1,3.4783695E1,3.9280647E1,3.3397823E1,1.3858709E0,3.007186E1,3.325965E0],"tree_param":{"num_deleted":"0","num_feature":"11","num_nodes":"7","size_leaf_vector":"1"}},{"base_weights":[-0E0,1.0204374E0,-9.0343326E-1,-3.1340882E-2,1.1098888E0,-9.7915596E-1,2.8843699E-2,-2.543574E-2,1.1550423E-2,-0E0,5.8584537E-2,-5.082904E-2,-4.4098063E-4],"categories":[],"categories_nodes":[],"categories_segments":[],"categories_sizes":[],"default_left":[0,0,0,0,0,0,0,0,0,0,0,0,0],"id":23,"left_children":[1,3,5,7,9,11,-1,-1,-1,-1,-1,-1,-1],"loss_changes":[7.0248245E1,3.946968E0,5.2867584E0,6.752219E-1,2.850937E0,8.9678574E-1,0E0,0E0,0E0,0E0,0E0,0E0,0E0],"parents":[2147483647,0,0,1,1,2,2,3,3,4,4,5,5],"right_children":[2,4,6,8,10,12,-1,-1,-1,-1,-1,-1,-1],"split_conditions":[1.0381366E2,1.0790177E3,1.168E3,2.5964549E0,2.3757598E0,3.966E3,2.8843699E-2,-2.543574E-2,1.1550423E-2,-0E0,5.8584537E-2,-5.082904E-2,-4.4098063E-4],"split_indices":[3,0,0,8,9,10,0,0,0,0,0,0,0],"split_type":[0,0,0,0,0,0,0,0,0,0,0,0,0],"sum_hessian":[7.4181E1,3.485037E1,3.933063E1,2.344423E0,3.2505947E1,3.8060047E1,1.270585E0,1.1743478E0,1.1700753E0,1.3647449E0,3.1141201E1,3.6104588E1,1.9554608E0],"tree_param":{"num_deleted":"0","num_feature":"11","num_nodes":"13","size_leaf_vector":"1"}},{"base_weights":[8.8608734E-2,-5.61106E-1,8.062247E-1,-5.225848E-2,5.6920063E-2,1.0444369E0,-4.8311082E-1,-8.136213E-4,6.764102E-2,-3.7645925E-2,7.745258E-3],"categories":[],"categories_nodes":[],"categories_segments":[],"categories_sizes":[],"default_left":[0,0,0,0,0,0,0,0,0,0,0],"id":24,"left_children":[1,3,5,-1,-1,7,9,-1,-1,-1,-1],"loss_changes":[3.46141E1,3.2849037E1,1.1678345E1,0E0,0E0,1.0693001E1,1.4290776E0,0E0,0E0,0E0,0E0],"parents":[2147483647,0,0,1,1,2,2,5,5,6,6],"right_children":[2,4,6,-1,-1,8,10,-1,-1,-1,-1],"split_conditions":[1.218E3,7.239003E0,1.777E3,-5.225848E-2,5.6920063E-2,1.7599932E0,4.370015E0,-8.136213E-4,6.764102E-2,-3.7645925E-2,7.745258E-3],"split_indices":[5,9,1,0,0,8,9,0,0,0,0],"split_type":[0,0,0,0,0,0,0,0,0,0,0],"sum_hessian":[7.200693E1,3.7540173E1,3.446676E1,2.974675E1,7.7934237E0,2.957951E1,4.8872476E0,6.5108395E0,2.306867E1,3.858943E0,1.0283046E0],"tree_param":{"num_deleted":"0","num_feature":"11","num_nodes":"11","size_leaf_vector":"1"}},{"base_weights":[-6.2289974E-3,1.0436181E0,-9.3100834E-1,8.112265E-2,1.1358926E0,9.690976E-2,-5.106891E-2,-1.3058001E-2,3.8665768E-2,6.1175045E-2,1.2539825E-2,-2.423171E-2,5.108581E-2],"categories":[],"categories_nodes":[],"categories_segments":[],"categories_sizes":[],"default_left":[0,0,0,0,0,0,0,0,0,0,0,0,0],"id":25,"left_children":[1,3,5,7,9,11,-1,-1,-1,-1,-1,-1,-1],"loss_changes":[6.928939E1,2.2480125E0,4.1120033E0,1.5136427E0,1.2624931E0,2.6757345E0,0E0,0E0,0E0,0E0,0E0,0E0,0E0],"parents":[2147483647,0,0,1,1,2,2,3,3,4,4,5,5],"right_children":[2,4,6,8,10,12,-1,-1,-1,-1,-1,-1,-1],"split_conditions":[8.6E1,1.6784318E3,1.7091881E3,1.2902676E3,7E1,1.7042283E3,-5.106891E-2,-1.3058001E-2,3.8665768E-2,6.1175045E-2,1.2539825E-2,-2.423171E-2,5.108581E-2],"split_indices":[7,1,1,2,7,1,0,0,0,0,0,0,0],"split_type":[0,0,0,0,0,0,0,0,0,0,0,0,0],"sum_hessian":[6.942507E1,3.220054E1,3.7224533E1,3.4554324E0,2.8745106E1,2.5551863E0,3.4669346E1,2.2454453E0,1.2099872E0,2.5294197E1,3.4509077E0,1.5290103E0,1.0261761E0],"tree_param":{"num_deleted":"0","num_feature":"11","num_nodes":"13","size_leaf_vector":"1"}},{"base_weights":[-0E0,1.0125599E0,-9.7058237E-1,-3.6132626E-2,1.1131866E0,-9.15377E-2,-5.0731607E-2,5.9891593E-2,-1.9948445E-2,-2.220013E-2,5.348479E-3],"categories":[],"categories_nodes":[],"categories_segments":[],"categories_sizes":[],"default_left":[0,0,0,0,0,0,0,0,0,0,0],"id":26,"left_children":[1,3,5,-1,7,9,-1,-1,-1,-1,-1],"loss_changes":[6.8254456E1,6.950821E0,7.232475E-1,0E0,5.0859184E0,4.488747E-1,0E0,0E0,0E0,0E0,0E0],"parents":[2147483647,0,0,1,1,2,2,4,4,5,5],"right_children":[2,4,6,-1,8,10,-1,-1,-1,-1,-1],"split_conditions":[8.5E1,1.647E3,1.7087931E3,-3.6132626E-2,1.0755074E2,1.2746553E3,-5.0731607E-2,5.9891593E-2,-1.9948445E-2,-2.220013E-2,5.348479E-3],"split_indices":[7,1,1,0,3,2,0,0,0,0,0],"split_type":[0,0,0,0,0,0,0,0,0,0,0],"sum_hessian":[6.7442764E1,3.3082554E1,3.436021E1,1.2021536E0,3.18804E1,2.3281965E0,3.2032013E1,3.0700413E1,1.1799861E0,1.3007346E0,1.0274618E0],"tree_param":{"num_deleted":"0","num_feature":"11","num_nodes":"11","size_leaf_vector":"1"}},{"base_weights":[-4.482574E-2,-5.616868E-1,6.3787866E-1,-9.513728E-1,5.0859135E-2,-7.240922E-2,1.0207525E0,-5.1633533E-2,-0E0,3.4030132E-2,-3.2200743E-2,5.796342E-2,-1.8304132E-3],"categories":[],"categories_nodes":[],"categories_segments":[],"categories_sizes":[],"default_left":[0,0,0,0,0,0,0,0,0,0,0,0,0],"id":27,"left_children":[1,3,5,7,-1,9,11,-1,-1,-1,-1,-1,-1],"loss_changes":[2.3661226E1,2.468083E1,8.312997E0,2.0898018E0,0E0,4.9295E0,3.3976421E0,0E0,0E0,0E0,0E0,0E0,0E0],"parents":[2147483647,0,0,1,1,2,2,3,3,5,5,6,6],"right_children":[2,4,6,8,-1,10,12,-1,-1,-1,-1,-1,-1],"split_conditions":[1.2232828E3,2.5964549E0,1.8574879E0,1.219E3,5.0859135E-2,1.7138291E3,1.777E3,-5.1633533E-2,-0E0,3.4030132E-2,-3.2200743E-2,5.796342E-2,-1.8304132E-3],"split_indices":[5,8,8,5,0,1,1,0,0,0,0,0,0],"split_type":[0,0,0,0,0,0,0,0,0,0,0,0,0],"sum_hessian":[6.514752E1,3.759488E1,2.7552645E1,3.0725527E1,6.869353E0,9.47678E0,1.8075865E1,2.7886587E1,2.8389409E0,3.6297147E0,5.847065E0,1.6315063E1,1.7608008E0],"tree_param":{"num_deleted":"0","num_feature":"11","num_nodes":"13","size_leaf_vector":"1"}},{"base_weights":[-5.406831E-3,9.828998E-1,-9.544416E-1,1.0670323E0,-1.9257063E-2,-0E0,-4.8853513E-2,-0E0,5.6649286E-2],"categories":[],"categories_nodes":[],"categories_segments":[],"categories_sizes":[],"default_left":[0,0,0,0,0,0,0,0,0],"id":28,"left_children":[1,3,5,7,-1,-1,-1,-1,-1],"loss_changes":[5.907405E1,4.2744617E0,3.0607796E-1,1.7440948E0,0E0,0E0,0E0,0E0,0E0],"parents":[2147483647,0,0,1,1,2,2,3,3],"right_children":[2,4,6,8,-1,-1,-1,-1,-1],"split_conditions":[9E1,1.0690562E2,9.344996E1,1.18E3,-1.9257063E-2,-0E0,-4.8853513E-2,-0E0,5.6649286E-2],"split_indices":[7,3,7,5,0,0,0,0,0],"split_type":[0,0,0,0,0,0,0,0,0],"sum_hessian":[6.0997917E1,2.9605148E1,3.1392769E1,2.8441547E1,1.1636E0,1.1624261E0,3.0230343E1,1.96924E0,2.6472307E1],"tree_param":{"num_deleted":"0","num_feature":"11","num_nodes":"9","size_leaf_vector":"1"}},{"base_weights":[2.784973E-2,9.996912E-1,-8.795452E-1,5.3633988E-2,-1.6828485E-2,1.4673789E-1,-4.9762506E-2,-1.877672E-2,3.3383902E-2],"categories":[],"categories_nodes":[],"categories_segments":[],"categories_sizes":[],"default_left":[0,0,0,0,0,0,0,0,0],"id":29,"left_children":[1,3,5,-1,-1,7,-1,-1,-1],"loss_changes":[5.6633648E1,3.774952E0,4.4802666E0,0E0,0E0,1.4224715E0,0E0,0E0,0E0],"parents":[2147483647,0,0,1,1,2,2,5,5],"right_children":[2,4,6,-1,-1,8,-1,-1,-1],"split_conditions":[8.3E1,1.0755074E2,1.0280068E2,5.3633988E-2,-1.6828485E-2,1.216E3,-4.9762506E-2,-1.877672E-2,3.3383902E-2],"split_indices":[7,3,3,0,0,5,0,0,0],"split_type":[0,0,0,0,0,0,0,0,0],"sum_hessian":[6.215664E1,3.0229473E1,3.1927168E1,2.9205648E1,1.0238239E0,2.7698157E0,2.9157352E1,1.0432334E0,1.7265823E0],"tree_param":{"num_deleted":"0","num_feature":"11","num_nodes":"9","size_leaf_vector":"1"}},{"base_weights":[1.3590163E-2,9.949503E-1,-9.434514E-1,-0E0,1.134226E0,-7.4618265E-2,-4.9747095E-2,2.402657E-2,-2.1081088E-2,6.0320985E-2,5.2489336E-3,-2.0896515E-2,4.864409E-3],"categories":[],"categories_nodes":[],"categories_segments":[],"categories_sizes":[],"default_left":[0,0,0,0,0,0,0,0,0,0,0,0,0],"id":30,"left_children":[1,3,5,7,9,11,-1,-1,-1,-1,-1,-1,-1],"loss_changes":[5.6308414E1,4.598505E0,7.3703E-1,1.0504123E0,1.1893234E0,3.961962E-1,0E0,0E0,0E0,0E0,0E0,0E0,0E0],"parents":[2147483647,0,0,1,1,2,2,3,3,4,4,5,5],"right_children":[2,4,6,8,10,12,-1,-1,-1,-1,-1,-1,-1],"split_conditions":[8.6E1,1.6784318E3,1.7087931E3,3.1555435E1,1.776E3,1.107E3,-4.9747095E-2,2.402657E-2,-2.1081088E-2,6.0320985E-2,5.2489336E-3,-2.0896515E-2,4.864409E-3],"split_indices":[7,1,1,7,1,0,0,0,0,0,0,0,0],"split_type":[0,0,0,0,0,0,0,0,0,0,0,0,0],"sum_hessian":[5.792657E1,2.8838308E1,2.9088263E1,3.3034792E0,2.553483E1,2.307752E0,2.678051E1,1.0253799E0,2.2780993E0,2.3246351E1,2.2884796E0,1.262947E0,1.0448049E0],"tree_param":{"num_deleted":"0","num_feature":"11","num_nodes":"13","size_leaf_vector":"1"}},{"base_weights":[2.2277663E-2,8.954752E-1,-9.103869E-1,3.8501495E-1,5.3991593E-2,-4.906114E-2,-0E0,-4.8204318E-2,4.2864375E-2,1.5711619E-2,-1.594683E-2],"categories":[],"categories_nodes":[],"categories_segments":[],"categories_sizes":[],"default_left":[0,0,0,0,0,0,0,0,0,0,0],"id":31,"left_children":[1,3,5,7,-1,-1,9,-1,-1,-1,-1],"loss_changes":[4.763008E1,1.7196445E0,1.7974358E0,7.3735695E0,0E0,0E0,4.0418673E-1,0E0,0E0,0E0,0E0],"parents":[2147483647,0,0,1,1,2,2,3,3,6,6],"right_children":[2,4,6,8,-1,-1,10,-1,-1,-1,-1],"split_conditions":[1.0381366E2,1.9704325E0,3.966E3,3.679E3,5.3991593E-2,-4.906114E-2,1.0755074E2,-4.8204318E-2,4.2864375E-2,1.5711619E-2,-1.594683E-2],"split_indices":[3,8,10,10,0,0,3,0,0,0,0],"split_type":[0,0,0,0,0,0,0,0,0,0,0],"sum_hessian":[5.6492985E1,2.9474117E1,2.7018866E1,9.359472E0,2.0114647E1,2.4986332E1,2.0325348E0,1.8823197E0,7.4771523E0,1.0160407E0,1.0164942E0],"tree_param":{"num_deleted":"0","num_feature":"11","num_nodes":"11","size_leaf_vector":"1"}},{"base_weights":[-5.208933E-2,8.9169204E-1,-4.996821E-2,-0E0,9.85976E-1,-5.18058E-3,5.6074853E-3,5.134961E-2,-0E0],"categories":[],"categories_nodes":[],"categories_segments":[],"categories_sizes":[],"default_left":[0,0,0,0,0,0,0,0,0],"id":32,"left_children":[1,3,-1,5,7,-1,-1,-1,-1],"loss_changes":[4.9417107E1,2.228279E0,0E0,5.530408E-2,6.314068E-1,0E0,0E0,0E0,0E0],"parents":[2147483647,0,0,1,1,3,3,4,4],"right_children":[2,4,-1,6,8,-1,-1,-1,-1],"split_conditions":[8.6E1,1.6784318E3,-4.996821E-2,1.089E3,4.156E3,-5.18058E-3,5.6074853E-3,5.134961E-2,-0E0],"split_indices":[7,1,0,0,10,0,0,0,0],"split_type":[0,0,0,0,0,0,0,0,0],"sum_hessian":[5.321817E1,2.6423231E1,2.6794939E1,2.7018123E0,2.3721418E1,1.0807946E0,1.6210176E0,2.2384846E1,1.3365723E0],"tree_param":{"num_deleted":"0","num_feature":"11","num_nodes":"9","size_leaf_vector":"1"}},{"base_weights":[1.6816945E-3,8.118551E-1,-4.9128566E-2,9.4462925E-1,-2.8124241E-2,-0E0,4.997207E-2],"categories":[],"categories_nodes":[],"categories_segments":[],"categories_sizes":[],"default_left":[0,0,0,0,0,0,0],"id":33,"left_children":[1,3,-1,5,-1,-1,-1],"loss_changes":[4.3596188E1,6.255846E0,0E0,9.943867E-1,0E0,0E0,0E0],"parents":[2147483647,0,0,1,1,3,3],"right_children":[2,4,-1,6,-1,-1,-1],"split_conditions":[9.4E1,1.0755074E2,-4.9128566E-2,1.077E3,-2.8124241E-2,-0E0,4.997207E-2],"split_indices":[7,3,0,0,0,0,0],"split_type":[0,0,0,0,0,0,0],"sum_hessian":[5.2778534E1,2.932404E1,2.3454496E1,2.7357523E1,1.9665165E0,2.0296214E0,2.5327902E1],"tree_param":{"num_deleted":"0","num_feature":"11","num_nodes":"7","size_leaf_vector":"1"}},{"base_weights":[1.7376476E-3,8.248935E-1,-9.107566E-1,8.943659E-1,-6.630541E-3,-4.6079777E-2,-4.8363313E-2,-0E0,4.9518995E-2,-1.8296687E-2,2.4158587E-3],"categories":[],"categories_nodes":[],"categories_segments":[],"categories_sizes":[],"default_left":[0,0,0,0,0,0,0,0,0,0,0],"id":34,"left_children":[1,3,5,7,-1,9,-1,-1,-1,-1,-1],"loss_changes":[3.952638E1,2.3609028E0,6.555214E-1,2.1516476E0,0E0,2.7032456E-1,0E0,0E0,0E0,0E0,0E0],"parents":[2147483647,0,0,1,1,2,2,3,3,5,5],"right_children":[2,4,6,8,-1,10,-1,-1,-1,-1,-1],"split_conditions":[9E1,1.06607185E2,1.0280068E2,1.184E3,-6.630541E-3,2.7009811E0,-4.8363313E-2,-0E0,4.9518995E-2,-1.8296687E-2,2.4158587E-3],"split_indices":[7,3,3,5,0,9,0,0,0,0,0],"split_type":[0,0,0,0,0,0,0,0,0,0,0],"sum_hessian":[5.0679867E1,2.6982794E1,2.3697073E1,2.5705818E1,1.276974E0,2.1078293E0,2.1589243E1,2.7334247E0,2.2972395E1,1.0318285E0,1.0760008E0],"tree_param":{"num_deleted":"0","num_feature":"11","num_nodes":"11","size_leaf_vector":"1"}},{"base_weights":[-4.38815E-2,6.804408E-1,-4.8870254E-2,-0E0,9.459428E-1,2.9616619E-2,-4.4253223E-2,2.7372309E-3,5.012634E-2],"categories":[],"categories_nodes":[],"categories_segments":[],"categories_sizes":[],"default_left":[0,0,0,0,0,0,0,0,0],"id":35,"left_children":[1,3,-1,5,7,-1,-1,-1,-1],"loss_changes":[3.6101223E1,5.831663E0,0E0,5.2848034E0,5.19413E-1,0E0,0E0,0E0,0E0],"parents":[2147483647,0,0,1,1,3,3,4,4],"right_children":[2,4,-1,6,8,-1,-1,-1,-1],"split_conditions":[9.4E1,1.237E3,-4.8870254E-2,4.4678555E1,1.689E3,2.9616619E-2,-4.4253223E-2,2.7372309E-3,5.012634E-2],"split_indices":[7,4,0,7,1,0,0,0,0],"split_type":[0,0,0,0,0,0,0,0,0],"sum_hessian":[5.118743E1,2.8674412E1,2.2513018E1,7.8027816E0,2.087163E1,4.5357246E0,3.267057E0,1.8910763E0,1.8980555E1],"tree_param":{"num_deleted":"0","num_feature":"11","num_nodes":"9","size_leaf_vector":"1"}},{"base_weights":[1.6993766E-4,7.8563565E-1,-9.266124E-1,-1.2379977E-1,9.010494E-1,-0E0,-4.833389E-2,-3.6590558E-2,1.3018432E-2,4.9338225E-2,-4.8092636E-3],"categories":[],"categories_nodes":[],"categories_segments":[],"categories_sizes":[],"default_left":[0,0,0,0,0,0,0,0,0,0,0],"id":36,"left_children":[1,3,5,7,9,-1,-1,-1,-1,-1,-1],"loss_changes":[3.5154106E1,3.2798557E0,6.546917E-1,1.2142879E0,2.6010075E0,0E0,0E0,0E0,0E0,0E0,0E0],"parents":[2147483647,0,0,1,1,2,2,3,3,4,4],"right_children":[2,4,6,8,10,-1,-1,-1,-1,-1,-1],"split_conditions":[9.3E1,1.6755133E3,1.7087931E3,1.196E3,1.06607185E2,-0E0,-4.833389E-2,-3.6590558E-2,1.3018432E-2,4.9338225E-2,-4.8092636E-3],"split_indices":[7,1,1,4,3,0,0,0,0,0,0],"split_type":[0,0,0,0,0,0,0,0,0,0,0],"sum_hessian":[4.6388336E1,2.5482895E1,2.0905441E1,2.3737054E0,2.3109188E1,1.0775728E0,1.9827868E1,1.0726482E0,1.3010572E0,2.1751474E1,1.357714E0],"tree_param":{"num_deleted":"0","num_feature":"11","num_nodes":"11","size_leaf_vector":"1"}},{"base_weights":[-4.699819E-2,8.457421E-1,-8.342992E-1,-0E0,1.0095927E0,1.0031871E-1,-5.2230686E-2,3.3251714E-2,-2.9710192E-2,5.2663226E-2,2.2897825E-3,3.2844972E-2,-2.4859063E-2],"categories":[],"categories_nodes":[],"categories_segments":[],"categories_sizes":[],"default_left":[0,0,0,0,0,0,0,0,0,0,0,0,0],"id":37,"left_children":[1,3,5,7,9,11,-1,-1,-1,-1,-1,-1,-1],"loss_changes":[3.4440002E1,2.9038296E0,5.7484493E0,2.356206E0,1.9248772E-1,2.171843E0,0E0,0E0,0E0,0E0,0E0,0E0,0E0],"parents":[2147483647,0,0,1,1,2,2,3,3,4,4,5,5],"right_children":[2,4,6,8,10,12,-1,-1,-1,-1,-1,-1,-1],"split_conditions":[7E1,1.689E3,1.7118801E3,4.051154E1,4.156E3,9.4E1,-5.2230686E-2,3.3251714E-2,-2.9710192E-2,5.2663226E-2,2.2897825E-3,3.2844972E-2,-2.4859063E-2],"split_indices":[7,1,1,7,10,7,0,0,0,0,0,0,0],"split_type":[0,0,0,0,0,0,0,0,0,0,0,0,0],"sum_hessian":[4.7004364E1,2.1694788E1,2.5309574E1,3.919768E0,1.777502E1,4.3085227E0,2.1001053E1,1.9830462E0,1.9367219E0,1.641941E1,1.3556106E0,2.6124194E0,1.6961031E0],"tree_param":{"num_deleted":"0","num_feature":"11","num_nodes":"13","size_leaf_vector":"1"}},{"base_weights":[4.6278476E-3,6.813507E-1,-8.9094937E-1,-3.8008794E-2,7.955663E-1,-4.7722485E-2,-0E0,5.5627894E-2,1.5813923E-2],"categories":[],"categories_nodes":[],"categories_segments":[],"categories_sizes":[],"default_left":[0,0,0,0,0,0,0,0,0],"id":38,"left_children":[1,3,5,-1,7,-1,-1,-1,-1],"loss_changes":[2.8581978E1,5.1131706E0,1.4330301E0,0E0,2.8964539E0,0E0,0E0,0E0,0E0],"parents":[2147483647,0,0,1,1,2,2,4,4],"right_children":[2,4,6,-1,8,-1,-1,-1,-1],"split_conditions":[1.06607185E2,1.647E3,1.3191569E3,-3.8008794E-2,9.531868E1,-4.7722485E-2,-0E0,5.5627894E-2,1.5813923E-2],"split_indices":[3,1,2,0,3,0,0,0,0],"split_type":[0,0,0,0,0,0,0,0,0],"sum_hessian":[4.5331783E1,2.6275099E1,1.9056686E1,1.1923993E0,2.5082699E1,1.804976E1,1.0069238E0,1.3674299E1,1.14084E1],"tree_param":{"num_deleted":"0","num_feature":"11","num_nodes":"9","size_leaf_vector":"1"}},{"base_weights":[-0E0,6.914006E-1,-4.791261E-2,8.0636233E-1,-2.3776695E-2,9.291123E-3,4.985678E-2],"categories":[],"categories_nodes":[],"categories_segments":[],"categories_sizes":[],"default_left":[0,0,0,0,0,0,0],"id":39,"left_children":[1,3,-1,5,-1,-1,-1],"loss_changes":[2.9328825E1,3.955742E0,0E0,2.0500832E0,0E0,0E0,0E0],"parents":[2147483647,0,0,1,1,3,3],"right_children":[2,4,-1,6,-1,-1,-1],"split_conditions":[9.4E1,1.0755074E2,-4.791261E-2,1.218E3,-2.3776695E-2,9.291123E-3,4.985678E-2],"split_indices":[7,3,0,5,0,0,0],"split_type":[0,0,0,0,0,0,0],"sum_hessian":[4.2114723E1,2.4395464E1,1.771926E1,2.287898E1,1.5164827E0,6.46026E0,1.641872E1],"tree_param":{"num_deleted":"0","num_feature":"11","num_nodes":"7","size_leaf_vector":"1"}},{"base_weights":[4.51524E-2,8.284245E-1,-4.4926416E-2,4.8030537E-2,1.7407948E-2,4.059568E-2,-4.0507894E-2],"categories":[],"categories_nodes":[],"categories_segments":[],"categories_sizes":[],"default_left":[0,0,0,0,0,0,0],"id":40,"left_children":[1,3,-1,-1,5,-1,-1],"loss_changes":[3.0994837E1,1.9813433E0,0E0,0E0,3.8145807E0,0E0,0E0],"parents":[2147483647,0,0,1,1,4,4],"right_children":[2,4,-1,-1,6,-1,-1],"split_conditions":[9.4E1,6.983602E1,-4.4926416E-2,4.8030537E-2,3.2155402E0,4.059568E-2,-4.0507894E-2],"split_indices":[7,7,0,0,9,0,0],"split_type":[0,0,0,0,0,0,0],"sum_hessian":[3.997296E1,2.21992E1,1.7773764E1,1.8399357E1,3.7998433E0,2.2565422E0,1.5433012E0],"tree_param":{"num_deleted":"0","num_feature":"11","num_nodes":"7","size_leaf_vector":"1"}},{"base_weights":[4.1586176E-2,7.809222E-1,-4.742031E-2,1.8557484E-1,1.0386307E0,-3.8091693E-2,4.6829656E-2,5.4997828E-2,-0E0],"categories":[],"categories_nodes":[],"categories_segments":[],"categories_sizes":[],"default_left":[0,0,0,0,0,0,0,0,0],"id":41,"left_children":[1,3,-1,5,7,-1,-1,-1,-1],"loss_changes":[3.0735168E1,2.9330368E0,0E0,7.321055E0,7.399597E-1,0E0,0E0,0E0,0E0],"parents":[2147483647,0,0,1,1,3,3,4,4],"right_children":[2,4,-1,6,8,-1,-1,-1,-1],"split_conditions":[9.4E1,1.119E3,-4.742031E-2,2.5964549E0,1.777E3,-3.8091693E-2,4.6829656E-2,5.4997828E-2,-0E0],"split_indices":[7,0,0,8,1,0,0,0,0],"split_type":[0,0,0,0,0,0,0,0,0],"sum_hessian":[4.0094078E1,2.336277E1,1.6731306E1,8.1636715E0,1.5199099E1,3.3090918E0,4.8545794E0,1.4054742E1,1.1443565E0],"tree_param":{"num_deleted":"0","num_feature":"11","num_nodes":"9","size_leaf_vector":"1"}},{"base_weights":[3.483819E-2,8.7819344E-1,-7.6783866E-1,9.5282847E-1,-8.262425E-4,-4.67154E-2,-0E0,-0E0,5.1673062E-2,3.3192657E-2,-2.255006E-2],"categories":[],"categories_nodes":[],"categories_segments":[],"categories_sizes":[],"default_left":[0,0,0,0,0,0,0,0,0,0,0],"id":42,"left_children":[1,3,5,7,-1,-1,9,-1,-1,-1,-1],"loss_changes":[2.9198772E1,1.9048138E0,3.2324677E0,1.5255623E0,0E0,0E0,1.7088146E0,0E0,0E0,0E0,0E0],"parents":[2147483647,0,0,1,1,2,2,3,3,6,6],"right_children":[2,4,6,8,-1,-1,10,-1,-1,-1,-1],"split_conditions":[7E1,1.0690562E2,1.1383025E3,1.2092418E3,-8.262425E-4,-4.67154E-2,1.004147E2,-0E0,5.1673062E-2,3.3192657E-2,-2.255006E-2],"split_indices":[7,3,0,2,0,0,3,0,0,0,0],"split_type":[0,0,0,0,0,0,0,0,0,0,0],"sum_hessian":[4.1055737E1,2.0278446E1,2.077729E1,1.9172974E1,1.105472E0,1.7411346E1,3.3659446E0,1.596699E0,1.7576275E1,1.601657E0,1.7642875E0],"tree_param":{"num_deleted":"0","num_feature":"11","num_nodes":"11","size_leaf_vector":"1"}},{"base_weights":[-2.7197786E-2,6.7753565E-1,-8.948892E-1,-3.3216432E-1,8.3383656E-1,-1.5048507E-3,-4.6774473E-2,-2.116999E-2,-0E0,4.5477293E-2,-0E0],"categories":[],"categories_nodes":[],"categories_segments":[],"categories_sizes":[],"default_left":[0,0,0,0,0,0,0,0,0,0,0],"id":43,"left_children":[1,3,5,7,9,-1,-1,-1,-1,-1,-1],"loss_changes":[2.377536E1,3.8516064E0,1.0877991E-1,2.5283873E-2,1.6258945E0,0E0,0E0,0E0,0E0,0E0,0E0],"parents":[2147483647,0,0,1,1,2,2,3,3,4,4],"right_children":[2,4,6,8,10,-1,-1,-1,-1,-1,-1],"split_conditions":[8.5E1,1.6784318E3,1.705764E3,2.1020095E0,1.06607185E2,-1.5048507E-3,-4.6774473E-2,-2.116999E-2,-0E0,4.5477293E-2,-0E0],"split_indices":[7,1,1,8,3,0,0,0,0,0,0],"split_type":[0,0,0,0,0,0,0,0,0,0,0],"sum_hessian":[3.6711693E1,2.0061102E1,1.665059E1,2.1095219E0,1.795158E1,1.3769896E0,1.5273601E1,1.0548474E0,1.0546744E0,1.689325E1,1.0583311E0],"tree_param":{"num_deleted":"0","num_feature":"11","num_nodes":"11","size_leaf_vector":"1"}},{"base_weights":[7.757231E-3,6.988232E-1,-8.458732E-1,1.6866611E-1,4.5236878E-2,-0E0,-4.6221E-2,-3.8714994E-2,3.8202602E-2],"categories":[],"categories_nodes":[],"categories_segments":[],"categories_sizes":[],"default_left":[0,0,0,0,0,0,0,0,0],"id":44,"left_children":[1,3,5,7,-1,-1,-1,-1,-1],"loss_changes":[2.2523733E1,1.6562796E0,6.969967E-1,5.032512E0,0E0,0E0,0E0,0E0,0E0],"parents":[2147483647,0,0,1,1,2,2,3,3],"right_children":[2,4,6,8,-1,-1,-1,-1,-1],"split_conditions":[8.3E1,1.119E3,9.4E1,2.5964549E0,4.5236878E-2,-0E0,-4.6221E-2,-3.8714994E-2,3.8202602E-2],"split_indices":[7,0,7,8,0,0,0,0,0],"split_type":[0,0,0,0,0,0,0,0,0],"sum_hessian":[3.6303925E1,2.0486187E1,1.5817736E1,6.9191375E0,1.3567051E1,1.9209168E0,1.3896819E1,2.2365773E0,4.68256E0],"tree_param":{"num_deleted":"0","num_feature":"11","num_nodes":"9","size_leaf_vector":"1"}},{"base_weights":[5.8473432E-3,6.7437124E-1,-4.6537768E-2,7.7013034E-1,-1.7612252E-2,4.509745E-2,1.1710001E-3],"categories":[],"categories_nodes":[],"categories_segments":[],"categories_sizes":[],"default_left":[0,0,0,0,0,0,0],"id":45,"left_children":[1,3,-1,5,-1,-1,-1],"loss_changes":[2.3401323E1,2.6659746E0,0E0,1.5926981E0,0E0,0E0,0E0],"parents":[2147483647,0,0,1,1,3,3],"right_children":[2,4,-1,6,-1,-1,-1],"split_conditions":[9.4E1,1.0755074E2,-4.6537768E-2,7.2E1,-1.7612252E-2,4.509745E-2,1.1710001E-3],"split_indices":[7,3,0,7,0,0,0],"split_type":[0,0,0,0,0,0,0],"sum_hessian":[3.5576153E1,2.123381E1,1.4342344E1,2.0096184E1,1.1376268E0,1.633502E1,3.7611628E0],"tree_param":{"num_deleted":"0","num_feature":"11","num_nodes":"7","size_leaf_vector":"1"}},{"base_weights":[-1.6512742E-2,5.90939E-1,-7.967887E-1,-4.0524937E-3,6.930372E-1,-0E0,-4.596897E-2,3.8441546E-2,-1.9024179E-3,-2.1589426E-2,2.0314021E-2],"categories":[],"categories_nodes":[],"categories_segments":[],"categories_sizes":[],"default_left":[0,0,0,0,0,0,0,0,0,0,0],"id":46,"left_children":[1,3,5,-1,7,9,-1,-1,-1,-1,-1],"loss_changes":[1.8212715E1,1.8124475E0,1.5703478E0,0E0,1.453063E0,7.732612E-1,0E0,0E0,0E0,0E0,0E0],"parents":[2147483647,0,0,1,1,2,2,4,4,5,5],"right_children":[2,4,6,-1,8,10,-1,-1,-1,-1,-1],"split_conditions":[8.6E1,1.196E3,1.0280068E2,-4.0524937E-3,1.0690562E2,3.645E3,-4.596897E-2,3.8441546E-2,-1.9024179E-3,-2.1589426E-2,2.0314021E-2],"split_indices":[7,4,3,0,3,10,0,0,0,0,0],"split_type":[0,0,0,0,0,0,0,0,0,0,0],"sum_hessian":[3.6214516E1,2.0138428E1,1.6076088E1,2.0374272E0,1.8101E1,2.3924346E0,1.3683654E1,1.6973585E1,1.1274139E0,1.2560745E0,1.1363599E0],"tree_param":{"num_deleted":"0","num_feature":"11","num_nodes":"11","size_leaf_vector":"1"}},{"base_weights":[9.493179E-3,7.465128E-1,-7.2296613E-1,-0E0,8.5581E-1,1.9699767E-1,-9.7031283E-1,-9.5142685E-3,1.5703619E-3,4.630551E-2,-0E0,-1.98137E-2,3.646901E-2,-5.154996E-2,-0E0],"categories":[],"categories_nodes":[],"categories_segments":[],"categories_sizes":[],"default_left":[0,0,0,0,0,0,0,0,0,0,0,0,0,0,0],"id":47,"left_children":[1,3,5,7,9,11,13,-1,-1,-1,-1,-1,-1,-1,-1],"loss_changes":[2.0029823E1,1.8077269E0,4.73394E0,7.466178E-2,1.0982857E0,1.8052328E0,7.5341415E-1,0E0,0E0,0E0,0E0,0E0,0E0,0E0,0E0],"parents":[2147483647,0,0,1,1,2,2,3,3,4,4,5,5,6,6],"right_children":[2,4,6,8,10,12,14,-1,-1,-1,-1,-1,-1,-1,-1],"split_conditions":[7E1,1.6755133E3,1.7118801E3,1.2284371E3,1.0619783E2,1.2402885E3,1.3179441E3,-9.5142685E-3,1.5703619E-3,4.630551E-2,-0E0,-1.98137E-2,3.646901E-2,-5.154996E-2,-0E0],"split_indices":[7,1,1,2,3,4,2,0,0,0,0,0,0,0,0],"split_type":[0,0,0,0,0,0,0,0,0,0,0,0,0,0,0],"sum_hessian":[3.5081913E1,1.7817215E1,1.72647E1,2.031265E0,1.578595E1,3.2730927E0,1.3991607E1,1.0068442E0,1.0244209E0,1.4614789E1,1.1711602E0,1.2247508E0,2.048342E0,1.2987476E1,1.0041304E0],"tree_param":{"num_deleted":"0","num_feature":"11","num_nodes":"15","size_leaf_vector":"1"}},{"base_weights":[2.6543199E-3,7.6339203E-1,-7.2998756E-1,5.8991205E-2,9.4623756E-1,1.8345296E-1,-4.8523024E-2,3.0117685E-2,-1.45286815E-2,5.0365265E-2,-0E0,-1.3141471E-2,4.0097244E-2],"categories":[],"categories_nodes":[],"categories_segments":[],"categories_sizes":[],"default_left":[0,0,0,0,0,0,0,0,0,0,0,0,0],"id":48,"left_children":[1,3,5,7,9,11,-1,-1,-1,-1,-1,-1,-1],"loss_changes":[1.9597595E1,1.704359E0,4.4295254E0,1.3282251E0,3.8928318E-1,1.6031711E0,0E0,0E0,0E0,0E0,0E0,0E0,0E0],"parents":[2147483647,0,0,1,1,2,2,3,3,4,4,5,5],"right_children":[2,4,6,8,10,12,-1,-1,-1,-1,-1,-1,-1],"split_conditions":[6.983602E1,1.698E3,1.71E3,4.051154E1,1.0605201E2,1.7042283E3,-4.8523024E-2,3.0117685E-2,-1.45286815E-2,5.0365265E-2,-0E0,-1.3141471E-2,4.0097244E-2],"split_indices":[7,1,1,7,3,1,0,0,0,0,0,0,0],"split_type":[0,0,0,0,0,0,0,0,0,0,0,0,0],"sum_hessian":[3.3132378E1,1.656874E1,1.6563639E1,4.2506304E0,1.23181095E1,3.0679305E0,1.3495708E1,1.9408994E0,2.3097312E0,1.11359E1,1.1822103E0,1.6465017E0,1.4214288E0],"tree_param":{"num_deleted":"0","num_feature":"11","num_nodes":"13","size_leaf_vector":"1"}},{"base_weights":[-3.0922139E-2,6.8726456E-1,-7.576514E-1,7.644123E-2,4.7555022E-2,-4.4175018E-2,-0E0,-4.1276243E-2,2.9744444E-2,2.509805E-2,-1.9934678E-2],"categories":[],"categories_nodes":[],"categories_segments":[],"categories_sizes":[],"default_left":[0,0,0,0,0,0,0,0,0,0,0],"id":49,"left_children":[1,3,5,7,-1,-1,9,-1,-1,-1,-1],"loss_changes":[1.8587343E1,2.2425327E0,1.8082943E0,3.627721E0,0E0,0E0,9.002762E-1,0E0,0E0,0E0,0E0],"parents":[2147483647,0,0,1,1,2,2,3,3,6,6],"right_children":[2,4,6,8,-1,-1,10,-1,-1,-1,-1],"split_conditions":[7E1,1.1080455E3,1.1391846E3,7.239003E0,4.7555022E-2,-4.4175018E-2,1.004147E2,-4.1276243E-2,2.9744444E-2,2.509805E-2,-1.9934678E-2],"split_indices":[7,0,0,9,0,0,3,0,0,0,0],"split_type":[0,0,0,0,0,0,0,0,0,0,0],"sum_hessian":[3.3547802E1,1.6554342E1,1.699346E1,5.954211E0,1.0600132E1,1.454907E1,2.4443908E0,1.6050743E0,4.349137E0,1.083805E0,1.3605857E0],"tree_param":{"num_deleted":"0","num_feature":"11","num_nodes":"11","size_leaf_vector":"1"}},{"base_weights":[-5.7822797E-2,3.4962797E-1,-4.4760764E-2,-2.681397E-2,6.4882743E-1,-4.1327633E-2,3.585958E-2,-9.396645E-3,3.878906E-2],"categories":[],"categories_nodes":[],"categories_segments":[],"categories_sizes":[],"default_left":[0,0,0,0,0,0,0,0,0],"id":50,"left_children":[1,3,-1,5,7,-1,-1,-1,-1],"loss_changes":[1.1984931E1,2.8954494E0,0E0,6.7839646E0,1.871521E0,0E0,0E0,0E0,0E0],"parents":[2147483647,0,0,1,1,3,3,4,4],"right_children":[2,4,-1,6,8,-1,-1,-1,-1],"split_conditions":[1.0690562E2,1.119E3,-4.4760764E-2,2.5964549E0,2.3681903E0,-4.1327633E-2,3.585958E-2,-9.396645E-3,3.878906E-2],"split_indices":[3,0,0,8,9,0,0,0,0],"split_type":[0,0,0,0,0,0,0,0,0],"sum_hessian":[3.2409355E1,2.179159E1,1.0617764E1,9.3132515E0,1.2478339E1,4.7589254E0,4.5543256E0,1.0617182E0,1.1416621E1],"tree_param":{"num_deleted":"0","num_feature":"11","num_nodes":"9","size_leaf_vector":"1"}},{"base_weights":[-6.404084E-2,6.404451E-1,-8.432918E-1,-3.3963375E-2,9.361585E-1,-9.659546E-1,2.2666762E-3,2.8660465E-2,-3.1029124E-2,4.9540944E-2,-0E0,-2.568457E-3,-5.1206477E-2],"categories":[],"categories_nodes":[],"categories_segments":[],"categories_sizes":[],"default_left":[0,0,0,0,0,0,0,0,0,0,0,0,0],"id":51,"left_children":[1,3,5,7,9,11,-1,-1,-1,-1,-1,-1,-1],"loss_changes":[1.7616024E1,3.767671E0,2.188158E0,2.3277826E0,2.5134754E-1,1.6065216E-1,0E0,0E0,0E0,0E0,0E0,0E0,0E0],"parents":[2147483647,0,0,1,1,2,2,3,3,4,4,5,5],"right_children":[2,4,6,8,10,12,-1,-1,-1,-1,-1,-1,-1],"split_conditions":[7E1,1.698E3,1.278E3,3.848145E1,1.802E3,1.7118801E3,2.2666762E-3,2.8660465E-2,-3.1029124E-2,4.9540944E-2,-0E0,-2.568457E-3,-5.1206477E-2],"split_indices":[7,1,4,7,1,1,0,0,0,0,0,0,0],"split_type":[0,0,0,0,0,0,0,0,0,0,0,0,0],"sum_hessian":[2.9920591E1,1.5470704E1,1.4449886E1,4.4702053E0,1.10005E1,1.311516E1,1.3347263E0,1.7890202E0,2.681185E0,9.968987E0,1.0315114E0,1.4109514E0,1.1704208E1],"tree_param":{"num_deleted":"0","num_feature":"11","num_nodes":"13","size_leaf_vector":"1"}},{"base_weights":[-6.094597E-2,6.466648E-1,-6.7093927E-1,7.674278E-1,1.5890087E-1,-4.822322E-2,-3.141892E-2,4.0779166E-2,-0E0,-2.19027E-2,2.817652E-2,2.1132294E-2,-1.8679282E-2],"categories":[],"categories_nodes":[],"categories_segments":[],"categories_sizes":[],"default_left":[0,0,0,0,0,0,0,0,0,0,0,0,0],"id":52,"left_children":[1,3,5,7,9,-1,11,-1,-1,-1,-1,-1,-1],"loss_changes":[1.3279178E1,2.3330355E-1,2.632372E0,6.592369E-2,1.478693E0,0E0,1.2001629E0,0E0,0E0,0E0,0E0,0E0,0E0],"parents":[2147483647,0,0,1,1,2,2,3,3,4,4,6,6],"right_children":[2,4,6,8,10,-1,12,-1,-1,-1,-1,-1,-1],"split_conditions":[6.2644505E1,4.7512085E1,3.726E3,3.899E3,3.709E3,-4.822322E-2,3.786E3,4.0779166E-2,-0E0,-2.19027E-2,2.817652E-2,2.1132294E-2,-1.8679282E-2],"split_indices":[7,7,10,10,10,0,10,0,0,0,0,0,0],"split_type":[0,0,0,0,0,0,0,0,0,0,0,0,0],"sum_hessian":[2.8731333E1,1.2894047E1,1.5837285E1,9.053974E0,3.8400726E0,9.970921E0,5.8663645E0,8.000873E0,1.0531014E0,1.0187681E0,2.8213046E0,1.7919352E0,4.074429E0],"tree_param":{"num_deleted":"0","num_feature":"11","num_nodes":"13","size_leaf_vector":"1"}},{"base_weights":[-2.7883682E-2,-5.347521E-1,6.271022E-1,-9.0162057E-1,3.0005386E-2,7.859179E-1,-1.5526782E-2,-5.083341E-2,-0E0,-0E0,4.4549804E-2],"categories":[],"categories_nodes":[],"categories_segments":[],"categories_sizes":[],"default_left":[0,0,0,0,0,0,0,0,0,0,0],"id":53,"left_children":[1,3,5,7,-1,9,-1,-1,-1,-1,-1],"loss_changes":[9.869085E0,7.868507E0,2.3607926E0,1.1898308E0,0E0,1.1373997E0,0E0,0E0,0E0,0E0,0E0],"parents":[2147483647,0,0,1,1,2,2,3,3,5,5],"right_children":[2,4,6,8,-1,10,-1,-1,-1,-1,-1],"split_conditions":[1.126E3,2.5964549E0,1.0755074E2,1.2242314E3,3.0005386E-2,1.6433268E0,-1.5526782E-2,-5.083341E-2,-0E0,-0E0,4.4549804E-2],"split_indices":[0,8,3,5,0,8,0,0,0,0,0],"split_type":[0,0,0,0,0,0,0,0,0,0,0],"sum_hessian":[2.78559E1,1.6237368E1,1.1618532E1,1.27588825E1,3.4784853E0,1.0530036E1,1.0884959E0,1.0972258E1,1.7866242E0,1.1264691E0,9.403566E0],"tree_param":{"num_deleted":"0","num_feature":"11","num_nodes":"11","size_leaf_vector":"1"}},{"base_weights":[-3.4514128E-3,4.3041384E-1,-4.368754E-2,-3.9584618E-2,5.810126E-1,4.3341972E-2,-1.3548209E-3],"categories":[],"categories_nodes":[],"categories_segments":[],"categories_sizes":[],"default_left":[0,0,0,0,0,0,0],"id":54,"left_children":[1,3,-1,-1,5,-1,-1],"loss_changes":[1.1299536E1,3.8883529E0,0E0,0E0,3.578011E0,0E0,0E0],"parents":[2147483647,0,0,1,1,4,4],"right_children":[2,4,-1,-1,6,-1,-1],"split_conditions":[1.06607185E2,1.647E3,-4.368754E-2,-3.9584618E-2,7.2E1,4.3341972E-2,-1.3548209E-3],"split_indices":[3,1,0,0,7,0,0],"split_type":[0,0,0,0,0,0,0],"sum_hessian":[2.7342163E1,1.8199966E1,9.142197E0,1.1654353E0,1.7034533E1,1.1857811E1,5.1767206E0],"tree_param":{"num_deleted":"0","num_feature":"11","num_nodes":"7","size_leaf_vector":"1"}},{"base_weights":[-1.7190685E-2,3.874515E-1,-7.822285E-1,-1.3170959E-1,7.3349357E-1,-4.2362493E-2,-1.4922622E-3,-4.404581E-2,3.561218E-2,4.0315438E-2,1.1479927E-3],"categories":[],"categories_nodes":[],"categories_segments":[],"categories_sizes":[],"default_left":[0,0,0,0,0,0,0,0,0,0,0],"id":55,"left_children":[1,3,5,7,9,-1,-1,-1,-1,-1,-1],"loss_changes":[9.204424E0,3.7446163E0,4.912424E-2,5.5940247E0,1.8303156E-1,0E0,0E0,0E0,0E0,0E0,0E0],"parents":[2147483647,0,0,1,1,2,2,3,3,4,4],"right_children":[2,4,6,8,10,-1,-1,-1,-1,-1,-1],"split_conditions":[9.4E1,1.119E3,1.127E3,2.5964549E0,4.156E3,-4.2362493E-2,-1.4922622E-3,-4.404581E-2,3.561218E-2,4.0315438E-2,1.1479927E-3],"split_indices":[7,0,0,8,10,0,0,0,0,0,0],"split_type":[0,0,0,0,0,0,0,0,0,0,0],"sum_hessian":[2.71166E1,1.7631157E1,9.485444E0,6.7214894E0,1.0909667E1,8.003163E0,1.4822803E0,3.8512518E0,2.8702378E0,9.135024E0,1.7746432E0],"tree_param":{"num_deleted":"0","num_feature":"11","num_nodes":"11","size_leaf_vector":"1"}},{"base_weights":[1.544215E-2,5.002179E-1,-7.7852947E-1,-3.8293827E-2,6.6377974E-1,-0E0,-4.274876E-2,7.638632E-4,4.4316452E-2],"categories":[],"categories_nodes":[],"categories_segments":[],"categories_sizes":[],"default_left":[0,0,0,0,0,0,0,0,0],"id":56,"left_children":[1,3,5,-1,7,-1,-1,-1,-1],"loss_changes":[1.0671532E1,4.14568E0,4.9088907E-1,0E0,1.9398899E0,0E0,0E0,0E0,0E0],"parents":[2147483647,0,0,1,1,2,2,4,4],"right_children":[2,4,6,-1,8,-1,-1,-1,-1],"split_conditions":[9.4E1,1.647E3,1.721E3,-3.8293827E-2,1.218E3,-0E0,-4.274876E-2,7.638632E-4,4.4316452E-2],"split_indices":[7,1,1,0,5,0,0,0,0],"split_type":[0,0,0,0,0,0,0,0,0],"sum_hessian":[2.6075348E1,1.6810856E1,9.26449E0,1.1522346E0,1.5658622E1,1.0819474E0,8.182543E0,4.8477507E0,1.0810872E1],"tree_param":{"num_deleted":"0","num_feature":"11","num_nodes":"9","size_leaf_vector":"1"}},{"base_weights":[6.1630867E-2,5.1485544E-1,-4.289598E-2,-5.517784E-2,7.516231E-1,2.4660006E-2,-4.2601172E-2,-5.399686E-3,4.3381646E-2],"categories":[],"categories_nodes":[],"categories_segments":[],"categories_sizes":[],"default_left":[0,0,0,0,0,0,0,0,0],"id":57,"left_children":[1,3,-1,5,7,-1,-1,-1,-1],"loss_changes":[1.1730361E1,3.0092025E0,0E0,3.2248104E0,1.9096508E0,0E0,0E0,0E0,0E0],"parents":[2147483647,0,0,1,1,3,3,4,4],"right_children":[2,4,-1,6,8,-1,-1,-1,-1],"split_conditions":[1.0690562E2,1.1030645E3,-4.289598E-2,4.4678555E1,2.3958642E0,2.4660006E-2,-4.2601172E-2,-5.399686E-3,4.3381646E-2],"split_indices":[3,0,0,7,9,0,0,0,0],"split_type":[0,0,0,0,0,0,0,0,0],"sum_hessian":[2.6498104E1,1.8408726E1,8.089378E0,5.007655E0,1.340107E1,2.8203292E0,2.1873257E0,1.0892198E0,1.2311851E1],"tree_param":{"num_deleted":"0","num_feature":"11","num_nodes":"9","size_leaf_vector":"1"}},{"base_weights":[7.827689E-2,5.160797E-1,-7.4070126E-1,-0E0,7.333096E-1,-4.1067634E-2,-0E0,-3.7474345E-2,3.2725524E-2,4.0879663E-2,-0E0],"categories":[],"categories_nodes":[],"categories_segments":[],"categories_sizes":[],"default_left":[0,0,0,0,0,0,0,0,0,0,0],"id":58,"left_children":[1,3,5,7,9,-1,-1,-1,-1,-1,-1],"loss_changes":[9.566076E0,1.9496922E0,3.0467224E-1,3.6227977E0,4.8470354E-1,0E0,0E0,0E0,0E0,0E0,0E0],"parents":[2147483647,0,0,1,1,2,2,3,3,4,4],"right_children":[2,4,6,8,10,-1,-1,-1,-1,-1,-1],"split_conditions":[9.4E1,1.237E3,1.127E3,2.5964549E0,4.156E3,-4.1067634E-2,-0E0,-3.7474345E-2,3.2725524E-2,4.0879663E-2,-0E0],"split_indices":[7,4,0,8,10,0,0,0,0,0,0],"split_type":[0,0,0,0,0,0,0,0,0,0,0],"sum_hessian":[2.4926931E1,1.6882425E1,8.044507E0,5.3997593E0,1.1482666E1,6.8071117E0,1.237395E0,2.3961048E0,3.0036545E0,9.766813E0,1.7158524E0],"tree_param":{"num_deleted":"0","num_feature":"11","num_nodes":"11","size_leaf_vector":"1"}},{"base_weights":[-3.6768004E-2,5.1048076E-1,-5.813682E-1,-0E0,7.7164006E-1,-4.591401E-2,-0E0,2.3397248E-2,-4.142153E-2,-0E0,4.289397E-2,2.564022E-2,-2.3371546E-2],"categories":[],"categories_nodes":[],"categories_segments":[],"categories_sizes":[],"default_left":[0,0,0,0,0,0,0,0,0,0,0,0,0],"id":59,"left_children":[1,3,5,7,9,-1,11,-1,-1,-1,-1,-1,-1],"loss_changes":[7.8198333E0,1.8071356E0,2.6056495E0,2.4059577E0,3.6336327E-1,0E0,1.678093E0,0E0,0E0,0E0,0E0,0E0,0E0],"parents":[2147483647,0,0,1,1,2,2,3,3,4,4,6,6],"right_children":[2,4,6,8,10,-1,12,-1,-1,-1,-1,-1,-1],"split_conditions":[7E1,1.272E3,3.726E3,3.251E3,3.62E3,-4.591401E-2,1.324E3,2.3397248E-2,-4.142153E-2,-0E0,4.289397E-2,2.564022E-2,-2.3371546E-2],"split_indices":[7,6,10,10,10,0,6,0,0,0,0,0,0],"split_type":[0,0,0,0,0,0,0,0,0,0,0,0,0],"sum_hessian":[2.4123535E1,1.160582E1,1.2517715E1,4.0538354E0,7.551984E0,7.5082564E0,5.009459E0,2.7420926E0,1.3117428E0,1.1392459E0,6.412738E0,2.2957706E0,2.7136884E0],"tree_param":{"num_deleted":"0","num_feature":"11","num_nodes":"13","size_leaf_vector":"1"}},{"base_weights":[-0E0,3.7670884E-1,-4.1666716E-2,-1.2813972E-3,7.435942E-1,2.5042916E-2,-3.5481874E-2,4.952069E-2,1.0870526E-2],"categories":[],"categories_nodes":[],"categories_segments":[],"categories_sizes":[],"default_left":[0,0,0,0,0,0,0,0,0],"id":60,"left_children":[1,3,-1,5,7,-1,-1,-1,-1],"loss_changes":[8.227867E0,2.954676E0,0E0,3.8387356E0,4.9547243E-1,0E0,0E0,0E0,0E0],"parents":[2147483647,0,0,1,1,3,3,4,4],"right_children":[2,4,-1,6,8,-1,-1,-1,-1],"split_conditions":[1.0755074E2,3.692E3,-4.1666716E-2,3.319E3,1.717E3,2.5042916E-2,-3.5481874E-2,4.952069E-2,1.0870526E-2],"split_indices":[3,10,0,10,1,0,0,0,0],"split_type":[0,0,0,0,0,0,0,0,0],"sum_hessian":[2.4665194E1,1.762261E1,7.0425835E0,8.4995165E0,9.123095E0,4.7320957E0,3.7674205E0,4.9627132E0,4.1603813E0],"tree_param":{"num_deleted":"0","num_feature":"11","num_nodes":"9","size_leaf_vector":"1"}},{"base_weights":[-0E0,4.6942368E-1,-7.4930936E-1,4.1057203E-2,5.12146E-2,-0E0,-4.1144125E-2,-4.287559E-2,2.4540067E-2],"categories":[],"categories_nodes":[],"categories_segments":[],"categories_sizes":[],"default_left":[0,0,0,0,0,0,0,0,0],"id":61,"left_children":[1,3,5,-1,7,-1,-1,-1,-1],"loss_changes":[8.478664E0,1.7756214E0,3.1987476E-1,0E0,3.7191079E0,0E0,0E0,0E0,0E0],"parents":[2147483647,0,0,1,1,2,2,4,4],"right_children":[2,4,6,-1,8,-1,-1,-1,-1],"split_conditions":[9.4E1,4.8E1,1.0280068E2,4.1057203E-2,3.724E3,-0E0,-4.1144125E-2,-4.287559E-2,2.4540067E-2],"split_indices":[7,7,3,0,10,0,0,0,0],"split_type":[0,0,0,0,0,0,0,0,0],"sum_hessian":[2.2409958E1,1.4322693E1,8.087265E0,6.6070275E0,7.715665E0,1.0799291E0,7.007336E0,1.8347212E0,5.880944E0],"tree_param":{"num_deleted":"0","num_feature":"11","num_nodes":"9","size_leaf_vector":"1"}},{"base_weights":[-0E0,3.735375E-1,-7.389472E-1,-2.6381545E-2,5.9709746E-1,-0E0,-4.0909808E-2,-5.0700944E-2,3.2059688E-2,3.3287834E-2,-0E0],"categories":[],"categories_nodes":[],"categories_segments":[],"categories_sizes":[],"default_left":[0,0,0,0,0,0,0,0,0,0,0],"id":62,"left_children":[1,3,5,7,9,-1,-1,-1,-1,-1,-1],"loss_changes":[7.129791E0,1.7755547E0,4.0295172E-1,4.8380866E0,3.171358E-1,0E0,0E0,0E0,0E0,0E0,0E0],"parents":[2147483647,0,0,1,1,2,2,3,3,4,4],"right_children":[2,4,6,8,10,-1,-1,-1,-1,-1,-1],"split_conditions":[9.3E1,1.235E3,1.033536E2,2.5964549E0,4.194E3,-0E0,-4.0909808E-2,-5.0700944E-2,3.2059688E-2,3.3287834E-2,-0E0],"split_indices":[7,4,3,8,10,0,0,0,0,0,0],"split_type":[0,0,0,0,0,0,0,0,0,0,0],"sum_hessian":[2.333469E1,1.5491585E1,7.8431053E0,5.0690975E0,1.0422487E1,1.0281726E0,6.8149323E0,2.1372242E0,2.9318733E0,8.903485E0,1.5190018E0],"tree_param":{"num_deleted":"0","num_feature":"11","num_nodes":"11","size_leaf_vector":"1"}},{"base_weights":[-0E0,3.6090666E-1,-4.07707E-2,-1.1916899E-1,7.439057E-1,-3.5006605E-2,2.4692988E-2,-0E0,4.1402545E-2],"categories":[],"categories_nodes":[],"categories_segments":[],"categories_sizes":[],"default_left":[0,0,0,0,0,0,0,0,0],"id":63,"left_children":[1,3,-1,5,7,-1,-1,-1,-1],"loss_changes":[6.9569483E0,3.511562E0,0E0,3.2232192E0,5.570183E-1,0E0,0E0,0E0,0E0],"parents":[2147483647,0,0,1,1,3,3,4,4],"right_children":[2,4,-1,6,8,-1,-1,-1,-1],"split_conditions":[1.0755074E2,1.123E3,-4.07707E-2,2.5964549E0,1.6433268E0,-3.5006605E-2,2.4692988E-2,-0E0,4.1402545E-2],"split_indices":[3,0,0,8,8,0,0,0,0],"split_type":[0,0,0,0,0,0,0,0,0],"sum_hessian":[2.206629E1,1.5917214E1,6.1490755E0,6.7898045E0,9.12741E0,3.8318872E0,2.957917E0,1.1413102E0,7.9860992E0],"tree_param":{"num_deleted":"0","num_feature":"11","num_nodes":"9","size_leaf_vector":"1"}},{"base_weights":[-3.6443584E-2,4.4645852E-1,-6.468747E-1,-2.515511E-1,7.56005E-1,2.3778145E-1,-4.7350395E-2,2.5333173E-3,-2.9350892E-2,4.416376E-2,-0E0,-0E0,1.4670958E-2],"categories":[],"categories_nodes":[],"categories_segments":[],"categories_sizes":[],"default_left":[0,0,0,0,0,0,0,0,0,0,0,0,0],"id":64,"left_children":[1,3,5,7,9,11,-1,-1,-1,-1,-1,-1,-1],"loss_changes":[7.085483E0,3.211876E0,3.4737086E0,7.2291946E-1,1.1412272E0,4.9507916E-3,0E0,0E0,0E0,0E0,0E0,0E0,0E0],"parents":[2147483647,0,0,1,1,2,2,3,3,4,4,5,5],"right_children":[2,4,6,8,10,12,-1,-1,-1,-1,-1,-1,-1],"split_conditions":[7E1,1.689E3,1.7118801E3,4.051154E1,1.778E3,1.1383025E3,-4.7350395E-2,2.5333173E-3,-2.9350892E-2,4.416376E-2,-0E0,-0E0,1.4670958E-2],"split_indices":[7,1,1,7,1,0,0,0,0,0,0,0,0],"split_type":[0,0,0,0,0,0,0,0,0,0,0,0,0],"sum_hessian":[2.1716965E1,1.18177E1,9.899264E0,3.192004E0,8.625696E0,2.138312E0,7.7609525E0,1.3417481E0,1.850256E0,7.5144114E0,1.1112849E0,1.0198218E0,1.1184903E0],"tree_param":{"num_deleted":"0","num_feature":"11","num_nodes":"13","size_leaf_vector":"1"}},{"base_weights":[8.037308E-3,5.665026E-1,-6.163935E-1,4.5328517E-3,3.8730156E-2,-0E0,-5.005848E-2,-2.5830282E-2,1.9448908E-2,2.114668E-2,-2.4419155E-2],"categories":[],"categories_nodes":[],"categories_segments":[],"categories_sizes":[],"default_left":[0,0,0,0,0,0,0,0,0,0,0],"id":65,"left_children":[1,3,5,7,-1,9,-1,-1,-1,-1,-1],"loss_changes":[8.1154375E0,1.0965562E0,2.5424743E0,1.1583914E0,0E0,1.2474765E0,0E0,0E0,0E0,0E0,0E0],"parents":[2147483647,0,0,1,1,2,2,3,3,5,5],"right_children":[2,4,6,8,-1,10,-1,-1,-1,-1,-1],"split_conditions":[7.2E1,1.272E3,3.014133E0,7.239003E0,3.8730156E-2,1.04E2,-5.005848E-2,-2.5830282E-2,1.9448908E-2,2.114668E-2,-2.4419155E-2],"split_indices":[7,6,9,9,0,7,0,0,0,0,0],"split_type":[0,0,0,0,0,0,0,0,0,0,0],"sum_hessian":[2.1342077E1,1.1737784E1,9.604293E0,4.097383E0,7.6404014E0,4.0481577E0,5.556135E0,1.0413828E0,3.0560002E0,2.2713149E0,1.776843E0],"tree_param":{"num_deleted":"0","num_feature":"11","num_nodes":"11","size_leaf_vector":"1"}},{"base_weights":[-8.853276E-3,3.8160238E-1,-4.1007396E-2,-1.2690993E-1,3.467669E-2,-4.419522E-2,1.46425655E-2],"categories":[],"categories_nodes":[],"categories_segments":[],"categories_sizes":[],"default_left":[0,0,0,0,0,0,0],"id":66,"left_children":[1,3,-1,5,-1,-1,-1],"loss_changes":[7.2547655E0,2.6861007E0,0E0,2.3923376E0,0E0,0E0,0E0],"parents":[2147483647,0,0,1,1,3,3],"right_children":[2,4,-1,6,-1,-1,-1],"split_conditions":[9.4E1,1.237E3,-4.1007396E-2,7.239003E0,3.467669E-2,-4.419522E-2,1.46425655E-2],"split_indices":[7,4,0,9,0,0,0],"split_type":[0,0,0,0,0,0,0],"sum_hessian":[2.0221786E1,1.3593105E1,6.62868E0,4.784165E0,8.808941E0,1.7370331E0,3.0471315E0],"tree_param":{"num_deleted":"0","num_feature":"11","num_nodes":"7","size_leaf_vector":"1"}},{"base_weights":[-8.640637E-2,3.224928E-1,-3.885464E-2,-1.0427651E-1,5.51082E-1,1.7478304E-2,-2.3814404E-2,4.1482117E-2,-0E0],"categories":[],"categories_nodes":[],"categories_segments":[],"categories_sizes":[],"default_left":[0,0,0,0,0,0,0,0,0],"id":67,"left_children":[1,3,-1,5,7,-1,-1,-1,-1],"loss_changes":[6.381753E0,1.5864204E0,0E0,1.0311198E0,1.4295125E0,0E0,0E0,0E0,0E0],"parents":[2147483647,0,0,1,1,3,3,4,4],"right_children":[2,4,-1,6,8,-1,-1,-1,-1],"split_conditions":[8.3E1,1.698E3,-3.885464E-2,3.8884792E1,9.8740265E1,1.7478304E-2,-2.3814404E-2,4.1482117E-2,-0E0],"split_indices":[7,1,0,7,3,0,0,0,0],"split_type":[0,0,0,0,0,0,0,0,0],"sum_hessian":[1.990441E1,1.2382754E1,7.5216546E0,3.7458532E0,8.636901E0,1.1090896E0,2.6367636E0,5.3288035E0,3.3080976E0],"tree_param":{"num_deleted":"0","num_feature":"11","num_nodes":"9","size_leaf_vector":"1"}},{"base_weights":[-8.36225E-2,5.686351E-1,-4.358779E-1,-0E0,3.6546748E-2,-4.2460766E-2,6.547878E-2,3.4789335E-2,-2.2555007E-2],"categories":[],"categories_nodes":[],"categories_segments":[],"categories_sizes":[],"default_left":[0,0,0,0,0,0,0,0,0],"id":68,"left_children":[1,3,5,-1,-1,-1,7,-1,-1],"loss_changes":[5.015066E0,9.8283887E-1,3.4987237E0,0E0,0E0,0E0,2.726952E0,0E0,0E0],"parents":[2147483647,0,0,1,1,2,2,6,6],"right_children":[2,4,6,-1,-1,-1,8,-1,-1],"split_conditions":[4.8E1,1.6755133E3,1.126E3,-0E0,3.6546748E-2,-4.2460766E-2,1.326E3,3.4789335E-2,-2.2555007E-2],"split_indices":[7,1,0,0,0,0,6,0,0],"split_type":[0,0,0,0,0,0,0,0,0],"sum_hessian":[2.0037441E1,6.3134246E0,1.3724016E1,1.0476222E0,5.2658024E0,7.6886563E0,6.03536E0,2.9981441E0,3.0372157E0],"tree_param":{"num_deleted":"0","num_feature":"11","num_nodes":"9","size_leaf_vector":"1"}},{"base_weights":[-0E0,2.9872033E-1,-3.818337E-2,-5.3212654E-2,4.8485005E-1,-3.057915E-2,1.77374E-2,-0E0,3.2130387E-2],"categories":[],"categories_nodes":[],"categories_segments":[],"categories_sizes":[],"default_left":[0,0,0,0,0,0,0,0,0],"id":69,"left_children":[1,3,-1,5,7,-1,-1,-1,-1],"loss_changes":[4.8497276E0,1.3006557E0,0E0,1.6129302E0,1.072119E0,0E0,0E0,0E0,0E0],"parents":[2147483647,0,0,1,1,3,3,4,4],"right_children":[2,4,-1,6,8,-1,-1,-1,-1],"split_conditions":[1.0755074E2,1.237E3,-3.818337E-2,2.5964549E0,3.692E3,-3.057915E-2,1.77374E-2,-0E0,3.2130387E-2],"split_indices":[3,4,0,8,10,0,0,0,0],"split_type":[0,0,0,0,0,0,0,0,0],"sum_hessian":[2.000936E1,1.5167219E1,4.8421397E0,4.5645E0,1.0602719E1,2.233721E0,2.3307788E0,2.4012914E0,8.201427E0],"tree_param":{"num_deleted":"0","num_feature":"11","num_nodes":"9","size_leaf_vector":"1"}},{"base_weights":[-1.6203044E-2,6.9044197E-1,-3.9149892E-1,-0E0,3.8358126E-2,-4.8942603E-2,1.6657652E-1,3.2697033E-2,-2.41648E-2],"categories":[],"categories_nodes":[],"categories_segments":[],"categories_sizes":[],"default_left":[0,0,0,0,0,0,0,0,0],"id":70,"left_children":[1,3,5,-1,-1,-1,7,-1,-1],"loss_changes":[5.396397E0,1.7032957E-1,5.188614E0,0E0,0E0,0E0,2.822581E0,0E0,0E0],"parents":[2147483647,0,0,1,1,2,2,6,6],"right_children":[2,4,6,-1,-1,-1,8,-1,-1],"split_conditions":[4.8E1,1.2190847E3,3.706E3,-0E0,3.8358126E-2,-4.8942603E-2,1.719E3,3.2697033E-2,-2.41648E-2],"split_indices":[7,2,10,0,0,0,1,0,0],"split_type":[0,0,0,0,0,0,0,0,0],"sum_hessian":[1.8892693E1,5.79995E0,1.3092743E1,1.0026472E0,4.797303E0,6.448208E0,6.6445346E0,4.233096E0,2.4114385E0],"tree_param":{"num_deleted":"0","num_feature":"11","num_nodes":"9","size_leaf_vector":"1"}},{"base_weights":[-0E0,4.596205E-1,-6.0329527E-1,-2.3671662E-2,7.152109E-1,1.0667087E-1,-4.58457E-2,3.958746E-2,-0E0,-0E0,1.92871E-2],"categories":[],"categories_nodes":[],"categories_segments":[],"categories_sizes":[],"default_left":[0,0,0,0,0,0,0,0,0,0,0],"id":71,"left_children":[1,3,5,-1,7,9,-1,-1,-1,-1,-1],"loss_changes":[5.7611613E0,3.1733773E0,2.5566857E0,0E0,4.5024633E-1,2.838261E-1,0E0,0E0,0E0,0E0,0E0],"parents":[2147483647,0,0,1,1,2,2,4,4,5,5],"right_children":[2,4,6,-1,8,10,-1,-1,-1,-1,-1],"split_conditions":[7.2E1,1.6755133E3,1.71E3,-2.3671662E-2,4.08E3,1.7042283E3,-4.58457E-2,3.958746E-2,-0E0,-0E0,1.92871E-2],"split_indices":[7,1,1,0,10,1,0,0,0,0,0],"split_type":[0,0,0,0,0,0,0,0,0,0,0],"sum_hessian":[1.8603727E1,1.037994E1,8.223788E0,1.6280485E0,8.751891E0,2.2334075E0,5.990381E0,7.675845E0,1.0760458E0,1.0786713E0,1.1547362E0],"tree_param":{"num_deleted":"0","num_feature":"11","num_nodes":"11","size_leaf_vector":"1"}},{"base_weights":[-0E0,2.6528662E-1,-3.7510898E-2,-2.9404445E-2,6.548477E-1,-2.2715919E-2,3.0622259E-2,-0E0,3.6018874E-2],"categories":[],"categories_nodes":[],"categories_segments":[],"categories_sizes":[],"default_left":[0,0,0,0,0,0,0,0,0],"id":72,"left_children":[1,3,-1,5,7,-1,-1,-1,-1],"loss_changes":[4.107468E0,1.9964659E0,0E0,2.5121944E0,7.02827E-2,0E0,0E0,0E0,0E0],"parents":[2147483647,0,0,1,1,3,3,4,4],"right_children":[2,4,-1,6,8,-1,-1,-1,-1],"split_conditions":[1.0755074E2,1.1383025E3,-3.7510898E-2,2.5964549E0,1.689E3,-2.2715919E-2,3.0622259E-2,-0E0,3.6018874E-2],"split_indices":[3,0,0,8,1,0,0,0,0],"split_type":[0,0,0,0,0,0,0,0,0],"sum_hessian":[1.798395E1,1.3499012E1,4.484938E0,7.4809356E0,6.018077E0,5.145627E0,2.3353088E0,1.0833054E0,4.9347715E0],"tree_param":{"num_deleted":"0","num_feature":"11","num_nodes":"9","size_leaf_vector":"1"}},{"base_weights":[6.3753836E-2,3.7036377E-1,-3.612901E-2,-3.3832766E-2,5.158072E-1,1.6795604E-2,-2.3944985E-2,3.6285426E-2,-0E0],"categories":[],"categories_nodes":[],"categories_segments":[],"categories_sizes":[],"default_left":[0,0,0,0,0,0,0,0,0],"id":73,"left_children":[1,3,-1,5,7,-1,-1,-1,-1],"loss_changes":[4.580487E0,1.1116977E0,0E0,8.6912477E-1,9.515686E-1,0E0,0E0,0E0,0E0],"parents":[2147483647,0,0,1,1,3,3,4,4],"right_children":[2,4,-1,6,8,-1,-1,-1,-1],"split_conditions":[1.0755074E2,1.689E3,-3.612901E-2,3.177E3,1.324E3,1.6795604E-2,-2.3944985E-2,3.6285426E-2,-0E0],"split_indices":[3,1,0,10,6,0,0,0,0],"split_type":[0,0,0,0,0,0,0,0,0],"sum_hessian":[1.7618904E1,1.3514246E1,4.104657E0,2.8694587E0,1.0644788E1,1.0876819E0,1.7817768E0,6.689594E0,3.955194E0],"tree_param":{"num_deleted":"0","num_feature":"11","num_nodes":"9","size_leaf_vector":"1"}},{"base_weights":[-9.0905994E-2,-3.420146E-1,5.968043E-1,-5.8081084E-1,3.5921466E-1,-0E0,3.4216005E-2,-4.6763457E-2,-6.2106648E-3,-0E0,2.6080474E-2],"categories":[],"categories_nodes":[],"categories_segments":[],"categories_sizes":[],"default_left":[0,0,0,0,0,0,0,0,0,0,0],"id":74,"left_children":[1,3,5,7,9,-1,-1,-1,-1,-1,-1],"loss_changes":[3.3019435E0,2.805951E0,7.248938E-2,1.2947812E0,2.723409E-1,0E0,0E0,0E0,0E0,0E0,0E0],"parents":[2147483647,0,0,1,1,2,2,3,3,4,4],"right_children":[2,4,6,8,10,-1,-1,-1,-1,-1,-1],"split_conditions":[1.3191569E3,7.239003E0,1.7689879E0,1.238E3,1.197E3,-0E0,3.4216005E-2,-4.6763457E-2,-6.2106648E-3,-0E0,2.6080474E-2],"split_indices":[2,9,8,4,4,0,0,0,0,0,0],"split_type":[0,0,0,0,0,0,0,0,0,0,0],"sum_hessian":[1.7676373E1,1.384923E1,3.8271425E0,1.0991089E1,2.8581405E0,1.0009161E0,2.8262265E0,4.9809546E0,6.0101347E0,1.027404E0,1.8307365E0],"tree_param":{"num_deleted":"0","num_feature":"11","num_nodes":"11","size_leaf_vector":"1"}},{"base_weights":[-4.0690888E-2,1.7026094E-1,-3.6438372E-2,-1.490281E-1,5.0165296E-1,-4.9466167E-2,1.8414652E-2,4.1510206E-2,5.165615E-3],"categories":[],"categories_nodes":[],"categories_segments":[],"categories_sizes":[],"default_left":[0,0,0,0,0,0,0,0,0],"id":75,"left_children":[1,3,-1,5,7,-1,-1,-1,-1],"loss_changes":[3.115781E0,1.791317E0,0E0,3.8987513E0,5.128534E-1,0E0,0E0,0E0,0E0],"parents":[2147483647,0,0,1,1,3,3,4,4],"right_children":[2,4,-1,6,8,-1,-1,-1,-1],"split_conditions":[1.0755074E2,3.692E3,-3.6438372E-2,2.1873984E0,3.807E3,-4.9466167E-2,1.8414652E-2,4.1510206E-2,5.165615E-3],"split_indices":[3,10,0,8,10,0,0,0,0],"split_type":[0,0,0,0,0,0,0,0,0],"sum_hessian":[1.7687069E1,1.3556718E1,4.130352E0,6.4162803E0,7.140437E0,2.465553E0,3.9507275E0,2.6310146E0,4.509423E0],"tree_param":{"num_deleted":"0","num_feature":"11","num_nodes":"9","size_leaf_vector":"1"}},{"base_weights":[-1.5165602E-2,-4.6909997E-1,4.019337E-1,-4.30098E-2,3.030717E-1,7.80754E-1,3.5233786E-3,-0E0,2.3567922E-2,4.6848115E-2,-0E0,-3.8409594E-2,3.1333137E-2],"categories":[],"categories_nodes":[],"categories_segments":[],"categories_sizes":[],"default_left":[0,0,0,0,0,0,0,0,0,0,0,0,0],"id":76,"left_children":[1,3,5,-1,7,9,11,-1,-1,-1,-1,-1,-1],"loss_changes":[3.7055907E0,3.5125732E0,1.0468621E0,0E0,2.4759746E-1,2.1006823E-1,3.4420485E0,0E0,0E0,0E0,0E0,0E0,0E0],"parents":[2147483647,0,0,1,1,2,2,4,4,5,5,6,6],"right_children":[2,4,6,-1,8,10,12,-1,-1,-1,-1,-1,-1],"split_conditions":[1.125E3,7.239003E0,1.326E3,-4.30098E-2,1.083E3,1.713E3,1.2931769E3,-0E0,2.3567922E-2,4.6848115E-2,-0E0,-3.8409594E-2,3.1333137E-2],"split_indices":[0,9,6,0,0,1,4,0,0,0,0,0,0],"split_type":[0,0,0,0,0,0,0,0,0,0,0,0,0],"sum_hessian":[1.7398329E1,8.845617E0,8.552712E0,6.2258334E0,2.6197836E0,3.2489007E0,5.3038116E0,1.0088977E0,1.6108861E0,2.1895487E0,1.0593519E0,1.9069809E0,3.3968308E0],"tree_param":{"num_deleted":"0","num_feature":"11","num_nodes":"13","size_leaf_vector":"1"}},{"base_weights":[3.891282E-2,-3.473083E-1,4.440773E-1,-7.1555996E-1,2.619319E-2,5.417105E-1,-0E0,-4.3283354E-2,-0E0,-0E0,3.140637E-2],"categories":[],"categories_nodes":[],"categories_segments":[],"categories_sizes":[],"default_left":[0,0,0,0,0,0,0,0,0,0,0],"id":77,"left_children":[1,3,5,7,-1,9,-1,-1,-1,-1,-1],"loss_changes":[2.935405E0,3.3163736E0,6.090745E-1,5.1265216E-1,0E0,4.1334295E-1,0E0,0E0,0E0,0E0,0E0],"parents":[2147483647,0,0,1,1,2,2,3,3,5,5],"right_children":[2,4,6,8,-1,10,-1,-1,-1,-1,-1],"split_conditions":[1.119E3,2.5964549E0,1.777E3,1.238E3,2.619319E-2,1.6433268E0,-0E0,-4.3283354E-2,-0E0,-0E0,3.140637E-2],"split_indices":[0,8,1,4,0,8,0,0,0,0,0],"split_type":[0,0,0,0,0,0,0,0,0,0,0],"sum_hessian":[1.6463797E1,7.8702493E0,8.593547E0,6.060844E0,1.8094054E0,7.522626E0,1.0709213E0,4.5085416E0,1.5523019E0,1.136099E0,6.386527E0],"tree_param":{"num_deleted":"0","num_feature":"11","num_nodes":"11","size_leaf_vector":"1"}},{"base_weights":[-3.2580357E-2,3.861855E-1,-4.7747925E-1,-0E0,5.894106E-1,-0E0,-8.1070817E-1,1.741787E-2,-1.3420877E-2,-0E0,3.4439195E-2,-1.9198926E-2,1.287651E-2,-0E0,-5.0897844E-2],"categories":[],"categories_nodes":[],"categories_segments":[],"categories_sizes":[],"default_left":[0,0,0,0,0,0,0,0,0,0,0,0,0,0,0],"id":78,"left_children":[1,3,5,7,9,11,13,-1,-1,-1,-1,-1,-1,-1,-1],"loss_changes":[3.474611E0,7.1524584E-1,1.5278513E0,4.7004128E-1,2.184968E-1,5.762365E-1,9.927063E-1,0E0,0E0,0E0,0E0,0E0,0E0,0E0,0E0],"parents":[2147483647,0,0,1,1,2,2,3,3,4,4,5,5,6,6],"right_children":[2,4,6,8,10,12,14,-1,-1,-1,-1,-1,-1,-1,-1],"split_conditions":[6.426277E1,1.2232828E3,3.1339586E0,3.9E1,3.629E3,2.4704728E0,1.8450471E0,1.741787E-2,-1.3420877E-2,-0E0,3.4439195E-2,-1.9198926E-2,1.287651E-2,-0E0,-5.0897844E-2],"split_indices":[7,5,9,7,10,9,8,0,0,0,0,0,0,0,0],"split_type":[0,0,0,0,0,0,0,0,0,0,0,0,0,0,0],"sum_hessian":[1.6415035E1,7.9449167E0,8.4701185E0,3.046081E0,4.8988357E0,3.8604984E0,4.60962E0,1.1596496E0,1.8864315E0,1.1187568E0,3.780079E0,1.3121675E0,2.548331E0,1.093645E0,3.5159752E0],"tree_param":{"num_deleted":"0","num_feature":"11","num_nodes":"15","size_leaf_vector":"1"}},{"base_weights":[-9.106028E-3,2.6280126E-1,-6.048588E-1,-0E0,3.476468E-2,-0E0,-3.500765E-2,-1.1490789E-2,1.283289E-2],"categories":[],"categories_nodes":[],"categories_segments":[],"categories_sizes":[],"default_left":[0,0,0,0,0,0,0,0,0],"id":79,"left_children":[1,3,5,7,-1,-1,-1,-1,-1],"loss_changes":[2.9503803E0,1.4087131E0,2.2884226E-1,5.0862265E-1,0E0,0E0,0E0,0E0,0E0],"parents":[2147483647,0,0,1,1,2,2,3,3],"right_children":[2,4,6,8,-1,-1,-1,-1,-1],"split_conditions":[9E1,1.258E3,1.0280068E2,2.1873984E0,3.476468E-2,-0E0,-3.500765E-2,-1.1490789E-2,1.283289E-2],"split_indices":[7,5,3,8,0,0,0,0,0],"split_type":[0,0,0,0,0,0,0,0,0],"sum_hessian":[1.5176318E1,1.0227837E1,4.948482E0,6.709822E0,3.5180147E0,1.04222E0,3.906262E0,3.987117E0,2.722705E0],"tree_param":{"num_deleted":"0","num_feature":"11","num_nodes":"9","size_leaf_vector":"1"}},{"base_weights":[5.988316E-2,3.4900653E-1,-3.4394942E-2,-2.33536E-2,5.8367836E-1,3.778396E-2,-4.10981E-3],"categories":[],"categories_nodes":[],"categories_segments":[],"categories_sizes":[],"default_left":[0,0,0,0,0,0,0],"id":80,"left_children":[1,3,-1,-1,5,-1,-1],"loss_changes":[3.6946583E0,2.8653774E0,0E0,0E0,1.6814568E0,0E0,0E0],"parents":[2147483647,0,0,1,1,4,4],"right_children":[2,4,-1,-1,6,-1,-1],"split_conditions":[1.0755074E2,1.689E3,-3.4394942E-2,-2.33536E-2,9.4E1,3.778396E-2,-4.10981E-3],"split_indices":[3,1,0,0,7,0,0],"split_type":[0,0,0,0,0,0,0],"sum_hessian":[1.5762267E1,1.2234014E1,3.5282528E0,2.035287E0,1.0198728E1,8.594677E0,1.6040502E0],"tree_param":{"num_deleted":"0","num_feature":"11","num_nodes":"7","size_leaf_vector":"1"}},{"base_weights":[-4.1719306E-2,-5.0159144E-1,2.625099E-1,1.880362E-2,-4.1932125E-2,-1.955465E-2,4.6864685E-1,2.8270504E-2,-0E0],"categories":[],"categories_nodes":[],"categories_segments":[],"categories_sizes":[],"default_left":[0,0,0,0,0,0,0,0,0],"id":81,"left_children":[1,3,5,-1,-1,-1,7,-1,-1],"loss_changes":[2.384538E0,2.6378212E0,1.458787E0,0E0,0E0,0E0,4.5192873E-1,0E0,0E0],"parents":[2147483647,0,0,1,1,2,2,6,6],"right_children":[2,4,6,-1,-1,-1,8,-1,-1],"split_conditions":[1.238E3,3.898779E1,2.350752E0,1.880362E-2,-4.1932125E-2,-1.955465E-2,9.4E1,2.8270504E-2,-0E0],"split_indices":[4,7,9,0,0,0,7,0,0],"split_type":[0,0,0,0,0,0,0,0,0],"sum_hessian":[1.4248212E1,6.069038E0,8.179174E0,1.2402533E0,4.8287845E0,1.1643915E0,7.0147824E0,5.919905E0,1.0948776E0],"tree_param":{"num_deleted":"0","num_feature":"11","num_nodes":"9","size_leaf_vector":"1"}},{"base_weights":[-0E0,-3.2185525E-1,4.2492294E-1,-6.6845286E-1,1.6712327E-2,-8.984776E-3,6.338984E-1,-4.0172886E-2,-0E0,-0E0,3.923483E-2],"categories":[],"categories_nodes":[],"categories_segments":[],"categories_sizes":[],"default_left":[0,0,0,0,0,0,0,0,0,0,0],"id":82,"left_children":[1,3,5,7,-1,-1,9,-1,-1,-1,-1],"loss_changes":[2.365327E0,2.439211E0,1.343136E0,2.636547E-1,0E0,0E0,7.820976E-1,0E0,0E0,0E0,0E0],"parents":[2147483647,0,0,1,1,2,2,3,3,6,6],"right_children":[2,4,6,8,-1,-1,10,-1,-1,-1,-1],"split_conditions":[1.127E3,2.5964549E0,1.6454E0,3.797E3,1.6712327E-2,-8.984776E-3,3.62E3,-4.0172886E-2,-0E0,-0E0,3.923483E-2],"split_indices":[0,8,8,10,0,0,10,0,0,0,0],"split_type":[0,0,0,0,0,0,0,0,0,0,0],"sum_hessian":[1.4940337E1,8.009014E0,6.931323E0,5.726918E0,2.2820961E0,1.201774E0,5.729549E0,4.0646224E0,1.6622959E0,1.0678034E0,4.6617455E0],"tree_param":{"num_deleted":"0","num_feature":"11","num_nodes":"11","size_leaf_vector":"1"}},{"base_weights":[-4.1965287E-2,3.2002637E-1,-5.6073487E-1,-2.3139423E-1,6.903253E-1,1.3570674E-2,-9.7410095E-1,-0E0,-2.460046E-2,3.912115E-2,-0E0,-5.5074673E-2,-3.8067953E-4],"categories":[],"categories_nodes":[],"categories_segments":[],"categories_sizes":[],"default_left":[0,0,0,0,0,0,0,0,0,0,0,0,0],"id":83,"left_children":[1,3,5,7,9,-1,11,-1,-1,-1,-1,-1,-1],"loss_changes":[3.424323E0,2.4043512E0,3.288253E0,4.8462045E-1,2.3793101E-1,0E0,1.5243101E-1,0E0,0E0,0E0,0E0,0E0,0E0],"parents":[2147483647,0,0,1,1,2,2,3,3,4,4,6,6],"right_children":[2,4,6,8,10,-1,12,-1,-1,-1,-1,-1,-1],"split_conditions":[6.983602E1,1.698E3,1.7118801E3,4.051154E1,1.0381366E2,1.3570674E-2,1.343E3,-0E0,-2.460046E-2,3.912115E-2,-0E0,-5.5074673E-2,-3.8067953E-4],"split_indices":[7,1,1,7,3,0,6,0,0,0,0,0,0],"split_type":[0,0,0,0,0,0,0,0,0,0,0,0,0],"sum_hessian":[1.5638343E1,8.868964E0,6.7693787E0,3.1713257E0,5.6976385E0,1.9591776E0,4.810201E0,1.2467248E0,1.924601E0,4.602359E0,1.0952796E0,3.6695004E0,1.1407008E0],"tree_param":{"num_deleted":"0","num_feature":"11","num_nodes":"13","size_leaf_vector":"1"}},{"base_weights":[-1.4455532E-1,-5.208569E-1,1.7090195E-1,1.648025E-2,-3.952019E-2,3.6741257E-1,-1.604255E-2,-4.8263773E-4,2.6144087E-2],"categories":[],"categories_nodes":[],"categories_segments":[],"categories_sizes":[],"default_left":[0,0,0,0,0,0,0,0,0],"id":84,"left_children":[1,3,5,-1,-1,7,-1,-1,-1],"loss_changes":[2.0249763E0,2.2640402E0,9.2389643E-1,0E0,0E0,6.708368E-1,0E0,0E0,0E0],"parents":[2147483647,0,0,1,1,2,2,5,5],"right_children":[2,4,6,-1,-1,8,-1,-1,-1],"split_conditions":[1.119E3,3.898779E1,1.04E2,1.648025E-2,-3.952019E-2,1.691E3,-1.604255E-2,-4.8263773E-4,2.6144087E-2],"split_indices":[0,7,7,0,0,1,0,0,0],"split_type":[0,0,0,0,0,0,0,0,0],"sum_hessian":[1.3834696E1,6.7347975E0,7.0998983E0,1.120782E0,5.6140156E0,5.979884E0,1.1200143E0,1.0806891E0,4.8991947E0],"tree_param":{"num_deleted":"0","num_feature":"11","num_nodes":"9","size_leaf_vector":"1"}},{"base_weights":[1.1522627E-2,2.7605936E-1,-3.254762E-2,-0E0,5.349549E-1,1.9661287E-2,-4.090272E-2,-5.3705246E-4,3.5955623E-2],"categories":[],"categories_nodes":[],"categories_segments":[],"categories_sizes":[],"default_left":[0,0,0,0,0,0,0,0,0],"id":85,"left_children":[1,3,-1,5,7,-1,-1,-1,-1],"loss_changes":[2.6382363E0,1.1174328E0,0E0,2.4314384E0,1.0762875E0,0E0,0E0,0E0,0E0],"parents":[2147483647,0,0,1,1,3,3,4,4],"right_children":[2,4,-1,6,8,-1,-1,-1,-1],"split_conditions":[1.0690562E2,1.940578E0,-3.254762E-2,3.139913E0,1.6784318E3,1.9661287E-2,-4.090272E-2,-5.3705246E-4,3.5955623E-2],"split_indices":[3,8,0,9,1,0,0,0,0],"split_type":[0,0,0,0,0,0,0,0,0],"sum_hessian":[1.409841E1,1.10314245E1,3.0669854E0,4.9227657E0,6.108659E0,3.2779322E0,1.6448334E0,1.0938802E0,5.0147786E0],"tree_param":{"num_deleted":"0","num_feature":"11","num_nodes":"9","size_leaf_vector":"1"}},{"base_weights":[-0E0,-3.8043115E-1,3.1898227E-1,-3.7534416E-2,1.865687E-1,-5.7385727E-3,4.6097642E-1,-0E0,2.0975005E-2,2.7928194E-2,-0E0],"categories":[],"categories_nodes":[],"categories_segments":[],"categories_sizes":[],"default_left":[0,0,0,0,0,0,0,0,0,0,0],"id":86,"left_children":[1,3,5,-1,7,-1,9,-1,-1,-1,-1],"loss_changes":[2.0260744E0,2.1066666E0,7.4946E-1,0E0,3.061353E-1,0E0,4.2471492E-1,0E0,0E0,0E0,0E0],"parents":[2147483647,0,0,1,1,2,2,4,4,6,6],"right_children":[2,4,6,-1,8,-1,10,-1,-1,-1,-1],"split_conditions":[1.123E3,7.239003E0,2.420104E0,-3.7534416E-2,1.6806207E3,-5.7385727E-3,1.763E3,-0E0,2.0975005E-2,2.7928194E-2,-0E0],"split_indices":[0,9,9,0,1,0,1,0,0,0,0],"split_type":[0,0,0,0,0,0,0,0,0,0,0],"sum_hessian":[1.4523016E1,7.024129E0,7.498887E0,4.5867796E0,2.4373488E0,1.0282638E0,6.4706235E0,1.0178616E0,1.4194872E0,5.449545E0,1.0210783E0],"tree_param":{"num_deleted":"0","num_feature":"11","num_nodes":"11","size_leaf_vector":"1"}},{"base_weights":[-1.0282779E-1,2.6522484E-1,-6.376352E-1,-1.5321922E-1,5.7310325E-1,4.1899844E-3,-9.411024E-1,1.3268045E-3,-2.1047764E-2,3.721906E-2,-0E0,-5.5007655E-2,-0E0],"categories":[],"categories_nodes":[],"categories_segments":[],"categories_sizes":[],"default_left":[0,0,0,0,0,0,0,0,0,0,0,0,0],"id":87,"left_children":[1,3,5,7,9,-1,11,-1,-1,-1,-1,-1,-1],"loss_changes":[3.2185595E0,1.4274445E0,1.9912925E0,3.9211226E-1,6.843964E-1,0E0,3.6836052E-1,0E0,0E0,0E0,0E0,0E0,0E0],"parents":[2147483647,0,0,1,1,2,2,3,3,4,4,6,6],"right_children":[2,4,6,8,10,-1,12,-1,-1,-1,-1,-1,-1],"split_conditions":[6.938334E1,1.698E3,1.7118801E3,4.1137993E1,1.778E3,4.1899844E-3,1.343E3,1.3268045E-3,-2.1047764E-2,3.721906E-2,-0E0,-5.5007655E-2,-0E0],"split_indices":[7,1,1,7,1,0,6,0,0,0,0,0,0],"split_type":[0,0,0,0,0,0,0,0,0,0,0,0,0],"sum_hessian":[1.3546217E1,7.7688665E0,5.77735E0,2.817654E0,4.951213E0,1.4371166E0,4.3402333E0,1.1074795E0,1.7101743E0,3.7627513E0,1.1884615E0,3.2121036E0,1.1281296E0],"tree_param":{"num_deleted":"0","num_feature":"11","num_nodes":"13","size_leaf_vector":"1"}},{"base_weights":[-7.468052E-2,3.2793364E-1,-3.8485044E-1,5.507711E-1,-0E0,-3.6075458E-2,-0E0,-0E0,3.1849727E-2,1.904708E-2,-2.3475744E-2],"categories":[],"categories_nodes":[],"categories_segments":[],"categories_sizes":[],"default_left":[0,0,0,0,0,0,0,0,0,0,0],"id":88,"left_children":[1,3,5,7,-1,-1,9,-1,-1,-1,-1],"loss_changes":[2.090971E0,7.2272354E-1,1.306525E0,7.2947025E-2,0E0,0E0,1.1756511E0,0E0,0E0,0E0,0E0],"parents":[2147483647,0,0,1,1,2,2,3,3,6,6],"right_children":[2,4,6,8,-1,-1,10,-1,-1,-1,-1],"split_conditions":[9.615118E1,5.3E1,1.125E3,1.1846277E3,-0E0,-3.6075458E-2,1.326E3,-0E0,3.1849727E-2,1.904708E-2,-2.3475744E-2],"split_indices":[3,7,0,5,0,0,6,0,0,0,0],"split_type":[0,0,0,0,0,0,0,0,0,0,0],"sum_hessian":[1.4505489E1,5.5857067E0,8.919783E0,3.7171888E0,1.868518E0,4.3320665E0,4.5877166E0,1.0108277E0,2.7063613E0,2.671596E0,1.9161205E0],"tree_param":{"num_deleted":"0","num_feature":"11","num_nodes":"11","size_leaf_vector":"1"}},{"base_weights":[-0E0,2.6650172E-1,-3.348558E-2,-3.0414477E-1,5.0488776E-1,-2.4064174E-2,-0E0,3.612305E-2,-0E0],"categories":[],"categories_nodes":[],"categories_segments":[],"categories_sizes":[],"default_left":[0,0,0,0,0,0,0,0,0],"id":89,"left_children":[1,3,-1,5,7,-1,-1,-1,-1],"loss_changes":[2.7868567E0,1.8479632E0,0E0,1.9571996E-1,1.0621338E0,0E0,0E0,0E0,0E0],"parents":[2147483647,0,0,1,1,3,3,4,4],"right_children":[2,4,-1,6,8,-1,-1,-1,-1],"split_conditions":[9.4E1,1.6784318E3,-3.348558E-2,1.097E3,7E1,-2.4064174E-2,-0E0,3.612305E-2,-0E0],"split_indices":[7,1,0,0,7,0,0,0,0],"split_type":[0,0,0,0,0,0,0,0,0],"sum_hessian":[1.4075868E1,1.0717884E1,3.3579843E0,2.458783E0,8.259101E0,1.2262357E0,1.2325472E0,5.5569263E0,2.7021744E0],"tree_param":{"num_deleted":"0","num_feature":"11","num_nodes":"9","size_leaf_vector":"1"}},{"base_weights":[-1.733644E-1,1.5429124E-1,-6.753751E-1,-2.7772188E-1,5.6174374E-1,-0E0,-4.8968747E-2,-2.5058037E-2,-0E0,3.6353968E-2,-0E0],"categories":[],"categories_nodes":[],"categories_segments":[],"categories_sizes":[],"default_left":[0,0,0,0,0,0,0,0,0,0,0],"id":90,"left_children":[1,3,5,7,9,-1,-1,-1,-1,-1,-1],"loss_changes":[2.8282487E0,1.9303931E0,1.6488547E0,5.274818E-1,6.811482E-1,0E0,0E0,0E0,0E0,0E0,0E0],"parents":[2147483647,0,0,1,1,2,2,3,3,4,4],"right_children":[2,4,6,8,10,-1,-1,-1,-1,-1,-1],"split_conditions":[6.936141E1,1.698E3,1.7091881E3,3.872E3,4.003E3,-0E0,-4.8968747E-2,-2.5058037E-2,-0E0,3.6353968E-2,-0E0],"split_indices":[7,1,1,10,10,0,0,0,0,0,0],"split_type":[0,0,0,0,0,0,0,0,0,0,0],"sum_hessian":[1.3976914E1,8.273542E0,5.703371E0,3.5746624E0,4.6988807E0,1.7965789E0,3.9067922E0,2.5049999E0,1.0696625E0,3.6902313E0,1.0086492E0],"tree_param":{"num_deleted":"0","num_feature":"11","num_nodes":"11","size_leaf_vector":"1"}},{"base_weights":[3.5542971E-3,-2.958933E-1,2.9900724E-1,-4.3788876E-2,2.6893629E-2,-9.19186E-3,4.6969387E-1,-0E0,2.8531466E-2],"categories":[],"categories_nodes":[],"categories_segments":[],"categories_sizes":[],"default_left":[0,0,0,0,0,0,0,0,0],"id":91,"left_children":[1,3,5,-1,-1,-1,7,-1,-1],"loss_changes":[1.3298122E0,3.8415043E0,9.208604E-1,0E0,0E0,0E0,4.190166E-1,0E0,0E0],"parents":[2147483647,0,0,1,1,2,2,6,6],"right_children":[2,4,6,-1,-1,-1,8,-1,-1],"split_conditions":[3.692E3,7.239003E0,2.420104E0,-4.3788876E-2,2.6893629E-2,-9.19186E-3,1.24E3,-0E0,2.8531466E-2],"split_indices":[10,9,9,0,0,0,4,0,0],"split_type":[0,0,0,0,0,0,0,0,0],"sum_hessian":[1.3013152E1,5.6216683E0,7.391484E0,3.639616E0,1.9820524E0,1.1452813E0,6.2462025E0,1.0499256E0,5.196277E0],"tree_param":{"num_deleted":"0","num_feature":"11","num_nodes":"9","size_leaf_vector":"1"}},{"base_weights":[-1.6558762E-1,2.3675834E-1,-5.180871E-1,-1.7731772E-1,3.1809743E-2,-0E0,-7.888838E-1,-1.7212756E-2,-0E0,-2.29565E-2,1.6288979E-2,-0E0,-5.37435E-2],"categories":[],"categories_nodes":[],"categories_segments":[],"categories_sizes":[],"default_left":[0,0,0,0,0,0,0,0,0,0,0,0,0],"id":92,"left_children":[1,3,5,7,-1,9,11,-1,-1,-1,-1,-1,-1],"loss_changes":[2.258858E0,1.4329587E0,1.1771755E0,1.771451E-1,0E0,7.39213E-1,1.5834875E0,0E0,0E0,0E0,0E0,0E0,0E0],"parents":[2147483647,0,0,1,1,2,2,3,3,5,5,6,6],"right_children":[2,4,6,8,-1,10,12,-1,-1,-1,-1,-1,-1],"split_conditions":[9.615118E1,1.689E3,1.7118801E3,1.2902676E3,3.1809743E-2,1.2757672E3,6.9059944E1,-1.7212756E-2,-0E0,-2.29565E-2,1.6288979E-2,-0E0,-5.37435E-2],"split_indices":[3,1,1,2,0,2,7,0,0,0,0,0,0],"split_type":[0,0,0,0,0,0,0,0,0,0,0,0,0],"sum_hessian":[1.3070209E1,5.5945E0,7.475708E0,2.4053307E0,3.1891694E0,2.9285963E0,4.547112E0,1.3981961E0,1.0071344E0,1.0649059E0,1.8636904E0,1.1885341E0,3.358578E0],"tree_param":{"num_deleted":"0","num_feature":"11","num_nodes":"13","size_leaf_vector":"1"}},{"base_weights":[-4.81306E-2,7.319293E-2,-2.955826E-2,-1.1433556E-1,3.231559E-1,1.0628718E-2,-4.5982517E-2,-0E0,3.2120302E-2],"categories":[],"categories_nodes":[],"categories_segments":[],"categories_sizes":[],"default_left":[0,0,0,0,0,0,0,0,0],"id":93,"left_children":[1,3,-1,5,7,-1,-1,-1,-1],"loss_changes":[1.22398E0,6.838304E-1,0E0,2.1833556E0,8.4673077E-1,0E0,0E0,0E0,0E0],"parents":[2147483647,0,0,1,1,3,3,4,4],"right_children":[2,4,-1,6,8,-1,-1,-1,-1],"split_conditions":[1.0755074E2,1.9356863E0,-2.955826E-2,3.139913E0,1.219E3,1.0628718E-2,-4.5982517E-2,-0E0,3.2120302E-2],"split_indices":[3,8,0,9,5,0,0,0,0],"split_type":[0,0,0,0,0,0,0,0,0],"sum_hessian":[1.2990355E1,1.0572692E1,2.417663E0,5.2078934E0,5.3647985E0,3.786116E0,1.4217776E0,2.7024336E0,2.662365E0],"tree_param":{"num_deleted":"0","num_feature":"11","num_nodes":"9","size_leaf_vector":"1"}},{"base_weights":[6.021081E-2,2.8598472E-1,-2.7686317E-2,-0E0,5.408617E-1,-2.1449529E-2,2.3078905E-2,-0E0,3.5563145E-2],"categories":[],"categories_nodes":[],"categories_segments":[],"categories_sizes":[],"default_left":[0,0,0,0,0,0,0,0,0],"id":94,"left_children":[1,3,-1,5,7,-1,-1,-1,-1],"loss_changes":[1.8205097E0,1.0004568E0,0E0,1.2360697E0,7.349582E-1,0E0,0E0,0E0,0E0],"parents":[2147483647,0,0,1,1,3,3,4,4],"right_children":[2,4,-1,6,8,-1,-1,-1,-1],"split_conditions":[1.0755074E2,1.125E3,-2.7686317E-2,2.5964549E0,2.4704728E0,-2.1449529E-2,2.3078905E-2,-0E0,3.5563145E-2],"split_indices":[3,0,0,8,9,0,0,0,0],"split_type":[0,0,0,0,0,0,0,0,0],"sum_hessian":[1.1957293E1,9.728321E0,2.228972E0,4.30885E0,5.4194713E0,2.723393E0,1.5854566E0,1.2546535E0,4.164818E0],"tree_param":{"num_deleted":"0","num_feature":"11","num_nodes":"9","size_leaf_vector":"1"}},{"base_weights":[-0E0,1.6079278E-1,-2.9478237E-2,-8.420557E-2,4.807372E-1,2.7361177E-3,-2.8782493E-2,-0E0,3.4640353E-2],"categories":[],"categories_nodes":[],"categories_segments":[],"categories_sizes":[],"default_left":[0,0,0,0,0,0,0,0,0],"id":95,"left_children":[1,3,-1,5,7,-1,-1,-1,-1],"loss_changes":[1.4889357E0,1.1123424E0,0E0,7.205667E-1,9.07215E-1,0E0,0E0,0E0,0E0],"parents":[2147483647,0,0,1,1,3,3,4,4],"right_children":[2,4,-1,6,8,-1,-1,-1,-1],"split_conditions":[1.0690562E2,1.9341506E0,-2.9478237E-2,1.1563198E3,1.085E3,2.7361177E-3,-2.8782493E-2,-0E0,3.4640353E-2],"split_indices":[3,8,0,0,0,0,0,0,0],"split_type":[0,0,0,0,0,0,0,0,0],"sum_hessian":[1.2599475E1,1.0144814E1,2.4546616E0,5.2775526E0,4.8672605E0,4.014049E0,1.2635033E0,1.1521072E0,3.7151535E0],"tree_param":{"num_deleted":"0","num_feature":"11","num_nodes":"9","size_leaf_vector":"1"}},{"base_weights":[-1.0149449E-1,6.0762245E-2,-3.157372E-2,-2.3762967E-1,3.6753187E-1,-4.0621538E-2,9.62429E-3,3.6566194E-2,-2.4032746E-3],"categories":[],"categories_nodes":[],"categories_segments":[],"categories_sizes":[],"default_left":[0,0,0,0,0,0,0,0,0],"id":96,"left_children":[1,3,-1,5,7,-1,-1,-1,-1],"loss_changes":[1.4445374E0,1.0831017E0,0E0,1.68664E0,1.31913E0,0E0,0E0,0E0,0E0],"parents":[2147483647,0,0,1,1,3,3,4,4],"right_children":[2,4,-1,6,8,-1,-1,-1,-1],"split_conditions":[9.4E1,3.692E3,-3.157372E-2,7.239003E0,1.717E3,-4.0621538E-2,9.62429E-3,3.6566194E-2,-2.4032746E-3],"split_indices":[7,10,0,9,1,0,0,0,0],"split_type":[0,0,0,0,0,0,0,0,0],"sum_hessian":[1.2033782E1,9.168656E0,2.865125E0,3.9358172E0,5.2328396E0,1.8016826E0,2.1341348E0,3.0267642E0,2.2060754E0],"tree_param":{"num_deleted":"0","num_feature":"11","num_nodes":"9","size_leaf_vector":"1"}},{"base_weights":[-0E0,-4.5404315E-1,3.2694724E-1,1.3894594E-2,-3.7404392E-2,5.7163006E-1,-0E0,3.6636245E-2,-0E0,-4.086585E-2,2.4756392E-2],"categories":[],"categories_nodes":[],"categories_segments":[],"categories_sizes":[],"default_left":[0,0,0,0,0,0,0,0,0,0,0],"id":97,"left_children":[1,3,5,-1,-1,7,9,-1,-1,-1,-1],"loss_changes":[2.2699652E0,1.8932545E0,6.0811305E-1,0E0,0E0,2.4009097E-1,2.2711024E0,0E0,0E0,0E0,0E0],"parents":[2147483647,0,0,1,1,2,2,5,5,6,6],"right_children":[2,4,6,-1,-1,8,10,-1,-1,-1,-1],"split_conditions":[1.119E3,3.898779E1,1.326E3,1.3894594E-2,-3.7404392E-2,2.0058439E0,1.268E3,3.6636245E-2,-0E0,-4.086585E-2,2.4756392E-2],"split_indices":[0,7,6,0,0,8,5,0,0,0,0],"split_type":[0,0,0,0,0,0,0,0,0,0,0],"sum_hessian":[1.2978301E1,5.73849E0,7.239811E0,1.1730499E0,4.56544E0,3.5565531E0,3.683258E0,2.220414E0,1.3361391E0,1.0759872E0,2.6072707E0],"tree_param":{"num_deleted":"0","num_feature":"11","num_nodes":"11","size_leaf_vector":"1"}},{"base_weights":[-0E0,3.2547528E-1,-5.1082635E-1,-0E0,4.7606966E-1,-3.242219E-2,-0E0,3.157724E-2,-0E0],"categories":[],"categories_nodes":[],"categories_segments":[],"categories_sizes":[],"default_left":[0,0,0,0,0,0,0,0,0],"id":98,"left_children":[1,3,5,-1,7,-1,-1,-1,-1],"loss_changes":[2.292542E0,5.638076E-1,2.8743088E-1,0E0,5.2166045E-1,0E0,0E0,0E0,0E0],"parents":[2147483647,0,0,1,1,2,2,4,4],"right_children":[2,4,6,-1,8,-1,-1,-1,-1],"split_conditions":[7.2E1,1.9310077E0,1.1383025E3,-0E0,3.858E3,-3.242219E-2,-0E0,3.157724E-2,-0E0],"split_indices":[7,8,0,0,10,0,0,0,0],"split_type":[0,0,0,0,0,0,0,0,0],"sum_hessian":[1.1456622E1,6.8632464E0,4.5933757E0,1.7002578E0,5.1629887E0,3.1547496E0,1.438626E0,3.809978E0,1.3530107E0],"tree_param":{"num_deleted":"0","num_feature":"11","num_nodes":"9","size_leaf_vector":"1"}},{"base_weights":[8.141392E-2,3.8479862E-1,-2.7798155E-1,-0E0,6.029973E-1,1.857528E-2,-4.0820733E-2,1.259198E-3,-5.951218E-3,3.5842095E-2,-0E0],"categories":[],"categories_nodes":[],"categories_segments":[],"categories_sizes":[],"default_left":[0,0,0,0,0,0,0,0,0,0,0],"id":99,"left_children":[1,3,5,7,9,-1,-1,-1,-1,-1,-1],"loss_changes":[1.572475E0,8.345041E-1,2.5380979E0,3.644805E-2,2.8961992E-1,0E0,0E0,0E0,0E0,0E0,0E0],"parents":[2147483647,0,0,1,1,2,2,3,3,4,4],"right_children":[2,4,6,8,10,-1,-1,-1,-1,-1,-1],"split_conditions":[7.2E1,1.689E3,1.7118801E3,4.1137993E1,1.759E3,1.857528E-2,-4.0820733E-2,1.259198E-3,-5.951218E-3,3.5842095E-2,-0E0],"split_indices":[7,1,1,7,1,0,0,0,0,0,0],"split_type":[0,0,0,0,0,0,0,0,0,0,0],"sum_hessian":[1.1950871E1,7.1964827E0,4.7543893E0,2.5635757E0,4.632907E0,1.8745768E0,2.8798122E0,1.0840986E0,1.4794772E0,3.549424E0,1.083483E0],"tree_param":{"num_deleted":"0","num_feature":"11","num_nodes":"11","size_leaf_vector":"1"}}]},"name":"gbtree"},"learner_model_param":{"base_score":"1.6613418E-1","boost_from_average":"1","num_class":"0","num_feature":"11","num_target":"1"},"objective":{"name":"binary:logistic","reg_loss_param":{"scale_pos_weight":"1"}}},"version":[3,0,0]}