{"learner":{"attributes":{"scikit_learn":"{\"_estimator_type\": \"classifier\"}"},"feature_names":["Min_Temp","Max_Temp","Mean_Temp","Std_Temp","Median_Temp","Q1","Q3","IQR","Skewness","Kurtosis","High_Temp_Pixels"],"feature_types":["float","float","float","float","float","float","float","float","float","float","int"],"gradient_booster":{"model":{"gbtree_model_param":{"num_parallel_tree":"1","num_trees":"100"},"iteration_indptr":[0,1,2,3,4,5,6,7,8,9,10,11,12,13,14,15,16,17,18,19,20,21,22,23,24,25,26,27,28,29,30,31,32,33,34,35,36,37,38,39,40,41,42,43,44,45,46,47,48,49,50,51,52,53,54,55,56,57,58,59,60,61,62,63,64,65,66,67,68,69,70,71,72,73,74,75,76,77,78,79,80,81,82,83,84,85,86,87,88,89,90,91,92,93,94,95,96,97,98,99,100],"tree_info":[0,0,0,0,0,0,0,0,0,0,0,0,0,0,0,0,0,0,0,0,0,0,0,0,0,0,0,0,0,0,0,0,0,0,0,0,0,0,0,0,0,0,0,0,0,0,0,0,0,0,0,0,0,0,0,0,0,0,0,0,0,0,0,0,0,0,0,0,0,0,0,0,0,0,0,0,0,0,0,0,0,0,0,0,0,0,0,0,0,0,0,0,0,0,0,0,0,0,0,0],"trees":[{"base_weights":[-0E0,2.5171232E-1,-1.0485021E0,-1.1572835E0,5.5516005E-1,-0E0,-5.921154E-2,-3.5204083E-2,1.289256E-1],"categories":[],"categories_nodes":[],"categories_segments":[],"categories_sizes":[],"default_left":[0,0,0,0,0,0,0,0,0],"id":0,"left_children":[1,-1,3,5,7,-1,-1,-1,-1],"loss_changes":[7.4513666E2,0E0,2.1324951E1,3.8260498E0,2.2640392E1,0E0,0E0,0E0,0E0],"parents":[2147483647,0,0,2,2,3,3,4,4],"right_children":[2,-1,4,6,8,-1,-1,-1,-1],"split_conditions":[1.0045411E2,2.5171232E-1,1.242512E3,1.027235E2,1.8388554E0,-0E0,-5.921154E-2,-3.5204083E-2,1.289256E-1],"split_indices":[3,0,5,3,8,0,0,0,0],"split_type":[0,0,0,0,0,0,0,0,0],"sum_hessian":[1.3916667E2,2.3333334E1,1.15833336E2,1.0902779E2,6.805556E0,2.2222223E0,1.0680556E2,4.4444447E0,2.3611112E0],"tree_param":{"num_deleted":"0","num_feature":"11","num_nodes":"9","size_leaf_vector":"1"}},{"base_weights":[4.705861E-3,4.155377E0,-1.0307574E0,4.0468108E-2,2.1350689E-1,-1.1632199E0,7.3803276E-1,-0E0,-5.8630295E-2,1.3246796E-1,-1.2848392E-2],"categories":[],"categories_nodes":[],"categories_segments":[],"categories_sizes":[],"default_left":[0,0,0,0,0,0,0,0,0,0,0],"id":1,"left_children":[1,3,5,-1,-1,7,9,-1,-1,-1,-1],"loss_changes":[5.9905176E2,4.6994324E0,2.7118149E1,0E0,0E0,7.8970337E-1,1.7270323E1,0E0,0E0,0E0,0E0],"parents":[2147483647,0,0,1,1,2,2,5,5,6,6],"right_children":[2,4,6,-1,-1,8,10,-1,-1,-1,-1],"split_conditions":[1.0045411E2,1.656E3,3.893E3,4.0468108E-2,2.1350689E-1,3.138E3,1.0459261E2,-0E0,-5.8630295E-2,1.3246796E-1,-1.2848392E-2],"split_indices":[3,1,10,0,0,10,3,0,0,0,0],"split_type":[0,0,0,0,0,0,0,0,0,0,0],"sum_hessian":[1.3702338E2,2.6852903E1,1.1017047E2,1.3019589E0,2.5550943E1,1.0307626E2,7.0942087E0,1.0851383E0,1.0199113E2,2.031562E0,5.0626464E0],"tree_param":{"num_deleted":"0","num_feature":"11","num_nodes":"11","size_leaf_vector":"1"}},{"base_weights":[1.3511964E-2,3.6817489E0,-1.1180346E0,3.8230073E0,-0E0,2.007178E-2,-5.769713E-2,3.878528E-2,1.9579688E-1],"categories":[],"categories_nodes":[],"categories_segments":[],"categories_sizes":[],"default_left":[0,0,0,0,0,0,0,0,0],"id":2,"left_children":[1,3,5,7,-1,-1,-1,-1,-1],"loss_changes":[5.704569E2,1.8146057E1,6.55217E0,3.4859009E0,0E0,0E0,0E0,0E0,0E0],"parents":[2147483647,0,0,1,1,2,2,3,3],"right_children":[2,4,6,8,-1,-1,-1,-1,-1],"split_conditions":[7.4E1,1.0662017E2,8.7E1,1.656E3,-0E0,2.007178E-2,-5.769713E-2,3.878528E-2,1.9579688E-1],"split_indices":[7,3,7,1,0,0,0,0,0],"split_type":[0,0,0,0,0,0,0,0,0],"sum_hessian":[1.351331E2,3.1430418E1,1.0370269E2,3.0319689E1,1.1107296E0,1.8376398E0,1.0186505E2,1.3331026E0,2.8986586E1],"tree_param":{"num_deleted":"0","num_feature":"11","num_nodes":"9","size_leaf_vector":"1"}},{"base_weights":[4.12904E-2,3.1874921E0,-1.1174232E0,1.6577023E-1,-1.9305509E-2,9.31771E-3,-5.7191994E-2],"categories":[],"categories_nodes":[],"categories_segments":[],"categories_sizes":[],"default_left":[0,0,0,0,0,0,0],"id":3,"left_children":[1,3,5,-1,-1,-1,-1],"loss_changes":[5.2181476E2,2.0372345E1,4.2845917E0,0E0,0E0,0E0,0E0],"parents":[2147483647,0,0,1,1,2,2],"right_children":[2,4,6,-1,-1,-1,-1],"split_conditions":[7.4E1,1.1689602E2,8.7E1,1.6577023E-1,-1.9305509E-2,9.31771E-3,-5.7191994E-2],"split_indices":[7,3,7,0,0,0,0],"split_type":[0,0,0,0,0,0,0],"sum_hessian":[1.4087665E2,3.7563316E1,1.03313324E2,3.6470085E1,1.0932343E0,1.5556035E0,1.0175772E2],"tree_param":{"num_deleted":"0","num_feature":"11","num_nodes":"7","size_leaf_vector":"1"}},{"base_weights":[-4.2734247E-2,2.8178627E0,-5.6672603E-2,2.9118142E0,-0E0,4.1549288E-2,1.485576E-1],"categories":[],"categories_nodes":[],"categories_segments":[],"categories_sizes":[],"default_left":[0,0,0,0,0,0,0],"id":4,"left_children":[1,3,-1,5,-1,-1,-1],"loss_changes":[4.2596725E2,1.0911407E1,0E0,1.4105225E-1,0E0,0E0,0E0],"parents":[2147483647,0,0,1,1,3,3],"right_children":[2,4,-1,6,-1,-1,-1],"split_conditions":[8.7E1,1.09740974E2,-5.6672603E-2,1.066E3,-0E0,4.1549288E-2,1.485576E-1],"split_indices":[7,3,0,0,0,0,0],"split_type":[0,0,0,0,0,0,0],"sum_hessian":[1.3476968E2,3.663807E1,9.813161E1,3.5535355E1,1.1027168E0,1.6348825E0,3.390047E1],"tree_param":{"num_deleted":"0","num_feature":"11","num_nodes":"7","size_leaf_vector":"1"}},{"base_weights":[1.3780176E-3,2.5934327E0,-1.0973217E0,1.330805E-1,1.0548119E-2,-0E0,-5.6192752E-2],"categories":[],"categories_nodes":[],"categories_segments":[],"categories_sizes":[],"default_left":[0,0,0,0,0,0,0],"id":5,"left_children":[1,3,5,-1,-1,-1,-1],"loss_changes":[3.9626892E2,4.7396545E0,3.3596115E0,0E0,0E0,0E0,0E0],"parents":[2147483647,0,0,1,1,2,2],"right_children":[2,4,6,-1,-1,-1,-1],"split_conditions":[7.4E1,4.215E3,9.912502E1,1.330805E-1,1.0548119E-2,-0E0,-5.6192752E-2],"split_indices":[7,10,3,0,0,0,0],"split_type":[0,0,0,0,0,0,0],"sum_hessian":[1.368828E2,4.0479088E1,9.640371E1,3.9035023E1,1.4440643E0,1.8850299E0,9.4518684E1],"tree_param":{"num_deleted":"0","num_feature":"11","num_nodes":"7","size_leaf_vector":"1"}},{"base_weights":[-4.989997E-2,2.290593E0,-5.58124E-2,-2.3303129E-2,2.3845115E0,1.2254244E-1,2.0094793E-2],"categories":[],"categories_nodes":[],"categories_segments":[],"categories_sizes":[],"default_left":[0,0,0,0,0,0,0],"id":6,"left_children":[1,3,-1,-1,5,-1,-1],"loss_changes":[3.309625E2,1.2799576E1,0E0,0E0,2.9039917E0,0E0,0E0],"parents":[2147483647,0,0,1,1,4,4],"right_children":[2,4,-1,-1,6,-1,-1],"split_conditions":[8.1E1,1.642E3,-5.58124E-2,-2.3303129E-2,4.162E3,1.2254244E-1,2.0094793E-2],"split_indices":[7,1,0,0,10,0,0],"split_type":[0,0,0,0,0,0,0],"sum_hessian":[1.3081963E2,4.0440693E1,9.037894E1,1.0264546E0,3.9414238E1,3.7665604E1,1.7486355E0],"tree_param":{"num_deleted":"0","num_feature":"11","num_nodes":"7","size_leaf_vector":"1"}},{"base_weights":[-7.9366386E-2,2.143056E0,-1.1073182E0,1.1024221E-1,-0E0,-0E0,-5.5815555E-2],"categories":[],"categories_nodes":[],"categories_segments":[],"categories_sizes":[],"default_left":[0,0,0,0,0,0,0],"id":7,"left_children":[1,3,5,-1,-1,-1,-1],"loss_changes":[2.9654294E2,6.0117493E0,4.614334E-1,0E0,0E0,0E0,0E0],"parents":[2147483647,0,0,1,1,2,2],"right_children":[2,4,6,-1,-1,-1,-1],"split_conditions":[8.1E1,1.09740974E2,9.912502E1,1.1024221E-1,-0E0,-0E0,-5.5815555E-2],"split_indices":[7,3,3,0,0,0,0],"split_type":[0,0,0,0,0,0,0],"sum_hessian":[1.2799201E2,3.9981403E1,8.801061E1,3.8953312E1,1.0280912E0,1.0580623E0,8.6952545E1],"tree_param":{"num_deleted":"0","num_feature":"11","num_nodes":"7","size_leaf_vector":"1"}},{"base_weights":[-5.3423797E-3,1.8752636E0,-1.0214171E0,-2.4014885E-2,1.9534558E0,-1.0871083E0,6.659507E-2,-0E0,1.0064232E-1,-8.201499E-3,-5.5398233E-2],"categories":[],"categories_nodes":[],"categories_segments":[],"categories_sizes":[],"default_left":[0,0,0,0,0,0,0,0,0,0,0],"id":8,"left_children":[1,3,5,-1,7,9,-1,-1,-1,-1,-1],"loss_changes":[2.4454962E2,9.926132E0,1.421891E1,0E0,4.645706E0,7.5891113E-1,0E0,0E0,0E0,0E0,0E0],"parents":[2147483647,0,0,1,1,2,2,4,4,5,5],"right_children":[2,4,6,-1,8,10,-1,-1,-1,-1,-1],"split_conditions":[1.027235E2,1.642E3,1.173E3,-2.4014885E-2,1.6651177E0,1.04363E2,6.659507E-2,-0E0,1.0064232E-1,-8.201499E-3,-5.5398233E-2],"split_indices":[3,1,0,0,8,3,0,0,0,0,0],"split_type":[0,0,0,0,0,0,0,0,0,0,0],"sum_hessian":[1.2620143E2,4.3798717E1,8.240271E1,1.0365105E0,4.2762207E1,8.089511E1,1.5076045E0,1.3977365E0,4.136447E1,2.5129542E0,7.838216E1],"tree_param":{"num_deleted":"0","num_feature":"11","num_nodes":"11","size_leaf_vector":"1"}},{"base_weights":[-4.071782E-2,1.6849489E0,-1.0091643E0,9.822003E-1,9.840619E-2,-5.5006217E-2,1.1722224E0,-3.9161187E-2,8.527673E-2,1.7795021E-3,7.332942E-2],"categories":[],"categories_nodes":[],"categories_segments":[],"categories_sizes":[],"default_left":[0,0,0,0,0,0,0,0,0,0,0],"id":9,"left_children":[1,3,5,7,-1,-1,9,-1,-1,-1,-1],"loss_changes":[2.0498866E2,5.345337E0,1.6899948E1,2.1127306E1,0E0,0E0,3.412032E-1,0E0,0E0,0E0,0E0],"parents":[2147483647,0,0,1,1,2,2,3,3,6,6],"right_children":[2,4,6,8,-1,-1,10,-1,-1,-1,-1],"split_conditions":[1.0349092E2,1.2157471E3,1.1597006E3,2.3139672E0,9.840619E-2,-5.5006217E-2,1.8720928E0,-3.9161187E-2,8.527673E-2,1.7795021E-3,7.332942E-2],"split_indices":[3,5,0,8,0,0,8,0,0,0,0],"split_type":[0,0,0,0,0,0,0,0,0,0,0],"sum_hessian":[1.2084312E2,4.298765E1,7.785547E1,1.4137398E1,2.8850252E1,7.543486E1,2.42061E0,3.883935E0,1.0253463E1,1.0779198E0,1.3426901E0],"tree_param":{"num_deleted":"0","num_feature":"11","num_nodes":"11","size_leaf_vector":"1"}},{"base_weights":[-2.0519739E-2,1.8104208E0,-5.47372E-2,1.8724194E0,-0E0,9.5822975E-2,1.7855829E-2],"categories":[],"categories_nodes":[],"categories_segments":[],"categories_sizes":[],"default_left":[0,0,0,0,0,0,0],"id":10,"left_children":[1,3,-1,5,-1,-1,-1],"loss_changes":[2.379627E2,5.9155426E0,0E0,1.0761719E0,0E0,0E0,0E0],"parents":[2147483647,0,0,1,1,3,3],"right_children":[2,4,-1,6,-1,-1,-1],"split_conditions":[8.7E1,1.0662017E2,-5.47372E-2,7.4E1,-0E0,9.5822975E-2,1.7855829E-2],"split_indices":[7,3,0,7,0,0,0],"split_type":[0,0,0,0,0,0,0],"sum_hessian":[1.1916154E2,4.3636086E1,7.552545E1,4.241637E1,1.2197137E0,4.0640507E1,1.775864E0],"tree_param":{"num_deleted":"0","num_feature":"11","num_nodes":"7","size_leaf_vector":"1"}},{"base_weights":[1.1905922E-2,1.5479023E0,-1.0036238E0,-2.616857E-2,1.6150831E0,-1.0751566E0,6.0790177E-2,9.068786E-2,4.012327E-2,-0E0,-5.4311175E-2],"categories":[],"categories_nodes":[],"categories_segments":[],"categories_sizes":[],"default_left":[0,0,0,0,0,0,0,0,0,0,0],"id":11,"left_children":[1,3,5,-1,7,9,-1,-1,-1,-1,-1],"loss_changes":[1.9283797E2,8.255089E0,1.3005516E1,0E0,5.0272675E0,4.1426086E-1,0E0,0E0,0E0,0E0,0E0],"parents":[2147483647,0,0,1,1,2,2,4,4,5,5],"right_children":[2,4,6,-1,8,10,-1,-1,-1,-1,-1],"split_conditions":[1.027235E2,1.642E3,1.173E3,-2.616857E-2,9.701808E1,1.037565E2,6.0790177E-2,9.068786E-2,4.012327E-2,-0E0,-5.4311175E-2],"split_indices":[3,1,0,0,3,3,0,0,0,0,0],"split_type":[0,0,0,0,0,0,0,0,0,0,0],"sum_hessian":[1.2145557E2,4.8327694E1,7.312788E1,1.0711015E0,4.725659E1,7.1562256E1,1.5656137E0,3.648838E1,1.07682085E1,1.1199529E0,7.044231E1],"tree_param":{"num_deleted":"0","num_feature":"11","num_nodes":"11","size_leaf_vector":"1"}},{"base_weights":[-9.019997E-3,1.4540074E0,-9.945344E-1,1.5982555E0,1.7720723E-1,-1.0676148E0,6.626336E-1,4.0686905E-4,8.32854E-2,-3.5834663E-2,4.2913407E-2,-0E0,-5.396091E-2,-0E0,5.4136116E-2],"categories":[],"categories_nodes":[],"categories_segments":[],"categories_sizes":[],"default_left":[0,0,0,0,0,0,0,0,0,0,0,0,0,0,0],"id":12,"left_children":[1,3,5,7,9,11,13,-1,-1,-1,-1,-1,-1,-1,-1],"loss_changes":[1.70253E2,7.5569305E0,9.490135E0,3.6652603E0,4.513378E0,3.1375122E-1,1.2335382E0,0E0,0E0,0E0,0E0,0E0,0E0,0E0,0E0],"parents":[2147483647,0,0,1,1,2,2,3,3,4,4,5,5,6,6],"right_children":[2,4,6,8,10,12,14,-1,-1,-1,-1,-1,-1,-1,-1],"split_conditions":[1.027235E2,9.82739E1,1.1597006E3,1.066E3,1.121E3,1.037565E2,1.8720928E0,4.0686905E-4,8.32854E-2,-3.5834663E-2,4.2913407E-2,-0E0,-5.396091E-2,-0E0,5.4136116E-2],"split_indices":[3,3,0,0,0,3,8,0,0,0,0,0,0,0,0],"split_type":[0,0,0,0,0,0,0,0,0,0,0,0,0,0,0],"sum_hessian":[1.1623723E2,4.638882E1,6.9848404E1,4.110191E1,5.2869105E0,6.752793E1,2.3204734E0,2.0198317E0,3.9082077E1,1.9461277E0,3.3407829E0,1.196263E0,6.633167E1,1.0245333E0,1.2959402E0],"tree_param":{"num_deleted":"0","num_feature":"11","num_nodes":"15","size_leaf_vector":"1"}},{"base_weights":[2.2258263E-2,1.671691E0,-1.0418499E0,8.5743986E-2,2.3437212E-3,-0E0,-5.3091764E-2],"categories":[],"categories_nodes":[],"categories_segments":[],"categories_sizes":[],"default_left":[0,0,0,0,0,0,0],"id":13,"left_children":[1,3,5,-1,-1,-1,-1],"loss_changes":[1.988085E2,2.163391E0,1.2651443E0,0E0,0E0,0E0,0E0],"parents":[2147483647,0,0,1,1,2,2],"right_children":[2,4,6,-1,-1,-1,-1],"split_conditions":[7.4E1,4.162E3,8.6E1,8.5743986E-2,2.3437212E-3,-0E0,-5.3091764E-2],"split_indices":[7,10,7,0,0,0,0],"split_type":[0,0,0,0,0,0,0],"sum_hessian":[1.1109821E2,4.3527233E1,6.757098E1,4.204645E1,1.4807842E0,1.4348516E0,6.613612E1],"tree_param":{"num_deleted":"0","num_feature":"11","num_nodes":"7","size_leaf_vector":"1"}},{"base_weights":[-8.1472956E-2,1.2904551E0,-1.0030094E0,1.4659382E0,5.9266114E-1,-5.3417243E-2,4.4402335E-2,1.7339258E-2,7.632338E-2,-3.4027293E-2,5.3376645E-2],"categories":[],"categories_nodes":[],"categories_segments":[],"categories_sizes":[],"default_left":[0,0,0,0,0,0,0,0,0,0,0],"id":14,"left_children":[1,3,5,7,9,-1,-1,-1,-1,-1,-1],"loss_changes":[1.3442062E2,3.315216E0,8.926125E0,7.5380707E-1,7.4537306E0,0E0,0E0,0E0,0E0,0E0,0E0],"parents":[2147483647,0,0,1,1,2,2,3,3,4,4],"right_children":[2,4,6,8,10,-1,-1,-1,-1,-1,-1],"split_conditions":[1.0349092E2,9.768091E1,1.173E3,1.6645676E3,1.212E3,-5.3417243E-2,4.4402335E-2,1.7339258E-2,7.632338E-2,-3.4027293E-2,5.3376645E-2],"split_indices":[3,3,0,1,5,0,0,0,0,0,0],"split_type":[0,0,0,0,0,0,0,0,0,0,0],"sum_hessian":[1.0441164E2,4.157475E1,6.283689E1,3.1768227E1,9.806523E0,6.1414494E1,1.4223963E0,2.3991442E0,2.9369081E1,2.260291E0,7.5462317E0],"tree_param":{"num_deleted":"0","num_feature":"11","num_nodes":"11","size_leaf_vector":"1"}},{"base_weights":[-4.2086043E-3,1.3229362E0,-9.6759725E-1,-2.8361766E-2,1.3951563E0,-1.0361397E0,4.8018187E-2,7.7694714E-2,4.132503E-2,-3.5629328E-3,-5.3094875E-2],"categories":[],"categories_nodes":[],"categories_segments":[],"categories_sizes":[],"default_left":[0,0,0,0,0,0,0,0,0,0,0],"id":15,"left_children":[1,3,5,-1,7,9,-1,-1,-1,-1,-1],"loss_changes":[1.3631195E2,7.3049316E0,9.235184E0,0E0,1.4595718E0,8.655853E-1,0E0,0E0,0E0,0E0,0E0],"parents":[2147483647,0,0,1,1,2,2,4,4,5,5],"right_children":[2,4,6,-1,8,10,-1,-1,-1,-1,-1],"split_conditions":[1.027235E2,1.642E3,1.173E3,-2.8361766E-2,9.620085E1,1.04363E2,4.8018187E-2,7.7694714E-2,4.132503E-2,-3.5629328E-3,-5.3094875E-2],"split_indices":[3,1,0,0,3,3,0,0,0,0,0],"split_type":[0,0,0,0,0,0,0,0,0,0,0],"sum_hessian":[1.04751755E2,4.3682884E1,6.106887E1,1.1005809E0,4.2582302E1,5.966943E1,1.3994415E0,3.1247772E1,1.133453E1,2.154139E0,5.751529E1],"tree_param":{"num_deleted":"0","num_feature":"11","num_nodes":"11","size_leaf_vector":"1"}},{"base_weights":[1.4684292E-2,1.4382334E0,-1.0498112E0,1.4768544E0,-0E0,-3.919099E-3,-5.3069312E-2,3.1562492E-3,7.512284E-2],"categories":[],"categories_nodes":[],"categories_segments":[],"categories_sizes":[],"default_left":[0,0,0,0,0,0,0,0,0],"id":16,"left_children":[1,3,5,7,-1,-1,-1,-1,-1],"loss_changes":[1.5772379E2,2.1051254E0,1.3549805E-2,6.9078064E-1,0E0,0E0,0E0,0E0,0E0],"parents":[2147483647,0,0,1,1,2,2,3,3],"right_children":[2,4,6,8,-1,-1,-1,-1,-1],"split_conditions":[8.1E1,1.09740974E2,8.9E1,1.05604E3,-0E0,-3.919099E-3,-5.3069312E-2,3.1562492E-3,7.512284E-2],"split_indices":[7,3,7,0,0,0,0,0,0],"split_type":[0,0,0,0,0,0,0,0,0],"sum_hessian":[1.0195873E2,4.3673203E1,5.828553E1,4.2332436E1,1.3407677E0,1.2864742E0,5.6999054E1,1.1620244E0,4.117041E1],"tree_param":{"num_deleted":"0","num_feature":"11","num_nodes":"9","size_leaf_vector":"1"}},{"base_weights":[-4.9898047E-3,1.3704861E0,-1.0142399E0,-3.1547915E-2,7.278358E-2,-9.3582414E-2,-5.271123E-2,-3.272813E-2,2.6363147E-2],"categories":[],"categories_nodes":[],"categories_segments":[],"categories_sizes":[],"default_left":[0,0,0,0,0,0,0,0,0],"id":17,"left_children":[1,3,5,-1,-1,7,-1,-1,-1],"loss_changes":[1.377073E2,8.462318E0,1.4440384E0,0E0,0E0,1.8057684E0,0E0,0E0,0E0],"parents":[2147483647,0,0,1,1,2,2,5,5],"right_children":[2,4,6,-1,-1,8,-1,-1,-1],"split_conditions":[7.4E1,1.642E3,1.707E3,-3.1547915E-2,7.278358E-2,1.113E3,-5.271123E-2,-3.272813E-2,2.6363147E-2],"split_indices":[7,1,1,0,0,0,0,0,0],"split_type":[0,0,0,0,0,0,0,0,0],"sum_hessian":[9.732552E1,4.0828407E1,5.649712E1,1.1656173E0,3.966279E1,3.0110948E0,5.3486023E1,1.9763551E0,1.0347399E0],"tree_param":{"num_deleted":"0","num_feature":"11","num_nodes":"9","size_leaf_vector":"1"}},{"base_weights":[1.4282984E-2,1.3159019E0,-5.1646143E-2,-0E0,1.3639377E0,7.044854E-2,-0E0],"categories":[],"categories_nodes":[],"categories_segments":[],"categories_sizes":[],"default_left":[0,0,0,0,0,0,0],"id":18,"left_children":[1,3,-1,-1,5,-1,-1],"loss_changes":[1.3558467E2,3.324356E0,0E0,0E0,3.2089996E0,0E0,0E0],"parents":[2147483647,0,0,1,1,4,4],"right_children":[2,4,-1,-1,6,-1,-1],"split_conditions":[8.7E1,1.06E3,-5.1646143E-2,-0E0,1.09740974E2,7.044854E-2,-0E0],"split_indices":[7,0,0,0,3,0,0],"split_type":[0,0,0,0,0,0,0],"sum_hessian":[9.736959E1,4.3509975E1,5.3859615E1,1.2929692E0,4.2217007E1,4.1115047E1,1.1019611E0],"tree_param":{"num_deleted":"0","num_feature":"11","num_nodes":"7","size_leaf_vector":"1"}},{"base_weights":[4.1199654E-2,1.1287699E0,-9.0828854E-1,1.2840618E0,4.7079754E-1,-5.206712E-2,9.733924E-1,1.36350095E-2,6.6559464E-2,-4.7289103E-2,5.7288356E-2,-0E0,6.0315736E-2],"categories":[],"categories_nodes":[],"categories_segments":[],"categories_sizes":[],"default_left":[0,0,0,0,0,0,0,0,0,0,0,0,0],"id":19,"left_children":[1,3,5,7,9,-1,11,-1,-1,-1,-1,-1,-1],"loss_changes":[1.0264915E2,3.2705536E0,1.4265179E1,5.717354E-1,1.1773138E1,0E0,3.777337E-1,0E0,0E0,0E0,0E0,0E0,0E0],"parents":[2147483647,0,0,1,1,2,2,3,3,4,4,6,6],"right_children":[2,4,6,8,10,-1,12,-1,-1,-1,-1,-1,-1],"split_conditions":[1.0349092E2,9.732322E1,1.1597006E3,6.903491E1,3.692E3,-5.206712E-2,1.8720928E0,1.36350095E-2,6.6559464E-2,-4.7289103E-2,5.7288356E-2,-0E0,6.0315736E-2],"split_indices":[3,3,0,3,10,0,8,0,0,0,0,0,0],"split_type":[0,0,0,0,0,0,0,0,0,0,0,0,0],"sum_hessian":[9.730545E1,4.551224E1,5.179321E1,3.5437077E1,1.0075165E1,4.9038036E1,2.7551758E0,2.3523035E0,3.3084774E1,2.8828478E0,7.1923175E0,1.0505652E0,1.7046106E0],"tree_param":{"num_deleted":"0","num_feature":"11","num_nodes":"13","size_leaf_vector":"1"}},{"base_weights":[-0E0,1.1250676E0,-9.351158E-1,-3.5856113E-2,1.2147796E0,-5.1901247E-2,6.3000387E-1,6.743342E-2,2.995379E-2,-0E0,5.065589E-2],"categories":[],"categories_nodes":[],"categories_segments":[],"categories_sizes":[],"default_left":[0,0,0,0,0,0,0,0,0,0,0],"id":20,"left_children":[1,3,5,-1,7,-1,9,-1,-1,-1,-1],"loss_changes":[9.9984825E1,8.222916E0,9.254047E0,0E0,1.648571E0,0E0,1.1921895E0,0E0,0E0,0E0,0E0],"parents":[2147483647,0,0,1,1,2,2,4,4,6,6],"right_children":[2,4,6,-1,8,-1,10,-1,-1,-1,-1],"split_conditions":[1.0349092E2,1.642E3,1.2558497E3,-3.5856113E-2,9.732322E1,-5.1901247E-2,3.1330338E0,6.743342E-2,2.995379E-2,-0E0,5.065589E-2],"split_indices":[3,1,5,0,3,0,9,0,0,0,0],"split_type":[0,0,0,0,0,0,0,0,0,0,0],"sum_hessian":[9.310722E1,4.1978733E1,5.1128487E1,1.3657974E0,4.0612938E1,4.8589867E1,2.5386212E0,3.1713997E1,8.89894E0,1.0087441E0,1.529877E0],"tree_param":{"num_deleted":"0","num_feature":"11","num_nodes":"11","size_leaf_vector":"1"}},{"base_weights":[-0E0,1.0609517E0,-9.718514E-1,1.1788082E0,1.596491E-2,-5.1567316E-2,1.6714603E-2,-0E0,6.154709E-2,-2.0837419E-2,2.93089E-2],"categories":[],"categories_nodes":[],"categories_segments":[],"categories_sizes":[],"default_left":[0,0,0,0,0,0,0,0,0,0,0],"id":21,"left_children":[1,3,5,7,9,-1,-1,-1,-1,-1,-1],"loss_changes":[9.396367E1,4.7555885E0,4.3848114E0,2.0396004E0,1.7759719E0,0E0,0E0,0E0,0E0,0E0,0E0],"parents":[2147483647,0,0,1,1,2,2,3,3,4,4],"right_children":[2,4,6,8,10,-1,-1,-1,-1,-1,-1],"split_conditions":[1.0349092E2,1.0045411E2,1.2628922E3,1.656E3,3.855E3,-5.1567316E-2,1.6714603E-2,-0E0,6.154709E-2,-2.0837419E-2,2.93089E-2],"split_indices":[3,3,5,1,10,0,0,0,0,0,0],"split_type":[0,0,0,0,0,0,0,0,0,0,0],"sum_hessian":[8.912129E1,4.2616917E1,4.650438E1,3.775254E1,4.8643727E0,4.504574E1,1.4586418E0,1.8669496E0,3.5885593E1,2.4201117E0,2.444261E0],"tree_param":{"num_deleted":"0","num_feature":"11","num_nodes":"11","size_leaf_vector":"1"}},{"base_weights":[1.0086455E-2,1.2076075E0,-9.953635E-1,6.238689E-2,-0E0,-0E0,-5.176424E-2],"categories":[],"categories_nodes":[],"categories_segments":[],"categories_sizes":[],"default_left":[0,0,0,0,0,0,0],"id":22,"left_children":[1,3,5,-1,-1,-1,-1],"loss_changes":[1.04497444E2,2.3151627E0,2.0917702E0,0E0,0E0,0E0,0E0],"parents":[2147483647,0,0,1,1,2,2],"right_children":[2,4,6,-1,-1,-1,-1],"split_conditions":[7.4E1,1.07544334E2,9.620085E1,6.238689E-2,-0E0,-0E0,-5.176424E-2],"split_indices":[7,3,3,0,0,0,0],"split_type":[0,0,0,0,0,0,0],"sum_hessian":[8.470203E1,3.8793743E1,4.5908287E1,3.776226E1,1.0314835E0,1.5962594E0,4.4312027E1],"tree_param":{"num_deleted":"0","num_feature":"11","num_nodes":"7","size_leaf_vector":"1"}},{"base_weights":[2.503895E-2,1.0222436E0,-8.766414E-1,-2.292417E-2,1.0839092E0,-5.1110934E-2,4.225382E-2,2.6750162E-2,6.331099E-2],"categories":[],"categories_nodes":[],"categories_segments":[],"categories_sizes":[],"default_left":[0,0,0,0,0,0,0,0,0],"id":23,"left_children":[1,3,5,-1,7,-1,-1,-1,-1],"loss_changes":[7.84917E1,4.6140785E0,1.2369732E1,0E0,2.4869041E0,0E0,0E0,0E0,0E0],"parents":[2147483647,0,0,1,1,2,2,4,4],"right_children":[2,4,6,-1,8,-1,-1,-1,-1],"split_conditions":[1.0349092E2,2.2709203E0,1.1597006E3,-2.292417E-2,1.1E3,-5.1110934E-2,4.225382E-2,2.6750162E-2,6.331099E-2],"split_indices":[3,9,0,0,0,0,0,0,0],"split_type":[0,0,0,0,0,0,0,0,0],"sum_hessian":[8.521688E1,4.0664825E1,4.455206E1,1.0443535E0,3.9620472E1,4.172108E1,2.830977E0,1.1543153E1,2.8077318E1],"tree_param":{"num_deleted":"0","num_feature":"11","num_nodes":"9","size_leaf_vector":"1"}},{"base_weights":[2.2655787E-2,-5.212193E-1,8.199913E-1,-5.0473638E-2,1.1242605E0,2.356634E-2,1.1961145E0,-0E0,6.2021077E-2,4.90417E-2,-1.2802588E-2,6.3959606E-2,-0E0],"categories":[],"categories_nodes":[],"categories_segments":[],"categories_sizes":[],"default_left":[0,0,0,0,0,0,0,0,0,0,0,0,0],"id":24,"left_children":[1,3,5,-1,7,9,11,-1,-1,-1,-1,-1,-1],"loss_changes":[3.5758114E1,4.0017605E1,9.444891E0,0E0,1.2582045E0,3.890801E0,1.7318535E0,0E0,0E0,0E0,0E0,0E0,0E0],"parents":[2147483647,0,0,1,1,2,2,4,4,5,5,6,6],"right_children":[2,4,6,-1,8,10,12,-1,-1,-1,-1,-1,-1],"split_conditions":[1.2237947E3,2.3567784E0,1.9178686E0,-5.0473638E-2,1.656E3,1.325E3,1.777E3,-0E0,6.2021077E-2,4.90417E-2,-1.2802588E-2,6.3959606E-2,-0E0],"split_indices":[5,8,8,0,1,6,1,0,0,0,0,0,0],"split_type":[0,0,0,0,0,0,0,0,0,0,0,0,0],"sum_hessian":[8.012822E1,4.7468452E1,3.265977E1,3.7138847E1,1.0329606E1,1.1243709E1,2.1416061E1,1.2048625E0,9.124743E0,2.3791435E0,8.864565E0,1.9657349E1,1.7587125E0],"tree_param":{"num_deleted":"0","num_feature":"11","num_nodes":"13","size_leaf_vector":"1"}},{"base_weights":[-2.1431135E-4,1.0268532E0,-4.988576E-2,-3.0448407E-2,1.1025496E0,6.1396237E-2,1.6738342E-2],"categories":[],"categories_nodes":[],"categories_segments":[],"categories_sizes":[],"default_left":[0,0,0,0,0,0,0],"id":25,"left_children":[1,3,-1,-1,5,-1,-1],"loss_changes":[8.365204E1,5.869961E0,0E0,0E0,2.5491447E0,0E0,0E0],"parents":[2147483647,0,0,1,1,4,4],"right_children":[2,4,-1,-1,6,-1,-1],"split_conditions":[8.7E1,1.642E3,-4.988576E-2,-3.0448407E-2,6.473948E1,6.1396237E-2,1.6738342E-2],"split_indices":[7,1,0,0,7,0,0],"split_type":[0,0,0,0,0,0,0],"sum_hessian":[7.966573E1,3.8989685E1,4.067605E1,1.1207044E0,3.786898E1,3.1478207E1,6.3907733E0],"tree_param":{"num_deleted":"0","num_feature":"11","num_nodes":"7","size_leaf_vector":"1"}},{"base_weights":[-1.19746905E-2,1.0851461E0,-9.688301E-1,1.129764E0,-0E0,-8.307881E-2,-5.0867863E-2,-0E0,5.89005E-2,-2.9918838E-2,1.1911889E-2],"categories":[],"categories_nodes":[],"categories_segments":[],"categories_sizes":[],"default_left":[0,0,0,0,0,0,0,0,0,0,0],"id":26,"left_children":[1,3,5,7,-1,9,-1,-1,-1,-1,-1],"loss_changes":[7.976719E1,2.1255875E0,1.1212425E0,1.4750748E0,0E0,9.4286966E-1,0E0,0E0,0E0,0E0,0E0],"parents":[2147483647,0,0,1,1,2,2,3,3,5,5],"right_children":[2,4,6,8,-1,10,-1,-1,-1,-1,-1],"split_conditions":[7.4E1,1.1523375E2,1.7058097E3,1.656E3,-0E0,1.2083508E3,-5.0867863E-2,-0E0,5.89005E-2,-2.9918838E-2,1.1911889E-2],"split_indices":[7,3,1,1,0,4,0,0,0,0,0],"split_type":[0,0,0,0,0,0,0,0,0,0,0],"sum_hessian":[7.403817E1,3.4185177E1,3.9852997E1,3.312625E1,1.058926E0,2.7460296E0,3.7106968E1,1.6751132E0,3.1451136E1,1.3211397E0,1.4248899E0],"tree_param":{"num_deleted":"0","num_feature":"11","num_nodes":"11","size_leaf_vector":"1"}},{"base_weights":[1.3179729E-2,-5.2949727E-1,7.8439075E-1,-1.0052328E0,5.58787E-2,-1.7270653E-2,1.039879E0,-5.2911974E-2,-8.959425E-3,-2.8832827E-2,2.8844317E-2,5.746321E-2,-0E0],"categories":[],"categories_nodes":[],"categories_segments":[],"categories_sizes":[],"default_left":[0,0,0,0,0,0,0,0,0,0,0,0,0],"id":27,"left_children":[1,3,5,7,-1,9,11,-1,-1,-1,-1,-1,-1],"loss_changes":[3.2446922E1,3.6297924E1,7.138521E0,7.525215E-1,0E0,3.0943043E0,2.3050842E0,0E0,0E0,0E0,0E0,0E0,0E0],"parents":[2147483647,0,0,1,1,2,2,3,3,5,5,6,6],"right_children":[2,4,6,8,-1,10,12,-1,-1,-1,-1,-1,-1],"split_conditions":[1.2237947E3,2.281196E0,1.8069477E0,1.218E3,5.58787E-2,4.032E3,1.777E3,-5.2911974E-2,-8.959425E-3,-2.8832827E-2,2.8844317E-2,5.746321E-2,-0E0],"split_indices":[5,8,8,5,0,10,1,0,0,0,0,0,0],"split_type":[0,0,0,0,0,0,0,0,0,0,0,0,0],"sum_hessian":[7.523113E1,4.396173E1,3.1269403E1,3.46475E1,9.314235E0,7.3094506E0,2.3959953E1,3.172532E1,2.9221773E0,4.2135077E0,3.0959427E0,2.117997E1,2.7799823E0],"tree_param":{"num_deleted":"0","num_feature":"11","num_nodes":"13","size_leaf_vector":"1"}},{"base_weights":[1.2983201E-2,1.011896E0,-5.042821E-2,1.0493917E0,-0E0,-0E0,5.427568E-2],"categories":[],"categories_nodes":[],"categories_segments":[],"categories_sizes":[],"default_left":[0,0,0,0,0,0,0],"id":28,"left_children":[1,3,-1,5,-1,-1,-1],"loss_changes":[7.408307E1,1.724289E0,0E0,1.5707703E0,0E0,0E0,0E0],"parents":[2147483647,0,0,1,1,3,3],"right_children":[2,4,-1,6,-1,-1,-1],"split_conditions":[8.7E1,1.07544334E2,-5.042821E-2,6.762917E1,-0E0,-0E0,5.427568E-2],"split_indices":[7,3,0,3,0,0,0],"split_type":[0,0,0,0,0,0,0],"sum_hessian":[7.0597626E1,3.59465E1,3.4651123E1,3.4919193E1,1.0273055E0,1.0177027E0,3.390149E1],"tree_param":{"num_deleted":"0","num_feature":"11","num_nodes":"7","size_leaf_vector":"1"}},{"base_weights":[-6.838899E-2,8.7815166E-1,-5.0249167E-2,3.9542314E-1,1.090655E0,-3.7882444E-2,4.287897E-2,-0E0,5.714935E-2],"categories":[],"categories_nodes":[],"categories_segments":[],"categories_sizes":[],"default_left":[0,0,0,0,0,0,0,0,0],"id":29,"left_children":[1,3,-1,5,7,-1,-1,-1,-1],"loss_changes":[6.1884575E1,2.3602371E0,0E0,7.531329E0,1.2128372E0,0E0,0E0,0E0,0E0],"parents":[2147483647,0,0,1,1,3,3,4,4],"right_children":[2,4,-1,6,8,-1,-1,-1,-1],"split_conditions":[8.7E1,1.2750332E3,-5.0249167E-2,2.3139672E0,2.5375705E0,-3.7882444E-2,4.287897E-2,-0E0,5.714935E-2],"split_indices":[7,6,0,8,9,0,0,0,0],"split_type":[0,0,0,0,0,0,0,0,0],"sum_hessian":[6.77388E1,3.3456028E1,3.4282772E1,1.1819716E1,2.163631E1,2.889414E0,8.930302E0,1.0970021E0,2.0539309E1],"tree_param":{"num_deleted":"0","num_feature":"11","num_nodes":"9","size_leaf_vector":"1"}},{"base_weights":[-0E0,9.721963E-1,-9.463636E-1,2.6833898E-1,1.1046784E0,-0E0,-5.0240915E-2,3.2713458E-2,-1.2200319E-3,5.8434617E-2,-2.8752156E-3,-2.9391179E-2,2.4781955E-2],"categories":[],"categories_nodes":[],"categories_segments":[],"categories_sizes":[],"default_left":[0,0,0,0,0,0,0,0,0,0,0,0,0],"id":30,"left_children":[1,3,5,7,9,11,-1,-1,-1,-1,-1,-1,-1],"loss_changes":[6.349106E1,2.207775E0,1.4789181E0,1.1600332E0,2.6968346E0,1.34149E0,0E0,0E0,0E0,0E0,0E0,0E0,0E0],"parents":[2147483647,0,0,1,1,2,2,3,3,4,4,5,5],"right_children":[2,4,6,8,10,12,-1,-1,-1,-1,-1,-1,-1],"split_conditions":[7.4E1,1.6868066E3,1.7058097E3,4.7E1,4.162E3,1.101E3,-5.0240915E-2,3.2713458E-2,-1.2200319E-3,5.8434617E-2,-2.8752156E-3,-2.9391179E-2,2.4781955E-2],"split_indices":[7,1,1,7,10,0,0,0,0,0,0,0,0],"split_type":[0,0,0,0,0,0,0,0,0,0,0,0,0],"sum_hessian":[6.699834E1,3.321734E1,3.3781002E1,6.3389635E0,2.6878376E1,2.4642484E0,3.1316751E1,2.9383013E0,3.4006622E0,2.587764E1,1.0007361E0,1.4510916E0,1.0131568E0],"tree_param":{"num_deleted":"0","num_feature":"11","num_nodes":"13","size_leaf_vector":"1"}},{"base_weights":[-0E0,7.927078E-1,-8.365512E-1,2.7796596E-1,1.048907E0,-4.959316E-2,3.273299E-2,-4.0367957E-2,4.959692E-2,-3.7707973E-3,5.724888E-2],"categories":[],"categories_nodes":[],"categories_segments":[],"categories_sizes":[],"default_left":[0,0,0,0,0,0,0,0,0,0,0],"id":31,"left_children":[1,3,5,7,9,-1,-1,-1,-1,-1,-1],"loss_changes":[4.4382748E1,3.5451088E0,8.409855E0,1.1237239E1,2.9730911E0,0E0,0E0,0E0,0E0,0E0,0E0],"parents":[2147483647,0,0,1,1,2,2,3,3,4,4],"right_children":[2,4,6,8,10,-1,-1,-1,-1,-1,-1],"split_conditions":[1.027235E2,1.1192681E3,1.1597006E3,2.4381826E0,2.2709203E0,-4.959316E-2,3.273299E-2,-4.0367957E-2,4.959692E-2,-3.7707973E-3,5.724888E-2],"split_indices":[3,0,0,8,9,0,0,0,0,0,0],"split_type":[0,0,0,0,0,0,0,0,0,0,0],"sum_hessian":[6.490351E1,3.3123634E1,3.1779879E1,1.2349081E1,2.0774551E1,2.9389112E1,2.3907657E0,4.570404E0,7.7786765E0,1.2426133E0,1.9531939E1],"tree_param":{"num_deleted":"0","num_feature":"11","num_nodes":"11","size_leaf_vector":"1"}},{"base_weights":[-0E0,9.5195574E-1,-9.219048E-1,-0E0,1.0200915E0,-0E0,-4.9493726E-2,5.231939E-2,-0E0,-2.6576435E-2,2.5555378E-2],"categories":[],"categories_nodes":[],"categories_segments":[],"categories_sizes":[],"default_left":[0,0,0,0,0,0,0,0,0,0,0],"id":32,"left_children":[1,3,5,-1,7,9,-1,-1,-1,-1,-1],"loss_changes":[5.46765E1,2.2077541E0,1.7262268E0,0E0,3.9277267E-1,1.2016761E0,0E0,0E0,0E0,0E0,0E0],"parents":[2147483647,0,0,1,1,2,2,4,4,5,5],"right_children":[2,4,6,-1,8,10,-1,-1,-1,-1,-1],"split_conditions":[7.4E1,1.656E3,1.7058097E3,-0E0,4.162E3,1.101E3,-4.9493726E-2,5.231939E-2,-0E0,-2.6576435E-2,2.5555378E-2],"split_indices":[7,1,1,0,10,0,0,0,0,0,0],"split_type":[0,0,0,0,0,0,0,0,0,0,0],"sum_hessian":[6.0287033E1,2.9868095E1,3.0418938E1,1.8642313E0,2.8003864E1,2.4049025E0,2.8014034E1,2.6923132E1,1.080732E0,1.3943106E0,1.010592E0],"tree_param":{"num_deleted":"0","num_feature":"11","num_nodes":"11","size_leaf_vector":"1"}},{"base_weights":[-4.4777077E-2,9.210802E-1,-9.2306554E-1,9.699719E-1,-0E0,-0E0,-9.7750366E-1,7.607711E-3,5.3956557E-2,-4.97722E-2,-6.0999434E-4],"categories":[],"categories_nodes":[],"categories_segments":[],"categories_sizes":[],"default_left":[0,0,0,0,0,0,0,0,0,0,0],"id":33,"left_children":[1,3,5,7,-1,-1,9,-1,-1,-1,-1],"loss_changes":[5.130414E1,1.665411E0,1.7621002E0,1.6768475E0,0E0,0E0,8.903503E-3,0E0,0E0,0E0,0E0],"parents":[2147483647,0,0,1,1,2,2,3,3,6,6],"right_children":[2,4,6,8,-1,-1,10,-1,-1,-1,-1],"split_conditions":[7.2E1,1.1523375E2,9.620085E1,7.202626E1,-0E0,-0E0,1.2579159E3,7.607711E-3,5.3956557E-2,-4.97722E-2,-6.0999434E-4],"split_indices":[7,3,3,3,0,0,5,0,0,0,0],"split_type":[0,0,0,0,0,0,0,0,0,0,0],"sum_hessian":[5.8475246E1,2.755495E1,3.0920298E1,2.651898E1,1.0359707E0,1.6122069E0,2.930809E1,3.944117E0,2.2574862E1,2.823416E1,1.0739313E0],"tree_param":{"num_deleted":"0","num_feature":"11","num_nodes":"11","size_leaf_vector":"1"}},{"base_weights":[5.040401E-2,8.973825E-1,-9.4450444E-1,5.2423038E-2,1.1193818E-1,-5.2906305E-4,-4.872673E-2,-2.8264126E-2,3.361964E-2],"categories":[],"categories_nodes":[],"categories_segments":[],"categories_sizes":[],"default_left":[0,0,0,0,0,0,0,0,0],"id":34,"left_children":[1,3,5,-1,7,-1,-1,-1,-1],"loss_changes":[4.996828E1,3.1336346E0,2.553177E-1,0E0,3.0380428E0,0E0,0E0,0E0,0E0],"parents":[2147483647,0,0,1,1,2,2,4,4],"right_children":[2,4,6,-1,8,-1,-1,-1,-1],"split_conditions":[8.7E1,6.473948E1,1.0244815E2,5.2423038E-2,1.3083447E3,-5.2906305E-4,-4.872673E-2,-2.8264126E-2,3.361964E-2],"split_indices":[7,7,3,0,6,0,0,0,0],"split_type":[0,0,0,0,0,0,0,0,0],"sum_hessian":[5.731998E1,3.1286207E1,2.6033772E1,2.5424435E1,5.8617725E0,1.3718616E0,2.466191E1,2.2464933E0,3.6152792E0],"tree_param":{"num_deleted":"0","num_feature":"11","num_nodes":"9","size_leaf_vector":"1"}},{"base_weights":[-5.8043387E-2,9.318716E-1,-8.312931E-1,9.9104613E-1,-0E0,-9.471577E-1,1.8594338E-2,-0E0,5.224889E-2,-1.838305E-2,-5.104654E-2],"categories":[],"categories_nodes":[],"categories_segments":[],"categories_sizes":[],"default_left":[0,0,0,0,0,0,0,0,0,0,0],"id":35,"left_children":[1,3,5,7,-1,9,-1,-1,-1,-1,-1],"loss_changes":[4.4508022E1,1.489502E0,5.2300186E0,1.4247189E0,0E0,2.4260521E-1,0E0,0E0,0E0,0E0,0E0],"parents":[2147483647,0,0,1,1,2,2,3,3,5,5],"right_children":[2,4,6,8,-1,10,-1,-1,-1,-1,-1],"split_conditions":[6.473948E1,1.07544334E2,1.2628922E3,6.762917E1,-0E0,1.712E3,1.8594338E-2,-0E0,5.224889E-2,-1.838305E-2,-5.104654E-2],"split_indices":[7,3,5,3,0,1,0,0,0,0,0],"split_type":[0,0,0,0,0,0,0,0,0,0,0],"sum_hessian":[5.619978E1,2.4273308E1,3.192647E1,2.2861855E1,1.4114538E0,2.9695215E1,2.2312555E0,1.0947648E0,2.176709E1,4.7945595E0,2.4900656E1],"tree_param":{"num_deleted":"0","num_feature":"11","num_nodes":"11","size_leaf_vector":"1"}},{"base_weights":[-6.2416894E-3,8.047911E-1,-9.36914E-1,-3.478046E-2,9.1000897E-1,-0E0,-4.8522722E-2,4.68964E-2,-0E0],"categories":[],"categories_nodes":[],"categories_segments":[],"categories_sizes":[],"default_left":[0,0,0,0,0,0,0,0,0],"id":36,"left_children":[1,3,5,-1,7,-1,-1,-1,-1],"loss_changes":[4.052909E1,5.2176647E0,4.6914864E-1,0E0,4.752407E-1,0E0,0E0,0E0,0E0],"parents":[2147483647,0,0,1,1,2,2,4,4],"right_children":[2,4,6,-1,8,-1,-1,-1,-1],"split_conditions":[8.7E1,1.642E3,1.7058097E3,-3.478046E-2,1.0662017E2,-0E0,-4.8522722E-2,4.68964E-2,-0E0],"split_indices":[7,1,1,0,3,0,0,0,0],"split_type":[0,0,0,0,0,0,0,0,0],"sum_hessian":[5.160825E1,2.7361837E1,2.4246412E1,1.1139407E0,2.6247896E1,1.2168033E0,2.3029608E1,2.5190105E1,1.0577918E0],"tree_param":{"num_deleted":"0","num_feature":"11","num_nodes":"9","size_leaf_vector":"1"}},{"base_weights":[-1.9552995E-2,8.797097E-1,-9.023162E-1,-3.23317E-4,9.655185E-1,-6.492329E-2,-4.859337E-2,5.041225E-2,-0E0,-2.4676308E-2,5.2317455E-3],"categories":[],"categories_nodes":[],"categories_segments":[],"categories_sizes":[],"default_left":[0,0,0,0,0,0,0,0,0,0,0],"id":37,"left_children":[1,3,5,-1,7,9,-1,-1,-1,-1,-1],"loss_changes":[4.2776714E1,2.4945602E0,1.0175285E0,0E0,6.6412735E-1,5.170355E-1,0E0,0E0,0E0,0E0,0E0],"parents":[2147483647,0,0,1,1,2,2,4,4,5,5],"right_children":[2,4,6,-1,8,10,-1,-1,-1,-1,-1],"split_conditions":[7.2E1,1.656E3,8.7E1,-3.23317E-4,4.162E3,1.099E3,-4.859337E-2,5.041225E-2,-0E0,-2.4676308E-2,5.2317455E-3],"split_indices":[7,1,7,0,10,0,0,0,0,0,0],"split_type":[0,0,0,0,0,0,0,0,0,0,0],"sum_hessian":[5.1871918E1,2.5416956E1,2.645496E1,1.8110785E0,2.3605877E1,2.7283354E0,2.3726625E1,2.2217924E1,1.3879533E0,1.0676783E0,1.660657E0],"tree_param":{"num_deleted":"0","num_feature":"11","num_nodes":"11","size_leaf_vector":"1"}},{"base_weights":[-4.0777314E-2,5.707098E-1,-8.1962013E-1,-0E0,8.4261E-1,-9.3915796E-1,1.3733837E-2,-6.3837E-2,3.0525843E-2,4.5863766E-2,-0E0,-0E0,-4.8203878E-2],"categories":[],"categories_nodes":[],"categories_segments":[],"categories_sizes":[],"default_left":[0,0,0,0,0,0,0,0,0,0,0,0,0],"id":38,"left_children":[1,3,5,7,9,11,-1,-1,-1,-1,-1,-1,-1],"loss_changes":[2.5761518E1,4.861292E0,3.7314377E0,8.992055E0,1.4595966E0,1.1718559E-1,0E0,0E0,0E0,0E0,0E0,0E0,0E0],"parents":[2147483647,0,0,1,1,2,2,3,3,4,4,5,5],"right_children":[2,4,6,8,10,12,-1,-1,-1,-1,-1,-1,-1],"split_conditions":[1.0459261E2,1.9779158E0,1.3260875E3,3.692E3,3.867E3,3.244E3,1.3733837E-2,-6.3837E-2,3.0525843E-2,4.5863766E-2,-0E0,-0E0,-4.8203878E-2],"split_indices":[3,8,2,10,10,10,0,0,0,0,0,0,0],"split_type":[0,0,0,0,0,0,0,0,0,0,0,0,0],"sum_hessian":[5.184866E1,2.8834944E1,2.3013714E1,9.3011465E0,1.9533798E1,2.128706E1,1.7266529E0,2.8015108E0,6.4996357E0,1.806172E1,1.4720771E0,1.0111839E0,2.0275877E1],"tree_param":{"num_deleted":"0","num_feature":"11","num_nodes":"13","size_leaf_vector":"1"}},{"base_weights":[4.1288022E-2,7.725497E-1,-9.1605145E-1,2.7334723E-1,9.978735E-1,-0E0,-4.765441E-2,-3.7519053E-2,3.3907726E-2,5.507344E-2,-0E0],"categories":[],"categories_nodes":[],"categories_segments":[],"categories_sizes":[],"default_left":[0,0,0,0,0,0,0,0,0,0,0],"id":39,"left_children":[1,3,5,7,9,-1,-1,-1,-1,-1,-1],"loss_changes":[3.529091E1,2.3427677E0,3.6265373E-1,5.054614E0,1.809639E0,0E0,0E0,0E0,0E0,0E0,0E0],"parents":[2147483647,0,0,1,1,2,2,3,3,4,4],"right_children":[2,4,6,8,10,-1,-1,-1,-1,-1,-1],"split_conditions":[8.6E1,1.2237947E3,1.0244815E2,6.867664E0,4.162E3,-0E0,-4.765441E-2,-3.7519053E-2,3.3907726E-2,5.507344E-2,-0E0],"split_indices":[7,5,3,9,10,0,0,0,0,0,0],"split_type":[0,0,0,0,0,0,0,0,0,0,0],"sum_hessian":[4.8502453E1,2.7903631E1,2.0598822E1,1.0056256E1,1.7847374E1,1.2467977E0,1.9352024E1,2.2577474E0,7.798509E0,1.5960413E1,1.8869615E0],"tree_param":{"num_deleted":"0","num_feature":"11","num_nodes":"11","size_leaf_vector":"1"}},{"base_weights":[1.0663619E-2,8.061232E-1,-8.9920646E-1,9.1577643E-1,-0E0,-4.8411265E-2,-1.6265763E-1,1.9594168E-2,5.266736E-2,-4.2049035E-2,2.9427374E-2,5.542577E-3,-2.4299806E-2],"categories":[],"categories_nodes":[],"categories_segments":[],"categories_sizes":[],"default_left":[0,0,0,0,0,0,0,0,0,0,0,0,0],"id":40,"left_children":[1,3,5,7,9,-1,11,-1,-1,-1,-1,-1,-1],"loss_changes":[3.5699028E1,2.071062E0,4.3357277E-1,5.301571E-1,2.6577313E0,0E0,5.750032E-1,0E0,0E0,0E0,0E0,0E0,0E0],"parents":[2147483647,0,0,1,1,2,2,3,3,4,4,6,6],"right_children":[2,4,6,8,10,-1,12,-1,-1,-1,-1,-1,-1],"split_conditions":[7.4E1,6.473948E1,1.127E3,1.101E3,1.2899882E3,-4.8411265E-2,1.232E3,1.9594168E-2,5.266736E-2,-4.2049035E-2,2.9427374E-2,5.542577E-3,-2.4299806E-2],"split_indices":[7,7,0,0,2,0,5,0,0,0,0,0,0],"split_type":[0,0,0,0,0,0,0,0,0,0,0,0,0],"sum_hessian":[4.7386837E1,2.5637045E1,2.1749794E1,2.2109545E1,3.5275009E0,1.8978056E1,2.7717369E0,6.1546526E0,1.5954891E1,1.0591637E0,2.468337E0,1.0198517E0,1.7518852E0],"tree_param":{"num_deleted":"0","num_feature":"11","num_nodes":"13","size_leaf_vector":"1"}},{"base_weights":[-0E0,7.671649E-1,-8.108971E-1,9.8003E-2,9.497958E-1,-0E0,-9.512638E-1,2.9863615E-2,-1.6172815E-2,5.2908838E-2,1.1324437E-2,-3.008884E-2,3.2354377E-2,-5.0405174E-2,-0E0],"categories":[],"categories_nodes":[],"categories_segments":[],"categories_sizes":[],"default_left":[0,0,0,0,0,0,0,0,0,0,0,0,0,0,0],"id":41,"left_children":[1,3,5,7,9,11,13,-1,-1,-1,-1,-1,-1,-1,-1],"loss_changes":[2.9787594E1,2.3636131E0,2.744317E0,1.7885917E0,5.649681E-1,2.099594E0,1.1948166E0,0E0,0E0,0E0,0E0,0E0,0E0,0E0,0E0],"parents":[2147483647,0,0,1,1,2,2,3,3,4,4,5,5,6,6],"right_children":[2,4,6,8,10,12,14,-1,-1,-1,-1,-1,-1,-1,-1],"split_conditions":[7E1,1.6868066E3,1.712E3,4.7064823E1,3.939E3,3.689E3,1.259E3,2.9863615E-2,-1.6172815E-2,5.2908838E-2,1.1324437E-2,-3.008884E-2,3.2354377E-2,-5.0405174E-2,-0E0],"split_indices":[7,1,1,7,10,10,5,0,0,0,0,0,0,0,0],"split_type":[0,0,0,0,0,0,0,0,0,0,0,0,0,0,0],"sum_hessian":[4.586031E1,2.3389194E1,2.2471115E1,5.931283E0,1.745791E1,3.3829377E0,1.9088179E1,3.0671158E0,2.864167E0,1.4179067E1,3.2788446E0,1.7278671E0,1.6550707E0,1.8062464E1,1.0257136E0],"tree_param":{"num_deleted":"0","num_feature":"11","num_nodes":"15","size_leaf_vector":"1"}},{"base_weights":[-8.060412E-2,6.983447E-1,-8.442334E-1,7.669905E-1,-0E0,-9.282481E-1,6.7840875E-3,-0E0,4.0903155E-2,-7.2990186E-3,-4.9296703E-2],"categories":[],"categories_nodes":[],"categories_segments":[],"categories_sizes":[],"default_left":[0,0,0,0,0,0,0,0,0,0,0],"id":42,"left_children":[1,3,5,7,-1,9,-1,-1,-1,-1,-1],"loss_changes":[2.790782E1,1.4092207E0,2.4903545E0,1.0462084E0,0E0,3.1067657E-1,0E0,0E0,0E0,0E0,0E0],"parents":[2147483647,0,0,1,1,2,2,3,3,5,5],"right_children":[2,4,6,8,-1,10,-1,-1,-1,-1,-1],"split_conditions":[7E1,4.162E3,1.2705422E3,6.903491E1,-0E0,9.912502E1,6.7840875E-3,-0E0,4.0903155E-2,-7.2990186E-3,-4.9296703E-2],"split_indices":[7,10,5,3,0,3,0,0,0,0,0],"split_type":[0,0,0,0,0,0,0,0,0,0,0],"sum_hessian":[4.480367E1,2.1897547E1,2.290612E1,2.0377811E1,1.5197362E0,2.1615826E1,1.290296E0,1.0226512E0,1.935516E1,2.322267E0,1.9293558E1],"tree_param":{"num_deleted":"0","num_feature":"11","num_nodes":"11","size_leaf_vector":"1"}},{"base_weights":[3.6307726E-2,7.827568E-1,-4.745812E-2,-0E0,9.2228657E-1,2.8907476E-2,-1.8663665E-2,4.928701E-2,-0E0],"categories":[],"categories_nodes":[],"categories_segments":[],"categories_sizes":[],"default_left":[0,0,0,0,0,0,0,0,0],"id":43,"left_children":[1,3,-1,5,7,-1,-1,-1,-1],"loss_changes":[3.310217E1,2.5825586E0,0E0,1.3970429E0,1.3745575E0,0E0,0E0,0E0,0E0],"parents":[2147483647,0,0,1,1,3,3,4,4],"right_children":[2,4,-1,6,8,-1,-1,-1,-1],"split_conditions":[8.7E1,1.68E3,-4.745812E-2,4.7E1,1.09740974E2,2.8907476E-2,-1.8663665E-2,4.928701E-2,-0E0],"split_indices":[7,1,0,7,3,0,0,0,0],"split_type":[0,0,0,0,0,0,0,0,0],"sum_hessian":[4.3103138E1,2.493163E1,1.8171509E1,4.216591E0,2.0715038E1,1.7234573E0,2.4931335E0,1.942397E1,1.2910686E0],"tree_param":{"num_deleted":"0","num_feature":"11","num_nodes":"9","size_leaf_vector":"1"}},{"base_weights":[-5.0850477E-2,4.9545738E-1,-4.409055E-2,4.9978938E-2,7.4296963E-1,-2.5274659E-2,3.621232E-2,4.1702207E-2,-0E0],"categories":[],"categories_nodes":[],"categories_segments":[],"categories_sizes":[],"default_left":[0,0,0,0,0,0,0,0,0],"id":44,"left_children":[1,3,-1,5,7,-1,-1,-1,-1],"loss_changes":[1.9763783E1,2.400885E0,0E0,4.586128E0,1.3069944E0,0E0,0E0,0E0,0E0],"parents":[2147483647,0,0,1,1,3,3,4,4],"right_children":[2,4,-1,6,8,-1,-1,-1,-1],"split_conditions":[8.7E1,1.1192681E3,-4.409055E-2,2.6448905E0,4.162E3,-2.5274659E-2,3.621232E-2,4.1702207E-2,-0E0],"split_indices":[7,0,0,8,10,0,0,0,0],"split_type":[0,0,0,0,0,0,0,0,0],"sum_hessian":[4.1148415E1,2.4707031E1,1.6441383E1,9.97529E0,1.473174E1,5.2001157E0,4.775175E0,1.3362493E1,1.369247E0],"tree_param":{"num_deleted":"0","num_feature":"11","num_nodes":"9","size_leaf_vector":"1"}},{"base_weights":[5.9857075E-3,6.7706406E-1,-8.534057E-1,7.482028E-1,-1.1557271E-2,-0E0,-4.647176E-2,-3.9968197E-3,4.1355006E-2],"categories":[],"categories_nodes":[],"categories_segments":[],"categories_sizes":[],"default_left":[0,0,0,0,0,0,0,0,0],"id":45,"left_children":[1,3,5,7,-1,-1,-1,-1,-1],"loss_changes":[2.4529585E1,2.0008698E0,8.680296E-1,1.9602995E0,0E0,0E0,0E0,0E0,0E0],"parents":[2147483647,0,0,1,1,2,2,3,3],"right_children":[2,4,6,8,-1,-1,-1,-1,-1],"split_conditions":[8.1E1,4.215E3,1.0244815E2,6.903491E1,-1.1557271E-2,-0E0,-4.647176E-2,-3.9968197E-3,4.1355006E-2],"split_indices":[7,10,3,3,0,0,0,0,0],"split_type":[0,0,0,0,0,0,0,0,0],"sum_hessian":[4.0683987E1,2.3290754E1,1.7393232E1,2.2272865E1,1.0178884E0,1.8812822E0,1.551195E1,1.3849831E0,2.0887882E1],"tree_param":{"num_deleted":"0","num_feature":"11","num_nodes":"9","size_leaf_vector":"1"}},{"base_weights":[-6.2411763E-2,5.996599E-1,-4.5486685E-2,-0E0,7.0000184E-1,-1.6083192E-2,1.2978022E-2,3.8993325E-2,-6.569752E-3],"categories":[],"categories_nodes":[],"categories_segments":[],"categories_sizes":[],"default_left":[0,0,0,0,0,0,0,0,0],"id":46,"left_children":[1,3,-1,5,7,-1,-1,-1,-1],"loss_changes":[2.3584127E1,1.5304947E0,0E0,4.3315554E-1,1.7631388E0,0E0,0E0,0E0,0E0],"parents":[2147483647,0,0,1,1,3,3,4,4],"right_children":[2,4,-1,6,8,-1,-1,-1,-1],"split_conditions":[7.4E1,7.202626E1,-4.5486685E-2,1.109E3,1.07544334E2,-1.6083192E-2,1.2978022E-2,3.8993325E-2,-6.569752E-3],"split_indices":[7,3,0,0,3,0,0,0,0],"split_type":[0,0,0,0,0,0,0,0,0],"sum_hessian":[3.9791542E1,2.2170433E1,1.762111E1,3.043197E0,1.9127235E1,1.5871881E0,1.4560089E0,1.8056128E1,1.0711079E0],"tree_param":{"num_deleted":"0","num_feature":"11","num_nodes":"9","size_leaf_vector":"1"}},{"base_weights":[1.5000058E-2,6.766781E-1,-8.7352085E-1,3.715114E-2,8.222271E-1,-0E0,-4.6264168E-2,3.169432E-2,-1.6750555E-2,4.6003345E-2,-6.2087825E-3],"categories":[],"categories_nodes":[],"categories_segments":[],"categories_sizes":[],"default_left":[0,0,0,0,0,0,0,0,0,0,0],"id":47,"left_children":[1,3,5,7,9,-1,-1,-1,-1,-1,-1],"loss_changes":[2.3316483E1,1.6934385E0,6.5775967E-1,1.6884567E0,2.1940603E0,0E0,0E0,0E0,0E0,0E0,0E0],"parents":[2147483647,0,0,1,1,2,2,3,3,4,4],"right_children":[2,4,6,8,10,-1,-1,-1,-1,-1,-1],"split_conditions":[8.7E1,1.6868066E3,1.709E3,4.7E1,1.07544334E2,-0E0,-4.6264168E-2,3.169432E-2,-1.6750555E-2,4.6003345E-2,-6.2087825E-3],"split_indices":[7,1,1,7,3,0,0,0,0,0,0],"split_type":[0,0,0,0,0,0,0,0,0,0,0],"sum_hessian":[3.7821636E1,2.213726E1,1.5684377E1,4.9737306E0,1.7163528E1,1.0462352E0,1.4638142E1,2.1563792E0,2.8173513E0,1.6059439E1,1.1040913E0],"tree_param":{"num_deleted":"0","num_feature":"11","num_nodes":"11","size_leaf_vector":"1"}},{"base_weights":[-0E0,7.6841307E-1,-7.917195E-1,5.192454E-2,4.8671033E-2,-0E0,-9.4178236E-1,3.3315312E-2,-1.9871604E-2,-2.033245E-2,3.1037763E-2,-5.013896E-2,-0E0],"categories":[],"categories_nodes":[],"categories_segments":[],"categories_sizes":[],"default_left":[0,0,0,0,0,0,0,0,0,0,0,0,0],"id":48,"left_children":[1,3,5,7,-1,9,11,-1,-1,-1,-1,-1,-1],"loss_changes":[2.3275753E1,2.26017E0,2.2819796E0,2.0212631E0,0E0,1.2689087E0,8.163929E-1,0E0,0E0,0E0,0E0,0E0,0E0],"parents":[2147483647,0,0,1,1,2,2,3,3,5,5,6,6],"right_children":[2,4,6,8,-1,10,12,-1,-1,-1,-1,-1,-1],"split_conditions":[7E1,1.6868066E3,1.709E3,4.6708256E1,4.8671033E-2,1.7046414E3,1.28E3,3.3315312E-2,-1.9871604E-2,-2.033245E-2,3.1037763E-2,-5.013896E-2,-0E0],"split_indices":[7,1,1,7,0,1,4,0,0,0,0,0,0],"split_type":[0,0,0,0,0,0,0,0,0,0,0,0,0],"sum_hessian":[3.624812E1,1.8221666E1,1.8026451E1,4.875237E0,1.3346429E1,3.0074313E0,1.501902E1,2.3255444E0,2.5496929E0,2.003269E0,1.0041623E0,1.394136E1,1.0776595E0],"tree_param":{"num_deleted":"0","num_feature":"11","num_nodes":"13","size_leaf_vector":"1"}},{"base_weights":[2.2871478E-2,6.5560657E-1,-8.631695E-1,7.2163737E-1,-6.747316E-3,-0E0,-4.5763012E-2,4.194687E-2,4.9264184E-3],"categories":[],"categories_nodes":[],"categories_segments":[],"categories_sizes":[],"default_left":[0,0,0,0,0,0,0,0,0],"id":49,"left_children":[1,3,5,7,-1,-1,-1,-1,-1],"loss_changes":[2.1521095E1,1.5815096E0,5.5354214E-1,1.0415726E0,0E0,0E0,0E0,0E0,0E0],"parents":[2147483647,0,0,1,1,2,2,3,3],"right_children":[2,4,6,8,-1,-1,-1,-1,-1],"split_conditions":[8.6E1,1.0662017E2,1.0244815E2,6.473948E1,-6.747316E-3,-0E0,-4.5763012E-2,4.194687E-2,4.9264184E-3],"split_indices":[7,3,3,7,0,0,0,0,0],"split_type":[0,0,0,0,0,0,0,0,0],"sum_hessian":[3.656311E1,2.1811543E1,1.4751569E1,2.0794342E1,1.0172014E0,1.0811489E0,1.367042E1,1.6533176E1,4.2611647E0],"tree_param":{"num_deleted":"0","num_feature":"11","num_nodes":"9","size_leaf_vector":"1"}},{"base_weights":[-0E0,5.4260135E-1,-7.3466E-1,-0E0,9.489809E-1,-4.6379365E-2,2.713029E-2,-3.335261E-2,3.5159186E-2,-0E0,5.2541483E-2],"categories":[],"categories_nodes":[],"categories_segments":[],"categories_sizes":[],"default_left":[0,0,0,0,0,0,0,0,0,0,0],"id":50,"left_children":[1,3,5,7,9,-1,-1,-1,-1,-1,-1],"loss_changes":[1.48718605E1,4.5192933E0,4.5687523E0,5.4455748E0,1.2320538E0,0E0,0E0,0E0,0E0,0E0,0E0],"parents":[2147483647,0,0,1,1,2,2,3,3,4,4],"right_children":[2,4,6,8,10,-1,-1,-1,-1,-1,-1],"split_conditions":[1.0349092E2,1.1192681E3,1.173E3,2.6448905E0,1.6433268E0,-4.6379365E-2,2.713029E-2,-3.335261E-2,3.5159186E-2,-0E0,5.2541483E-2],"split_indices":[3,0,0,8,8,0,0,0,0,0,0],"split_type":[0,0,0,0,0,0,0,0,0,0,0],"sum_hessian":[3.541765E1,2.0700752E1,1.4716896E1,9.58797E0,1.1112783E1,1.3363597E1,1.3532996E0,4.742379E0,4.8455906E0,1.1184613E0,9.994322E0],"tree_param":{"num_deleted":"0","num_feature":"11","num_nodes":"11","size_leaf_vector":"1"}},{"base_weights":[3.1821202E-2,5.8873725E-1,-8.455753E-1,1.06432445E-1,8.627227E-1,-0E0,-4.518652E-2,-4.1415025E-2,3.122196E-2,4.6040133E-2,-0E0],"categories":[],"categories_nodes":[],"categories_segments":[],"categories_sizes":[],"default_left":[0,0,0,0,0,0,0,0,0,0,0],"id":51,"left_children":[1,3,5,7,9,-1,-1,-1,-1,-1,-1],"loss_changes":[1.8168867E1,2.4921427E0,5.8511066E-1,5.361033E0,5.9438133E-1,0E0,0E0,0E0,0E0,0E0,0E0],"parents":[2147483647,0,0,1,1,2,2,3,3,4,4],"right_children":[2,4,6,8,10,-1,-1,-1,-1,-1,-1],"split_conditions":[8.7E1,1.2750332E3,1.708E3,6.867664E0,1.3729702E3,-0E0,-4.518652E-2,-4.1415025E-2,3.122196E-2,4.6040133E-2,-0E0],"split_indices":[7,6,1,9,6,0,0,0,0,0,0],"split_type":[0,0,0,0,0,0,0,0,0,0,0],"sum_hessian":[3.5426823E1,2.2221119E1,1.3205705E1,9.2142935E0,1.3006825E1,1.053043E0,1.2152661E1,2.7277925E0,6.486501E0,1.1996602E1,1.0102235E0],"tree_param":{"num_deleted":"0","num_feature":"11","num_nodes":"11","size_leaf_vector":"1"}},{"base_weights":[-2.2916518E-2,6.0821736E-1,-7.4632543E-1,6.9136965E-1,-0E0,-4.579754E-2,-1.6961692E-1,3.6441993E-2,-0E0,1.595888E-2,-2.5549723E-2],"categories":[],"categories_nodes":[],"categories_segments":[],"categories_sizes":[],"default_left":[0,0,0,0,0,0,0,0,0,0,0],"id":52,"left_children":[1,3,5,7,-1,-1,9,-1,-1,-1,-1],"loss_changes":[1.5749854E1,1.2263842E0,9.0202236E-1,3.25562E-1,0E0,0E0,1.1959312E0,0E0,0E0,0E0,0E0],"parents":[2147483647,0,0,1,1,2,2,3,3,6,6],"right_children":[2,4,6,8,-1,-1,10,-1,-1,-1,-1],"split_conditions":[7.2E1,4.162E3,3.689E3,1.338E3,-0E0,-4.579754E-2,3.729E3,3.6441993E-2,-0E0,1.595888E-2,-2.5549723E-2],"split_indices":[7,10,10,4,0,0,10,0,0,0,0],"split_type":[0,0,0,0,0,0,0,0,0,0,0],"sum_hessian":[3.2350727E1,1.6993185E1,1.5357543E1,1.5491017E1,1.5021671E0,1.0742622E1,4.61492E0,1.4451845E1,1.0391729E0,1.3221717E0,3.2927485E0],"tree_param":{"num_deleted":"0","num_feature":"11","num_nodes":"11","size_leaf_vector":"1"}},{"base_weights":[-0E0,5.0404996E-1,-7.73183E-1,-0E0,8.1514674E-1,-4.4878714E-2,4.614935E-3,-4.6138402E-2,3.4467977E-2,1.5366959E-3,4.5214716E-2],"categories":[],"categories_nodes":[],"categories_segments":[],"categories_sizes":[],"default_left":[0,0,0,0,0,0,0,0,0,0,0],"id":53,"left_children":[1,3,5,7,9,-1,-1,-1,-1,-1,-1],"loss_changes":[1.3009198E1,3.1641908E0,1.8841043E0,6.3301044E0,3.894539E-1,0E0,0E0,0E0,0E0,0E0,0E0],"parents":[2147483647,0,0,1,1,2,2,3,3,4,4],"right_children":[2,4,6,8,10,-1,-1,-1,-1,-1,-1],"split_conditions":[1.0459261E2,1.218E3,1.264E3,2.4381826E0,1.6868066E3,-4.4878714E-2,4.614935E-3,-4.6138402E-2,3.4467977E-2,1.5366959E-3,4.5214716E-2],"split_indices":[3,5,5,8,1,0,0,0,0,0,0],"split_type":[0,0,0,0,0,0,0,0,0,0,0],"sum_hessian":[3.1627047E1,1.9635757E1,1.199129E1,7.9833937E0,1.1652363E1,1.0957112E1,1.0341775E0,3.2144482E0,4.7689457E0,1.898737E0,9.753626E0],"tree_param":{"num_deleted":"0","num_feature":"11","num_nodes":"11","size_leaf_vector":"1"}},{"base_weights":[-0E0,5.9128183E-1,-4.4909686E-2,-0E0,8.4706604E-1,2.1584092E-2,-8.501766E-3,4.5218542E-2,-0E0],"categories":[],"categories_nodes":[],"categories_segments":[],"categories_sizes":[],"default_left":[0,0,0,0,0,0,0,0,0],"id":54,"left_children":[1,3,-1,5,7,-1,-1,-1,-1],"loss_changes":[1.6911892E1,3.014453E0,0E0,5.584696E-1,4.777689E-1,0E0,0E0,0E0,0E0],"parents":[2147483647,0,0,1,1,3,3,4,4],"right_children":[2,4,-1,6,8,-1,-1,-1,-1],"split_conditions":[8.7E1,1.6868066E3,-4.4909686E-2,1.7451901E0,1.3650527E3,2.1584092E-2,-8.501766E-3,4.5218542E-2,-0E0],"split_indices":[7,1,0,8,2,0,0,0,0],"split_type":[0,0,0,0,0,0,0,0,0],"sum_hessian":[3.0054686E1,1.85746E1,1.1480085E1,5.835612E0,1.2738989E1,1.1083093E0,4.7273026E0,1.1637178E1,1.1018099E0],"tree_param":{"num_deleted":"0","num_feature":"11","num_nodes":"9","size_leaf_vector":"1"}},{"base_weights":[-0E0,4.8035768E-1,-4.0437486E-2,-0E0,6.6398966E-1,3.6645047E-2,-5.920416E-2,4.0238682E-2,7.861834E-3],"categories":[],"categories_nodes":[],"categories_segments":[],"categories_sizes":[],"default_left":[0,0,0,0,0,0,0,0,0],"id":55,"left_children":[1,3,-1,5,7,-1,-1,-1,-1],"loss_changes":[1.2493359E1,1.8395462E0,0E0,6.5056734E0,4.4398403E-1,0E0,0E0,0E0,0E0],"parents":[2147483647,0,0,1,1,3,3,4,4],"right_children":[2,4,-1,6,8,-1,-1,-1,-1],"split_conditions":[8.7E1,1.101E3,-4.0437486E-2,4.8E1,3.939E3,3.6645047E-2,-5.920416E-2,4.0238682E-2,7.861834E-3],"split_indices":[7,0,0,7,10,0,0,0,0],"split_type":[0,0,0,0,0,0,0,0,0],"sum_hessian":[3.016808E1,1.9189829E1,1.097825E1,5.4507065E0,1.3739122E1,3.5561E0,1.8946067E0,9.519643E0,4.219479E0],"tree_param":{"num_deleted":"0","num_feature":"11","num_nodes":"9","size_leaf_vector":"1"}},{"base_weights":[-0E0,7.0786226E-1,-7.7024686E-1,8.0708444E-1,-4.844127E-3,-4.3774646E-2,4.6960935E-3,-0E0,4.406005E-2],"categories":[],"categories_nodes":[],"categories_segments":[],"categories_sizes":[],"default_left":[0,0,0,0,0,0,0,0,0],"id":56,"left_children":[1,3,5,7,-1,-1,-1,-1,-1],"loss_changes":[1.7284801E1,1.7506456E0,1.8554926E0,9.560356E-1,0E0,0E0,0E0,0E0,0E0],"parents":[2147483647,0,0,1,1,2,2,3,3],"right_children":[2,4,6,8,-1,-1,-1,-1,-1],"split_conditions":[6.473948E1,1.1523375E2,1.264E3,7.0239815E1,-4.844127E-3,-4.3774646E-2,4.6960935E-3,-0E0,4.406005E-2],"split_indices":[7,3,5,3,0,0,0,0,0],"split_type":[0,0,0,0,0,0,0,0,0],"sum_hessian":[2.9698536E1,1.5498146E1,1.4200389E1,1.4347552E1,1.1505938E0,1.3162796E1,1.0375931E0,1.2419628E0,1.310559E1],"tree_param":{"num_deleted":"0","num_feature":"11","num_nodes":"9","size_leaf_vector":"1"}},{"base_weights":[4.543257E-2,5.3459454E-1,-7.948822E-1,2.6743574E-2,7.824921E-1,-0E0,-4.3267574E-2,-2.0895937E-2,2.8456667E-2,-0E0,4.252637E-2],"categories":[],"categories_nodes":[],"categories_segments":[],"categories_sizes":[],"default_left":[0,0,0,0,0,0,0,0,0,0,0],"id":57,"left_children":[1,3,5,7,9,-1,-1,-1,-1,-1,-1],"loss_changes":[1.2864582E1,2.130416E0,5.607619E-1,2.3288739E0,6.163497E-1,0E0,0E0,0E0,0E0,0E0,0E0],"parents":[2147483647,0,0,1,1,2,2,3,3,4,4],"right_children":[2,4,6,8,10,-1,-1,-1,-1,-1,-1],"split_conditions":[8.7E1,1.235E3,1.0297403E2,2.7690105E0,1.5500267E0,-0E0,-4.3267574E-2,-2.0895937E-2,2.8456667E-2,-0E0,4.252637E-2],"split_indices":[7,4,3,8,8,0,0,0,0,0,0],"split_type":[0,0,0,0,0,0,0,0,0,0,0],"sum_hessian":[2.9579704E1,1.9302319E1,1.0277387E1,7.3564672E0,1.1945851E1,1.0131E0,9.264286E0,3.6619582E0,3.694509E0,1.1362691E0,1.0809582E1],"tree_param":{"num_deleted":"0","num_feature":"11","num_nodes":"11","size_leaf_vector":"1"}},{"base_weights":[-4.827403E-2,4.1247055E-1,-4.378499E-2,-1.7633568E-1,8.4487504E-1,-4.3014213E-2,2.1609472E-2,4.969327E-2,-0E0],"categories":[],"categories_nodes":[],"categories_segments":[],"categories_sizes":[],"default_left":[0,0,0,0,0,0,0,0,0],"id":58,"left_children":[1,3,-1,5,7,-1,-1,-1,-1],"loss_changes":[1.1188651E1,5.102824E0,0E0,3.92395E0,1.6860323E0,0E0,0E0,0E0,0E0],"parents":[2147483647,0,0,1,1,3,3,4,4],"right_children":[2,4,-1,6,8,-1,-1,-1,-1],"split_conditions":[8.7E1,1.237E3,-4.378499E-2,2.6448905E0,4.162E3,-4.3014213E-2,2.1609472E-2,4.969327E-2,-0E0],"split_indices":[7,4,0,8,10,0,0,0,0],"split_type":[0,0,0,0,0,0,0,0,0],"sum_hessian":[2.679367E1,1.714426E1,9.649409E0,7.0204163E0,1.0123845E1,3.4974332E0,3.522983E0,8.745588E0,1.3782564E0],"tree_param":{"num_deleted":"0","num_feature":"11","num_nodes":"9","size_leaf_vector":"1"}},{"base_weights":[-7.304872E-2,4.5937416E-1,-6.85806E-1,8.252494E-2,6.205943E-1,-4.3719392E-2,1.3749847E-2,2.6396645E-2,-4.6401154E-2,-0E0,3.5964675E-2],"categories":[],"categories_nodes":[],"categories_segments":[],"categories_sizes":[],"default_left":[0,0,0,0,0,0,0,0,0,0,0],"id":59,"left_children":[1,3,5,7,9,-1,-1,-1,-1,-1,-1],"loss_changes":[9.660588E0,5.270407E-1,3.0758162E0,3.2912695E0,3.8549948E-1,0E0,0E0,0E0,0E0,0E0,0E0],"parents":[2147483647,0,0,1,1,2,2,3,3,4,4],"right_children":[2,4,6,8,10,-1,-1,-1,-1,-1,-1],"split_conditions":[6.473948E1,1.233E3,1.284E3,1.251E3,4.114527E1,-4.3719392E-2,1.3749847E-2,2.6396645E-2,-4.6401154E-2,-0E0,3.5964675E-2],"split_indices":[7,4,4,6,7,0,0,0,0,0,0],"split_type":[0,0,0,0,0,0,0,0,0,0,0],"sum_hessian":[2.729868E1,1.4304166E1,1.29945135E1,5.668163E0,8.6360035E0,1.1372676E1,1.6218375E0,4.6090446E0,1.0591182E0,1.7179184E0,6.918085E0],"tree_param":{"num_deleted":"0","num_feature":"11","num_nodes":"11","size_leaf_vector":"1"}},{"base_weights":[6.381542E-2,5.7979035E-1,-6.917342E-1,-1.4517734E-2,6.834224E-1,-4.4192374E-2,9.3912305E-3,4.0293273E-2,-0E0],"categories":[],"categories_nodes":[],"categories_segments":[],"categories_sizes":[],"default_left":[0,0,0,0,0,0,0,0,0],"id":60,"left_children":[1,3,5,-1,7,-1,-1,-1,-1],"loss_changes":[1.1348402E1,1.9918466E0,2.4599667E0,0E0,1.074975E0,0E0,0E0,0E0,0E0],"parents":[2147483647,0,0,1,1,2,2,4,4],"right_children":[2,4,6,-1,8,-1,-1,-1,-1],"split_conditions":[1.0349092E2,1.656E3,1.2558497E3,-1.4517734E-2,9.912502E1,-4.4192374E-2,9.3912305E-3,4.0293273E-2,-0E0],"split_indices":[3,1,5,0,3,0,0,0,0],"split_type":[0,0,0,0,0,0,0,0,0],"sum_hessian":[2.7224869E1,1.6708681E1,1.0516188E1,1.0729685E0,1.5635713E1,9.093562E0,1.4226255E0,1.2619791E1,3.015922E0],"tree_param":{"num_deleted":"0","num_feature":"11","num_nodes":"9","size_leaf_vector":"1"}},{"base_weights":[4.9928073E-2,5.9615105E-1,-6.3602763E-1,-2.619212E-3,6.940483E-1,-4.3288734E-2,-0E0,3.8392093E-2,-0E0,3.4162704E-2,-2.83102E-2],"categories":[],"categories_nodes":[],"categories_segments":[],"categories_sizes":[],"default_left":[0,0,0,0,0,0,0,0,0,0,0],"id":61,"left_children":[1,3,5,-1,7,-1,9,-1,-1,-1,-1],"loss_changes":[1.0644307E1,1.3859386E0,1.4267058E0,0E0,8.806052E-1,0E0,2.1691575E0,0E0,0E0,0E0,0E0],"parents":[2147483647,0,0,1,1,2,2,4,4,6,6],"right_children":[2,4,6,-1,8,-1,10,-1,-1,-1,-1],"split_conditions":[7.2E1,6.903491E1,3.684E3,-2.619212E-3,4.162E3,-4.3288734E-2,3.729E3,3.8392093E-2,-0E0,3.4162704E-2,-2.83102E-2],"split_indices":[7,3,10,0,10,0,10,0,0,0,0],"split_type":[0,0,0,0,0,0,0,0,0,0,0],"sum_hessian":[2.6449944E1,1.520339E1,1.1246552E1,1.3850977E0,1.3818293E1,7.512685E0,3.7338676E0,1.260054E1,1.2177525E0,1.2629493E0,2.4709184E0],"tree_param":{"num_deleted":"0","num_feature":"11","num_nodes":"11","size_leaf_vector":"1"}},{"base_weights":[4.6317045E-2,4.9265137E-1,-7.515232E-1,6.2489724E-1,8.566367E-2,-0E0,-4.161441E-2,3.353743E-2,-0E0,-3.0180234E-2,2.1000415E-2],"categories":[],"categories_nodes":[],"categories_segments":[],"categories_sizes":[],"default_left":[0,0,0,0,0,0,0,0,0,0,0],"id":62,"left_children":[1,3,5,7,9,-1,-1,-1,-1,-1,-1],"loss_changes":[9.687911E0,5.609603E-1,5.0350285E-1,2.7385902E-1,1.6608129E0,0E0,0E0,0E0,0E0,0E0,0E0],"parents":[2147483647,0,0,1,1,2,2,3,3,4,4],"right_children":[2,4,6,8,10,-1,-1,-1,-1,-1,-1],"split_conditions":[8.7E1,9.701808E1,1.0416428E2,1.338E3,1.237E3,-0E0,-4.161441E-2,3.353743E-2,-0E0,-3.0180234E-2,2.1000415E-2],"split_indices":[7,3,3,4,4,0,0,0,0,0,0],"split_type":[0,0,0,0,0,0,0,0,0,0,0],"sum_hessian":[2.5529108E1,1.701798E1,8.511127E0,1.1513006E1,5.504975E0,1.0294828E0,7.481645E0,1.0469443E1,1.0435624E0,1.0465857E0,4.458389E0],"tree_param":{"num_deleted":"0","num_feature":"11","num_nodes":"11","size_leaf_vector":"1"}},{"base_weights":[-3.1298842E-2,-2.4929424E-1,4.0789705E-2,-8.0958694E-1,2.6751626E-1,-0E0,-4.7094792E-2,-2.0563869E-2,2.0876175E-2],"categories":[],"categories_nodes":[],"categories_segments":[],"categories_sizes":[],"default_left":[0,0,0,0,0,0,0,0,0],"id":63,"left_children":[1,3,-1,5,7,-1,-1,-1,-1],"loss_changes":[4.6974034E0,6.8032494E0,0E0,8.2543945E-1,1.3593647E0,0E0,0E0,0E0,0E0],"parents":[2147483647,0,0,1,1,3,3,4,4],"right_children":[2,4,-1,6,8,-1,-1,-1,-1],"split_conditions":[2.6448905E0,1.1192681E3,4.0789705E-2,9.560121E1,2.3568707E0,-0E0,-4.7094792E-2,-2.0563869E-2,2.0876175E-2],"split_indices":[8,0,0,3,9,0,0,0,0],"split_type":[0,0,0,0,0,0,0,0,0],"sum_hessian":[2.4870354E1,2.0810762E1,4.059592E0,1.017771E1,1.0633053E1,1.9893038E0,8.188406E0,1.0059892E0,9.627064E0],"tree_param":{"num_deleted":"0","num_feature":"11","num_nodes":"9","size_leaf_vector":"1"}},{"base_weights":[-6.270432E-2,3.4140268E-1,-6.178821E-1,-2.520293E-2,4.9782768E-1,1.24161705E-1,-9.0015423E-1,8.111315E-4,3.2152724E-2,-3.8199694E-4,2.0015042E-2,-4.8997276E-2,-0E0],"categories":[],"categories_nodes":[],"categories_segments":[],"categories_sizes":[],"default_left":[0,0,0,0,0,0,0,0,0,0,0,0,0],"id":64,"left_children":[1,3,5,-1,7,9,11,-1,-1,-1,-1,-1,-1],"loss_changes":[6.070639E0,2.2159917E0,2.9336958E0,0E0,6.0839057E-1,3.3015206E-1,3.5815287E-1,0E0,0E0,0E0,0E0,0E0,0E0],"parents":[2147483647,0,0,1,1,2,2,4,4,5,5,6,6],"right_children":[2,4,6,-1,8,10,12,-1,-1,-1,-1,-1,-1],"split_conditions":[7E1,1.656E3,1.712E3,-2.520293E-2,1.233E3,1.11E3,1.3105294E3,8.111315E-4,3.2152724E-2,-3.8199694E-4,2.0015042E-2,-4.8997276E-2,-0E0],"split_indices":[7,1,1,0,4,0,2,0,0,0,0,0,0],"split_type":[0,0,0,0,0,0,0,0,0,0,0,0,0],"sum_hessian":[2.4502213E1,1.3882071E1,1.0620142E1,1.3213768E0,1.2560694E1,2.5928338E0,8.027308E0,3.9653351E0,8.595359E0,1.1876285E0,1.4052054E0,6.9900384E0,1.0372703E0],"tree_param":{"num_deleted":"0","num_feature":"11","num_nodes":"13","size_leaf_vector":"1"}},{"base_weights":[-2.46612E-2,4.5633414E-1,-5.479071E-1,-0E0,5.8123505E-1,-4.6535414E-2,-0E0,1.4186183E-2,-8.782488E-3,3.9483223E-2,-0E0,2.8471366E-2,-1.3779617E-2],"categories":[],"categories_nodes":[],"categories_segments":[],"categories_sizes":[],"default_left":[0,0,0,0,0,0,0,0,0,0,0,0,0],"id":65,"left_children":[1,3,5,7,9,-1,11,-1,-1,-1,-1,-1,-1],"loss_changes":[6.3269863E0,6.2955904E-1,3.0128086E0,2.6218072E-1,1.4694827E0,0E0,1.1707522E0,0E0,0E0,0E0,0E0,0E0,0E0],"parents":[2147483647,0,0,1,1,2,2,3,3,4,4,6,6],"right_children":[2,4,6,8,10,-1,12,-1,-1,-1,-1,-1,-1],"split_conditions":[6.473948E1,3.9418092E0,1.241E3,3.5520513E0,4.8E1,-4.6535414E-2,1.325E3,1.4186183E-2,-8.782488E-3,3.9483223E-2,-0E0,2.8471366E-2,-1.3779617E-2],"split_indices":[7,9,4,9,7,0,6,0,0,0,0,0,0],"split_type":[0,0,0,0,0,0,0,0,0,0,0,0,0],"sum_hessian":[2.2963758E1,1.1533688E1,1.1430072E1,2.944414E0,8.589273E0,6.785967E0,4.644105E0,1.2082525E0,1.7361612E0,6.551788E0,2.0374858E0,1.6827819E0,2.9613228E0],"tree_param":{"num_deleted":"0","num_feature":"11","num_nodes":"13","size_leaf_vector":"1"}},{"base_weights":[7.8831345E-2,5.278194E-1,-4.158717E-2,-3.4610028E-3,6.6925853E-1,-1.3448508E-2,5.474998E-3,3.7463114E-2,-0E0],"categories":[],"categories_nodes":[],"categories_segments":[],"categories_sizes":[],"default_left":[0,0,0,0,0,0,0,0,0],"id":66,"left_children":[1,3,-1,5,7,-1,-1,-1,-1],"loss_changes":[1.0525247E1,1.6691465E0,0E0,2.2867307E-1,1.0855875E0,0E0,0E0,0E0,0E0],"parents":[2147483647,0,0,1,1,3,3,4,4],"right_children":[2,4,-1,6,8,-1,-1,-1,-1],"split_conditions":[8.7E1,7.396571E1,-4.158717E-2,1.273E3,1.0662017E2,-1.3448508E-2,5.474998E-3,3.7463114E-2,-0E0],"split_indices":[7,3,0,4,3,0,0,0,0],"split_type":[0,0,0,0,0,0,0,0,0],"sum_hessian":[2.4042242E1,1.6751719E1,7.290523E0,2.9838982E0,1.376782E1,1.7994943E0,1.184404E0,1.2716208E1,1.0516113E0],"tree_param":{"num_deleted":"0","num_feature":"11","num_nodes":"9","size_leaf_vector":"1"}},{"base_weights":[-0E0,3.608884E-1,-4.108062E-2,-5.674063E-2,6.792705E-1,2.0357493E-2,-3.8064875E-2,4.2291146E-2,-0E0],"categories":[],"categories_nodes":[],"categories_segments":[],"categories_sizes":[],"default_left":[0,0,0,0,0,0,0,0,0],"id":67,"left_children":[1,3,-1,5,7,-1,-1,-1,-1],"loss_changes":[7.5740805E0,2.6275313E0,0E0,2.9885519E0,7.932372E-1,0E0,0E0,0E0,0E0],"parents":[2147483647,0,0,1,1,3,3,4,4],"right_children":[2,4,-1,6,8,-1,-1,-1,-1],"split_conditions":[8.7E1,1.237E3,-4.108062E-2,4.8E1,9.912502E1,2.0357493E-2,-3.8064875E-2,4.2291146E-2,-0E0],"split_indices":[7,4,0,7,3,0,0,0,0],"split_type":[0,0,0,0,0,0,0,0,0],"sum_hessian":[2.3045238E1,1.6130177E1,6.915062E0,6.653705E0,9.476471E0,3.8387015E0,2.8150036E0,6.8655863E0,2.6108851E0],"tree_param":{"num_deleted":"0","num_feature":"11","num_nodes":"9","size_leaf_vector":"1"}},{"base_weights":[3.7958577E-2,5.885931E-1,-5.084893E-1,6.3174427E-1,-0E0,-4.6581976E-2,2.5883582E-1,5.606047E-3,3.844085E-2,3.4520928E-2,-1.54646905E-2],"categories":[],"categories_nodes":[],"categories_segments":[],"categories_sizes":[],"default_left":[0,0,0,0,0,0,0,0,0,0,0],"id":68,"left_children":[1,3,5,7,-1,-1,9,-1,-1,-1,-1],"loss_changes":[7.2259088E0,2.178173E-1,4.3335876E0,2.738738E-1,0E0,0E0,1.5011969E0,0E0,0E0,0E0,0E0],"parents":[2147483647,0,0,1,1,2,2,3,3,6,6],"right_children":[2,4,6,8,-1,-1,10,-1,-1,-1,-1],"split_conditions":[6.473948E1,1.3612234E3,1.1250134E3,1.6868066E3,-0E0,-4.6581976E-2,1.04E2,5.606047E-3,3.844085E-2,3.4520928E-2,-1.54646905E-2],"split_indices":[7,2,0,1,0,0,7,0,0,0,0],"split_type":[0,0,0,0,0,0,0,0,0,0,0],"sum_hessian":[2.1887077E1,1.1319115E1,1.0567962E1,1.0239451E1,1.0796633E0,7.0935946E0,3.4743676E0,3.2781425E0,6.961309E0,2.352279E0,1.1220888E0],"tree_param":{"num_deleted":"0","num_feature":"11","num_nodes":"11","size_leaf_vector":"1"}},{"base_weights":[-0E0,4.1018763E-1,-7.647894E-1,-0E0,8.257458E-1,-4.14156E-2,-0E0,-5.0016742E-2,1.8933294E-2,4.830568E-2,-0E0],"categories":[],"categories_nodes":[],"categories_segments":[],"categories_sizes":[],"default_left":[0,0,0,0,0,0,0,0,0,0,0],"id":69,"left_children":[1,3,5,7,9,-1,-1,-1,-1,-1,-1],"loss_changes":[7.1959896E0,2.5796149E0,8.614159E-2,3.5766504E0,9.077945E-1,0E0,0E0,0E0,0E0,0E0,0E0],"parents":[2147483647,0,0,1,1,2,2,3,3,4,4],"right_children":[2,4,6,8,10,-1,-1,-1,-1,-1,-1],"split_conditions":[1.027235E2,3.679E3,1.341E3,2.1964488E0,1.354719E3,-4.14156E-2,-0E0,-5.0016742E-2,1.8933294E-2,4.830568E-2,-0E0],"split_indices":[3,10,6,8,6,0,0,0,0,0,0],"split_type":[0,0,0,0,0,0,0,0,0,0,0],"sum_hessian":[2.0784462E1,1.3714323E1,7.070139E0,7.3002124E0,6.4141107E0,6.00537E0,1.0647686E0,1.6165401E0,5.6836724E0,5.388802E0,1.0253085E0],"tree_param":{"num_deleted":"0","num_feature":"11","num_nodes":"11","size_leaf_vector":"1"}},{"base_weights":[-0E0,3.5940075E-1,-6.756718E-1,-1.80987E-1,6.6672444E-1,-0E0,-3.8708784E-2,-2.1593334E-2,7.358812E-3,3.7221786E-2,-0E0],"categories":[],"categories_nodes":[],"categories_segments":[],"categories_sizes":[],"default_left":[0,0,0,0,0,0,0,0,0,0,0],"id":70,"left_children":[1,3,5,7,9,-1,-1,-1,-1,-1,-1],"loss_changes":[5.3237314E0,2.8545713E0,4.5954895E-1,6.697923E-1,2.602172E-1,0E0,0E0,0E0,0E0,0E0,0E0],"parents":[2147483647,0,0,1,1,2,2,3,3,4,4],"right_children":[2,4,6,8,10,-1,-1,-1,-1,-1,-1],"split_conditions":[8.6E1,1.6868066E3,1.717E3,3.679E3,4.087E3,-0E0,-3.8708784E-2,-2.1593334E-2,7.358812E-3,3.7221786E-2,-0E0],"split_indices":[7,1,1,10,10,0,0,0,0,0,0],"split_type":[0,0,0,0,0,0,0,0,0,0,0],"sum_hessian":[2.0416887E1,1.3999548E1,6.4173403E0,4.6345124E0,9.365035E0,1.000691E0,5.4166493E0,3.3109345E0,1.3235779E0,7.783533E0,1.581502E0],"tree_param":{"num_deleted":"0","num_feature":"11","num_nodes":"11","size_leaf_vector":"1"}},{"base_weights":[-8.503269E-2,3.4677526E-1,-5.6584543E-1,-0E0,5.326781E-1,-4.496879E-2,-0E0,2.1868112E-2,-1.3547385E-2,3.72375E-2,-6.3370517E-3,2.1244561E-2,-1.5535158E-2],"categories":[],"categories_nodes":[],"categories_segments":[],"categories_sizes":[],"default_left":[0,0,0,0,0,0,0,0,0,0,0,0,0],"id":71,"left_children":[1,3,5,7,9,-1,11,-1,-1,-1,-1,-1,-1],"loss_changes":[4.8577547E0,7.1793854E-1,2.3290453E0,7.4060386E-1,1.4460998E0,0E0,8.102176E-1,0E0,0E0,0E0,0E0,0E0,0E0],"parents":[2147483647,0,0,1,1,2,2,3,3,4,4,6,6],"right_children":[2,4,6,8,10,-1,12,-1,-1,-1,-1,-1,-1],"split_conditions":[6.473948E1,1.698E3,1.1192681E3,4.1E1,3.939E3,-4.496879E-2,1.7129469E3,2.1868112E-2,-1.3547385E-2,3.72375E-2,-6.3370517E-3,2.1244561E-2,-1.5535158E-2],"split_indices":[7,1,0,7,10,0,1,0,0,0,0,0,0],"split_type":[0,0,0,0,0,0,0,0,0,0,0,0,0],"sum_hessian":[2.0924791E1,1.0623191E1,1.03016E1,4.167004E0,6.456187E0,6.3529167E0,3.9486842E0,1.442184E0,2.7248201E0,5.36093E0,1.0952567E0,1.8090906E0,2.1395936E0],"tree_param":{"num_deleted":"0","num_feature":"11","num_nodes":"13","size_leaf_vector":"1"}},{"base_weights":[2.6827054E-3,3.566214E-1,-6.3419175E-1,-3.6868792E-2,5.949137E-1,-3.9897304E-2,-0E0,4.138449E-2,2.443305E-3],"categories":[],"categories_nodes":[],"categories_segments":[],"categories_sizes":[],"default_left":[0,0,0,0,0,0,0,0,0],"id":72,"left_children":[1,3,5,-1,7,-1,-1,-1,-1],"loss_changes":[4.91835E0,4.257068E0,1.1188121E0,0E0,1.1966124E0,0E0,0E0,0E0,0E0],"parents":[2147483647,0,0,1,1,2,2,4,4],"right_children":[2,4,6,-1,8,-1,-1,-1,-1],"split_conditions":[1.0349092E2,1.656E3,1.2467423E3,-3.6868792E-2,9.701808E1,-3.9897304E-2,-0E0,4.138449E-2,2.443305E-3],"split_indices":[3,1,5,0,3,0,0,0,0],"split_type":[0,0,0,0,0,0,0,0,0],"sum_hessian":[2.043149E1,1.3920432E1,6.5110583E0,1.7398982E0,1.2180533E1,5.501706E0,1.0093521E0,7.5363774E0,4.644156E0],"tree_param":{"num_deleted":"0","num_feature":"11","num_nodes":"9","size_leaf_vector":"1"}},{"base_weights":[-5.3493015E-2,4.4535956E-1,-4.977354E-1,6.3442665E-1,-7.256045E-3,-4.9334247E-2,2.4302656E-2,-0E0,4.55715E-2,-2.0075913E-3,-0E0,-3.8917493E-3,2.2113351E-2],"categories":[],"categories_nodes":[],"categories_segments":[],"categories_sizes":[],"default_left":[0,0,0,0,0,0,0,0,0,0,0,0,0],"id":73,"left_children":[1,3,5,7,9,-1,11,-1,-1,-1,-1,-1,-1],"loss_changes":[4.740628E0,1.1351894E0,3.4982224E0,1.1105752E0,3.0927253E-3,0E0,4.792887E-1,0E0,0E0,0E0,0E0,0E0,0E0],"parents":[2147483647,0,0,1,1,2,2,3,3,4,4,6,6],"right_children":[2,4,6,8,10,-1,12,-1,-1,-1,-1,-1,-1],"split_conditions":[9.620085E1,1.162E3,1.1192681E3,1.197E3,1.734E3,-4.9334247E-2,1.173E3,-0E0,4.55715E-2,-2.0075913E-3,-0E0,-3.8917493E-3,2.2113351E-2],"split_indices":[3,0,0,4,1,0,0,0,0,0,0,0,0],"split_type":[0,0,0,0,0,0,0,0,0,0,0,0,0],"sum_hessian":[1.9273176E1,8.547224E0,1.0725951E1,6.5247145E0,2.0225103E0,5.573469E0,5.152482E0,2.5418944E0,3.9828198E0,1.017072E0,1.0054382E0,3.8332546E0,1.3192277E0],"tree_param":{"num_deleted":"0","num_feature":"11","num_nodes":"13","size_leaf_vector":"1"}},{"base_weights":[-0E0,-4.0992108E-1,3.8542774E-1,-8.649489E-1,4.532678E-1,-1.6098777E-2,5.405725E-1,-5.0576467E-2,-6.0393563E-3,-0E0,2.6669059E-2,3.671264E-2,-7.6315487E-3],"categories":[],"categories_nodes":[],"categories_segments":[],"categories_sizes":[],"default_left":[0,0,0,0,0,0,0,0,0,0,0,0,0],"id":74,"left_children":[1,3,5,7,9,-1,11,-1,-1,-1,-1,-1,-1],"loss_changes":[3.5802794E0,4.853576E0,1.5833402E0,1.6444778E-1,1.4622867E-2,0E0,1.835089E0,0E0,0E0,0E0,0E0,0E0,0E0],"parents":[2147483647,0,0,1,1,2,2,3,3,4,4,6,6],"right_children":[2,4,6,8,10,-1,12,-1,-1,-1,-1,-1,-1],"split_conditions":[1.1192681E3,2.4381826E0,2.3568707E0,1.103E3,1.6777699E3,-1.6098777E-2,1.09740974E2,-5.0576467E-2,-6.0393563E-3,-0E0,2.6669059E-2,3.671264E-2,-7.6315487E-3],"split_indices":[0,8,9,0,1,0,3,0,0,0,0,0,0],"split_type":[0,0,0,0,0,0,0,0,0,0,0,0,0],"sum_hessian":[2.0679934E1,9.834912E0,1.0845022E1,6.8180194E0,3.016893E0,1.1775782E0,9.667443E0,4.8345547E0,1.9834647E0,1.0646473E0,1.9522456E0,8.073727E0,1.5937173E0],"tree_param":{"num_deleted":"0","num_feature":"11","num_nodes":"13","size_leaf_vector":"1"}},{"base_weights":[-8.843949E-3,2.804082E-1,-6.510076E-1,-4.4165622E-2,4.888164E-1,-4.032595E-2,-0E0,5.420759E-3,3.9436262E-2],"categories":[],"categories_nodes":[],"categories_segments":[],"categories_sizes":[],"default_left":[0,0,0,0,0,0,0,0,0],"id":75,"left_children":[1,3,5,-1,7,-1,-1,-1,-1],"loss_changes":[4.259457E0,3.777113E0,1.0096669E0,0E0,9.942584E-1,0E0,0E0,0E0,0E0],"parents":[2147483647,0,0,1,1,2,2,4,4],"right_children":[2,4,6,-1,8,-1,-1,-1,-1],"split_conditions":[1.0349092E2,1.642E3,1.2467423E3,-4.4165622E-2,3.692E3,-4.032595E-2,-0E0,5.420759E-3,3.9436262E-2],"split_indices":[3,1,5,0,10,0,0,0,0],"split_type":[0,0,0,0,0,0,0,0,0],"sum_hessian":[1.9951107E1,1.3606846E1,6.3442616E0,1.2104361E0,1.239641E1,5.337305E0,1.0069566E0,6.800012E0,5.596398E0],"tree_param":{"num_deleted":"0","num_feature":"11","num_nodes":"9","size_leaf_vector":"1"}},{"base_weights":[-0E0,-3.4550554E-1,3.2748038E-1,-4.6243105E-2,2.7161857E-1,7.13647E-1,-4.385345E-2,-6.437953E-4,2.4670979E-2,4.2652175E-2,-0E0,-4.842215E-2,1.9372655E-2],"categories":[],"categories_nodes":[],"categories_segments":[],"categories_sizes":[],"default_left":[0,0,0,0,0,0,0,0,0,0,0,0,0],"id":76,"left_children":[1,3,5,-1,7,9,11,-1,-1,-1,-1,-1,-1],"loss_changes":[2.2238605E0,3.7902682E0,1.9055982E0,0E0,5.435643E-1,5.0162244E-1,2.960626E0,0E0,0E0,0E0,0E0,0E0,0E0],"parents":[2147483647,0,0,1,1,2,2,4,4,5,5,6,6],"right_children":[2,4,6,-1,8,10,12,-1,-1,-1,-1,-1,-1],"split_conditions":[1.237E3,6.867664E0,1.325E3,-4.6243105E-2,1.67E3,4.136E3,1.2933452E3,-6.437953E-4,2.4670979E-2,4.2652175E-2,-0E0,-4.842215E-2,1.9372655E-2],"split_indices":[4,9,6,0,1,10,4,0,0,0,0,0,0],"split_type":[0,0,0,0,0,0,0,0,0,0,0,0,0],"sum_hessian":[1.7720251E1,7.9849615E0,9.73529E0,4.2791953E0,3.7057662E0,4.9804974E0,4.754792E0,1.0485334E0,2.6572328E0,3.8749816E0,1.1055158E0,1.4850965E0,3.2696958E0],"tree_param":{"num_deleted":"0","num_feature":"11","num_nodes":"13","size_leaf_vector":"1"}},{"base_weights":[-0E0,-1.770896E-1,3.4589805E-2,-5.634817E-1,5.4013796E-2,2.250868E-4,-4.0332112E-2,1.378633E-2,-1.839999E-2],"categories":[],"categories_nodes":[],"categories_segments":[],"categories_sizes":[],"default_left":[0,0,0,0,0,0,0,0,0],"id":77,"left_children":[1,3,-1,5,7,-1,-1,-1,-1],"loss_changes":[2.3153856E0,1.7024693E0,0E0,1.3490193E0,9.9421287E-1,0E0,0E0,0E0,0E0],"parents":[2147483647,0,0,1,1,3,3,4,4],"right_children":[2,4,-1,6,8,-1,-1,-1,-1],"split_conditions":[8.823493E0,1.109E3,3.4589805E-2,1.2386495E3,1.761E3,2.250868E-4,-4.0332112E-2,1.378633E-2,-1.839999E-2],"split_indices":[9,0,0,6,1,0,0,0,0],"split_type":[0,0,0,0,0,0,0,0,0],"sum_hessian":[1.766979E1,1.4871834E1,2.7979572E0,5.8373756E0,9.034457E0,1.4277102E0,4.4096656E0,6.9267797E0,2.107678E0],"tree_param":{"num_deleted":"0","num_feature":"11","num_nodes":"9","size_leaf_vector":"1"}},{"base_weights":[5.5351894E-2,3.6651763E-1,-5.936645E-1,-2.7289718E-2,6.597006E-1,-0E0,-3.4970507E-2,-2.3424437E-2,1.6237482E-2,4.000261E-2,-0E0],"categories":[],"categories_nodes":[],"categories_segments":[],"categories_sizes":[],"default_left":[0,0,0,0,0,0,0,0,0,0,0],"id":78,"left_children":[1,3,5,7,9,-1,-1,-1,-1,-1,-1],"loss_changes":[3.8983755E0,1.9319928E0,2.7953053E-1,1.1774132E0,1.1082885E0,0E0,0E0,0E0,0E0,0E0,0E0],"parents":[2147483647,0,0,1,1,2,2,3,3,4,4],"right_children":[2,4,6,8,10,-1,-1,-1,-1,-1,-1],"split_conditions":[8.7E1,1.272E3,1.6974477E0,2.7690105E0,4.162E3,-0E0,-3.4970507E-2,-2.3424437E-2,1.6237482E-2,4.000261E-2,-0E0],"split_indices":[7,6,8,8,10,0,0,0,0,0,0],"split_type":[0,0,0,0,0,0,0,0,0,0,0],"sum_hessian":[1.7788458E1,1.283871E1,4.949748E0,5.138332E0,7.700378E0,1.0916755E0,3.8580728E0,2.763918E0,2.3744142E0,6.647027E0,1.0533512E0],"tree_param":{"num_deleted":"0","num_feature":"11","num_nodes":"11","size_leaf_vector":"1"}},{"base_weights":[-0E0,2.1111716E-1,-3.2160547E-2,-6.1331242E-2,5.0625795E-1,-2.7883384E-2,3.0000104E-2,3.8538717E-2,-0E0],"categories":[],"categories_nodes":[],"categories_segments":[],"categories_sizes":[],"default_left":[0,0,0,0,0,0,0,0,0],"id":79,"left_children":[1,3,-1,5,7,-1,-1,-1,-1],"loss_changes":[2.9513054E0,1.4419324E0,0E0,2.8396516E0,1.1877046E0,0E0,0E0,0E0,0E0],"parents":[2147483647,0,0,1,1,3,3,4,4],"right_children":[2,4,-1,6,8,-1,-1,-1,-1],"split_conditions":[1.0655566E2,1.1192681E3,-3.2160547E-2,2.6448905E0,1.162E3,-2.7883384E-2,3.0000104E-2,3.8538717E-2,-0E0],"split_indices":[3,0,0,8,0,0,0,0,0],"split_type":[0,0,0,0,0,0,0,0,0],"sum_hessian":[1.8320768E1,1.3779386E1,4.541382E0,6.6961603E0,7.0832257E0,4.346714E0,2.3494463E0,4.4863667E0,2.5968592E0],"tree_param":{"num_deleted":"0","num_feature":"11","num_nodes":"9","size_leaf_vector":"1"}},{"base_weights":[5.1171876E-2,4.9523193E-1,-4.2239392E-1,-9.087681E-3,6.354145E-1,-0E0,-6.815852E-1,3.9855488E-2,-2.4944828E-3,-3.0757412E-2,1.5407187E-2,-4.182132E-2,-0E0],"categories":[],"categories_nodes":[],"categories_segments":[],"categories_sizes":[],"default_left":[0,0,0,0,0,0,0,0,0,0,0,0,0],"id":80,"left_children":[1,3,5,-1,7,9,11,-1,-1,-1,-1,-1,-1],"loss_changes":[4.4230366E0,1.4106305E0,9.8294175E-1,0E0,1.5392365E0,1.1308582E0,6.625266E-1,0E0,0E0,0E0,0E0,0E0,0E0],"parents":[2147483647,0,0,1,1,2,2,4,4,5,5,6,6],"right_children":[2,4,6,-1,8,10,12,-1,-1,-1,-1,-1,-1],"split_conditions":[6.473948E1,6.903491E1,1.716E3,-9.087681E-3,1.09740974E2,1.6743654E3,1.2714325E3,3.9855488E-2,-2.4944828E-3,-3.0757412E-2,1.5407187E-2,-4.182132E-2,-0E0],"split_indices":[7,3,1,0,3,1,4,0,0,0,0,0,0],"split_type":[0,0,0,0,0,0,0,0,0,0,0,0,0],"sum_hessian":[1.8864958E1,1.0257049E1,8.60791E0,1.0968221E0,9.160227E0,3.802068E0,4.805842E0,7.869823E0,1.2904032E0,1.0459591E0,2.7561088E0,3.8022234E0,1.0036185E0],"tree_param":{"num_deleted":"0","num_feature":"11","num_nodes":"13","size_leaf_vector":"1"}},{"base_weights":[-1.551567E-1,5.167768E-2,-3.6919836E-2,-3.8850644E-1,3.3848062E-1,-0E0,-3.5197224E-2,2.2971926E-2,-0E0],"categories":[],"categories_nodes":[],"categories_segments":[],"categories_sizes":[],"default_left":[0,0,0,0,0,0,0,0,0],"id":81,"left_children":[1,3,-1,5,7,-1,-1,-1,-1],"loss_changes":[2.5870492E0,1.848468E0,0E0,8.8749266E-1,4.242772E-1,0E0,0E0,0E0,0E0],"parents":[2147483647,0,0,1,1,3,3,4,4],"right_children":[2,4,-1,6,8,-1,-1,-1,-1],"split_conditions":[8.7E1,1.6868066E3,-3.6919836E-2,4.7064823E1,1.761E3,-0E0,-3.5197224E-2,2.2971926E-2,-0E0],"split_indices":[7,1,0,7,1,0,0,0,0],"split_type":[0,0,0,0,0,0,0,0,0],"sum_hessian":[1.728282E1,1.2798281E1,4.484539E0,4.2213693E0,8.576912E0,1.8400087E0,2.3813605E0,6.208017E0,2.3688943E0],"tree_param":{"num_deleted":"0","num_feature":"11","num_nodes":"9","size_leaf_vector":"1"}},{"base_weights":[-5.4338206E-2,3.244477E-1,-6.6271806E-1,-0E0,6.3150704E-1,-7.290991E-1,-0E0,1.1953229E-2,-3.4290385E-2,-0E0,3.9337233E-2,-4.113532E-2,-0E0],"categories":[],"categories_nodes":[],"categories_segments":[],"categories_sizes":[],"default_left":[0,0,0,0,0,0,0,0,0,0,0,0,0],"id":82,"left_children":[1,3,5,7,9,11,-1,-1,-1,-1,-1,-1,-1],"loss_changes":[4.4272795E0,1.4000831E0,1.553495E-1,1.2938259E0,7.2516584E-1,1.5859652E-1,0E0,0E0,0E0,0E0,0E0,0E0,0E0],"parents":[2147483647,0,0,1,1,2,2,3,3,4,4,5,5],"right_children":[2,4,6,8,10,12,-1,-1,-1,-1,-1,-1,-1],"split_conditions":[7E1,1.235E3,4.5760922E0,1.251E3,4.26533E1,1.343E3,-0E0,1.1953229E-2,-3.4290385E-2,-0E0,3.9337233E-2,-4.113532E-2,-0E0],"split_indices":[7,4,9,6,7,6,0,0,0,0,0,0,0],"split_type":[0,0,0,0,0,0,0,0,0,0,0,0,0],"sum_hessian":[1.6544813E1,9.977517E0,6.567296E0,4.5691967E0,5.408321E0,5.544328E0,1.0229682E0,3.3464766E0,1.22272E0,1.1078601E0,4.300461E0,4.374144E0,1.1701839E0],"tree_param":{"num_deleted":"0","num_feature":"11","num_nodes":"13","size_leaf_vector":"1"}},{"base_weights":[-0E0,2.0753421E-1,-6.010104E-1,-5.123872E-1,5.4323184E-1,-3.520274E-2,-0E0,-3.9784517E-2,-0E0,3.429718E-2,-0E0],"categories":[],"categories_nodes":[],"categories_segments":[],"categories_sizes":[],"default_left":[0,0,0,0,0,0,0,0,0,0,0],"id":83,"left_children":[1,3,5,7,9,-1,-1,-1,-1,-1,-1],"loss_changes":[2.5061584E0,3.4817724E0,2.1118021E-1,5.047884E-1,1.085794E0,0E0,0E0,0E0,0E0,0E0,0E0],"parents":[2147483647,0,0,1,1,2,2,3,3,4,4],"right_children":[2,4,6,8,10,-1,-1,-1,-1,-1,-1],"split_conditions":[1.07544334E2,1.68E3,1.3313452E3,1.656E3,8.7E1,-3.520274E-2,-0E0,-3.9784517E-2,-0E0,3.429718E-2,-0E0],"split_indices":[3,1,6,1,7,0,0,0,0,0,0],"split_type":[0,0,0,0,0,0,0,0,0,0,0],"sum_hessian":[1.6556503E1,1.2191239E1,4.3652644E0,3.2359025E0,8.955337E0,3.3357182E0,1.0295463E0,1.5538243E0,1.6820782E0,7.551462E0,1.4038745E0],"tree_param":{"num_deleted":"0","num_feature":"11","num_nodes":"11","size_leaf_vector":"1"}},{"base_weights":[-1.5678596E-2,-4.519244E-1,3.4819448E-1,-3.9877392E-2,2.757624E-1,-8.179014E-3,5.039448E-1,1.6830936E-2,-0E0,3.5442915E-2,-4.627339E-3],"categories":[],"categories_nodes":[],"categories_segments":[],"categories_sizes":[],"default_left":[0,0,0,0,0,0,0,0,0,0,0],"id":84,"left_children":[1,3,5,-1,7,-1,9,-1,-1,-1,-1],"loss_changes":[2.9688482E0,2.7358813E0,1.0033613E0,0E0,3.0664355E-3,0E0,1.3778777E0,0E0,0E0,0E0,0E0],"parents":[2147483647,0,0,1,1,2,2,4,4,6,6],"right_children":[2,4,6,-1,8,-1,10,-1,-1,-1,-1],"split_conditions":[1.1192681E3,2.4381826E0,2.425761E0,-3.9877392E-2,3.8E1,-8.179014E-3,1.777E3,1.6830936E-2,-0E0,3.5442915E-2,-4.627339E-3],"split_indices":[0,8,9,0,7,0,1,0,0,0,0],"split_type":[0,0,0,0,0,0,0,0,0,0,0],"sum_hessian":[1.638477E1,7.9662223E0,8.418548E0,5.8017282E0,2.1644943E0,1.2034928E0,7.215055E0,1.1507847E0,1.0137094E0,5.8539095E0,1.3611455E0],"tree_param":{"num_deleted":"0","num_feature":"11","num_nodes":"11","size_leaf_vector":"1"}},{"base_weights":[-1.4445856E-1,-4.280498E-1,3.8212478E-1,-7.442542E-1,-8.3700575E-2,-7.2086477E-3,3.2127526E-2,-0E0,-4.845008E-2,1.0604802E-2,-2.577827E-2],"categories":[],"categories_nodes":[],"categories_segments":[],"categories_sizes":[],"default_left":[0,0,0,0,0,0,0,0,0,0,0],"id":85,"left_children":[1,3,5,7,9,-1,-1,-1,-1,-1,-1],"loss_changes":[2.7006807E0,8.3376265E-1,1.1373754E0,1.0619919E0,1.2374365E0,0E0,0E0,0E0,0E0,0E0,0E0],"parents":[2147483647,0,0,1,1,2,2,3,3,4,4],"right_children":[2,4,6,8,10,-1,-1,-1,-1,-1,-1],"split_conditions":[2.1964488E0,1.218E3,7.0239815E1,9.560121E1,1.325E3,-7.2086477E-3,3.2127526E-2,-0E0,-4.845008E-2,1.0604802E-2,-2.577827E-2],"split_indices":[8,5,3,3,6,0,0,0,0,0,0],"split_type":[0,0,0,0,0,0,0,0,0,0,0],"sum_hessian":[1.5835703E1,1.1031388E1,4.804314E0,4.388357E0,6.643031E0,1.102573E0,3.701741E0,1.078629E0,3.3097284E0,3.5575063E0,3.0855248E0],"tree_param":{"num_deleted":"0","num_feature":"11","num_nodes":"11","size_leaf_vector":"1"}},{"base_weights":[-0E0,-1.5376224E-1,3.3399995E-2,-5.9864295E-1,1.7948963E-1,-0E0,-4.0556114E-2,2.9942576E-2,-5.5624056E-3],"categories":[],"categories_nodes":[],"categories_segments":[],"categories_sizes":[],"default_left":[0,0,0,0,0,0,0,0,0],"id":86,"left_children":[1,3,-1,5,7,-1,-1,-1,-1],"loss_changes":[2.005925E0,2.6311252E0,0E0,1.0927138E0,1.4139216E0,0E0,0E0,0E0,0E0],"parents":[2147483647,0,0,1,1,3,3,4,4],"right_children":[2,4,-1,6,8,-1,-1,-1,-1],"split_conditions":[8.823493E0,1.218E3,3.3399995E-2,1.2386495E3,1.712E3,-0E0,-4.0556114E-2,2.9942576E-2,-5.5624056E-3],"split_indices":[9,5,0,6,1,0,0,0,0],"split_type":[0,0,0,0,0,0,0,0,0],"sum_hessian":[1.7276983E1,1.4608663E1,2.6683207E0,6.557974E0,8.050689E0,1.7802284E0,4.7777452E0,3.5664365E0,4.484252E0],"tree_param":{"num_deleted":"0","num_feature":"11","num_nodes":"9","size_leaf_vector":"1"}},{"base_weights":[-0E0,3.8561112E-1,-4.0830523E-1,5.35386E-1,-4.3186615E-3,5.65779E-2,-7.7547026E-1,3.6739316E-2,-0E0,-1.7296938E-2,2.695717E-2,-4.749697E-2,-0E0],"categories":[],"categories_nodes":[],"categories_segments":[],"categories_sizes":[],"default_left":[0,0,0,0,0,0,0,0,0,0,0,0,0],"id":87,"left_children":[1,3,5,7,-1,9,11,-1,-1,-1,-1,-1,-1],"loss_changes":[2.6591501E0,8.973794E-1,1.7763661E0,8.6378574E-1,0E0,1.0369191E0,5.703223E-1,0E0,0E0,0E0,0E0,0E0,0E0],"parents":[2147483647,0,0,1,1,2,2,3,3,5,5,6,6],"right_children":[2,4,6,8,-1,10,12,-1,-1,-1,-1,-1,-1],"split_conditions":[6.473948E1,3.939E3,1.712E3,4.8E1,-4.3186615E-3,3.689E3,1.343E3,3.6739316E-2,-0E0,-1.7296938E-2,2.695717E-2,-4.749697E-2,-0E0],"split_indices":[7,10,1,7,0,10,6,0,0,0,0,0,0],"split_type":[0,0,0,0,0,0,0,0,0,0,0,0,0],"sum_hessian":[1.4908445E1,7.864299E0,7.044146E0,6.672075E0,1.1922241E0,2.8807838E0,4.163362E0,4.672964E0,1.9991106E0,1.1601111E0,1.7206728E0,3.072909E0,1.0904529E0],"tree_param":{"num_deleted":"0","num_feature":"11","num_nodes":"13","size_leaf_vector":"1"}},{"base_weights":[-0E0,2.7007025E-1,-3.260381E-2,-1.8741626E-1,4.4219175E-1,-2.4768105E-2,-0E0,3.664643E-2,-0E0],"categories":[],"categories_nodes":[],"categories_segments":[],"categories_sizes":[],"default_left":[0,0,0,0,0,0,0,0,0],"id":88,"left_children":[1,3,-1,5,7,-1,-1,-1,-1],"loss_changes":[2.8428736E0,1.1711295E0,0E0,4.319895E-1,1.3002784E0,0E0,0E0,0E0,0E0],"parents":[2147483647,0,0,1,1,3,3,4,4],"right_children":[2,4,-1,6,8,-1,-1,-1,-1],"split_conditions":[1.0662017E2,7.202626E1,-3.260381E-2,1.109E3,9.701808E1,-2.4768105E-2,-0E0,3.664643E-2,-0E0],"split_indices":[3,3,0,0,3,0,0,0,0],"split_type":[0,0,0,0,0,0,0,0,0],"sum_hessian":[1.4795273E1,1.120254E1,3.5927327E0,2.2440996E0,8.958441E0,1.2248346E0,1.019265E0,5.045388E0,3.9130523E0],"tree_param":{"num_deleted":"0","num_feature":"11","num_nodes":"9","size_leaf_vector":"1"}},{"base_weights":[1.221994E-1,3.7921378E-1,-4.7291452E-1,-0E0,6.8790674E-1,-0E0,-2.940932E-2,2.4833234E-2,-3.3041935E-2,4.0890113E-2,-0E0],"categories":[],"categories_nodes":[],"categories_segments":[],"categories_sizes":[],"default_left":[0,0,0,0,0,0,0,0,0,0,0],"id":89,"left_children":[1,3,5,7,9,-1,-1,-1,-1,-1,-1],"loss_changes":[2.5527806E0,1.1597921E0,2.118684E-1,2.5739434E0,5.3427863E-1,0E0,0E0,0E0,0E0,0E0,0E0],"parents":[2147483647,0,0,1,1,2,2,3,3,4,4],"right_children":[2,4,6,8,10,-1,-1,-1,-1,-1,-1],"split_conditions":[8.7E1,3.692E3,1.7273397E3,4.8E1,1.755E3,-0E0,-2.940932E-2,2.4833234E-2,-3.3041935E-2,4.0890113E-2,-0E0],"split_indices":[7,10,1,7,1,0,0,0,0,0,0],"split_type":[0,0,0,0,0,0,0,0,0,0,0],"sum_hessian":[1.4823803E1,1.1192859E1,3.630944E0,6.0367603E0,5.1560984E0,1.0248654E0,2.6060786E0,3.9242883E0,2.112472E0,4.154663E0,1.0014353E0],"tree_param":{"num_deleted":"0","num_feature":"11","num_nodes":"11","size_leaf_vector":"1"}},{"base_weights":[-7.271485E-2,9.795406E-2,-3.3462446E-2,-0E0,2.7378872E-2,-2.0557467E-2,9.27578E-3],"categories":[],"categories_nodes":[],"categories_segments":[],"categories_sizes":[],"default_left":[0,0,0,0,0,0,0],"id":90,"left_children":[1,3,-1,5,-1,-1,-1],"loss_changes":[2.0161602E0,7.6037747E-1,0E0,9.928063E-1,0E0,0E0,0E0],"parents":[2147483647,0,0,1,1,3,3],"right_children":[2,4,-1,6,-1,-1,-1],"split_conditions":[8.7E1,2.7690105E0,-3.3462446E-2,3.67E3,2.7378872E-2,-2.0557467E-2,9.27578E-3],"split_indices":[7,8,0,10,0,0,0],"split_type":[0,0,0,0,0,0,0],"sum_hessian":[1.5353601E1,1.193625E1,3.4173515E0,9.986351E0,1.9498987E0,3.3102834E0,6.6760674E0],"tree_param":{"num_deleted":"0","num_feature":"11","num_nodes":"7","size_leaf_vector":"1"}},{"base_weights":[1.2465336E-1,-9.078994E-2,4.1365302E-1,-3.1864706E-1,2.0323263E-2,2.8620362E-2,-2.0497534E-3,-3.1231537E-2,1.687955E-3],"categories":[],"categories_nodes":[],"categories_segments":[],"categories_sizes":[],"default_left":[0,0,0,0,0,0,0,0,0],"id":91,"left_children":[1,3,5,7,-1,-1,-1,-1,-1],"loss_changes":[1.1319226E0,1.0388476E0,8.3559895E-1,1.0734433E0,0E0,0E0,0E0,0E0,0E0],"parents":[2147483647,0,0,1,1,2,2,3,3],"right_children":[2,4,6,8,-1,-1,-1,-1,-1],"split_conditions":[1.1250134E3,8.823493E0,1.363E3,3.64E3,2.0323263E-2,2.8620362E-2,-2.0497534E-3,-3.1231537E-2,1.687955E-3],"split_indices":[0,9,6,10,0,0,0,0,0],"split_type":[0,0,0,0,0,0,0,0,0],"sum_hessian":[1.3983781E1,7.413162E0,6.5706186E0,6.019539E0,1.3936237E0,5.49323E0,1.0773886E0,3.5679438E0,2.4515948E0],"tree_param":{"num_deleted":"0","num_feature":"11","num_nodes":"9","size_leaf_vector":"1"}},{"base_weights":[-4.610303E-2,3.5383984E-1,-3.1186157E-1,2.5631357E-2,-0E0,-7.887434E-1,2.926164E-2,-5.420467E-2,-0E0,2.0855496E-2,-5.178415E-3],"categories":[],"categories_nodes":[],"categories_segments":[],"categories_sizes":[],"default_left":[0,0,0,0,0,0,0,0,0,0,0],"id":92,"left_children":[1,3,5,-1,-1,7,9,-1,-1,-1,-1],"loss_changes":[1.7482915E0,5.4888093E-1,2.1368713E0,0E0,0E0,6.8245625E-1,5.383043E-1,0E0,0E0,0E0,0E0],"parents":[2147483647,0,0,1,1,2,2,5,5,6,6],"right_children":[2,4,6,-1,-1,8,10,-1,-1,-1,-1],"split_conditions":[4.8E1,3.714E3,3.698E3,2.5631357E-2,-0E0,1.9795463E0,3.867E3,-5.420467E-2,-0E0,2.0855496E-2,-5.178415E-3],"split_indices":[7,10,10,0,0,8,10,0,0,0,0],"split_type":[0,0,0,0,0,0,0,0,0,0,0],"sum_hessian":[1.4607857E1,4.9482865E0,9.659571E0,3.9227104E0,1.0255761E0,4.092253E0,5.567317E0,2.2762406E0,1.8160126E0,1.8345813E0,3.732736E0],"tree_param":{"num_deleted":"0","num_feature":"11","num_nodes":"11","size_leaf_vector":"1"}},{"base_weights":[-4.7748843E-3,3.055041E-1,-6.091198E-1,-0E0,4.178643E-1,-0E0,-6.8902355E-1,2.2190013E-4,3.524902E-2,-3.9184764E-2,-0E0],"categories":[],"categories_nodes":[],"categories_segments":[],"categories_sizes":[],"default_left":[0,0,0,0,0,0,0,0,0,0,0],"id":93,"left_children":[1,3,5,-1,7,-1,9,-1,-1,-1,-1],"loss_changes":[3.0974615E0,5.243165E-1,5.1851273E-2,0E0,6.2313664E-1,0E0,3.0840874E-2,0E0,0E0,0E0,0E0],"parents":[2147483647,0,0,1,1,2,2,4,4,6,6],"right_children":[2,4,6,-1,8,-1,10,-1,-1,-1,-1],"split_conditions":[7.2E1,7.0818634E1,9.964165E1,-0E0,4.2731957E0,-0E0,1.339E3,2.2190013E-4,3.524902E-2,-3.9184764E-2,-0E0],"split_indices":[7,3,3,0,9,0,6,0,0,0,0],"split_type":[0,0,0,0,0,0,0,0,0,0,0],"sum_hessian":[1.371646E1,8.843323E0,4.8731384E0,1.579098E0,7.2642245E0,1.1739755E0,3.699163E0,4.107146E0,3.1570785E0,2.6826189E0,1.0165441E0],"tree_param":{"num_deleted":"0","num_feature":"11","num_nodes":"11","size_leaf_vector":"1"}},{"base_weights":[-1.5136227E-1,2.3569274E-1,-5.130865E-1,-1.3914892E-2,5.114954E-1,-4.8738822E-2,-3.2920602E-3,-0E0,3.2008853E-2,1.9377718E-2,-1.5466901E-2],"categories":[],"categories_nodes":[],"categories_segments":[],"categories_sizes":[],"default_left":[0,0,0,0,0,0,0,0,0,0,0],"id":94,"left_children":[1,3,5,-1,7,-1,9,-1,-1,-1,-1],"loss_changes":[2.3320663E0,1.2751231E0,1.5399365E0,0E0,3.8774252E-1,0E0,7.531853E-1,0E0,0E0,0E0,0E0],"parents":[2147483647,0,0,1,1,2,2,4,4,6,6],"right_children":[2,4,6,-1,8,-1,10,-1,-1,-1,-1],"split_conditions":[9.620085E1,1.9491088E0,1.233E3,-1.3914892E-2,7.0818634E1,-4.8738822E-2,9.912502E1,-0E0,3.2008853E-2,1.9377718E-2,-1.5466901E-2],"split_indices":[3,8,4,0,3,0,3,0,0,0,0],"split_type":[0,0,0,0,0,0,0,0,0,0,0],"sum_hessian":[1.3802377E1,6.1682873E0,7.6340895E0,1.5177834E0,4.650504E0,3.0127444E0,4.6213446E0,1.0971876E0,3.5533164E0,1.1950705E0,3.4262743E0],"tree_param":{"num_deleted":"0","num_feature":"11","num_nodes":"11","size_leaf_vector":"1"}},{"base_weights":[2.100834E-2,5.136087E-1,-3.279512E-1,-0E0,3.545541E-2,-4.0802386E-2,5.0803546E-2,1.5132782E-2,-1.22690415E-2,1.6955862E-2,-1.220475E-2],"categories":[],"categories_nodes":[],"categories_segments":[],"categories_sizes":[],"default_left":[0,0,0,0,0,0,0,0,0,0,0],"id":95,"left_children":[1,3,5,7,-1,-1,9,-1,-1,-1,-1],"loss_changes":[2.7630386E0,5.953146E-1,2.0019631E0,3.1724107E-1,0E0,0E0,5.6989783E-1,0E0,0E0,0E0,0E0],"parents":[2147483647,0,0,1,1,2,2,3,3,6,6],"right_children":[2,4,6,8,-1,-1,10,-1,-1,-1,-1],"split_conditions":[9.620085E1,1.184E3,1.1192681E3,1.165E3,3.545541E-2,-4.0802386E-2,1.09740974E2,1.5132782E-2,-1.22690415E-2,1.6955862E-2,-1.220475E-2],"split_indices":[3,5,0,5,0,0,3,0,0,0,0],"split_type":[0,0,0,0,0,0,0,0,0,0,0],"sum_hessian":[1.3553846E1,6.0186977E0,7.535148E0,2.1526737E0,3.866024E0,3.3646836E0,4.1704645E0,1.1409402E0,1.0117335E0,2.8902776E0,1.2801869E0],"tree_param":{"num_deleted":"0","num_feature":"11","num_nodes":"11","size_leaf_vector":"1"}},{"base_weights":[-0E0,-2.4600585E-1,2.4781434E-2,-5.1751096E-2,1.793617E-1,-1.7272478E-2,2.0338858E-2],"categories":[],"categories_nodes":[],"categories_segments":[],"categories_sizes":[],"default_left":[0,0,0,0,0,0,0],"id":96,"left_children":[1,3,-1,-1,5,-1,-1],"loss_changes":[1.9011294E0,4.3112473E0,0E0,0E0,1.0781317E0,0E0,0E0],"parents":[2147483647,0,0,1,1,4,4],"right_children":[2,4,-1,-1,6,-1,-1],"split_conditions":[4.8685584E0,3.692E3,2.4781434E-2,-5.1751096E-2,2.425761E0,-1.7272478E-2,2.0338858E-2],"split_indices":[9,10,0,0,9,0,0],"split_type":[0,0,0,0,0,0,0],"sum_hessian":[1.4042564E1,1.001768E1,4.0248837E0,3.4186413E0,6.599039E0,1.1734352E0,5.425604E0],"tree_param":{"num_deleted":"0","num_feature":"11","num_nodes":"7","size_leaf_vector":"1"}},{"base_weights":[-0E0,-1.9775434E-1,2.6354346E-2,-3.7039157E-2,-0E0,2.8589992E-2,-1.2193589E-2],"categories":[],"categories_nodes":[],"categories_segments":[],"categories_sizes":[],"default_left":[0,0,0,0,0,0,0],"id":97,"left_children":[1,3,-1,-1,5,-1,-1],"loss_changes":[1.8417513E0,1.2974026E0,0E0,0E0,1.4321442E0,0E0,0E0],"parents":[2147483647,0,0,1,1,4,4],"right_children":[2,4,-1,-1,6,-1,-1],"split_conditions":[2.1964488E0,1.103E3,2.6354346E-2,-3.7039157E-2,1.28652E3,2.8589992E-2,-1.2193589E-2],"split_indices":[8,0,0,0,2,0,0],"split_type":[0,0,0,0,0,0,0],"sum_hessian":[1.4153494E1,1.0084495E1,4.068999E0,2.154171E0,7.930324E0,2.1462114E0,5.7841125E0],"tree_param":{"num_deleted":"0","num_feature":"11","num_nodes":"7","size_leaf_vector":"1"}},{"base_weights":[-0E0,2.0898592E-1,-3.9093897E-1,3.7361163E-1,-3.0150896E-2,-2.9132107E-2,-0E0,-0E0,3.0531669E-2,-2.4769133E-2,9.312901E-3,6.7508514E-3,-1.1092007E-2],"categories":[],"categories_nodes":[],"categories_segments":[],"categories_sizes":[],"default_left":[0,0,0,0,0,0,0,0,0,0,0,0,0],"id":98,"left_children":[1,3,5,7,9,-1,11,-1,-1,-1,-1,-1,-1],"loss_changes":[1.2238597E0,5.332017E-1,2.9164326E-1,3.1578773E-1,5.804867E-1,0E0,1.417588E-1,0E0,0E0,0E0,0E0,0E0,0E0],"parents":[2147483647,0,0,1,1,2,2,3,3,4,4,6,6],"right_children":[2,4,6,8,10,-1,12,-1,-1,-1,-1,-1,-1],"split_conditions":[7.2E1,1.162E3,3.689E3,4.827617E1,2.0413377E0,-2.9132107E-2,3.875E3,-0E0,3.0531669E-2,-2.4769133E-2,9.312901E-3,6.7508514E-3,-1.1092007E-2],"split_indices":[7,0,10,7,8,0,10,0,0,0,0,0,0],"split_type":[0,0,0,0,0,0,0,0,0,0,0,0,0],"sum_hessian":[1.2361388E1,7.8957014E0,4.465687E0,5.581692E0,2.3140092E0,2.3198104E0,2.1458764E0,3.270921E0,2.3107715E0,1.0589134E0,1.2550957E0,1.0098606E0,1.1360159E0],"tree_param":{"num_deleted":"0","num_feature":"11","num_nodes":"13","size_leaf_vector":"1"}},{"base_weights":[9.606351E-3,-3.2685727E-1,2.4344566E-1,2.4483295E-1,-4.205215E-2,4.1557863E-1,-1.7468914E-2,1.786042E-2,-0E0,3.0160073E-2,-0E0],"categories":[],"categories_nodes":[],"categories_segments":[],"categories_sizes":[],"default_left":[0,0,0,0,0,0,0,0,0,0,0],"id":99,"left_children":[1,3,5,7,-1,9,-1,-1,-1,-1,-1],"loss_changes":[1.2528377E0,2.2330258E0,1.2559226E0,8.1568494E-2,0E0,7.143152E-1,0E0,0E0,0E0,0E0,0E0],"parents":[2147483647,0,0,1,1,2,2,3,3,5,5],"right_children":[2,4,6,8,-1,10,-1,-1,-1,-1,-1],"split_conditions":[1.103E3,4.8E1,1.04E2,1.076E3,-4.205215E-2,1.162E3,-1.7468914E-2,1.786042E-2,-0E0,3.0160073E-2,-0E0],"split_indices":[0,7,7,0,0,0,0,0,0,0,0],"split_type":[0,0,0,0,0,0,0,0,0,0,0],"sum_hessian":[1.4442244E1,4.881872E0,9.56037E0,2.0992656E0,2.7826068E0,8.294404E0,1.2659664E0,1.0952415E0,1.0040239E0,5.374875E0,2.919529E0],"tree_param":{"num_deleted":"0","num_feature":"11","num_nodes":"11","size_leaf_vector":"1"}}]},"name":"gbtree"},"learner_model_param":{"base_score":"1.6666667E-1","boost_from_average":"1","num_class":"0","num_feature":"11","num_target":"1"},"objective":{"name":"binary:logistic","reg_loss_param":{"scale_pos_weight":"1"}}},"version":[3,0,0]}