{"learner":{"attributes":{"scikit_learn":"{\"_estimator_type\": \"classifier\"}"},"feature_names":["Frame","Time (Sec)","Y (mm)","Z (mm)","Layer","MP Area","MP Eccentricity","Tmax","Row","Column","Porosity Size (mm)"],"feature_types":["int","float","float","float","int","int","float","int","int","int","float"],"gradient_booster":{"model":{"gbtree_model_param":{"num_parallel_tree":"1","num_trees":"100"},"iteration_indptr":[0,1,2,3,4,5,6,7,8,9,10,11,12,13,14,15,16,17,18,19,20,21,22,23,24,25,26,27,28,29,30,31,32,33,34,35,36,37,38,39,40,41,42,43,44,45,46,47,48,49,50,51,52,53,54,55,56,57,58,59,60,61,62,63,64,65,66,67,68,69,70,71,72,73,74,75,76,77,78,79,80,81,82,83,84,85,86,87,88,89,90,91,92,93,94,95,96,97,98,99,100],"tree_info":[0,0,0,0,0,0,0,0,0,0,0,0,0,0,0,0,0,0,0,0,0,0,0,0,0,0,0,0,0,0,0,0,0,0,0,0,0,0,0,0,0,0,0,0,0,0,0,0,0,0,0,0,0,0,0,0,0,0,0,0,0,0,0,0,0,0,0,0,0,0,0,0,0,0,0,0,0,0,0,0,0,0,0,0,0,0,0,0,0,0,0,0,0,0,0,0,0,0,0,0],"trees":[{"base_weights":[-6.207666E-3,2.557735E-1,-6.210683E-1,3.8190732E0,-1.0295374E0,2.9452164E-3,2.2940052E-1,-5.3947605E-2,4.4149186E-2],"categories":[],"categories_nodes":[],"categories_segments":[],"categories_sizes":[],"default_left":[0,0,0,0,0,0,0,0,0],"id":0,"left_children":[1,-1,3,5,7,-1,-1,-1,-1],"loss_changes":[4.4091483E2,0E0,2.305514E2,2.8344955E1,1.2015335E1,0E0,0E0,0E0,0E0],"parents":[2147483647,0,0,2,2,3,3,4,4],"right_children":[2,-1,4,6,8,-1,-1,-1,-1],"split_conditions":[9.7212464E-1,2.557735E-1,3.53E2,4.3432158E-1,1.08E2,2.9452164E-3,2.2940052E-1,-5.3947605E-2,4.4149186E-2],"split_indices":[3,0,5,6,9,0,0,0,0],"split_type":[0,0,0,0,0,0,0,0,0],"sum_hessian":[1.3871689E2,1.3996409E1,1.2472048E2,9.700481E0,1.1502E2,1.9400964E0,7.7603855E0,1.1280274E2,2.217253E0],"tree_param":{"num_deleted":"0","num_feature":"11","num_nodes":"9","size_leaf_vector":"1"}},{"base_weights":[-1.5202912E-2,-5.8769573E-2,2.4092184E-1],"categories":[],"categories_nodes":[],"categories_segments":[],"categories_sizes":[],"default_left":[0,0,0],"id":1,"left_children":[1,-1,-1],"loss_changes":[7.7306464E2,0E0,0E0],"parents":[2147483647,0,0],"right_children":[2,-1,-1],"split_conditions":[5E-2,-5.8769573E-2,2.4092184E-1],"split_indices":[10,0,0],"split_type":[0,0,0],"sum_hessian":[1.3616687E2,1.1050364E2,2.5663229E1],"tree_param":{"num_deleted":"0","num_feature":"11","num_nodes":"3","size_leaf_vector":"1"}},{"base_weights":[-5.4242805E-2,-5.820137E-2,2.0057075E-1],"categories":[],"categories_nodes":[],"categories_segments":[],"categories_sizes":[],"default_left":[0,0,0],"id":2,"left_children":[1,-1,-1],"loss_changes":[6.121985E2,0E0,0E0],"parents":[2147483647,0,0],"right_children":[2,-1,-1],"split_conditions":[5E-2,-5.820137E-2,2.0057075E-1],"split_indices":[10,0,0],"split_type":[0,0,0],"sum_hessian":[1.339628E2,1.0589404E2,2.806875E1],"tree_param":{"num_deleted":"0","num_feature":"11","num_nodes":"3","size_leaf_vector":"1"}},{"base_weights":[4.3453634E-2,1.6057996E-1,-5.3026986E-1,-9.305887E-1,3.0043538E0,8.22174E-2,-5.1174756E-2,1.581338E-1,2.5485111E-2],"categories":[],"categories_nodes":[],"categories_segments":[],"categories_sizes":[],"default_left":[0,0,0,0,0,0,0,0,0],"id":3,"left_children":[1,-1,3,5,7,-1,-1,-1,-1],"loss_changes":[2.5932297E2,0E0,1.7170062E2,2.7394371E1,1.4208221E0,0E0,0E0,0E0,0E0],"parents":[2147483647,0,0,2,2,3,3,4,4],"right_children":[2,-1,4,6,8,-1,-1,-1,-1],"split_conditions":[1.02E0,1.6057996E-1,1.1E2,1.691E3,2.5476202E1,8.22174E-2,-5.1174756E-2,1.581338E-1,2.5485111E-2],"split_indices":[3,0,9,7,3,0,0,0,0],"split_type":[0,0,0,0,0,0,0,0,0],"sum_hessian":[1.3999567E2,2.0893549E1,1.1910212E2,1.0777418E2,1.132794E1,2.9842303E0,1.0478995E2,1.021165E1,1.1162906E0],"tree_param":{"num_deleted":"0","num_feature":"11","num_nodes":"9","size_leaf_vector":"1"}},{"base_weights":[-2.7968898E-2,-5.7279415E-2,1.5746509E-1],"categories":[],"categories_nodes":[],"categories_segments":[],"categories_sizes":[],"default_left":[0,0,0],"id":4,"left_children":[1,-1,-1],"loss_changes":[4.8447845E2,0E0,0E0],"parents":[2147483647,0,0],"right_children":[2,-1,-1],"split_conditions":[5E-2,-5.7279415E-2,1.5746509E-1],"split_indices":[10,0,0],"split_type":[0,0,0],"sum_hessian":[1.347013E2,1.0023869E2,3.4462605E1],"tree_param":{"num_deleted":"0","num_feature":"11","num_nodes":"3","size_leaf_vector":"1"}},{"base_weights":[1.7544016E-2,-5.6779962E-2,1.4231773E-1],"categories":[],"categories_nodes":[],"categories_segments":[],"categories_sizes":[],"default_left":[0,0,0],"id":5,"left_children":[1,-1,-1],"loss_changes":[4.5092548E2,0E0,0E0],"parents":[2147483647,0,0],"right_children":[2,-1,-1],"split_conditions":[5E-2,-5.6779962E-2,1.4231773E-1],"split_indices":[10,0,0],"split_type":[0,0,0],"sum_hessian":[1.3598177E2,9.6902145E1,3.9079624E1],"tree_param":{"num_deleted":"0","num_feature":"11","num_nodes":"3","size_leaf_vector":"1"}},{"base_weights":[-0E0,-5.633365E-2,1.3143478E-1],"categories":[],"categories_nodes":[],"categories_segments":[],"categories_sizes":[],"default_left":[0,0,0],"id":6,"left_children":[1,-1,-1],"loss_changes":[3.9228067E2,0E0,0E0],"parents":[2147483647,0,0],"right_children":[2,-1,-1],"split_conditions":[5E-2,-5.633365E-2,1.3143478E-1],"split_indices":[10,0,0],"split_type":[0,0,0],"sum_hessian":[1.3026945E2,9.149054E1,3.877892E1],"tree_param":{"num_deleted":"0","num_feature":"11","num_nodes":"3","size_leaf_vector":"1"}},{"base_weights":[-6.615075E-2,-1.110291E0,1.2092966E-1,-5.59878E-2,-2.6112178E-3],"categories":[],"categories_nodes":[],"categories_segments":[],"categories_sizes":[],"default_left":[0,0,0,0,0],"id":7,"left_children":[1,3,-1,-1,-1],"loss_changes":[3.344843E2,2.673874E-1,0E0,0E0,0E0],"parents":[2147483647,0,0,1,1],"right_children":[2,4,-1,-1,-1],"split_conditions":[2.4293059E-1,1.587E3,1.2092966E-1,-5.59878E-2,-2.6112178E-3],"split_indices":[10,5,0,0,0],"split_type":[0,0,0,0,0],"sum_hessian":[1.2714154E2,9.005357E1,3.708797E1,8.872898E1,1.3245903E0],"tree_param":{"num_deleted":"0","num_feature":"11","num_nodes":"5","size_leaf_vector":"1"}},{"base_weights":[-3.446227E-2,1.9881707E0,-5.0517696E-1,1.3359292E-2,1.0202571E-1,1.727649E0,-8.927987E-1,9.566607E-2,8.810881E-3,7.105013E-2,-4.7976043E-2],"categories":[],"categories_nodes":[],"categories_segments":[],"categories_sizes":[],"default_left":[0,0,0,0,0,0,0,0,0,0,0],"id":8,"left_children":[1,3,5,-1,-1,7,9,-1,-1,-1,-1],"loss_changes":[1.19219635E2,4.2599487E-1,8.9711334E1,0E0,0E0,3.0225525E0,1.4728111E1,0E0,0E0,0E0,0E0],"parents":[2147483647,0,0,1,1,2,2,5,5,6,6],"right_children":[2,4,6,-1,-1,8,10,-1,-1,-1,-1],"split_conditions":[1.02E0,3.6E2,3.53E2,1.3359292E-2,1.0202571E-1,2.79E2,9.3E1,9.566607E-2,8.810881E-3,7.105013E-2,-4.7976043E-2],"split_indices":[3,5,5,0,0,5,8,0,0,0,0],"split_type":[0,0,0,0,0,0,0,0,0,0,0],"sum_hessian":[1.2394368E2,2.2589972E1,1.0135371E2,1.1289318E0,2.146104E1,1.4290258E1,8.7063446E1,1.2266663E1,2.0235965E0,1.6613035E0,8.5402145E1],"tree_param":{"num_deleted":"0","num_feature":"11","num_nodes":"11","size_leaf_vector":"1"}},{"base_weights":[-0E0,-5.5190172E-2,1.08236924E-1],"categories":[],"categories_nodes":[],"categories_segments":[],"categories_sizes":[],"default_left":[0,0,0],"id":9,"left_children":[1,-1,-1],"loss_changes":[2.9347644E2,0E0,0E0],"parents":[2147483647,0,0],"right_children":[2,-1,-1],"split_conditions":[5E-2,-5.5190172E-2,1.08236924E-1],"split_indices":[10,0,0],"split_type":[0,0,0],"sum_hessian":[1.2061543E2,8.006524E1,4.0550194E1],"tree_param":{"num_deleted":"0","num_feature":"11","num_nodes":"3","size_leaf_vector":"1"}},{"base_weights":[-3.9308738E-2,-5.4858167E-2,1.0146413E-1],"categories":[],"categories_nodes":[],"categories_segments":[],"categories_sizes":[],"default_left":[0,0,0],"id":10,"left_children":[1,-1,-1],"loss_changes":[2.6184998E2,0E0,0E0],"parents":[2147483647,0,0],"right_children":[2,-1,-1],"split_conditions":[5E-2,-5.4858167E-2,1.0146413E-1],"split_indices":[10,0,0],"split_type":[0,0,0],"sum_hessian":[1.1785634E2,7.844947E1,3.9406868E1],"tree_param":{"num_deleted":"0","num_feature":"11","num_nodes":"3","size_leaf_vector":"1"}},{"base_weights":[-0E0,1.6970265E0,-4.408426E-1,7.937997E-3,8.712557E-2,1.4857204E0,-8.486588E-1,6.0189045E-3,7.8948304E-2,6.1020132E-2,-4.583606E-2],"categories":[],"categories_nodes":[],"categories_segments":[],"categories_sizes":[],"default_left":[0,0,0,0,0,0,0,0,0,0,0],"id":11,"left_children":[1,3,5,-1,-1,7,9,-1,-1,-1,-1],"loss_changes":[9.055875E1,5.222397E-1,7.5927414E1,0E0,0E0,1.1019821E0,1.2178974E1,0E0,0E0,0E0,0E0],"parents":[2147483647,0,0,1,1,2,2,5,5,6,6],"right_children":[2,4,6,-1,-1,8,10,-1,-1,-1,-1],"split_conditions":[1.02E0,3.8E2,3.53E2,7.937997E-3,8.712557E-2,4.0111688E-1,9.4E1,6.0189045E-3,7.8948304E-2,6.1020132E-2,-4.583606E-2],"split_indices":[3,5,5,0,0,6,8,0,0,0,0],"split_type":[0,0,0,0,0,0,0,0,0,0,0],"sum_hessian":[1.18443924E2,2.4004648E1,9.443928E1,1.1340746E0,2.2870575E1,1.5822605E1,7.861667E1,1.5007758E0,1.432183E1,1.7305983E0,7.688607E1],"tree_param":{"num_deleted":"0","num_feature":"11","num_nodes":"11","size_leaf_vector":"1"}},{"base_weights":[-6.4310306E-3,1.611078E0,-4.635601E-1,8.239711E-3,8.257771E-2,-8.062148E-1,1.5878996E0,6.1381664E-2,-4.6349533E-2,8.4050685E-2,1.0920993E-5],"categories":[],"categories_nodes":[],"categories_segments":[],"categories_sizes":[],"default_left":[0,0,0,0,0,0,0,0,0,0,0],"id":12,"left_children":[1,3,5,-1,-1,7,9,-1,-1,-1,-1],"loss_changes":[8.5092545E1,3.0003357E-1,6.45474E1,0E0,0E0,2.0263107E1,1.0940552E0,0E0,0E0,0E0,0E0],"parents":[2147483647,0,0,1,1,2,2,5,5,6,6],"right_children":[2,4,6,-1,-1,8,10,-1,-1,-1,-1],"split_conditions":[1.02E0,3.6E2,1.09E2,8.239711E-3,8.257771E-2,2.79E2,1.41E3,6.1381664E-2,-4.6349533E-2,8.4050685E-2,1.0920993E-5],"split_indices":[3,5,9,0,0,5,0,0,0,0,0],"split_type":[0,0,0,0,0,0,0,0,0,0,0],"sum_hessian":[1.1384756E2,2.428813E1,8.955943E1,1.1355978E0,2.315253E1,7.747032E1,1.2089112E1,3.5967686E0,7.387355E1,1.1066381E1,1.0227306E0],"tree_param":{"num_deleted":"0","num_feature":"11","num_nodes":"11","size_leaf_vector":"1"}},{"base_weights":[-9.144522E-3,-5.3976607E-2,9.077849E-2],"categories":[],"categories_nodes":[],"categories_segments":[],"categories_sizes":[],"default_left":[0,0,0],"id":13,"left_children":[1,-1,-1],"loss_changes":[2.164132E2,0E0,0E0],"parents":[2147483647,0,0],"right_children":[2,-1,-1],"split_conditions":[5E-2,-5.3976607E-2,9.077849E-2],"split_indices":[10,0,0],"split_type":[0,0,0],"sum_hessian":[1.08986984E2,6.9122025E1,3.9864964E1],"tree_param":{"num_deleted":"0","num_feature":"11","num_nodes":"3","size_leaf_vector":"1"}},{"base_weights":[-8.584731E-2,7.432531E-2,-5.476687E-1,1.2048764E0,-8.983875E-1,-0E0,6.560546E-2,5.0532985E-2,-4.8200455E-2],"categories":[],"categories_nodes":[],"categories_segments":[],"categories_sizes":[],"default_left":[0,0,0,0,0,0,0,0,0],"id":14,"left_children":[1,-1,3,5,7,-1,-1,-1,-1],"loss_changes":[7.518687E1,0E0,5.0497444E1,1.6461391E0,9.470619E0,0E0,0E0,0E0,0E0],"parents":[2147483647,0,0,2,2,3,3,4,4],"right_children":[2,-1,4,6,8,-1,-1,-1,-1],"split_conditions":[6.7E1,7.432531E-2,3.53E2,3.45E2,9.4E1,-0E0,6.560546E-2,5.0532985E-2,-4.8200455E-2],"split_indices":[0,0,5,0,8,0,0,0,0],"split_type":[0,0,0,0,0,0,0,0,0],"sum_hessian":[1.02067604E2,2.2423008E1,7.96446E1,1.2636882E1,6.700771E1,1.1817313E0,1.1455151E1,1.4949948E0,6.551272E1],"tree_param":{"num_deleted":"0","num_feature":"11","num_nodes":"9","size_leaf_vector":"1"}},{"base_weights":[-2.4486763E-2,1.4018985E0,-4.2985445E-1,7.212403E-2,2.3603535E-3,1.265139E0,-7.976863E-1,-9.59263E-3,7.463698E-2,3.662384E-2,-4.70619E-2],"categories":[],"categories_nodes":[],"categories_segments":[],"categories_sizes":[],"default_left":[0,0,0,0,0,0,0,0,0,0,0],"id":15,"left_children":[1,3,5,-1,-1,7,9,-1,-1,-1,-1],"loss_changes":[5.9771305E1,4.4016266E-1,5.1512238E1,0E0,0E0,5.7966537E0,1.566959E1,0E0,0E0,0E0,0E0],"parents":[2147483647,0,0,1,1,2,2,5,5,6,6],"right_children":[2,4,6,-1,-1,8,10,-1,-1,-1,-1],"split_conditions":[6.7E1,9.7212464E-1,9.7E1,7.212403E-2,2.3603535E-3,4.7778744E-1,2.682588E-1,-9.59263E-3,7.463698E-2,3.662384E-2,-4.70619E-2],"split_indices":[0,3,8,0,0,6,2,0,0,0,0],"split_type":[0,0,0,0,0,0,0,0,0,0,0],"sum_hessian":[1.0217128E2,2.1793554E1,8.037772E1,2.0738409E1,1.0551445E0,1.3655146E1,6.672258E1,1.5693219E0,1.2085824E1,5.072081E0,6.16505E1],"tree_param":{"num_deleted":"0","num_feature":"11","num_nodes":"11","size_leaf_vector":"1"}},{"base_weights":[5.9995756E-2,-5.3194292E-2,8.317127E-2],"categories":[],"categories_nodes":[],"categories_segments":[],"categories_sizes":[],"default_left":[0,0,0],"id":16,"left_children":[1,-1,-1],"loss_changes":[1.8687764E2,0E0,0E0],"parents":[2147483647,0,0],"right_children":[2,-1,-1],"split_conditions":[5E-2,-5.3194292E-2,8.317127E-2],"split_indices":[10,0,0],"split_type":[0,0,0],"sum_hessian":[1.0155355E2,5.9719444E1,4.1834106E1],"tree_param":{"num_deleted":"0","num_feature":"11","num_nodes":"3","size_leaf_vector":"1"}},{"base_weights":[-2.0213349E-2,1.3645406E0,-4.7337818E-1,-0E0,7.1624964E-2,1.1350336E0,-8.55497E-1,-0E0,6.029293E-2,4.2577274E-2,-4.6055637E-2],"categories":[],"categories_nodes":[],"categories_segments":[],"categories_sizes":[],"default_left":[0,0,0,0,0,0,0,0,0,0,0],"id":17,"left_children":[1,3,5,-1,-1,7,9,-1,-1,-1,-1],"loss_changes":[6.0691372E1,2.4012527E0,4.609268E1,0E0,0E0,8.9128685E-1,7.576351E0,0E0,0E0,0E0,0E0],"parents":[2147483647,0,0,1,1,2,2,5,5,6,6],"right_children":[2,4,6,-1,-1,8,10,-1,-1,-1,-1],"split_conditions":[6.7E1,1.686E3,3.53E2,-0E0,7.1624964E-2,3.25E2,9.4E1,-0E0,6.029293E-2,4.2577274E-2,-4.6055637E-2],"split_indices":[0,7,5,0,0,0,8,0,0,0,0],"split_type":[0,0,0,0,0,0,0,0,0,0,0],"sum_hessian":[9.539666E1,2.2753473E1,7.264319E1,1.0301288E0,2.1723345E1,1.3315752E1,5.9327435E1,1.0193086E0,1.2296444E1,1.4706056E0,5.785683E1],"tree_param":{"num_deleted":"0","num_feature":"11","num_nodes":"11","size_leaf_vector":"1"}},{"base_weights":[-4.049144E-3,-1.0471793E0,7.799389E-2,-5.3067744E-2,-0E0],"categories":[],"categories_nodes":[],"categories_segments":[],"categories_sizes":[],"default_left":[0,0,0,0,0],"id":18,"left_children":[1,3,-1,-1,-1],"loss_changes":[1.6003438E2,5.1605225E-1,0E0,0E0,0E0],"parents":[2147483647,0,0,1,1],"right_children":[2,4,-1,-1,-1],"split_conditions":[2.4293059E-1,1.355E3,7.799389E-2,-5.3067744E-2,-0E0],"split_indices":[10,5,0,0,0],"split_type":[0,0,0,0,0],"sum_hessian":[9.625343E1,5.813071E1,3.8122723E1,5.701986E1,1.1108495E0],"tree_param":{"num_deleted":"0","num_feature":"11","num_nodes":"5","size_leaf_vector":"1"}},{"base_weights":[5.95339E-2,-5.2498467E-2,7.722012E-2],"categories":[],"categories_nodes":[],"categories_segments":[],"categories_sizes":[],"default_left":[0,0,0],"id":19,"left_children":[1,-1,-1],"loss_changes":[1.6054945E2,0E0,0E0],"parents":[2147483647,0,0],"right_children":[2,-1,-1],"split_conditions":[5E-2,-5.2498467E-2,7.722012E-2],"split_indices":[10,0,0],"split_type":[0,0,0],"sum_hessian":[9.5318E1,5.4529427E1,4.0788578E1],"tree_param":{"num_deleted":"0","num_feature":"11","num_nodes":"3","size_leaf_vector":"1"}},{"base_weights":[-0E0,-5.2332874E-2,7.685158E-2],"categories":[],"categories_nodes":[],"categories_segments":[],"categories_sizes":[],"default_left":[0,0,0],"id":20,"left_children":[1,-1,-1],"loss_changes":[1.4930049E2,0E0,0E0],"parents":[2147483647,0,0],"right_children":[2,-1,-1],"split_conditions":[5E-2,-5.2332874E-2,7.685158E-2],"split_indices":[10,0,0],"split_type":[0,0,0],"sum_hessian":[9.070555E1,5.4023396E1,3.6682156E1],"tree_param":{"num_deleted":"0","num_feature":"11","num_nodes":"3","size_leaf_vector":"1"}},{"base_weights":[6.740001E-3,-1.0300728E0,7.317123E-2,-5.2283745E-2,-0E0],"categories":[],"categories_nodes":[],"categories_segments":[],"categories_sizes":[],"default_left":[0,0,0,0,0],"id":21,"left_children":[1,3,-1,-1,-1],"loss_changes":[1.3466203E2,4.5062637E-1,0E0,0E0,0E0],"parents":[2147483647,0,0,1,1],"right_children":[2,4,-1,-1,-1],"split_conditions":[2.4293059E-1,1.444E3,7.317123E-2,-5.2283745E-2,-0E0],"split_indices":[10,5,0,0,0],"split_type":[0,0,0,0,0],"sum_hessian":[8.702034E1,5.0807274E1,3.621307E1,4.9684933E1,1.1223423E0],"tree_param":{"num_deleted":"0","num_feature":"11","num_nodes":"5","size_leaf_vector":"1"}},{"base_weights":[-0E0,1.1904593E0,-3.9861852E-1,-0E0,6.2066074E-2,-7.043021E-1,1.1176493E0,2.9847259E-2,-4.2458825E-2,5.8936905E-2,9.218474E-4],"categories":[],"categories_nodes":[],"categories_segments":[],"categories_sizes":[],"default_left":[0,0,0,0,0,0,0,0,0,0,0],"id":22,"left_children":[1,3,5,-1,-1,7,9,-1,-1,-1,-1],"loss_changes":[3.970784E1,1.0002651E0,2.9411915E1,0E0,0E0,1.05594845E1,8.8012695E-2,0E0,0E0,0E0,0E0],"parents":[2147483647,0,0,1,1,2,2,5,5,6,6],"right_children":[2,4,6,-1,-1,8,10,-1,-1,-1,-1],"split_conditions":[9.3077296E-1,1.687E3,6.500261E-1,-0E0,6.2066074E-2,1.5927624E0,9.8E1,2.9847259E-2,-4.2458825E-2,5.8936905E-2,9.218474E-4],"split_indices":[3,7,6,0,0,2,8,0,0,0,0],"split_type":[0,0,0,0,0,0,0,0,0,0,0],"sum_hessian":[8.124826E1,2.0044292E1,6.120397E1,1.0400609E0,1.9004232E1,5.1655373E1,9.548598E0,4.5165424E0,4.713883E1,8.546412E0,1.0021861E0],"tree_param":{"num_deleted":"0","num_feature":"11","num_nodes":"11","size_leaf_vector":"1"}},{"base_weights":[4.688842E-3,-5.162675E-2,7.166962E-2],"categories":[],"categories_nodes":[],"categories_segments":[],"categories_sizes":[],"default_left":[0,0,0],"id":23,"left_children":[1,-1,-1],"loss_changes":[1.2472036E2,0E0,0E0],"parents":[2147483647,0,0],"right_children":[2,-1,-1],"split_conditions":[5E-2,-5.162675E-2,7.166962E-2],"split_indices":[10,0,0],"split_type":[0,0,0],"sum_hessian":[8.2029305E1,4.7483852E1,3.4545452E1],"tree_param":{"num_deleted":"0","num_feature":"11","num_nodes":"3","size_leaf_vector":"1"}},{"base_weights":[7.5956536E-3,1.0819541E0,-3.4761268E-1,-0E0,5.718267E-2,9.488585E-1,-7.3906934E-1,-0E0,5.229065E-2,1.924596E-2,-4.219317E-2],"categories":[],"categories_nodes":[],"categories_segments":[],"categories_sizes":[],"default_left":[0,0,0,0,0,0,0,0,0,0,0],"id":24,"left_children":[1,3,5,-1,-1,7,9,-1,-1,-1,-1],"loss_changes":[3.0657015E1,8.2824135E-1,3.0700123E1,0E0,0E0,1.0575399E0,6.0217724E0,0E0,0E0,0E0,0E0],"parents":[2147483647,0,0,1,1,2,2,5,5,6,6],"right_children":[2,4,6,-1,-1,8,10,-1,-1,-1,-1],"split_conditions":[1.829E1,4.17E2,3.53E2,-0E0,5.718267E-2,4.0388522E-1,2.682588E-1,-0E0,5.229065E-2,1.924596E-2,-4.219317E-2],"split_indices":[1,5,5,0,0,6,2,0,0,0,0],"split_type":[0,0,0,0,0,0,0,0,0,0,0],"sum_hessian":[7.738597E1,1.906969E1,5.8316284E1,1.4738346E0,1.7595856E1,1.2898002E1,4.541828E1,1.4905297E0,1.1407472E1,3.2385232E0,4.217976E1],"tree_param":{"num_deleted":"0","num_feature":"11","num_nodes":"11","size_leaf_vector":"1"}},{"base_weights":[5.6594773E-3,-5.1277727E-2,6.88959E-2],"categories":[],"categories_nodes":[],"categories_segments":[],"categories_sizes":[],"default_left":[0,0,0],"id":25,"left_children":[1,-1,-1],"loss_changes":[1.11217995E2,0E0,0E0],"parents":[2147483647,0,0],"right_children":[2,-1,-1],"split_conditions":[5E-2,-5.1277727E-2,6.88959E-2],"split_indices":[10,0,0],"split_type":[0,0,0],"sum_hessian":[7.6471054E1,4.3597237E1,3.2873817E1],"tree_param":{"num_deleted":"0","num_feature":"11","num_nodes":"3","size_leaf_vector":"1"}},{"base_weights":[-0E0,8.2662094E-1,-4.7940812E-1,9.751049E-1,3.734115E-1,4.7901392E-2,-7.6546496E-1,-0E0,5.1091727E-2,4.044848E-2,-4.1975756E-3,3.0873725E-2,-4.2263817E-2],"categories":[],"categories_nodes":[],"categories_segments":[],"categories_sizes":[],"default_left":[0,0,0,0,0,0,0,0,0,0,0,0,0],"id":26,"left_children":[1,3,5,7,9,-1,11,-1,-1,-1,-1,-1,-1],"loss_changes":[2.9175993E1,7.765007E-1,1.9865894E1,6.6259766E-1,2.2446036E0,0E0,5.034073E0,0E0,0E0,0E0,0E0,0E0,0E0],"parents":[2147483647,0,0,1,1,2,2,3,3,4,4,6,6],"right_children":[2,4,6,8,10,-1,12,-1,-1,-1,-1,-1,-1],"split_conditions":[1.721E3,1.706E3,1.646E1,1.653E3,1.2242111E1,4.7901392E-2,9.3E1,-0E0,5.1091727E-2,4.044848E-2,-4.1975756E-3,3.0873725E-2,-4.2263817E-2],"split_indices":[7,7,1,7,1,0,8,0,0,0,0,0,0],"split_type":[0,0,0,0,0,0,0,0,0,0,0,0,0],"sum_hessian":[7.173325E1,2.596919E1,4.576406E1,1.7862232E1,8.106959E0,6.915696E0,3.8848366E1,1.0511488E0,1.6811083E1,4.3186536E0,3.788306E0,1.410273E0,3.743809E1],"tree_param":{"num_deleted":"0","num_feature":"11","num_nodes":"13","size_leaf_vector":"1"}},{"base_weights":[4.8132807E-2,-1.0090728E0,6.782586E-2,-5.13905E-2,-0E0],"categories":[],"categories_nodes":[],"categories_segments":[],"categories_sizes":[],"default_left":[0,0,0,0,0],"id":27,"left_children":[1,3,-1,-1,-1],"loss_changes":[1.05975784E2,4.4283676E-1,0E0,0E0,0E0],"parents":[2147483647,0,0,1,1],"right_children":[2,4,-1,-1,-1],"split_conditions":[2.4293059E-1,1.444E3,6.782586E-2,-5.13905E-2,-0E0],"split_indices":[10,5,0,0,0],"split_type":[0,0,0,0,0],"sum_hessian":[7.449948E1,4.1120087E1,3.3379395E1,4.001757E1,1.1025151E0],"tree_param":{"num_deleted":"0","num_feature":"11","num_nodes":"5","size_leaf_vector":"1"}},{"base_weights":[-2.2128439E-3,8.619258E-1,-5.257721E-1,-0E0,9.0244347E-1,4.479249E-2,-7.4628705E-1,5.013923E-2,1.858225E-2,-4.4736493E-2,4.2423423E-2],"categories":[],"categories_nodes":[],"categories_segments":[],"categories_sizes":[],"default_left":[0,0,0,0,0,0,0,0,0,0,0],"id":28,"left_children":[1,3,5,-1,7,-1,9,-1,-1,-1,-1],"loss_changes":[3.0630123E1,9.0247536E-1,1.3994736E1,0E0,2.2949791E-1,0E0,9.744263E0,0E0,0E0,0E0,0E0],"parents":[2147483647,0,0,1,1,2,2,4,4,6,6],"right_children":[2,4,6,-1,8,-1,10,-1,-1,-1,-1],"split_conditions":[1.72E3,2.388016E-1,5.6782526E-1,-0E0,1.711E3,4.479249E-2,1.1E2,5.013923E-2,1.858225E-2,-4.4736493E-2,4.2423423E-2],"split_indices":[7,6,3,0,7,0,9,0,0,0,0],"split_type":[0,0,0,0,0,0,0,0,0,0,0],"sum_hessian":[6.6071526E1,2.4323734E1,4.174779E1,1.1147685E0,2.3208965E1,4.890382E0,3.685741E1,1.797906E1,5.2299056E0,3.4407207E1,2.4502044E0],"tree_param":{"num_deleted":"0","num_feature":"11","num_nodes":"11","size_leaf_vector":"1"}},{"base_weights":[-3.6866836E-2,9.070965E-1,-3.774162E-1,-0E0,9.5899415E-1,-7.1720415E-1,9.4383985E-1,5.1163193E-2,5.712081E-4,2.5640016E-2,-4.490707E-2,-0E0,5.3551782E-2],"categories":[],"categories_nodes":[],"categories_segments":[],"categories_sizes":[],"default_left":[0,0,0,0,0,0,0,0,0,0,0,0,0],"id":29,"left_children":[1,3,5,-1,7,9,11,-1,-1,-1,-1,-1,-1],"loss_changes":[2.135924E1,6.3663197E-1,2.2896942E1,0E0,4.6425056E-1,9.653105E0,1.4738741E0,0E0,0E0,0E0,0E0,0E0,0E0],"parents":[2147483647,0,0,1,1,2,2,4,4,5,5,6,6],"right_children":[2,4,6,-1,8,10,12,-1,-1,-1,-1,-1,-1],"split_conditions":[1.53E0,3.92E2,1.08E2,-0E0,9.7212464E-1,1.5927624E0,5.157161E-1,5.1163193E-2,5.712081E-4,2.5640016E-2,-4.490707E-2,-0E0,5.3551782E-2],"split_indices":[3,5,9,0,3,2,6,0,0,0,0,0,0],"split_type":[0,0,0,0,0,0,0,0,0,0,0,0,0],"sum_hessian":[6.520208E1,1.645603E1,4.874605E1,1.145963E0,1.5310067E1,3.943909E1,9.306959E0,1.376865E1,1.5414168E0,4.468036E0,3.4971058E1,1.0178838E0,8.289076E0],"tree_param":{"num_deleted":"0","num_feature":"11","num_nodes":"13","size_leaf_vector":"1"}},{"base_weights":[2.4316454E-2,-5.0938796E-2,6.5867156E-2],"categories":[],"categories_nodes":[],"categories_segments":[],"categories_sizes":[],"default_left":[0,0,0],"id":30,"left_children":[1,-1,-1],"loss_changes":[9.008854E1,0E0,0E0],"parents":[2147483647,0,0],"right_children":[2,-1,-1],"split_conditions":[2.4293059E-1,-5.0938796E-2,6.5867156E-2],"split_indices":[10,0,0],"split_type":[0,0,0],"sum_hessian":[6.4688545E1,3.5708057E1,2.8980492E1],"tree_param":{"num_deleted":"0","num_feature":"11","num_nodes":"3","size_leaf_vector":"1"}},{"base_weights":[3.06131E-2,-5.0637808E-2,6.402617E-2],"categories":[],"categories_nodes":[],"categories_segments":[],"categories_sizes":[],"default_left":[0,0,0],"id":31,"left_children":[1,-1,-1],"loss_changes":[8.412401E1,0E0,0E0],"parents":[2147483647,0,0],"right_children":[2,-1,-1],"split_conditions":[2.4293059E-1,-5.0637808E-2,6.402617E-2],"split_indices":[10,0,0],"split_type":[0,0,0],"sum_hessian":[6.2409355E1,3.3900467E1,2.8508886E1],"tree_param":{"num_deleted":"0","num_feature":"11","num_nodes":"3","size_leaf_vector":"1"}},{"base_weights":[-0E0,-5.050699E-2,6.2430795E-2],"categories":[],"categories_nodes":[],"categories_segments":[],"categories_sizes":[],"default_left":[0,0,0],"id":32,"left_children":[1,-1,-1],"loss_changes":[7.536063E1,0E0,0E0],"parents":[2147483647,0,0],"right_children":[2,-1,-1],"split_conditions":[2.4293059E-1,-5.050699E-2,6.2430795E-2],"split_indices":[10,0,0],"split_type":[0,0,0],"sum_hessian":[5.7824814E1,3.2246918E1,2.5577898E1],"tree_param":{"num_deleted":"0","num_feature":"11","num_nodes":"3","size_leaf_vector":"1"}},{"base_weights":[-0E0,6.637073E-1,-4.0034586E-1,-0E0,7.659228E-1,4.162913E-2,-6.301987E-1,-1.2813233E-2,4.9952175E-3,4.3648582E-2,1.0935353E-2,4.0515833E-2,-4.053997E-2],"categories":[],"categories_nodes":[],"categories_segments":[],"categories_sizes":[],"default_left":[0,0,0,0,0,0,0,0,0,0,0,0,0],"id":33,"left_children":[1,3,5,7,9,-1,11,-1,-1,-1,-1,-1,-1],"loss_changes":[1.5341789E1,1.689888E0,1.0744743E1,1.6121876E-1,3.810482E-1,0E0,8.880442E0,0E0,0E0,0E0,0E0,0E0,0E0],"parents":[2147483647,0,0,1,1,2,2,3,3,4,4,6,6],"right_children":[2,4,6,8,10,-1,12,-1,-1,-1,-1,-1,-1],"split_conditions":[1.72E3,3.139843E-1,4.9E1,1.684E3,1.711E3,4.162913E-2,9.5E1,-1.2813233E-2,4.9952175E-3,4.3648582E-2,1.0935353E-2,4.0515833E-2,-4.053997E-2],"split_indices":[7,6,0,7,7,0,8,0,0,0,0,0,0],"split_type":[0,0,0,0,0,0,0,0,0,0,0,0,0],"sum_hessian":[5.5996502E1,2.0576147E1,3.5420353E1,2.493943E0,1.8082203E1,4.8118887E0,3.0608465E1,1.0894915E0,1.4044515E0,1.3861534E1,4.220669E0,2.713065E0,2.7895401E1],"tree_param":{"num_deleted":"0","num_feature":"11","num_nodes":"13","size_leaf_vector":"1"}},{"base_weights":[3.806941E-3,-4.9801767E-2,6.1227966E-2],"categories":[],"categories_nodes":[],"categories_segments":[],"categories_sizes":[],"default_left":[0,0,0],"id":34,"left_children":[1,-1,-1],"loss_changes":[6.919731E1,0E0,0E0],"parents":[2147483647,0,0],"right_children":[2,-1,-1],"split_conditions":[5E-2,-4.9801767E-2,6.1227966E-2],"split_indices":[10,0,0],"split_type":[0,0,0],"sum_hessian":[5.4600185E1,2.9892004E1,2.4708183E1],"tree_param":{"num_deleted":"0","num_feature":"11","num_nodes":"3","size_leaf_vector":"1"}},{"base_weights":[-6.93051E-2,5.7975996E-1,-4.8690832E-1,7.246816E-1,1.4777552E-1,3.456826E-2,-6.903531E-1,-0E0,3.796888E-2,3.262184E-2,-9.851717E-3,-3.8233947E-2,1.7520329E-2],"categories":[],"categories_nodes":[],"categories_segments":[],"categories_sizes":[],"default_left":[0,0,0,0,0,0,0,0,0,0,0,0,0],"id":35,"left_children":[1,3,5,7,9,-1,11,-1,-1,-1,-1,-1,-1],"loss_changes":[1.4537182E1,7.490959E-1,8.415621E0,8.782625E-2,1.6280729E0,0E0,2.726431E0,0E0,0E0,0E0,0E0,0E0,0E0],"parents":[2147483647,0,0,1,1,2,2,3,3,4,4,6,6],"right_children":[2,4,6,8,10,-1,12,-1,-1,-1,-1,-1,-1],"split_conditions":[1.721E3,1.706E3,4.9E1,1.655E3,1.021E1,3.456826E-2,1.587E3,-0E0,3.796888E-2,3.262184E-2,-9.851717E-3,-3.8233947E-2,1.7520329E-2],"split_indices":[7,7,0,7,1,0,5,0,0,0,0,0,0],"split_type":[0,0,0,0,0,0,0,0,0,0,0,0,0],"sum_hessian":[5.1762333E1,1.9644308E1,3.2118023E1,1.3335512E1,6.3087945E0,4.014077E0,2.8103947E1,1.12775E0,1.2207763E1,2.787273E0,3.5215216E0,2.6926666E1,1.177281E0],"tree_param":{"num_deleted":"0","num_feature":"11","num_nodes":"13","size_leaf_vector":"1"}},{"base_weights":[-3.9411023E-2,6.4074206E-1,-4.8895493E-1,-0E0,7.040739E-1,3.779539E-2,-7.21933E-1,4.242794E-2,1.3813305E-2,2.9930225E-2,-4.2517643E-2],"categories":[],"categories_nodes":[],"categories_segments":[],"categories_sizes":[],"default_left":[0,0,0,0,0,0,0,0,0,0,0],"id":36,"left_children":[1,3,5,-1,7,-1,9,-1,-1,-1,-1],"loss_changes":[1.5442857E1,1.0155535E0,9.505232E0,0E0,3.4234142E-1,0E0,5.200286E0,0E0,0E0,0E0,0E0],"parents":[2147483647,0,0,1,1,2,2,4,4,6,6],"right_children":[2,4,6,-1,8,-1,10,-1,-1,-1,-1],"split_conditions":[1.721E3,3.051847E-1,1.5590692E1,-0E0,1.706E3,3.779539E-2,9.5E1,4.242794E-2,1.3813305E-2,2.9930225E-2,-4.2517643E-2],"split_indices":[7,6,1,0,7,0,8,0,0,0,0],"split_type":[0,0,0,0,0,0,0,0,0,0,0],"sum_hessian":[4.8730255E1,1.8779541E1,2.9950714E1,1.3496786E0,1.7429863E1,4.0294805E0,2.5921234E1,1.1420521E1,6.0093412E0,1.6278013E0,2.4293432E1],"tree_param":{"num_deleted":"0","num_feature":"11","num_nodes":"11","size_leaf_vector":"1"}},{"base_weights":[-0E0,-4.9431644E-2,5.9539802E-2],"categories":[],"categories_nodes":[],"categories_segments":[],"categories_sizes":[],"default_left":[0,0,0],"id":37,"left_children":[1,-1,-1],"loss_changes":[6.203112E1,0E0,0E0],"parents":[2147483647,0,0],"right_children":[2,-1,-1],"split_conditions":[5E-2,-4.9431644E-2,5.9539802E-2],"split_indices":[10,0,0],"split_type":[0,0,0],"sum_hessian":[5.066194E1,2.7695543E1,2.29664E1],"tree_param":{"num_deleted":"0","num_feature":"11","num_nodes":"3","size_leaf_vector":"1"}},{"base_weights":[4.4023182E-2,-4.9111653E-2,6.108212E-2],"categories":[],"categories_nodes":[],"categories_segments":[],"categories_sizes":[],"default_left":[0,0,0],"id":38,"left_children":[1,-1,-1],"loss_changes":[6.2063858E1,0E0,0E0],"parents":[2147483647,0,0],"right_children":[2,-1,-1],"split_conditions":[5E-2,-4.9111653E-2,6.108212E-2],"split_indices":[10,0,0],"split_type":[0,0,0],"sum_hessian":[4.926252E1,2.6184727E1,2.3077793E1],"tree_param":{"num_deleted":"0","num_feature":"11","num_nodes":"3","size_leaf_vector":"1"}},{"base_weights":[4.811145E-2,-4.8713405E-2,5.7424214E-2],"categories":[],"categories_nodes":[],"categories_segments":[],"categories_sizes":[],"default_left":[0,0,0],"id":39,"left_children":[1,-1,-1],"loss_changes":[5.3586708E1,0E0,0E0],"parents":[2147483647,0,0],"right_children":[2,-1,-1],"split_conditions":[5E-2,-4.8713405E-2,5.7424214E-2],"split_indices":[10,0,0],"split_type":[0,0,0],"sum_hessian":[4.556065E1,2.3441174E1,2.2119478E1],"tree_param":{"num_deleted":"0","num_feature":"11","num_nodes":"3","size_leaf_vector":"1"}},{"base_weights":[2.673405E-2,8.329826E-1,-2.2733155E-1,-0E0,4.6469897E-2,-5.6411326E-1,8.172666E-1,2.6705703E-2,-3.9197177E-2,-0E0,4.419159E-2],"categories":[],"categories_nodes":[],"categories_segments":[],"categories_sizes":[],"default_left":[0,0,0,0,0,0,0,0,0,0,0],"id":40,"left_children":[1,3,5,-1,-1,7,9,-1,-1,-1,-1],"loss_changes":[9.8915615E0,1.1190176E0,1.2719786E1,0E0,0E0,7.201108E0,1.6222477E-1,0E0,0E0,0E0,0E0],"parents":[2147483647,0,0,1,1,2,2,5,5,6,6],"right_children":[2,4,6,-1,-1,8,10,-1,-1,-1,-1],"split_conditions":[5.3E1,1.687E3,1.08E2,-0E0,4.6469897E-2,2.682588E-1,5.649657E-1,2.6705703E-2,-3.9197177E-2,-0E0,4.419159E-2],"split_indices":[0,7,9,0,0,2,6,0,0,0,0],"split_type":[0,0,0,0,0,0,0,0,0,0,0],"sum_hessian":[4.488641E1,1.0680963E1,3.420545E1,1.0023593E0,9.678603E0,2.6575914E1,7.6295347E0,3.8146334E0,2.276128E1,1.0432343E0,6.5863004E0],"tree_param":{"num_deleted":"0","num_feature":"11","num_nodes":"11","size_leaf_vector":"1"}},{"base_weights":[4.0998016E-2,-4.8338655E-2,5.717534E-2],"categories":[],"categories_nodes":[],"categories_segments":[],"categories_sizes":[],"default_left":[0,0,0],"id":41,"left_children":[1,-1,-1],"loss_changes":[4.9682777E1,0E0,0E0],"parents":[2147483647,0,0],"right_children":[2,-1,-1],"split_conditions":[5E-2,-4.8338655E-2,5.717534E-2],"split_indices":[10,0,0],"split_type":[0,0,0],"sum_hessian":[4.264137E1,2.2105228E1,2.053614E1],"tree_param":{"num_deleted":"0","num_feature":"11","num_nodes":"3","size_leaf_vector":"1"}},{"base_weights":[-0E0,-9.528439E-1,5.6666505E-2,-4.9107622E-2,-0E0],"categories":[],"categories_nodes":[],"categories_segments":[],"categories_sizes":[],"default_left":[0,0,0,0,0],"id":42,"left_children":[1,3,-1,-1,-1],"loss_changes":[4.6178787E1,3.57481E-1,0E0,0E0,0E0],"parents":[2147483647,0,0,1,1],"right_children":[2,4,-1,-1,-1],"split_conditions":[2.4293059E-1,1.333E3,5.6666505E-2,-4.9107622E-2,-0E0],"split_indices":[10,5,0,0,0],"split_type":[0,0,0,0,0],"sum_hessian":[4.080545E1,2.237723E1,1.842822E1,2.1373432E1,1.0037965E0],"tree_param":{"num_deleted":"0","num_feature":"11","num_nodes":"5","size_leaf_vector":"1"}},{"base_weights":[5.7149984E-2,-4.729663E-2,5.723126E-2],"categories":[],"categories_nodes":[],"categories_segments":[],"categories_sizes":[],"default_left":[0,0,0],"id":43,"left_children":[1,-1,-1],"loss_changes":[4.6759247E1,0E0,0E0],"parents":[2147483647,0,0],"right_children":[2,-1,-1],"split_conditions":[2.4293059E-1,-4.729663E-2,5.723126E-2],"split_indices":[10,0,0],"split_type":[0,0,0],"sum_hessian":[4.0782196E1,2.1042791E1,1.9739405E1],"tree_param":{"num_deleted":"0","num_feature":"11","num_nodes":"3","size_leaf_vector":"1"}},{"base_weights":[3.3432867E-2,-4.7759604E-2,5.541691E-2],"categories":[],"categories_nodes":[],"categories_segments":[],"categories_sizes":[],"default_left":[0,0,0],"id":44,"left_children":[1,-1,-1],"loss_changes":[4.196807E1,0E0,0E0],"parents":[2147483647,0,0],"right_children":[2,-1,-1],"split_conditions":[5E-2,-4.7759604E-2,5.541691E-2],"split_indices":[10,0,0],"split_type":[0,0,0],"sum_hessian":[3.742445E1,1.9310331E1,1.8114119E1],"tree_param":{"num_deleted":"0","num_feature":"11","num_nodes":"3","size_leaf_vector":"1"}},{"base_weights":[1.0012641E-2,-9.4065493E-1,5.4486852E-2,-4.8604805E-2,-0E0],"categories":[],"categories_nodes":[],"categories_segments":[],"categories_sizes":[],"default_left":[0,0,0,0,0],"id":45,"left_children":[1,3,-1,-1,-1],"loss_changes":[4.0282757E1,2.1244812E-1,0E0,0E0,0E0],"parents":[2147483647,0,0,1,1],"right_children":[2,4,-1,-1,-1],"split_conditions":[2.4293059E-1,1.08E2,5.4486852E-2,-4.8604805E-2,-0E0],"split_indices":[10,9,0,0,0],"split_type":[0,0,0,0,0],"sum_hessian":[3.717312E1,1.9590204E1,1.7582914E1,1.8504639E1,1.0855659E0],"tree_param":{"num_deleted":"0","num_feature":"11","num_nodes":"5","size_leaf_vector":"1"}},{"base_weights":[-1.0413231E-2,-9.366076E-1,5.38426E-2,-4.839896E-2,-0E0],"categories":[],"categories_nodes":[],"categories_segments":[],"categories_sizes":[],"default_left":[0,0,0,0,0],"id":46,"left_children":[1,3,-1,-1,-1],"loss_changes":[3.740022E1,1.5272903E-1,0E0,0E0,0E0],"parents":[2147483647,0,0,1,1],"right_children":[2,4,-1,-1,-1],"split_conditions":[2.4293059E-1,1.08E2,5.38426E-2,-4.839896E-2,-0E0],"split_indices":[10,9,0,0,0],"split_type":[0,0,0,0,0],"sum_hessian":[3.5207615E1,1.9335213E1,1.58724E1,1.8201471E1,1.1337414E0],"tree_param":{"num_deleted":"0","num_feature":"11","num_nodes":"5","size_leaf_vector":"1"}},{"base_weights":[-0E0,6.857391E-1,-2.612575E-1,-0E0,4.130067E-2,-4.8607078E-1,3.392461E-2,2.7538365E-2,-3.7131496E-2],"categories":[],"categories_nodes":[],"categories_segments":[],"categories_sizes":[],"default_left":[0,0,0,0,0,0,0,0,0],"id":47,"left_children":[1,3,5,-1,-1,7,-1,-1,-1],"loss_changes":[6.268702E0,7.6446104E-1,5.831702E0,0E0,0E0,6.4620852E0,0E0,0E0,0E0],"parents":[2147483647,0,0,1,1,2,2,5,5],"right_children":[2,4,6,-1,-1,8,-1,-1,-1],"split_conditions":[1.02E0,3.2567614E-1,6.500261E-1,-0E0,4.130067E-2,1.5927624E0,3.392461E-2,2.7538365E-2,-3.7131496E-2],"split_indices":[3,6,6,0,0,2,0,0,0],"split_type":[0,0,0,0,0,0,0,0,0],"sum_hessian":[3.3982426E1,8.484749E0,2.5497679E1,1.8274626E0,6.6572857E0,2.139439E1,4.1032887E0,3.6297572E0,1.7764633E1],"tree_param":{"num_deleted":"0","num_feature":"11","num_nodes":"9","size_leaf_vector":"1"}},{"base_weights":[1.2282135E-2,7.142635E-1,-2.2385177E-1,1.0433131E-3,3.9690956E-2,-5.351721E-1,7.0512605E-1,6.7105674E-4,-3.7759375E-2,4.110537E-2,-0E0],"categories":[],"categories_nodes":[],"categories_segments":[],"categories_sizes":[],"default_left":[0,0,0,0,0,0,0,0,0,0,0],"id":48,"left_children":[1,3,5,-1,-1,7,9,-1,-1,-1,-1],"loss_changes":[5.931794E0,8.161068E-2,7.573903E0,0E0,0E0,2.774397E0,4.5496964E-1,0E0,0E0,0E0,0E0],"parents":[2147483647,0,0,1,1,2,2,5,5,6,6],"right_children":[2,4,6,-1,-1,8,10,-1,-1,-1,-1],"split_conditions":[1.829E1,3.2567614E-1,1.08E2,1.0433131E-3,3.9690956E-2,1.726E3,3.884E2,6.7105674E-4,-3.7759375E-2,4.110537E-2,-0E0],"split_indices":[1,6,9,0,0,7,1,0,0,0,0],"split_type":[0,0,0,0,0,0,0,0,0,0,0],"sum_hessian":[3.234125E1,8.16396E0,2.417729E1,1.6170596E0,6.5469007E0,1.882932E1,5.347969E0,5.0081854E0,1.38211355E1,4.3431096E0,1.0048596E0],"tree_param":{"num_deleted":"0","num_feature":"11","num_nodes":"11","size_leaf_vector":"1"}},{"base_weights":[7.39114E-2,8.0448085E-1,-1.7889883E-1,4.2759057E-2,-0E0,3.354698E-2,-4.480596E-1,-2.988482E-2,2.1879895E-2],"categories":[],"categories_nodes":[],"categories_segments":[],"categories_sizes":[],"default_left":[0,0,0,0,0,0,0,0,0],"id":49,"left_children":[1,3,5,-1,-1,-1,7,-1,-1],"loss_changes":[6.882337E0,6.1627865E-2,6.1721864E0,0E0,0E0,0E0,3.1128612E0,0E0,0E0],"parents":[2147483647,0,0,1,1,2,2,6,6],"right_children":[2,4,6,-1,-1,-1,8,-1,-1],"split_conditions":[7.8E1,1.02E0,2.79E2,4.2759057E-2,-0E0,3.354698E-2,1.08E2,-2.988482E-2,2.1879895E-2],"split_indices":[0,3,5,0,0,0,9,0,0],"split_type":[0,0,0,0,0,0,0,0,0],"sum_hessian":[3.3790386E1,8.634391E0,2.5155996E1,7.610152E0,1.0242391E0,5.245069E0,1.9910927E1,1.779419E1,2.1167378E0],"tree_param":{"num_deleted":"0","num_feature":"11","num_nodes":"9","size_leaf_vector":"1"}},{"base_weights":[5.5684146E-2,-4.685923E-2,1.0760459E0,2.3793862E-3,5.6509413E-2],"categories":[],"categories_nodes":[],"categories_segments":[],"categories_sizes":[],"default_left":[0,0,0,0,0],"id":50,"left_children":[1,-1,3,-1,-1],"loss_changes":[3.4824448E1,0E0,3.1183434E-1,0E0,0E0],"parents":[2147483647,0,0,2,2],"right_children":[2,-1,4,-1,-1],"split_conditions":[5E-2,-4.685923E-2,8.6E1,2.3793862E-3,5.6509413E-2],"split_indices":[10,0,9,0,0],"split_type":[0,0,0,0,0],"sum_hessian":[3.2310684E1,1.616892E1,1.6141764E1,1.3630909E0,1.4778673E1],"tree_param":{"num_deleted":"0","num_feature":"11","num_nodes":"5","size_leaf_vector":"1"}},{"base_weights":[6.364478E-2,-4.672626E-2,1.0437726E0,5.746011E-3,5.4707695E-2],"categories":[],"categories_nodes":[],"categories_segments":[],"categories_sizes":[],"default_left":[0,0,0,0,0],"id":51,"left_children":[1,-1,3,-1,-1],"loss_changes":[3.3412487E1,0E0,8.5193634E-2,0E0,0E0],"parents":[2147483647,0,0,2,2],"right_children":[2,-1,4,-1,-1],"split_conditions":[5E-2,-4.672626E-2,8.6E1,5.746011E-3,5.4707695E-2],"split_indices":[10,0,9,0,0],"split_type":[0,0,0,0,0],"sum_hessian":[3.2099564E1,1.5673716E1,1.6425846E1,1.5245159E0,1.4901331E1],"tree_param":{"num_deleted":"0","num_feature":"11","num_nodes":"5","size_leaf_vector":"1"}},{"base_weights":[5.543656E-3,-9.06462E-1,5.3108998E-2,-4.7493163E-2,-0E0],"categories":[],"categories_nodes":[],"categories_segments":[],"categories_sizes":[],"default_left":[0,0,0,0,0],"id":52,"left_children":[1,3,-1,-1,-1],"loss_changes":[3.001204E1,3.673563E-1,0E0,0E0,0E0],"parents":[2147483647,0,0,1,1],"right_children":[2,4,-1,-1,-1],"split_conditions":[2.4293059E-1,1.246E3,5.3108998E-2,-4.7493163E-2,-0E0],"split_indices":[10,5,0,0,0],"split_type":[0,0,0,0,0],"sum_hessian":[2.9063927E1,1.5421887E1,1.3642039E1,1.4362634E1,1.0592538E0],"tree_param":{"num_deleted":"0","num_feature":"11","num_nodes":"5","size_leaf_vector":"1"}},{"base_weights":[8.430668E-3,6.379101E-1,-2.583296E-1,-0E0,3.6221832E-2,2.8600896E-2,-5.26664E-1,-0E0,-3.518845E-2],"categories":[],"categories_nodes":[],"categories_segments":[],"categories_sizes":[],"default_left":[0,0,0,0,0,0,0,0,0],"id":53,"left_children":[1,3,5,-1,-1,-1,7,-1,-1],"loss_changes":[5.2247777E0,5.592654E-1,4.851632E0,0E0,0E0,0E0,1.5361266E0,0E0,0E0],"parents":[2147483647,0,0,1,1,2,2,6,6],"right_children":[2,4,6,-1,-1,-1,8,-1,-1],"split_conditions":[7.8E1,4.48E2,2.79E2,-0E0,3.6221832E-2,2.8600896E-2,9.9E1,-0E0,-3.518845E-2],"split_indices":[0,5,5,0,0,0,8,0,0],"split_type":[0,0,0,0,0,0,0,0,0],"sum_hessian":[2.8003056E1,8.478705E0,1.952435E1,1.0633903E0,7.415315E0,4.0369935E0,1.5487356E1,4.1525683E0,1.1334788E1],"tree_param":{"num_deleted":"0","num_feature":"11","num_nodes":"9","size_leaf_vector":"1"}},{"base_weights":[6.0849905E-2,3.7780177E-2,-1.3278726E-1,-4.3005204E-1,6.662099E-1,2.5312806E-2,-3.3580583E-2,3.754038E-2,-0E0],"categories":[],"categories_nodes":[],"categories_segments":[],"categories_sizes":[],"default_left":[0,0,0,0,0,0,0,0,0],"id":54,"left_children":[1,-1,3,5,7,-1,-1,-1,-1],"loss_changes":[4.186932E0,0E0,5.449125E0,4.3283143E0,1.11650944E-1,0E0,0E0,0E0,0E0],"parents":[2147483647,0,0,2,2,3,3,4,4],"right_children":[2,-1,4,6,8,-1,-1,-1,-1],"split_conditions":[1.646E1,3.7780177E-2,1.08E2,1.5927624E0,2.545307E1,2.5312806E-2,-3.3580583E-2,3.754038E-2,-0E0],"split_indices":[1,0,9,2,3,0,0,0,0],"split_type":[0,0,0,0,0,0,0,0,0],"sum_hessian":[2.7062037E1,5.8287964E0,2.123324E1,1.626823E1,4.9650083E0,2.6871023E0,1.3581129E1,3.89458E0,1.0704281E0],"tree_param":{"num_deleted":"0","num_feature":"11","num_nodes":"9","size_leaf_vector":"1"}},{"base_weights":[5.670159E-3,-4.57835E-2,5.263511E-2],"categories":[],"categories_nodes":[],"categories_segments":[],"categories_sizes":[],"default_left":[0,0,0],"id":55,"left_children":[1,-1,-1],"loss_changes":[2.6573172E1,0E0,0E0],"parents":[2147483647,0,0],"right_children":[2,-1,-1],"split_conditions":[5E-2,-4.57835E-2,5.263511E-2],"split_indices":[10,0,0],"split_type":[0,0,0],"sum_hessian":[2.5476057E1,1.3364144E1,1.2111913E1],"tree_param":{"num_deleted":"0","num_feature":"11","num_nodes":"3","size_leaf_vector":"1"}},{"base_weights":[9.71087E-2,-4.5525737E-2,5.3636666E-2],"categories":[],"categories_nodes":[],"categories_segments":[],"categories_sizes":[],"default_left":[0,0,0],"id":56,"left_children":[1,-1,-1],"loss_changes":[2.7767128E1,0E0,0E0],"parents":[2147483647,0,0],"right_children":[2,-1,-1],"split_conditions":[5E-2,-4.5525737E-2,5.3636666E-2],"split_indices":[10,0,0],"split_type":[0,0,0],"sum_hessian":[2.6169472E1,1.2654338E1,1.3515134E1],"tree_param":{"num_deleted":"0","num_feature":"11","num_nodes":"3","size_leaf_vector":"1"}},{"base_weights":[6.463408E-2,3.5881765E-2,-1.2964046E-1,-4.313147E-1,6.597271E-1,2.3403961E-2,-3.634825E-2,3.735115E-2,-0E0],"categories":[],"categories_nodes":[],"categories_segments":[],"categories_sizes":[],"default_left":[0,0,0,0,0,0,0,0,0],"id":57,"left_children":[1,-1,3,5,7,-1,-1,-1,-1],"loss_changes":[3.6643476E0,0E0,4.972786E0,4.6321783E0,9.320617E-2,0E0,0E0,0E0,0E0],"parents":[2147483647,0,0,2,2,3,3,4,4],"right_children":[2,-1,4,6,8,-1,-1,-1,-1],"split_conditions":[5.3E1,3.5881765E-2,1.08E2,1.5927624E0,1.296E3,2.3403961E-2,-3.634825E-2,3.735115E-2,-0E0],"split_indices":[0,0,9,2,0,0,0,0,0],"split_type":[0,0,0,0,0,0,0,0,0],"sum_hessian":[2.4833807E1,5.666651E0,1.9167156E1,1.465387E1,4.5132866E0,3.0626411E0,1.15912285E1,3.467051E0,1.0462356E0],"tree_param":{"num_deleted":"0","num_feature":"11","num_nodes":"9","size_leaf_vector":"1"}},{"base_weights":[-0E0,-4.6824586E-2,4.9830016E-2],"categories":[],"categories_nodes":[],"categories_segments":[],"categories_sizes":[],"default_left":[0,0,0],"id":58,"left_children":[1,-1,-1],"loss_changes":[2.3057785E1,0E0,0E0],"parents":[2147483647,0,0],"right_children":[2,-1,-1],"split_conditions":[2.4293059E-1,-4.6824586E-2,4.9830016E-2],"split_indices":[10,0,0],"split_type":[0,0,0],"sum_hessian":[2.27091E1,1.1768078E1,1.0941024E1],"tree_param":{"num_deleted":"0","num_feature":"11","num_nodes":"3","size_leaf_vector":"1"}},{"base_weights":[2.3249961E-2,-4.5031052E-2,9.7413725E-1,4.18143E-3,5.1767208E-2],"categories":[],"categories_nodes":[],"categories_segments":[],"categories_sizes":[],"default_left":[0,0,0,0,0],"id":59,"left_children":[1,-1,3,-1,-1],"loss_changes":[2.2280298E1,0E0,4.791832E-2,0E0,0E0],"parents":[2147483647,0,0,2,2],"right_children":[2,-1,4,-1,-1],"split_conditions":[5E-2,-4.5031052E-2,3.139843E-1,4.18143E-3,5.1767208E-2],"split_indices":[10,0,6,0,0],"split_type":[0,0,0,0,0],"sum_hessian":[2.332132E1,1.1588807E1,1.1732513E1,1.4320941E0,1.0300419E1],"tree_param":{"num_deleted":"0","num_feature":"11","num_nodes":"5","size_leaf_vector":"1"}},{"base_weights":[6.527104E-2,-4.476281E-2,9.7711927E-1,1.1311922E-3,5.1804703E-2],"categories":[],"categories_nodes":[],"categories_segments":[],"categories_sizes":[],"default_left":[0,0,0,0,0],"id":60,"left_children":[1,-1,3,-1,-1],"loss_changes":[2.245807E1,0E0,1.9941044E-1,0E0,0E0],"parents":[2147483647,0,0,2,2],"right_children":[2,-1,4,-1,-1],"split_conditions":[5E-2,-4.476281E-2,3.139843E-1,1.1311922E-3,5.1804703E-2],"split_indices":[10,0,6,0,0],"split_type":[0,0,0,0,0],"sum_hessian":[2.3595814E1,1.1233E1,1.2362814E1,1.2932717E0,1.1069542E1],"tree_param":{"num_deleted":"0","num_feature":"11","num_nodes":"5","size_leaf_vector":"1"}},{"base_weights":[3.3692583E-2,-4.4518817E-2,9.535629E-1,2.4515972E-3,5.101503E-2],"categories":[],"categories_nodes":[],"categories_segments":[],"categories_sizes":[],"default_left":[0,0,0,0,0],"id":61,"left_children":[1,-1,3,-1,-1],"loss_changes":[2.0473045E1,0E0,1.5810871E-1,0E0,0E0],"parents":[2147483647,0,0,2,2],"right_children":[2,-1,4,-1,-1],"split_conditions":[5E-2,-4.4518817E-2,1.679E3,2.4515972E-3,5.101503E-2],"split_indices":[10,0,7,0,0],"split_type":[0,0,0,0,0],"sum_hessian":[2.2049269E1,1.0744368E1,1.1304901E1,1.4107659E0,9.8941345E0],"tree_param":{"num_deleted":"0","num_feature":"11","num_nodes":"5","size_leaf_vector":"1"}},{"base_weights":[1.17704526E-1,-4.40893E-2,5.1286638E-2],"categories":[],"categories_nodes":[],"categories_segments":[],"categories_sizes":[],"default_left":[0,0,0],"id":62,"left_children":[1,-1,-1],"loss_changes":[2.1655441E1,0E0,0E0],"parents":[2147483647,0,0],"right_children":[2,-1,-1],"split_conditions":[5E-2,-4.40893E-2,5.1286638E-2],"split_indices":[10,0,0],"split_type":[0,0,0],"sum_hessian":[2.1785122E1,1.0121918E1,1.1663203E1],"tree_param":{"num_deleted":"0","num_feature":"11","num_nodes":"3","size_leaf_vector":"1"}},{"base_weights":[3.2174855E-2,2.929902E-2,-8.910276E-2,2.9245105E-1,-4.4774532E-1,2.0466914E-2,-0E0,1.0099104E-4,-3.4054503E-2],"categories":[],"categories_nodes":[],"categories_segments":[],"categories_sizes":[],"default_left":[0,0,0,0,0,0,0,0,0],"id":63,"left_children":[1,-1,3,5,7,-1,-1,-1,-1],"loss_changes":[1.6550566E0,0E0,2.4897685E0,3.7502337E-1,1.3551197E0,0E0,0E0,0E0,0E0],"parents":[2147483647,0,0,2,2,3,3,4,4],"right_children":[2,-1,4,6,8,-1,-1,-1,-1],"split_conditions":[9.7E1,2.929902E-2,3.01E2,3.872E1,7.744E0,2.0466914E-2,-0E0,1.0099104E-4,-3.4054503E-2],"split_indices":[8,0,0,2,2,0,0,0,0],"split_type":[0,0,0,0,0,0,0,0,0],"sum_hessian":[1.9165579E1,3.495351E0,1.5670227E1,7.0065217E0,8.663706E0,5.3249936E0,1.6815277E0,2.566139E0,6.0975666E0],"tree_param":{"num_deleted":"0","num_feature":"11","num_nodes":"9","size_leaf_vector":"1"}},{"base_weights":[1.374023E-2,2.8063685E-2,-1.7241675E-1,2.6415607E-1,-5.41969E-1,2.1264888E-2,-0E0,-3.3729948E-2,6.0827984E-4],"categories":[],"categories_nodes":[],"categories_segments":[],"categories_sizes":[],"default_left":[0,0,0,0,0,0,0,0,0],"id":64,"left_children":[1,-1,3,5,7,-1,-1,-1,-1],"loss_changes":[2.353553E0,0E0,2.7316895E0,3.6991712E-1,1.0134261E0,0E0,0E0,0E0,0E0],"parents":[2147483647,0,0,2,2,3,3,4,4],"right_children":[2,-1,4,6,8,-1,-1,-1,-1],"split_conditions":[6.7E1,2.8063685E-2,5.12E2,9.9E1,1.246E3,2.1264888E-2,-0E0,-3.3729948E-2,6.0827984E-4],"split_indices":[0,0,5,8,5,0,0,0,0],"split_type":[0,0,0,0,0,0,0,0,0],"sum_hessian":[1.9233578E1,5.050288E0,1.41832905E1,6.012545E0,8.170746E0,3.750388E0,2.2621572E0,7.145431E0,1.0253145E0],"tree_param":{"num_deleted":"0","num_feature":"11","num_nodes":"9","size_leaf_vector":"1"}},{"base_weights":[-0E0,3.5018873E-1,-2.3682745E-1,-7.7119446E-3,2.55261E-2,-4.5238188E-1,3.6175373E-1,-0E0,-2.7558306E-2,-0E0,2.5604565E-2],"categories":[],"categories_nodes":[],"categories_segments":[],"categories_sizes":[],"default_left":[0,0,0,0,0,0,0,0,0,0,0],"id":65,"left_children":[1,3,5,-1,-1,7,9,-1,-1,-1,-1],"loss_changes":[1.7132137E0,9.2507553E-1,1.8193891E0,0E0,0E0,6.8524647E-1,1.5851304E-1,0E0,0E0,0E0,0E0],"parents":[2147483647,0,0,1,1,2,2,5,5,6,6],"right_children":[2,4,6,-1,-1,8,10,-1,-1,-1,-1],"split_conditions":[1.72E3,3.139843E-1,1.26E3,-7.7119446E-3,2.55261E-2,6E0,2.0425787E1,-0E0,-2.7558306E-2,-0E0,2.5604565E-2],"split_indices":[7,6,5,0,0,4,2,0,0,0,0],"split_type":[0,0,0,0,0,0,0,0,0,0,0],"sum_hessian":[1.8743187E1,7.261872E0,1.1481314E1,1.0085039E0,6.253368E0,9.235191E0,2.246123E0,1.0843776E0,8.150813E0,1.0217294E0,1.2243937E0],"tree_param":{"num_deleted":"0","num_feature":"11","num_nodes":"11","size_leaf_vector":"1"}},{"base_weights":[8.746516E-2,-4.3529842E-2,4.971826E-2],"categories":[],"categories_nodes":[],"categories_segments":[],"categories_sizes":[],"default_left":[0,0,0],"id":66,"left_children":[1,-1,-1],"loss_changes":[1.8840868E1,0E0,0E0],"parents":[2147483647,0,0],"right_children":[2,-1,-1],"split_conditions":[5E-2,-4.3529842E-2,4.971826E-2],"split_indices":[10,0,0],"split_type":[0,0,0],"sum_hessian":[1.9616854E1,9.290714E0,1.0326139E1],"tree_param":{"num_deleted":"0","num_feature":"11","num_nodes":"3","size_leaf_vector":"1"}},{"base_weights":[1.32620735E-2,4.4092932E-1,-1.4745535E-1,-0E0,2.7178759E-2,-3.909649E-1,2.2580637E-2,5.5091646E-3,-3.429128E-2],"categories":[],"categories_nodes":[],"categories_segments":[],"categories_sizes":[],"default_left":[0,0,0,0,0,0,0,0,0],"id":67,"left_children":[1,3,5,-1,-1,7,-1,-1,-1],"loss_changes":[1.5694399E0,3.309493E-1,2.226031E0,0E0,0E0,2.0281577E0,0E0,0E0,0E0],"parents":[2147483647,0,0,1,1,2,2,5,5],"right_children":[2,4,6,-1,-1,8,-1,-1,-1],"split_conditions":[2.469E1,1.698E3,1.08E2,-0E0,2.7178759E-2,7.744E0,2.2580637E-2,5.5091646E-3,-3.429128E-2],"split_indices":[1,7,9,0,0,2,0,0,0],"split_type":[0,0,0,0,0,0,0,0,0],"sum_hessian":[1.8752872E1,5.4958973E0,1.3256976E1,1.1016046E0,4.3942924E0,1.0266038E1,2.9909372E0,3.4066563E0,6.859382E0],"tree_param":{"num_deleted":"0","num_feature":"11","num_nodes":"9","size_leaf_vector":"1"}},{"base_weights":[6.764678E-2,3.808943E-1,-1.367723E-1,-0E0,4.8926142E-1,2.1785058E-1,-3.215132E-1,2.8741999E-2,-0E0,-0E0,1.7634166E-2,2.6251532E-3,-2.6452973E-2],"categories":[],"categories_nodes":[],"categories_segments":[],"categories_sizes":[],"default_left":[0,0,0,0,0,0,0,0,0,0,0,0,0],"id":68,"left_children":[1,3,5,-1,7,9,11,-1,-1,-1,-1,-1,-1],"loss_changes":[1.4166723E0,5.5061245E-1,8.7603676E-1,0E0,6.364465E-2,1.5331419E-1,9.568939E-1,0E0,0E0,0E0,0E0,0E0,0E0],"parents":[2147483647,0,0,1,1,2,2,4,4,5,5,6,6],"right_children":[2,4,6,-1,8,10,12,-1,-1,-1,-1,-1,-1],"split_conditions":[1.726E3,3.139843E-1,7.713E1,-0E0,1.713E3,1.077E3,7.267743E0,2.8741999E-2,-0E0,-0E0,1.7634166E-2,2.6251532E-3,-2.6452973E-2],"split_indices":[7,6,1,0,7,5,2,0,0,0,0,0,0],"split_type":[0,0,0,0,0,0,0,0,0,0,0,0,0],"sum_hessian":[1.840407E1,7.892469E0,1.05116005E1,1.2027664E0,6.6897025E0,2.6119902E0,7.8996096E0,4.763149E0,1.9265541E0,1.0012748E0,1.6107155E0,2.2260337E0,5.673576E0],"tree_param":{"num_deleted":"0","num_feature":"11","num_nodes":"13","size_leaf_vector":"1"}},{"base_weights":[-0E0,-4.2977586E-2,8.5760486E-1,-0E0,4.6679407E-2],"categories":[],"categories_nodes":[],"categories_segments":[],"categories_sizes":[],"default_left":[0,0,0,0,0],"id":69,"left_children":[1,-1,3,-1,-1],"loss_changes":[1.4055375E1,0E0,3.531394E-1,0E0,0E0],"parents":[2147483647,0,0,2,2],"right_children":[2,-1,4,-1,-1],"split_conditions":[5E-2,-4.2977586E-2,3.3043256E-1,-0E0,4.6679407E-2],"split_indices":[10,0,6,0,0],"split_type":[0,0,0,0,0],"sum_hessian":[1.70666E1,8.618146E0,8.448454E0,1.0702342E0,7.37822E0],"tree_param":{"num_deleted":"0","num_feature":"11","num_nodes":"5","size_leaf_vector":"1"}},{"base_weights":[2.3595031E-2,-4.2607605E-2,8.8990474E-1,1.4969016E-3,4.8449762E-2],"categories":[],"categories_nodes":[],"categories_segments":[],"categories_sizes":[],"default_left":[0,0,0,0,0],"id":70,"left_children":[1,-1,3,-1,-1],"loss_changes":[1.4586998E1,0E0,1.4669895E-1,0E0,0E0],"parents":[2147483647,0,0,2,2],"right_children":[2,-1,4,-1,-1],"split_conditions":[5E-2,-4.2607605E-2,1.679E3,1.4969016E-3,4.8449762E-2],"split_indices":[10,0,7,0,0],"split_type":[0,0,0,0,0],"sum_hessian":[1.720267E1,8.275847E0,8.926823E0,1.4003994E0,7.526423E0],"tree_param":{"num_deleted":"0","num_feature":"11","num_nodes":"5","size_leaf_vector":"1"}},{"base_weights":[7.1153357E-3,-4.2378534E-2,8.6174655E-1,-0E0,4.57477E-2],"categories":[],"categories_nodes":[],"categories_segments":[],"categories_sizes":[],"default_left":[0,0,0,0,0],"id":71,"left_children":[1,-1,3,-1,-1],"loss_changes":[1.3561634E1,0E0,5.4183483E-2,0E0,0E0],"parents":[2147483647,0,0,2,2],"right_children":[2,-1,4,-1,-1],"split_conditions":[5E-2,-4.2378534E-2,2.5398457E-1,-0E0,4.57477E-2],"split_indices":[10,0,10,0,0],"split_type":[0,0,0,0,0],"sum_hessian":[1.6556723E1,7.9897118E0,8.56701E0,1.0156252E0,7.551385E0],"tree_param":{"num_deleted":"0","num_feature":"11","num_nodes":"5","size_leaf_vector":"1"}},{"base_weights":[3.969661E-2,4.1401288E-1,-8.4294096E-2,-0E0,2.8656503E-2,-3.30793E-1,2.1801008E-2,6.4282816E-5,-2.8152147E-2],"categories":[],"categories_nodes":[],"categories_segments":[],"categories_sizes":[],"default_left":[0,0,0,0,0,0,0,0,0],"id":72,"left_children":[1,3,5,-1,-1,7,-1,-1,-1],"loss_changes":[9.885916E-1,4.7642624E-1,1.7069819E0,0E0,0E0,1.0348628E0,0E0,0E0,0E0],"parents":[2147483647,0,0,1,1,2,2,5,5],"right_children":[2,4,6,-1,-1,8,-1,-1,-1],"split_conditions":[7.8E1,3.2567614E-1,1.08E2,-0E0,2.8656503E-2,5.12E2,2.1801008E-2,6.4282816E-5,-2.8152147E-2],"split_indices":[0,6,9,0,0,5,0,0,0],"split_type":[0,0,0,0,0,0,0,0,0],"sum_hessian":[1.5996421E1,4.401675E0,1.1594746E1,1.1325641E0,3.269111E0,8.766715E0,2.82803E0,3.1312134E0,5.635502E0],"tree_param":{"num_deleted":"0","num_feature":"11","num_nodes":"9","size_leaf_vector":"1"}},{"base_weights":[3.2185126E-2,-4.1812483E-2,8.665726E-1,3.4864593E-4,4.6876796E-2],"categories":[],"categories_nodes":[],"categories_segments":[],"categories_sizes":[],"default_left":[0,0,0,0,0],"id":73,"left_children":[1,-1,3,-1,-1],"loss_changes":[1.28066845E1,0E0,8.714485E-2,0E0,0E0],"parents":[2147483647,0,0,2,2],"right_children":[2,-1,4,-1,-1],"split_conditions":[5E-2,-4.1812483E-2,3.139843E-1,3.4864593E-4,4.6876796E-2],"split_indices":[10,0,6,0,0],"split_type":[0,0,0,0,0],"sum_hessian":[1.5652867E1,7.3752236E0,8.277644E0,1.2523006E0,7.025343E0],"tree_param":{"num_deleted":"0","num_feature":"11","num_nodes":"5","size_leaf_vector":"1"}},{"base_weights":[9.3485616E-2,2.7659232E-2,-5.9752297E-2,-2.701655E-1,2.0094149E-2,9.732551E-3,-3.0724097E-2],"categories":[],"categories_nodes":[],"categories_segments":[],"categories_sizes":[],"default_left":[0,0,0,0,0,0,0],"id":74,"left_children":[1,-1,3,5,-1,-1,-1],"loss_changes":[1.4440564E0,0E0,1.2552087E0,1.9165893E0,0E0,0E0,0E0],"parents":[2147483647,0,0,2,2,3,3],"right_children":[2,-1,4,6,-1,-1,-1],"split_conditions":[7.8E1,2.7659232E-2,1.08E2,7.267743E0,2.0094149E-2,9.732551E-3,-3.0724097E-2],"split_indices":[0,0,9,2,0,0,0],"split_type":[0,0,0,0,0,0,0],"sum_hessian":[1.5527985E1,4.0453253E0,1.1482659E1,8.916426E0,2.5662339E0,3.3612986E0,5.555127E0],"tree_param":{"num_deleted":"0","num_feature":"11","num_nodes":"7","size_leaf_vector":"1"}},{"base_weights":[3.9690755E-2,-7.5969326E-1,4.5251846E-2,-4.3846276E-2,-0E0],"categories":[],"categories_nodes":[],"categories_segments":[],"categories_sizes":[],"default_left":[0,0,0,0,0],"id":75,"left_children":[1,3,-1,-1,-1],"loss_changes":[1.1995254E1,8.928838E-1,0E0,0E0,0E0],"parents":[2147483647,0,0,1,1],"right_children":[2,4,-1,-1,-1],"split_conditions":[2.4293059E-1,1.159E3,4.5251846E-2,-4.3846276E-2,-0E0],"split_indices":[10,5,0,0,0],"split_type":[0,0,0,0,0],"sum_hessian":[1.5241605E1,7.68588E0,7.5557246E0,6.67986E0,1.0060204E0],"tree_param":{"num_deleted":"0","num_feature":"11","num_nodes":"5","size_leaf_vector":"1"}},{"base_weights":[1.02921195E-1,-4.1072745E-2,4.7419015E-2],"categories":[],"categories_nodes":[],"categories_segments":[],"categories_sizes":[],"default_left":[0,0,0],"id":76,"left_children":[1,-1,-1],"loss_changes":[1.3160732E1,0E0,0E0],"parents":[2147483647,0,0],"right_children":[2,-1,-1],"split_conditions":[5E-2,-4.1072745E-2,4.7419015E-2],"split_indices":[10,0,0],"split_type":[0,0,0],"sum_hessian":[1.4761828E1,6.78285E0,7.9789786E0],"tree_param":{"num_deleted":"0","num_feature":"11","num_nodes":"3","size_leaf_vector":"1"}},{"base_weights":[1.0604778E-1,2.4222484E-2,-9.640376E-3,-2.316976E-1,2.0641582E-2,1.0455589E-2,-2.9694343E-2],"categories":[],"categories_nodes":[],"categories_segments":[],"categories_sizes":[],"default_left":[0,0,0,0,0,0,0],"id":77,"left_children":[1,-1,3,5,-1,-1,-1],"loss_changes":[8.9596856E-1,0E0,1.0753183E0,1.7365646E0,0E0,0E0,0E0],"parents":[2147483647,0,0,2,2,3,3],"right_children":[2,-1,4,6,-1,-1,-1],"split_conditions":[7.8E1,2.4222484E-2,1.08E2,7.744E0,2.0641582E-2,1.0455589E-2,-2.9694343E-2],"split_indices":[0,0,9,2,0,0,0],"split_type":[0,0,0,0,0,0,0],"sum_hessian":[1.393705E1,3.5288913E0,1.0408158E1,7.8940253E0,2.5141335E0,3.128534E0,4.765491E0],"tree_param":{"num_deleted":"0","num_feature":"11","num_nodes":"7","size_leaf_vector":"1"}},{"base_weights":[-0E0,-4.0588688E-2,4.39558E-2],"categories":[],"categories_nodes":[],"categories_segments":[],"categories_sizes":[],"default_left":[0,0,0],"id":78,"left_children":[1,-1,-1],"loss_changes":[1.0536255E1,0E0,0E0],"parents":[2147483647,0,0],"right_children":[2,-1,-1],"split_conditions":[5E-2,-4.0588688E-2,4.39558E-2],"split_indices":[10,0,0],"split_type":[0,0,0],"sum_hessian":[1.2724422E1,6.407151E0,6.3172708E0],"tree_param":{"num_deleted":"0","num_feature":"11","num_nodes":"3","size_leaf_vector":"1"}},{"base_weights":[3.3879768E-2,2.2658305E-1,-1.5793665E-1,-0E0,1.5939716E-2,8.55486E-3,-3.7062705E-1,-0E0,-3.0200949E-2],"categories":[],"categories_nodes":[],"categories_segments":[],"categories_sizes":[],"default_left":[0,0,0,0,0,0,0,0,0],"id":79,"left_children":[1,3,5,-1,-1,-1,7,-1,-1],"loss_changes":[6.065513E-1,3.233609E-1,6.22404E-1,0E0,0E0,0E0,6.425051E-1,0E0,0E0],"parents":[2147483647,0,0,1,1,2,2,6,6],"right_children":[2,4,6,-1,-1,-1,8,-1,-1],"split_conditions":[1.071E1,3.2567614E-1,9.7E1,-0E0,1.5939716E-2,8.55486E-3,7.267743E0,-0E0,-3.0200949E-2],"split_indices":[3,6,8,0,0,0,2,0,0],"split_type":[0,0,0,0,0,0,0,0,0],"sum_hessian":[1.3512696E1,7.950673E0,5.5620236E0,1.2473485E0,6.7033243E0,1.3375481E0,4.2244754E0,1.4963591E0,2.7281163E0],"tree_param":{"num_deleted":"0","num_feature":"11","num_nodes":"9","size_leaf_vector":"1"}},{"base_weights":[2.7113223E-2,-4.9718183E-2,2.0581705E-2,2.9656193E-1,-3.1754556E-1,-0E0,1.936801E-2,1.8582608E-3,-2.9583469E-2],"categories":[],"categories_nodes":[],"categories_segments":[],"categories_sizes":[],"default_left":[0,0,0,0,0,0,0,0,0],"id":80,"left_children":[1,3,-1,5,7,-1,-1,-1,-1],"loss_changes":[6.352921E-1,1.2220913E0,0E0,1.5760124E-1,1.0859691E0,0E0,0E0,0E0,0E0],"parents":[2147483647,0,0,1,1,3,3,4,4],"right_children":[2,4,-1,6,8,-1,-1,-1,-1],"split_conditions":[1.08E2,7.8E1,2.0581705E-2,1.7E3,7.744E0,-0E0,1.936801E-2,1.8582608E-3,-2.9583469E-2],"split_indices":[9,0,0,7,2,0,0,0,0],"split_type":[0,0,0,0,0,0,0,0,0],"sum_hessian":[1.3685858E1,1.1048609E1,2.6372492E0,3.9575891E0,7.091019E0,1.0014116E0,2.9561775E0,2.6728427E0,4.4181767E0],"tree_param":{"num_deleted":"0","num_feature":"11","num_nodes":"9","size_leaf_vector":"1"}},{"base_weights":[9.845346E-2,1.9102508E-2,-9.945914E-2,1.5221829E-2,-3.678346E-1,-0E0,-2.1907745E-2],"categories":[],"categories_nodes":[],"categories_segments":[],"categories_sizes":[],"default_left":[0,0,0,0,0,0,0],"id":81,"left_children":[1,-1,3,-1,5,-1,-1],"loss_changes":[9.510011E-1,0E0,9.949106E-1,0E0,1.1512345E-1,0E0,0E0],"parents":[2147483647,0,0,2,2,4,4],"right_children":[2,-1,4,-1,6,-1,-1],"split_conditions":[1.726E3,1.9102508E-2,7.713E1,1.5221829E-2,4.2709494E0,-0E0,-2.1907745E-2],"split_indices":[7,0,1,0,2,0,0],"split_type":[0,0,0,0,0,0,0],"sum_hessian":[1.2749217E1,5.896238E0,6.8529797E0,1.9383702E0,4.9146094E0,1.1464821E0,3.7681272E0],"tree_param":{"num_deleted":"0","num_feature":"11","num_nodes":"7","size_leaf_vector":"1"}},{"base_weights":[3.5663493E-2,-7.352325E-1,4.3980237E-2,-4.2753443E-2,-0E0],"categories":[],"categories_nodes":[],"categories_segments":[],"categories_sizes":[],"default_left":[0,0,0,0,0],"id":82,"left_children":[1,3,-1,-1,-1],"loss_changes":[9.797232E0,6.655264E-1,0E0,0E0,0E0],"parents":[2147483647,0,0,1,1],"right_children":[2,4,-1,-1,-1],"split_conditions":[2.4293059E-1,1.03E2,4.3980237E-2,-4.2753443E-2,-0E0],"split_indices":[10,8,0,0,0],"split_type":[0,0,0,0,0],"sum_hessian":[1.2953979E1,6.5276585E0,6.42632E0,5.4757915E0,1.0518668E0],"tree_param":{"num_deleted":"0","num_feature":"11","num_nodes":"5","size_leaf_vector":"1"}},{"base_weights":[-0E0,2.5129905E-1,-1.6128811E-1,-0E0,1.9585824E-2,1.3808915E-2,-4.2339844E-1,-3.1259406E-2,-0E0],"categories":[],"categories_nodes":[],"categories_segments":[],"categories_sizes":[],"default_left":[0,0,0,0,0,0,0,0,0],"id":83,"left_children":[1,3,5,-1,-1,-1,7,-1,-1],"loss_changes":[6.0848534E-1,4.0894222E-1,1.0967028E0,0E0,0E0,0E0,6.019472E-1,0E0,0E0],"parents":[2147483647,0,0,1,1,2,2,6,6],"right_children":[2,4,6,-1,-1,-1,8,-1,-1],"split_conditions":[5.12E2,3.5141024E-1,1.646E1,-0E0,1.9585824E-2,1.3808915E-2,9.46E2,-3.1259406E-2,-0E0],"split_indices":[5,6,1,0,0,0,5,0,0],"split_type":[0,0,0,0,0,0,0,0,0],"sum_hessian":[1.2282717E1,5.3800135E0,6.9027033E0,1.0890962E0,4.2909174E0,1.8514079E0,5.0512953E0,3.3154564E0,1.735839E0],"tree_param":{"num_deleted":"0","num_feature":"11","num_nodes":"9","size_leaf_vector":"1"}},{"base_weights":[2.8574143E-2,-4.3826167E-2,2.0475227E-2,1.8215558E-2,-2.2208408E-1,-1.6087422E-2,-0E0],"categories":[],"categories_nodes":[],"categories_segments":[],"categories_sizes":[],"default_left":[0,0,0,0,0,0,0],"id":84,"left_children":[1,3,-1,-1,5,-1,-1],"loss_changes":[5.642046E-1,8.008468E-1,0E0,0E0,2.5264856E-1,0E0,0E0],"parents":[2147483647,0,0,1,1,4,4],"right_children":[2,4,-1,-1,6,-1,-1],"split_conditions":[1.08E2,1.021E1,2.0475227E-2,1.8215558E-2,4.2E1,-1.6087422E-2,-0E0],"split_indices":[9,1,0,0,4,0,0],"split_type":[0,0,0,0,0,0,0],"sum_hessian":[1.2177131E1,9.873021E0,2.30411E0,1.8313429E0,8.041677E0,5.7482834E0,2.2933943E0],"tree_param":{"num_deleted":"0","num_feature":"11","num_nodes":"7","size_leaf_vector":"1"}},{"base_weights":[-0E0,2.0505566E-2,-8.0215335E-2,1.6788654E-2,-2.76048E-1,2.1888175E-4,-1.910266E-2],"categories":[],"categories_nodes":[],"categories_segments":[],"categories_sizes":[],"default_left":[0,0,0,0,0,0,0],"id":85,"left_children":[1,-1,3,-1,5,-1,-1],"loss_changes":[5.640188E-1,0E0,9.2130834E-1,0E0,4.4411135E-1,0E0,0E0],"parents":[2147483647,0,0,2,2,4,4],"right_children":[2,-1,4,-1,6,-1,-1],"split_conditions":[1.021E1,2.0505566E-2,2.79E2,1.6788654E-2,2.682588E-1,2.1888175E-4,-1.910266E-2],"split_indices":[1,0,5,0,2,0,0],"split_type":[0,0,0,0,0,0,0],"sum_hessian":[1.1488431E1,1.9502782E0,9.538153E0,2.0070271E0,7.5311255E0,1.0350255E0,6.4961E0],"tree_param":{"num_deleted":"0","num_feature":"11","num_nodes":"7","size_leaf_vector":"1"}},{"base_weights":[1.8433077E-2,1.6410649E-2,-1.636203E-1,2.2099987E-1,-5.216563E-1,-0E0,1.6680999E-2,-2.9318273E-2,-0E0],"categories":[],"categories_nodes":[],"categories_segments":[],"categories_sizes":[],"default_left":[0,0,0,0,0,0,0,0,0],"id":86,"left_children":[1,-1,3,5,7,-1,-1,-1,-1],"loss_changes":[8.599503E-1,0E0,1.3309168E0,1.03931636E-1,1.2335062E-2,0E0,0E0,0E0,0E0],"parents":[2147483647,0,0,2,2,3,3,4,4],"right_children":[2,-1,4,6,8,-1,-1,-1,-1],"split_conditions":[5.16E2,1.6410649E-2,9E0,8.7E2,1.339E3,-0E0,1.6680999E-2,-2.9318273E-2,-0E0],"split_indices":[5,0,4,5,0,0,0,0,0],"split_type":[0,0,0,0,0,0,0,0,0],"sum_hessian":[1.1836825E1,5.1008635E0,6.7359614E0,2.7586827E0,3.977279E0,1.1755444E0,1.5831382E0,2.975221E0,1.002058E0],"tree_param":{"num_deleted":"0","num_feature":"11","num_nodes":"9","size_leaf_vector":"1"}},{"base_weights":[1.0073677E-2,-3.8075276E-2,4.241806E-2],"categories":[],"categories_nodes":[],"categories_segments":[],"categories_sizes":[],"default_left":[0,0,0],"id":87,"left_children":[1,-1,-1],"loss_changes":[8.5513735E0,0E0,0E0],"parents":[2147483647,0,0],"right_children":[2,-1,-1],"split_conditions":[2.4293059E-1,-3.8075276E-2,4.241806E-2],"split_indices":[10,0,0],"split_type":[0,0,0],"sum_hessian":[1.1154996E1,5.545724E0,5.6092725E0],"tree_param":{"num_deleted":"0","num_feature":"11","num_nodes":"3","size_leaf_vector":"1"}},{"base_weights":[-0E0,-6.749061E-2,1.6087363E-2,2.3703165E-1,-2.9365543E-1,-0E0,2.1342859E-2,2.510571E-3,-2.9712781E-2],"categories":[],"categories_nodes":[],"categories_segments":[],"categories_sizes":[],"default_left":[0,0,0,0,0,0,0,0,0],"id":88,"left_children":[1,3,-1,5,7,-1,-1,-1,-1],"loss_changes":[3.795129E-1,8.093397E-1,0E0,3.2087886E-1,1.0581121E0,0E0,0E0,0E0,0E0],"parents":[2147483647,0,0,1,1,3,3,4,4],"right_children":[2,4,-1,6,8,-1,-1,-1,-1],"split_conditions":[1.08E2,6.7E1,1.6087363E-2,3.2567614E-1,7.267743E0,-0E0,2.1342859E-2,2.510571E-3,-2.9712781E-2],"split_indices":[9,0,0,6,2,0,0,0,0],"split_type":[0,0,0,0,0,0,0,0,0],"sum_hessian":[1.1541126E1,9.3295965E0,2.2115302E0,3.0133755E0,6.3162208E0,1.0147735E0,1.9986022E0,2.558775E0,3.7574458E0],"tree_param":{"num_deleted":"0","num_feature":"11","num_nodes":"9","size_leaf_vector":"1"}},{"base_weights":[4.834936E-2,-6.997134E-1,4.2558085E-2,-4.1458245E-2,-0E0],"categories":[],"categories_nodes":[],"categories_segments":[],"categories_sizes":[],"default_left":[0,0,0,0,0],"id":89,"left_children":[1,3,-1,-1,-1],"loss_changes":[8.2655325E0,6.412535E-1,0E0,0E0,0E0],"parents":[2147483647,0,0,1,1],"right_children":[2,4,-1,-1,-1],"split_conditions":[2.4293059E-1,1.093E3,4.2558085E-2,-4.1458245E-2,-0E0],"split_indices":[10,5,0,0,0],"split_type":[0,0,0,0,0],"sum_hessian":[1.1645389E1,5.772329E0,5.8730597E0,4.7554827E0,1.0168463E0],"tree_param":{"num_deleted":"0","num_feature":"11","num_nodes":"5","size_leaf_vector":"1"}},{"base_weights":[-0E0,-3.9067645E-2,4.2531125E-2],"categories":[],"categories_nodes":[],"categories_segments":[],"categories_sizes":[],"default_left":[0,0,0],"id":90,"left_children":[1,-1,-1],"loss_changes":[8.767542E0,0E0,0E0],"parents":[2147483647,0,0],"right_children":[2,-1,-1],"split_conditions":[2.4293059E-1,-3.9067645E-2,4.2531125E-2],"split_indices":[10,0,0],"split_type":[0,0,0],"sum_hessian":[1.1140132E1,5.5469875E0,5.5931444E0],"tree_param":{"num_deleted":"0","num_feature":"11","num_nodes":"3","size_leaf_vector":"1"}},{"base_weights":[5.696391E-2,-3.715409E-2,4.301139E-2],"categories":[],"categories_nodes":[],"categories_segments":[],"categories_sizes":[],"default_left":[0,0,0],"id":91,"left_children":[1,-1,-1],"loss_changes":[8.399583E0,0E0,0E0],"parents":[2147483647,0,0],"right_children":[2,-1,-1],"split_conditions":[2.4293059E-1,-3.715409E-2,4.301139E-2],"split_indices":[10,0,0],"split_type":[0,0,0],"sum_hessian":[1.0984466E1,5.228938E0,5.7555275E0],"tree_param":{"num_deleted":"0","num_feature":"11","num_nodes":"3","size_leaf_vector":"1"}},{"base_weights":[9.222129E-2,-3.7310183E-2,4.3581348E-2],"categories":[],"categories_nodes":[],"categories_segments":[],"categories_sizes":[],"default_left":[0,0,0],"id":92,"left_children":[1,-1,-1],"loss_changes":[8.097426E0,0E0,0E0],"parents":[2147483647,0,0],"right_children":[2,-1,-1],"split_conditions":[5E-2,-3.7310183E-2,4.3581348E-2],"split_indices":[10,0,0],"split_type":[0,0,0],"sum_hessian":[1.0300087E1,4.6736336E0,5.626453E0],"tree_param":{"num_deleted":"0","num_feature":"11","num_nodes":"3","size_leaf_vector":"1"}},{"base_weights":[5.8049254E-2,1.3373542E-2,-4.2213675E-2,8.535903E-3,-2.6138481E-1,-0E0,-1.6343422E-2],"categories":[],"categories_nodes":[],"categories_segments":[],"categories_sizes":[],"default_left":[0,0,0,0,0,0,0],"id":93,"left_children":[1,-1,3,-1,5,-1,-1],"loss_changes":[3.446428E-1,0E0,3.866659E-1,0E0,7.312307E-2,0E0,0E0],"parents":[2147483647,0,0,2,2,4,4],"right_children":[2,-1,4,-1,6,-1,-1],"split_conditions":[1.726E3,1.3373542E-2,5.1E0,8.535903E-3,4.0552104E-1,-0E0,-1.6343422E-2],"split_indices":[7,0,3,0,6,0,0],"split_type":[0,0,0,0,0,0,0],"sum_hessian":[9.512023E0,4.154213E0,5.3578105E0,1.672589E0,3.6852214E0,1.0048028E0,2.6804185E0],"tree_param":{"num_deleted":"0","num_feature":"11","num_nodes":"7","size_leaf_vector":"1"}},{"base_weights":[-0E0,-6.5742546E-1,3.9807934E-2,-3.949732E-2,-0E0],"categories":[],"categories_nodes":[],"categories_segments":[],"categories_sizes":[],"default_left":[0,0,0,0,0],"id":94,"left_children":[1,3,-1,-1,-1],"loss_changes":[6.146185E0,3.6713862E-1,0E0,0E0,0E0],"parents":[2147483647,0,0,1,1],"right_children":[2,4,-1,-1,-1],"split_conditions":[2.4293059E-1,1.04E2,3.9807934E-2,-3.949732E-2,-0E0],"split_indices":[10,9,0,0,0],"split_type":[0,0,0,0,0],"sum_hessian":[9.621148E0,5.050256E0,4.5708923E0,3.778904E0,1.2713517E0],"tree_param":{"num_deleted":"0","num_feature":"11","num_nodes":"5","size_leaf_vector":"1"}},{"base_weights":[7.7921994E-2,1.6689783E-2,-4.1571237E-2,1.6849941E-1,-3.5192403E-1,1.08638955E-2,-0E0,-2.1045117E-2,-0E0],"categories":[],"categories_nodes":[],"categories_segments":[],"categories_sizes":[],"default_left":[0,0,0,0,0,0,0,0,0],"id":95,"left_children":[1,-1,3,5,7,-1,-1,-1,-1],"loss_changes":[4.7545135E-1,0E0,5.8067626E-1,1.7267384E-2,3.2292485E-2,0E0,0E0,0E0,0E0],"parents":[2147483647,0,0,2,2,3,3,4,4],"right_children":[2,-1,4,6,8,-1,-1,-1,-1],"split_conditions":[3.01E2,1.6689783E-2,5.12E2,2.79E2,1.278E3,1.08638955E-2,-0E0,-2.1045117E-2,-0E0],"split_indices":[0,0,5,5,0,0,0,0,0],"split_type":[0,0,0,0,0,0,0,0,0],"sum_hessian":[9.317616E0,3.7272592E0,5.590357E0,2.6456077E0,2.944749E0,1.5582387E0,1.087369E0,1.9400278E0,1.0047213E0],"tree_param":{"num_deleted":"0","num_feature":"11","num_nodes":"9","size_leaf_vector":"1"}},{"base_weights":[-0E0,-6.5480953E-1,3.7435632E-2,-3.981776E-2,-0E0],"categories":[],"categories_nodes":[],"categories_segments":[],"categories_sizes":[],"default_left":[0,0,0,0,0],"id":96,"left_children":[1,3,-1,-1,-1],"loss_changes":[5.428278E0,5.939667E-1,0E0,0E0,0E0],"parents":[2147483647,0,0,1,1],"right_children":[2,4,-1,-1,-1],"split_conditions":[2.4293059E-1,1.11E3,3.7435632E-2,-3.981776E-2,-0E0],"split_indices":[10,5,0,0,0],"split_type":[0,0,0,0,0],"sum_hessian":[9.098763E0,5.0196652E0,4.079098E0,4.006534E0,1.013131E0],"tree_param":{"num_deleted":"0","num_feature":"11","num_nodes":"5","size_leaf_vector":"1"}},{"base_weights":[9.474777E-3,1.2108176E-2,-7.774257E-3,1.0161093E-2,-1.3492855E-1,-1.824901E-2,1.2260675E-3],"categories":[],"categories_nodes":[],"categories_segments":[],"categories_sizes":[],"default_left":[0,0,0,0,0,0,0],"id":97,"left_children":[1,-1,3,-1,5,-1,-1],"loss_changes":[1.6268292E-1,0E0,2.3696056E-1,0E0,4.6335638E-1,0E0,0E0],"parents":[2147483647,0,0,2,2,4,4],"right_children":[2,-1,4,-1,6,-1,-1],"split_conditions":[4.4E1,1.2108176E-2,1.5927624E0,1.0161093E-2,5.0670826E-1,-1.824901E-2,1.2260675E-3],"split_indices":[0,0,2,0,6,0,0],"split_type":[0,0,0,0,0,0,0],"sum_hessian":[9.864326E0,1.7813859E0,8.08294E0,1.3358343E0,6.7471056E0,3.518073E0,3.2290325E0],"tree_param":{"num_deleted":"0","num_feature":"11","num_nodes":"7","size_leaf_vector":"1"}},{"base_weights":[9.663099E-3,-6.272273E-1,3.9010674E-2,-3.887671E-2,-0E0],"categories":[],"categories_nodes":[],"categories_segments":[],"categories_sizes":[],"default_left":[0,0,0,0,0],"id":98,"left_children":[1,3,-1,-1,-1],"loss_changes":[5.438691E0,5.8202887E-1,0E0,0E0,0E0],"parents":[2147483647,0,0,1,1],"right_children":[2,4,-1,-1,-1],"split_conditions":[2.4293059E-1,1.823E3,3.9010674E-2,-3.887671E-2,-0E0],"split_indices":[10,7,0,0,0],"split_type":[0,0,0,0,0],"sum_hessian":[8.929222E0,4.635178E0,4.294044E0,3.6297977E0,1.0053804E0],"tree_param":{"num_deleted":"0","num_feature":"11","num_nodes":"5","size_leaf_vector":"1"}},{"base_weights":[-0E0,-4.0233433E-2,3.803411E-2],"categories":[],"categories_nodes":[],"categories_segments":[],"categories_sizes":[],"default_left":[0,0,0],"id":99,"left_children":[1,-1,-1],"loss_changes":[6.42977E0,0E0,0E0],"parents":[2147483647,0,0],"right_children":[2,-1,-1],"split_conditions":[2.4293059E-1,-4.0233433E-2,3.803411E-2],"split_indices":[10,0,0],"split_type":[0,0,0],"sum_hessian":[8.4869795E0,4.251832E0,4.235148E0],"tree_param":{"num_deleted":"0","num_feature":"11","num_nodes":"3","size_leaf_vector":"1"}}]},"name":"gbtree"},"learner_model_param":{"base_score":"1.6620111E-1","boost_from_average":"1","num_class":"0","num_feature":"11","num_target":"1"},"objective":{"name":"binary:logistic","reg_loss_param":{"scale_pos_weight":"1"}}},"version":[3,0,0]}