{"learner":{"attributes":{"scikit_learn":"{\"_estimator_type\": \"classifier\"}"},"feature_names":["Min_Temp","Max_Temp","Mean_Temp","Std_Temp","Median_Temp","Q1","Q3","IQR","Skewness","Kurtosis","High_Temp_Pixels"],"feature_types":["float","float","float","float","float","float","float","float","float","float","int"],"gradient_booster":{"model":{"gbtree_model_param":{"num_parallel_tree":"1","num_trees":"100"},"iteration_indptr":[0,1,2,3,4,5,6,7,8,9,10,11,12,13,14,15,16,17,18,19,20,21,22,23,24,25,26,27,28,29,30,31,32,33,34,35,36,37,38,39,40,41,42,43,44,45,46,47,48,49,50,51,52,53,54,55,56,57,58,59,60,61,62,63,64,65,66,67,68,69,70,71,72,73,74,75,76,77,78,79,80,81,82,83,84,85,86,87,88,89,90,91,92,93,94,95,96,97,98,99,100],"tree_info":[0,0,0,0,0,0,0,0,0,0,0,0,0,0,0,0,0,0,0,0,0,0,0,0,0,0,0,0,0,0,0,0,0,0,0,0,0,0,0,0,0,0,0,0,0,0,0,0,0,0,0,0,0,0,0,0,0,0,0,0,0,0,0,0,0,0,0,0,0,0,0,0,0,0,0,0,0,0,0,0,0,0,0,0,0,0,0,0,0,0,0,0,0,0,0,0,0,0,0,0],"trees":[{"base_weights":[-6.207666E-3,-1.1238981E0,5.0511894E0,-1.1577324E0,2.0101757E-1,5.947709E-2,2.601871E-1,-5.9174564E-2,-2.4800878E-2,-0E0,2.775245E-2],"categories":[],"categories_nodes":[],"categories_segments":[],"categories_sizes":[],"default_left":[0,0,0,0,0,0,0,0,0,0,0],"id":0,"left_children":[1,3,5,7,9,-1,-1,-1,-1,-1,-1],"loss_changes":[7.934778E2,5.880905E0,5.5704956E0,4.988098E-1,5.140218E-1,0E0,0E0,0E0,0E0,0E0,0E0],"parents":[2147483647,0,0,1,1,2,2,3,3,4,4],"right_children":[2,4,6,8,10,-1,-1,-1,-1,-1,-1],"split_conditions":[3.0845243E1,3.0162039E1,3.2051342E1,2.8822748E1,1.2808019E3,5.947709E-2,2.601871E-1,-5.9174564E-2,-2.4800878E-2,-0E0,2.775245E-2],"split_indices":[9,9,9,9,2,0,0,0,0,0,0],"split_type":[0,0,0,0,0,0,0,0,0,0,0],"sum_hessian":[1.3871689E2,1.143271E2,2.4389782E1,1.11971275E2,2.3558314E0,1.3857831E0,2.3004E1,1.06289566E2,5.6817107E0,1.2472048E0,1.1086265E0],"tree_param":{"num_deleted":"0","num_feature":"11","num_nodes":"11","size_leaf_vector":"1"}},{"base_weights":[-1.8804241E-2,3.3683095E0,-8.282881E-1,1.371517E0,2.1977405E-1,-1.0518664E0,3.166915E0,1.5547153E-1,-2.8050741E-2,-5.8039587E-2,2.6311378E-3,1.918115E-1,1.6243812E-2],"categories":[],"categories_nodes":[],"categories_segments":[],"categories_sizes":[],"default_left":[0,0,0,0,0,0,0,0,0,0,0,0,0],"id":1,"left_children":[1,3,5,7,-1,9,11,-1,-1,-1,-1,-1,-1],"loss_changes":[3.7838477E2,4.56279E1,1.0219131E2,3.879189E1,0E0,1.3464043E1,8.198551E0,0E0,0E0,0E0,0E0,0E0,0E0],"parents":[2147483647,0,0,1,1,2,2,3,3,5,5,6,6],"right_children":[2,4,6,8,-1,10,12,-1,-1,-1,-1,-1,-1],"split_conditions":[1.5650069E2,1.219E3,1.2692106E3,1.5072885E2,2.1977405E-1,1.237E3,1.381E3,1.5547153E-1,-2.8050741E-2,-5.8039587E-2,2.6311378E-3,1.918115E-1,1.6243812E-2],"split_indices":[3,5,5,3,0,5,6,0,0,0,0,0,0],"split_type":[0,0,0,0,0,0,0,0,0,0,0,0,0],"sum_hessian":[1.3645093E2,2.5591206E1,1.1085972E2,9.651321E0,1.5939884E1,1.058008E2,5.0589247E0,4.897113E0,4.754208E0,9.666897E1,9.131823E0,3.6690884E0,1.389836E0],"tree_param":{"num_deleted":"0","num_feature":"11","num_nodes":"13","size_leaf_vector":"1"}},{"base_weights":[-5.4282833E-2,3.55467E0,-5.8179554E-2,-2.0012474E-2,3.7328384E0,-2.1987444E-2,1.9583558E-1],"categories":[],"categories_nodes":[],"categories_segments":[],"categories_sizes":[],"default_left":[0,0,0,0,0,0,0],"id":2,"left_children":[1,3,-1,-1,5,-1,-1],"loss_changes":[5.4348004E2,2.5627747E1,0E0,0E0,2.7036316E1,0E0,0E0],"parents":[2147483647,0,0,1,1,4,4],"right_children":[2,4,-1,-1,6,-1,-1],"split_conditions":[8E1,2.5358574E1,-5.8179554E-2,-2.0012474E-2,1.647E3,-2.1987444E-2,1.9583558E-1],"split_indices":[7,9,0,0,1,0,0],"split_type":[0,0,0,0,0,0,0],"sum_hessian":[1.340187E2,3.0884827E1,1.0313387E2,1.1566687E0,2.9728157E1,1.0812302E0,2.8646927E1],"tree_param":{"num_deleted":"0","num_feature":"11","num_nodes":"7","size_leaf_vector":"1"}},{"base_weights":[4.3283105E-2,3.2218585E0,-1.144401E0,3.3399625E0,-1.7180134E-2,-0E0,-5.766925E-2,4.2523306E-2,1.7246604E-1],"categories":[],"categories_nodes":[],"categories_segments":[],"categories_sizes":[],"default_left":[0,0,0,0,0,0,0,0,0],"id":3,"left_children":[1,3,5,7,-1,-1,-1,-1,-1],"loss_changes":[5.3774884E2,1.8977142E1,7.922058E-1,5.198944E0,0E0,0E0,0E0,0E0,0E0],"parents":[2147483647,0,0,1,1,2,2,3,3],"right_children":[2,4,6,8,-1,-1,-1,-1,-1],"split_conditions":[8E1,1.6990652E2,1.694E3,1.675E3,-1.7180134E-2,-0E0,-5.766925E-2,4.2523306E-2,1.7246604E-1],"split_indices":[7,3,1,1,0,0,0,0,0],"split_type":[0,0,0,0,0,0,0,0,0],"sum_hessian":[1.401928E2,3.7783047E1,1.0240975E2,3.6768585E1,1.0144607E0,1.0091724E0,1.0140057E2,2.1089187E0,3.4659668E1],"tree_param":{"num_deleted":"0","num_feature":"11","num_nodes":"9","size_leaf_vector":"1"}},{"base_weights":[-2.6585704E-2,2.8316557E0,-1.1239362E0,1.4713977E-1,-1.7333457E-2,-0E0,-5.664122E-2],"categories":[],"categories_nodes":[],"categories_segments":[],"categories_sizes":[],"default_left":[0,0,0,0,0,0,0],"id":4,"left_children":[1,3,5,-1,-1,-1,-1],"loss_changes":[4.2783493E2,1.5668213E1,4.3013E-1,0E0,0E0,0E0,0E0],"parents":[2147483647,0,0,1,1,2,2],"right_children":[2,4,6,-1,-1,-1,-1],"split_conditions":[8E1,-3.4022703E0,-3.9443686E0,1.4713977E-1,-1.7333457E-2,-0E0,-5.664122E-2],"split_indices":[7,8,8,0,0,0,0],"split_type":[0,0,0,0,0,0,0],"sum_hessian":[1.3466306E2,3.6793045E1,9.787002E1,3.5773533E1,1.0195098E0,1.2102199E0,9.66598E1],"tree_param":{"num_deleted":"0","num_feature":"11","num_nodes":"7","size_leaf_vector":"1"}},{"base_weights":[1.5962185E-2,2.5774503E0,-5.61965E-2,1.3141215E-1,1.762287E-2],"categories":[],"categories_nodes":[],"categories_segments":[],"categories_sizes":[],"default_left":[0,0,0,0,0],"id":5,"left_children":[1,3,-1,-1,-1],"loss_changes":[4.0455212E2,2.4119263E0,0E0,0E0,0E0],"parents":[2147483647,0,0,1,1],"right_children":[2,4,-1,-1,-1],"split_conditions":[8.4E1,-3.4883645E0,-5.61965E-2,1.3141215E-1,1.762287E-2],"split_indices":[7,8,0,0,0],"split_type":[0,0,0,0,0],"sum_hessian":[1.3631273E2,4.1726124E1,9.45866E1,4.0397953E1,1.3281714E0],"tree_param":{"num_deleted":"0","num_feature":"11","num_nodes":"5","size_leaf_vector":"1"}},{"base_weights":[-2.4256886E-3,2.3007488E0,-5.572466E-2,-2.814135E-2,2.4109614E0,1.2517367E-1,-1.8292684E-2],"categories":[],"categories_nodes":[],"categories_segments":[],"categories_sizes":[],"default_left":[0,0,0,0,0,0,0],"id":6,"left_children":[1,3,-1,-1,5,-1,-1],"loss_changes":[3.4063687E2,1.5926056E1,0E0,0E0,1.2771439E1,0E0,0E0],"parents":[2147483647,0,0,1,1,4,4],"right_children":[2,4,-1,-1,6,-1,-1],"split_conditions":[8E1,1.647E3,-5.572466E-2,-2.814135E-2,-3.433311E0,1.2517367E-1,-1.8292684E-2],"split_indices":[7,1,0,0,8,0,0],"split_type":[0,0,0,0,0,0,0],"sum_hessian":[1.3122495E2,4.2234875E1,8.8990074E1,1.2449449E0,4.098993E1,3.9937866E1,1.052063E0],"tree_param":{"num_deleted":"0","num_feature":"11","num_nodes":"7","size_leaf_vector":"1"}},{"base_weights":[-6.8417095E-2,2.1295257E0,-1.0955136E0,2.2075055E0,-4.382825E-4,-0E0,-5.5269606E-2,1.1353047E-1,3.1299066E-2],"categories":[],"categories_nodes":[],"categories_segments":[],"categories_sizes":[],"default_left":[0,0,0,0,0,0,0,0,0],"id":7,"left_children":[1,3,5,7,-1,-1,-1,-1,-1],"loss_changes":[2.9267194E2,7.991394E0,4.7343445E-1,1.121994E0,0E0,0E0,0E0,0E0,0E0],"parents":[2147483647,0,0,1,1,2,2,3,3],"right_children":[2,4,6,8,-1,-1,-1,-1,-1],"split_conditions":[8E1,1.671895E2,8.8E1,7.2E1,-4.382825E-4,-0E0,-5.5269606E-2,1.1353047E-1,3.1299066E-2],"split_indices":[7,3,7,7,0,0,0,0,0],"split_type":[0,0,0,0,0,0,0,0,0],"sum_hessian":[1.2783992E2,4.021703E1,8.762289E1,3.8996365E1,1.2206677E0,1.1894597E0,8.643343E1,3.6777073E1,2.2192914E0],"tree_param":{"num_deleted":"0","num_feature":"11","num_nodes":"9","size_leaf_vector":"1"}},{"base_weights":[-3.719404E-2,-1.0752509E0,1.9209251E0,-5.4262012E-2,-0E0,-2.5033161E-2,1.00228466E-1],"categories":[],"categories_nodes":[],"categories_segments":[],"categories_sizes":[],"default_left":[0,0,0,0,0,0,0],"id":8,"left_children":[1,3,5,-1,-1,-1,-1],"loss_changes":[2.574749E2,3.9496613E-1,1.0626999E1,0E0,0E0,0E0,0E0],"parents":[2147483647,0,0,1,1,2,2],"right_children":[2,4,6,-1,-1,-1,-1],"split_conditions":[3.0393461E1,1.261867E3,1.647E3,-5.4262012E-2,-0E0,-2.5033161E-2,1.00228466E-1],"split_indices":[9,5,1,0,0,0,0],"split_type":[0,0,0,0,0,0,0],"sum_hessian":[1.2486213E2,8.206387E1,4.279826E1,8.08771E1,1.1867772E0,1.0629004E0,4.173536E1],"tree_param":{"num_deleted":"0","num_feature":"11","num_nodes":"7","size_leaf_vector":"1"}},{"base_weights":[7.457748E-4,1.7359189E0,-1.0315473E0,1.8235987E0,1.623737E-1,2.154782E-2,-1.0639359E0,9.2932366E-2,1.113364E-2,-1.2094305E-2,4.3448135E-2,-9.510586E-3,-5.493291E-2],"categories":[],"categories_nodes":[],"categories_segments":[],"categories_sizes":[],"default_left":[0,0,0,0,0,0,0,0,0,0,0,0,0],"id":9,"left_children":[1,3,5,7,9,-1,11,-1,-1,-1,-1,-1,-1],"loss_changes":[2.2113809E2,5.079254E0,4.4272537E0,9.763336E-1,1.6191683E0,0E0,1.4539337E0,0E0,0E0,0E0,0E0,0E0,0E0],"parents":[2147483647,0,0,1,1,2,2,3,3,4,4,6,6],"right_children":[2,4,6,8,10,-1,12,-1,-1,-1,-1,-1,-1],"split_conditions":[-3.6216917E0,-3.7189386E0,1.234E3,1.6122572E2,2.177E3,2.154782E-2,-3.4806771E0,9.2932366E-2,1.113364E-2,-1.2094305E-2,4.3448135E-2,-9.510586E-3,-5.493291E-2],"split_indices":[8,8,6,3,10,0,8,0,0,0,0,0,0],"split_type":[0,0,0,0,0,0,0,0,0,0,0,0,0],"sum_hessian":[1.21261246E2,4.51581E1,7.610315E1,4.232314E1,2.8349626E0,1.0477742E0,7.5055374E1,4.0953262E1,1.3698777E0,1.7714889E0,1.0634738E0,3.6667268E0,7.138865E1],"tree_param":{"num_deleted":"0","num_feature":"11","num_nodes":"13","size_leaf_vector":"1"}},{"base_weights":[-3.99512E-2,1.8119253E0,-1.0728081E0,9.488388E-2,-2.0658234E-2,-1.8549342E-1,-5.469776E-2,-2.7322805E-2,5.006268E-3],"categories":[],"categories_nodes":[],"categories_segments":[],"categories_sizes":[],"default_left":[0,0,0,0,0,0,0,0,0],"id":10,"left_children":[1,3,5,-1,-1,7,-1,-1,-1],"loss_changes":[2.31323E2,9.770157E0,6.192627E-1,0E0,0E0,6.457485E-1,0E0,0E0,0E0],"parents":[2147483647,0,0,1,1,2,2,5,5],"right_children":[2,4,6,-1,-1,8,-1,-1,-1],"split_conditions":[8E1,-3.433311E0,-3.7522213E0,9.488388E-2,-2.0658234E-2,1.939E3,-5.469776E-2,-2.7322805E-2,5.006268E-3],"split_indices":[7,8,8,0,0,10,0,0,0],"split_type":[0,0,0,0,0,0,0,0,0],"sum_hessian":[1.19116005E2,4.220519E1,7.691081E1,4.0997066E1,1.2081213E0,2.5681593E0,7.434266E1,1.5043383E0,1.063821E0],"tree_param":{"num_deleted":"0","num_feature":"11","num_nodes":"9","size_leaf_vector":"1"}},{"base_weights":[9.30327E-4,1.6254038E0,-1.0084764E0,8.594645E-2,6.490419E-1,2.1408617E-2,-1.0406684E0,-2.9016728E-2,6.671798E-2,2.7552128E-3,-5.3695966E-2],"categories":[],"categories_nodes":[],"categories_segments":[],"categories_sizes":[],"default_left":[0,0,0,0,0,0,0,0,0,0,0],"id":11,"left_children":[1,3,5,-1,7,-1,9,-1,-1,-1,-1],"loss_changes":[1.9979828E2,1.9751434E0,4.2132874E0,0E0,6.34655E0,0E0,3.25885E0,0E0,0E0,0E0,0E0],"parents":[2147483647,0,0,1,1,2,2,4,4,6,6],"right_children":[2,4,6,-1,8,-1,10,-1,-1,-1,-1],"split_conditions":[-3.6889634E0,1.5902638E2,1.5072885E2,8.594645E-2,1.306965E3,2.1408617E-2,-3.6115394E0,-2.9016728E-2,6.671798E-2,2.7552128E-3,-5.3695966E-2],"split_indices":[8,3,3,0,2,0,8,0,0,0,0],"split_type":[0,0,0,0,0,0,0,0,0,0,0],"sum_hessian":[1.196587E2,4.5813892E1,7.384481E1,4.064763E1,5.166265E0,1.0084324E0,7.283638E1,1.6428297E0,3.5234354E0,1.682893E0,7.115349E1],"tree_param":{"num_deleted":"0","num_feature":"11","num_nodes":"11","size_leaf_vector":"1"}},{"base_weights":[-7.404889E-3,-5.2700724E-2,1.5479465E0,7.3047465E-1,8.512622E-2,-3.3820815E-2,5.7330944E-2],"categories":[],"categories_nodes":[],"categories_segments":[],"categories_sizes":[],"default_left":[0,0,0,0,0,0,0],"id":12,"left_children":[1,-1,3,5,-1,-1,-1],"loss_changes":[1.9017088E2,0E0,3.4614487E0,6.700254E0,0E0,0E0,0E0],"parents":[2147483647,0,0,2,2,3,3],"right_children":[2,-1,4,6,-1,-1,-1],"split_conditions":[3.0162039E1,-5.2700724E-2,3.2729507E1,1.2155076E3,8.512622E-2,-3.3820815E-2,5.7330944E-2],"split_indices":[9,0,9,5,0,0,0],"split_type":[0,0,0,0,0,0,0],"sum_hessian":[1.149731E2,6.91113E1,4.58618E1,8.717945E0,3.7143856E1,1.5730088E0,7.1449366E0],"tree_param":{"num_deleted":"0","num_feature":"11","num_nodes":"7","size_leaf_vector":"1"}},{"base_weights":[-1.6148252E-2,1.5812649E0,-5.39159E-2,1.6502676E0,-1.8216876E-2,2.6632372E-2,8.4930874E-2],"categories":[],"categories_nodes":[],"categories_segments":[],"categories_sizes":[],"default_left":[0,0,0,0,0,0,0],"id":13,"left_children":[1,3,-1,5,-1,-1,-1],"loss_changes":[1.9037312E2,7.243309E0,0E0,3.3473206E-1,0E0,0E0,0E0],"parents":[2147483647,0,0,1,1,3,3],"right_children":[2,4,-1,6,-1,-1,-1],"split_conditions":[8.4E1,-3.4022703E0,-5.39159E-2,8.54E2,-1.8216876E-2,2.6632372E-2,8.4930874E-2],"split_indices":[7,8,0,10,0,0,0],"split_type":[0,0,0,0,0,0,0],"sum_hessian":[1.1034369E2,4.3685287E1,6.66584E1,4.2583794E1,1.1014917E0,2.6929686E0,3.9890827E1],"tree_param":{"num_deleted":"0","num_feature":"11","num_nodes":"7","size_leaf_vector":"1"}},{"base_weights":[-9.3167E-2,1.2681781E0,-9.895405E-1,-3.8698785E-2,1.3726634E0,3.4472555E-2,-1.0373532E0,7.6409854E-2,8.419795E-3,-5.727774E-3,-5.3304166E-2],"categories":[],"categories_nodes":[],"categories_segments":[],"categories_sizes":[],"default_left":[0,0,0,0,0,0,0,0,0,0,0],"id":14,"left_children":[1,3,5,-1,7,-1,9,-1,-1,-1,-1],"loss_changes":[1.2865182E2,1.0262009E1,6.011032E0,0E0,6.4380417E0,0E0,9.505234E-1,0E0,0E0,0E0,0E0],"parents":[2147483647,0,0,1,1,2,2,4,4,6,6],"right_children":[2,4,6,-1,8,-1,10,-1,-1,-1,-1],"split_conditions":[-3.6216917E0,1.647E3,1.2241149E3,-3.8698785E-2,1.5902638E2,3.4472555E-2,1.713E3,7.6409854E-2,8.419795E-3,-5.727774E-3,-5.3304166E-2],"split_indices":[8,1,6,0,3,0,1,0,0,0,0],"split_type":[0,0,0,0,0,0,0,0,0,0,0],"sum_hessian":[1.03514435E2,4.0711803E1,6.2802635E1,1.4368021E0,3.9275E1,1.077783E0,6.1724854E1,3.417682E1,5.0981812E0,2.5397549E0,5.9185097E1],"tree_param":{"num_deleted":"0","num_feature":"11","num_nodes":"11","size_leaf_vector":"1"}},{"base_weights":[-4.0453266E-2,1.234838E0,-9.9205214E-1,1.2761666E-1,1.3568431E0,-1.9837739E-1,-5.296708E-2,-1.3456712E-2,4.4772312E-2,7.137967E-2,6.6293217E-3,2.1392299E-2,-3.651038E-2],"categories":[],"categories_nodes":[],"categories_segments":[],"categories_sizes":[],"default_left":[0,0,0,0,0,0,0,0,0,0,0,0,0],"id":15,"left_children":[1,3,5,7,9,11,-1,-1,-1,-1,-1,-1,-1],"loss_changes":[1.2856369E2,5.17733E0,2.4148598E0,2.3780565E0,2.5052643E0,2.6526885E0,0E0,0E0,0E0,0E0,0E0,0E0,0E0],"parents":[2147483647,0,0,1,1,2,2,3,3,4,4,5,5],"right_children":[2,4,6,8,10,12,-1,-1,-1,-1,-1,-1,-1],"split_conditions":[-3.6216917E0,1.6826437E3,-3.433311E0,1.289394E3,-3.7315447E0,1.296E3,-5.296708E-2,-1.3456712E-2,4.4772312E-2,7.137967E-2,6.6293217E-3,2.1392299E-2,-3.651038E-2],"split_indices":[8,1,8,4,8,6,0,0,0,0,0,0,0],"split_type":[0,0,0,0,0,0,0,0,0,0,0,0,0],"sum_hessian":[1.0402938E2,4.410231E1,5.992707E1,4.9871416E0,3.911517E1,5.5729685E0,5.4354103E1,3.2869952E0,1.7001467E0,3.643507E1,2.6800969E0,2.2173908E0,3.3555775E0],"tree_param":{"num_deleted":"0","num_feature":"11","num_nodes":"13","size_leaf_vector":"1"}},{"base_weights":[4.8447184E-2,1.4118305E0,-5.234598E-2,1.4628085E0,-2.2524428E-3,7.6149605E-2,1.7575387E-2],"categories":[],"categories_nodes":[],"categories_segments":[],"categories_sizes":[],"default_left":[0,0,0,0,0,0,0],"id":16,"left_children":[1,3,-1,5,-1,-1,-1],"loss_changes":[1.5786226E2,4.2821655E0,0E0,1.6033478E0,0E0,0E0,0E0],"parents":[2147483647,0,0,1,1,3,3],"right_children":[2,4,-1,6,-1,-1,-1],"split_conditions":[8.4E1,2.442E3,-5.234598E-2,7.2E1,-2.2524428E-3,7.6149605E-2,1.7575387E-2],"split_indices":[7,10,0,7,0,0,0],"split_type":[0,0,0,0,0,0,0],"sum_hessian":[1.03594376E2,4.622567E1,5.7368706E1,4.499053E1,1.235142E0,4.1900963E1,3.0895667E0],"tree_param":{"num_deleted":"0","num_feature":"11","num_nodes":"7","size_leaf_vector":"1"}},{"base_weights":[-2.4631895E-2,1.3802031E0,-1.0455513E0,-0E0,1.4459838E0,-0E0,-5.2888114E-2,7.483318E-2,-0E0],"categories":[],"categories_nodes":[],"categories_segments":[],"categories_sizes":[],"default_left":[0,0,0,0,0,0,0,0,0],"id":17,"left_children":[1,3,5,-1,7,-1,-1,-1,-1],"loss_changes":[1.4249924E2,3.6930084E0,2.2202301E-1,0E0,3.4134674E0,0E0,0E0,0E0,0E0],"parents":[2147483647,0,0,1,1,2,2,4,4],"right_children":[2,4,6,-1,8,-1,-1,-1,-1],"split_conditions":[8E1,1.667E3,1.6966295E3,-0E0,-3.4883645E0,-0E0,-5.2888114E-2,7.483318E-2,-0E0],"split_indices":[7,1,1,0,8,0,0,0,0],"split_type":[0,0,0,0,0,0,0,0,0],"sum_hessian":[9.7466866E1,4.066633E1,5.6800533E1,1.9384775E0,3.872785E1,1.1283767E0,5.5672157E1,3.7606754E1,1.1210968E0],"tree_param":{"num_deleted":"0","num_feature":"11","num_nodes":"9","size_leaf_vector":"1"}},{"base_weights":[-0E0,1.3311039E0,-1.0390155E0,6.8875104E-2,-0E0,-0E0,-5.2591402E-2],"categories":[],"categories_nodes":[],"categories_segments":[],"categories_sizes":[],"default_left":[0,0,0,0,0,0,0],"id":18,"left_children":[1,3,5,-1,-1,-1,-1],"loss_changes":[1.3755777E2,3.3064651E0,3.768654E-1,0E0,0E0,0E0,0E0],"parents":[2147483647,0,0,1,1,2,2],"right_children":[2,4,6,-1,-1,-1,-1],"split_conditions":[8E1,-3.433311E0,-3.9443686E0,6.8875104E-2,-0E0,-0E0,-5.2591402E-2],"split_indices":[7,8,8,0,0,0,0],"split_type":[0,0,0,0,0,0,0],"sum_hessian":[9.754007E1,4.2477737E1,5.506233E1,4.134069E1,1.1370479E0,1.0168515E0,5.4045475E1],"tree_param":{"num_deleted":"0","num_feature":"11","num_nodes":"7","size_leaf_vector":"1"}},{"base_weights":[4.2593777E-2,-9.8983246E-1,1.1771275E0,-5.1957686E-2,-1.6482723E-1,-0E0,1.2204463E0,-3.2642346E-2,2.733605E-2,6.2959455E-2,1.7557656E-2],"categories":[],"categories_nodes":[],"categories_segments":[],"categories_sizes":[],"default_left":[0,0,0,0,0,0,0,0,0,0,0],"id":19,"left_children":[1,3,5,-1,7,-1,9,-1,-1,-1,-1],"loss_changes":[1.1619776E2,1.3299332E0,2.0131454E0,0E0,2.0337763E0,0E0,2.8447723E-1,0E0,0E0,0E0,0E0],"parents":[2147483647,0,0,1,1,2,2,4,4,6,6],"right_children":[2,4,6,-1,8,-1,10,-1,-1,-1,-1],"split_conditions":[3.0162039E1,2.8822748E1,3.0845243E1,-5.1957686E-2,2.174E3,-0E0,1.385E3,-3.2642346E-2,2.733605E-2,6.2959455E-2,1.7557656E-2],"split_indices":[9,9,9,0,10,0,6,0,0,0,0],"split_type":[0,0,0,0,0,0,0,0,0,0,0],"sum_hessian":[9.712751E1,5.0688126E1,4.6439384E1,4.7011982E1,3.676142E0,1.9563121E0,4.4483074E1,2.6463308E0,1.0298113E0,4.1605114E1,2.877959E0],"tree_param":{"num_deleted":"0","num_feature":"11","num_nodes":"11","size_leaf_vector":"1"}},{"base_weights":[-2.9016843E-2,-9.74207E-1,1.1005634E0,-5.1750302E-2,-2.6246876E-1,4.390445E-1,6.1495215E-2,-3.904931E-2,4.4593327E-2,-2.9288812E-2,5.1075082E-2],"categories":[],"categories_nodes":[],"categories_segments":[],"categories_sizes":[],"default_left":[0,0,0,0,0,0,0,0,0,0,0],"id":20,"left_children":[1,3,5,-1,7,9,-1,-1,-1,-1,-1],"loss_changes":[1.0200559E2,1.3416023E0,2.3323135E0,0E0,4.2927175E0,6.3511753E0,0E0,0E0,0E0,0E0,0E0],"parents":[2147483647,0,0,1,1,2,2,4,4,5,5],"right_children":[2,4,6,-1,8,10,-1,-1,-1,-1,-1],"split_conditions":[3.0530197E1,2.8822748E1,1.219E3,-5.1750302E-2,2.195E3,1.702E3,6.1495215E-2,-3.904931E-2,4.4593327E-2,-2.9288812E-2,5.1075082E-2],"split_indices":[9,9,5,0,10,1,0,0,0,0,0],"split_type":[0,0,0,0,0,0,0,0,0,0,0],"sum_hessian":[9.3595505E1,5.1272663E1,4.232284E1,4.6171814E1,5.100852E0,8.272592E0,3.4050247E1,4.0418634E0,1.0589885E0,2.6847324E0,5.5878587E0],"tree_param":{"num_deleted":"0","num_feature":"11","num_nodes":"11","size_leaf_vector":"1"}},{"base_weights":[-0E0,-9.8198086E-1,1.0864449E0,-5.1456846E-2,-3.3320048E-1,-3.742174E-2,1.1694065E0,-3.6592666E-2,2.3290964E-2,5.967445E-2,-0E0],"categories":[],"categories_nodes":[],"categories_segments":[],"categories_sizes":[],"default_left":[0,0,0,0,0,0,0,0,0,0,0],"id":21,"left_children":[1,3,5,-1,7,-1,9,-1,-1,-1,-1],"loss_changes":[9.795906E1,4.5817566E-1,7.6938667E0,0E0,2.2195153E0,0E0,8.878517E-1,0E0,0E0,0E0,0E0],"parents":[2147483647,0,0,1,1,2,2,4,4,6,6],"right_children":[2,4,6,-1,8,-1,10,-1,-1,-1,-1],"split_conditions":[3.0393461E1,2.8822748E1,1.647E3,-5.1456846E-2,2.179E3,-3.742174E-2,1.6122572E2,-3.6592666E-2,2.3290964E-2,5.967445E-2,-0E0],"split_indices":[9,9,1,0,10,0,3,0,0,0,0],"split_type":[0,0,0,0,0,0,0,0,0,0,0],"sum_hessian":[8.9859726E1,4.7449173E1,4.2410553E1,4.2969067E1,4.4801083E0,1.2268891E0,4.1183666E1,3.4624333E0,1.0176748E0,4.012177E1,1.0618962E0],"tree_param":{"num_deleted":"0","num_feature":"11","num_nodes":"11","size_leaf_vector":"1"}},{"base_weights":[-0E0,1.1877165E0,-5.0909784E-2,1.2141508E0,-0E0,6.2259566E-2,6.089816E-3],"categories":[],"categories_nodes":[],"categories_segments":[],"categories_sizes":[],"default_left":[0,0,0,0,0,0,0],"id":22,"left_children":[1,3,-1,5,-1,-1,-1],"loss_changes":[1.044723E2,9.4046783E-1,0E0,4.7821426E-1,0E0,0E0,0E0],"parents":[2147483647,0,0,1,1,3,3],"right_children":[2,4,-1,6,-1,-1,-1],"split_conditions":[8E1,1.640715E2,-5.0909784E-2,7.2E1,-0E0,6.2259566E-2,6.089816E-3],"split_indices":[7,3,0,7,0,0,0],"split_type":[0,0,0,0,0,0,0],"sum_hessian":[8.441201E1,3.881045E1,4.560156E1,3.7733795E1,1.0766573E0,3.611004E1,1.6237534E0],"tree_param":{"num_deleted":"0","num_feature":"11","num_nodes":"7","size_leaf_vector":"1"}},{"base_weights":[-8.797143E-3,-9.5355386E-1,1.0345329E0,-5.1035304E-2,-2.1965483E-1,5.107873E-1,1.1214792E0,-3.761938E-2,4.4669338E-2,4.5576204E-2,-1.0149873E-2,5.8226448E-2,1.219283E-2],"categories":[],"categories_nodes":[],"categories_segments":[],"categories_sizes":[],"default_left":[0,0,0,0,0,0,0,0,0,0,0,0,0],"id":23,"left_children":[1,3,5,-1,7,9,11,-1,-1,-1,-1,-1,-1],"loss_changes":[8.6022285E1,1.4259415E0,4.8918152E-1,0E0,4.0172067E0,2.9784145E0,2.8570175E-1,0E0,0E0,0E0,0E0,0E0,0E0],"parents":[2147483647,0,0,1,1,2,2,4,4,5,5,6,6],"right_children":[2,4,6,-1,8,10,12,-1,-1,-1,-1,-1,-1],"split_conditions":[3.0530197E1,2.8822748E1,1.231E3,-5.1035304E-2,2.245E3,1.244E3,1.394E3,-3.761938E-2,4.4669338E-2,4.5576204E-2,-1.0149873E-2,5.8226448E-2,1.219283E-2],"split_indices":[9,9,4,0,10,6,6,0,0,0,0,0,0],"split_type":[0,0,0,0,0,0,0,0,0,0,0,0,0],"sum_hessian":[8.5311134E1,4.5067173E1,4.0243965E1,4.0306973E1,4.760202E0,7.5271854E0,3.2716778E1,3.742285E0,1.0179169E0,5.091917E0,2.4352689E0,3.0332262E1,2.3845162E0],"tree_param":{"num_deleted":"0","num_feature":"11","num_nodes":"13","size_leaf_vector":"1"}},{"base_weights":[-0E0,-9.759949E-1,9.568736E-1,-1.7932595E-1,-5.0767817E-2,-3.8765255E-2,1.0417799E0,-2.471748E-2,4.330506E-3,2.396464E-2,6.33662E-2],"categories":[],"categories_nodes":[],"categories_segments":[],"categories_sizes":[],"default_left":[0,0,0,0,0,0,0,0,0,0,0],"id":24,"left_children":[1,3,5,7,-1,-1,9,-1,-1,-1,-1],"loss_changes":[7.706848E1,5.0881195E-1,7.0344925E0,5.605719E-1,0E0,0E0,3.6190376E0,0E0,0E0,0E0,0E0],"parents":[2147483647,0,0,1,1,2,2,3,3,6,6],"right_children":[2,4,6,8,-1,-1,10,-1,-1,-1,-1],"split_conditions":[3.0162039E1,1.713E3,1.647E3,1.7085109E3,-5.0767817E-2,-3.8765255E-2,3.353845E1,-2.471748E-2,4.330506E-3,2.396464E-2,6.33662E-2],"split_indices":[9,1,1,1,0,0,9,0,0,0,0],"split_type":[0,0,0,0,0,0,0,0,0,0,0],"sum_hessian":[8.0513725E1,4.008143E1,4.04323E1,2.746728E0,3.7334698E1,1.2341503E0,3.919815E1,1.724802E0,1.0219258E0,1.2747908E1,2.6450241E1],"tree_param":{"num_deleted":"0","num_feature":"11","num_nodes":"11","size_leaf_vector":"1"}},{"base_weights":[-0E0,1.1400197E0,-5.1291287E-2,1.2148728E0,-0E0,2.432718E-2,6.378493E-2,-2.8481593E-2,3.3826258E-2],"categories":[],"categories_nodes":[],"categories_segments":[],"categories_sizes":[],"default_left":[0,0,0,0,0,0,0,0,0],"id":25,"left_children":[1,3,-1,5,7,-1,-1,-1,-1],"loss_changes":[9.439209E1,2.8224182E0,0E0,7.408905E-2,1.8317881E0,0E0,0E0,0E0,0E0],"parents":[2147483647,0,0,1,1,3,3,4,4],"right_children":[2,4,-1,6,8,-1,-1,-1,-1],"split_conditions":[8.4E1,7.2E1,-5.1291287E-2,1.6826437E3,2.142E3,2.432718E-2,6.378493E-2,-2.8481593E-2,3.3826258E-2],"split_indices":[7,7,0,1,10,0,0,0,0],"split_type":[0,0,0,0,0,0,0,0,0],"sum_hessian":[7.8715096E1,3.7225166E1,4.1489925E1,3.4572193E1,2.6529763E0,3.9919236E0,3.0580269E1,1.2357546E0,1.4172215E0],"tree_param":{"num_deleted":"0","num_feature":"11","num_nodes":"9","size_leaf_vector":"1"}},{"base_weights":[-3.539696E-2,1.0044763E0,-5.1206984E-2,-3.7574258E-2,1.0979201E0,5.760057E-2,8.716747E-3],"categories":[],"categories_nodes":[],"categories_segments":[],"categories_sizes":[],"default_left":[0,0,0,0,0,0,0],"id":26,"left_children":[1,3,-1,-1,5,-1,-1],"loss_changes":[8.001509E1,7.183712E0,0E0,0E0,9.57901E-1,0E0,0E0],"parents":[2147483647,0,0,1,1,4,4],"right_children":[2,4,-1,-1,6,-1,-1],"split_conditions":[8.4E1,1.647E3,-5.1206984E-2,-3.7574258E-2,7.2E1,5.760057E-2,8.716747E-3],"split_indices":[7,1,0,0,7,0,0],"split_type":[0,0,0,0,0,0,0],"sum_hessian":[7.5812935E1,3.669682E1,3.911612E1,1.2279873E0,3.5468834E1,3.276141E1,2.707421E0],"tree_param":{"num_deleted":"0","num_feature":"11","num_nodes":"7","size_leaf_vector":"1"}},{"base_weights":[3.5255775E-2,-9.4032145E-1,9.43096E-1,-4.474701E-3,-5.021304E-2,-0E0,1.0151129E0,-2.591005E-2,2.416843E-2,-1.6708838E-2,3.010271E-2,5.3568896E-2,4.5655775E-3],"categories":[],"categories_nodes":[],"categories_segments":[],"categories_sizes":[],"default_left":[0,0,0,0,0,0,0,0,0,0,0,0,0],"id":27,"left_children":[1,3,5,7,-1,9,11,-1,-1,-1,-1,-1,-1],"loss_changes":[6.940229E1,1.7364464E0,2.3055878E0,1.2463915E0,0E0,1.2000711E0,1.2691612E0,0E0,0E0,0E0,0E0,0E0,0E0],"parents":[2147483647,0,0,1,1,2,2,3,3,5,5,6,6],"right_children":[2,4,6,8,-1,10,12,-1,-1,-1,-1,-1,-1],"split_conditions":[3.0162039E1,1.714E3,1.6785024E3,2.179E3,-5.021304E-2,1.277E3,1.385E3,-2.591005E-2,2.416843E-2,-1.6708838E-2,3.010271E-2,5.3568896E-2,4.5655775E-3],"split_indices":[9,1,1,10,0,4,6,0,0,0,0,0,0],"split_type":[0,0,0,0,0,0,0,0,0,0,0,0,0],"sum_hessian":[7.6358635E1,3.652348E1,3.9835155E1,2.9043229E0,3.3619156E1,3.3510976E0,3.648406E1,1.8835405E0,1.0207825E0,1.9487693E0,1.4023281E0,3.3728783E1,2.7552764E0],"tree_param":{"num_deleted":"0","num_feature":"11","num_nodes":"13","size_leaf_vector":"1"}},{"base_weights":[-5.230277E-2,9.564324E-1,-4.9963698E-2,1.8793109E-1,5.458462E-2,3.9280925E-2,-3.7722502E-2],"categories":[],"categories_nodes":[],"categories_segments":[],"categories_sizes":[],"default_left":[0,0,0,0,0,0,0],"id":28,"left_children":[1,3,-1,5,-1,-1,-1],"loss_changes":[6.863755E1,2.7466278E0,0E0,4.512946E0,0E0,0E0,0E0],"parents":[2147483647,0,0,1,1,3,3],"right_children":[2,4,-1,6,-1,-1,-1],"split_conditions":[8E1,1.2361567E3,-4.9963698E-2,4.481463E1,5.458462E-2,3.9280925E-2,-3.7722502E-2],"split_indices":[7,4,0,7,0,0,0],"split_type":[0,0,0,0,0,0,0],"sum_hessian":[6.983054E1,3.3552097E1,3.6278442E1,5.93237E0,2.7619726E1,4.0565186E0,1.8758518E0],"tree_param":{"num_deleted":"0","num_feature":"11","num_nodes":"7","size_leaf_vector":"1"}},{"base_weights":[-3.0467726E-2,1.0461335E0,-4.9506024E-2,-0E0,1.0871499E0,-0E0,5.555234E-2],"categories":[],"categories_nodes":[],"categories_segments":[],"categories_sizes":[],"default_left":[0,0,0,0,0,0,0],"id":29,"left_children":[1,3,-1,-1,5,-1,-1],"loss_changes":[7.1735634E1,1.0789719E0,0E0,0E0,2.683525E-1,0E0,0E0],"parents":[2147483647,0,0,1,1,4,4],"right_children":[2,4,-1,-1,6,-1,-1],"split_conditions":[8E1,1.16E3,-4.9506024E-2,-0E0,2.898344E1,-0E0,5.555234E-2],"split_indices":[7,5,0,0,9,0,0],"split_type":[0,0,0,0,0,0,0],"sum_hessian":[6.745756E1,3.150361E1,3.5953953E1,1.4934295E0,3.001018E1,1.1022289E0,2.8907951E1],"tree_param":{"num_deleted":"0","num_feature":"11","num_nodes":"7","size_leaf_vector":"1"}},{"base_weights":[-0E0,9.567993E-1,-9.836638E-1,-5.6012902E-2,1.1512593E0,-0E0,-5.0103124E-2,2.3834055E-2,-4.2590182E-2,6.0485806E-2,-1.7022881E-4],"categories":[],"categories_nodes":[],"categories_segments":[],"categories_sizes":[],"default_left":[0,0,0,0,0,0,0,0,0,0,0],"id":30,"left_children":[1,3,5,7,9,-1,-1,-1,-1,-1,-1],"loss_changes":[6.448503E1,7.4312935E0,2.0278549E-1,3.1864288E0,2.598957E0,0E0,0E0,0E0,0E0,0E0,0E0],"parents":[2147483647,0,0,1,1,2,2,3,3,4,4],"right_children":[2,4,6,8,10,-1,-1,-1,-1,-1,-1],"split_conditions":[8E1,1.6826437E3,-3.9443686E0,4.8E1,2.442E3,-0E0,-5.0103124E-2,2.3834055E-2,-4.2590182E-2,6.0485806E-2,-1.7022881E-4],"split_indices":[7,1,8,7,10,0,0,0,0,0,0],"split_type":[0,0,0,0,0,0,0,0,0,0,0],"sum_hessian":[6.6510056E1,3.36237E1,3.2886353E1,5.1164174E0,2.8507282E1,1.0309819E0,3.1855371E1,2.9286804E0,2.187737E0,2.7500378E1,1.0069044E0],"tree_param":{"num_deleted":"0","num_feature":"11","num_nodes":"11","size_leaf_vector":"1"}},{"base_weights":[3.3728104E-2,-9.172621E-1,9.043296E-1,-4.9354564E-2,-1.17576234E-1,2.789432E-1,1.0218403E0,-2.8944125E-2,2.1703014E-2,3.7756305E-2,-2.8816147E-2,5.992136E-2,3.1683657E-2],"categories":[],"categories_nodes":[],"categories_segments":[],"categories_sizes":[],"default_left":[0,0,0,0,0,0,0,0,0,0,0,0,0],"id":31,"left_children":[1,3,5,-1,7,9,11,-1,-1,-1,-1,-1,-1],"loss_changes":[5.5593155E1,1.1095276E0,1.6597977E0,0E0,1.4095604E0,3.6338387E0,2.903881E-1,0E0,0E0,0E0,0E0,0E0,0E0],"parents":[2147483647,0,0,1,1,2,2,4,4,5,5,6,6],"right_children":[2,4,6,-1,8,10,12,-1,-1,-1,-1,-1,-1],"split_conditions":[3.0393461E1,2.8822748E1,1.213E3,-4.9354564E-2,2.179E3,1.244E3,1.328826E3,-2.8944125E-2,2.1703014E-2,3.7756305E-2,-2.8816147E-2,5.992136E-2,3.1683657E-2],"split_indices":[9,9,5,0,10,6,6,0,0,0,0,0,0],"split_type":[0,0,0,0,0,0,0,0,0,0,0,0,0],"sum_hessian":[6.51528E1,3.083867E1,3.431413E1,2.7571508E1,3.2671628E0,6.6344757E0,2.7679653E1,2.245971E0,1.0211918E0,4.7124467E0,1.9220294E0,1.670475E1,1.0974905E1],"tree_param":{"num_deleted":"0","num_feature":"11","num_nodes":"13","size_leaf_vector":"1"}},{"base_weights":[-6.5809684E-3,8.9754635E-1,-4.8500415E-2,-3.9283466E-2,1.0059253E0,5.327441E-2,-2.8301016E-3],"categories":[],"categories_nodes":[],"categories_segments":[],"categories_sizes":[],"default_left":[0,0,0,0,0,0,0],"id":32,"left_children":[1,3,-1,-1,5,-1,-1],"loss_changes":[5.4963116E1,6.7865696E0,0E0,0E0,2.528656E0,0E0,0E0],"parents":[2147483647,0,0,1,1,4,4],"right_children":[2,4,-1,-1,6,-1,-1],"split_conditions":[8E1,1.647E3,-4.8500415E-2,-3.9283466E-2,-3.433311E0,5.327441E-2,-2.8301016E-3],"split_indices":[7,1,0,0,8,0,0],"split_type":[0,0,0,0,0,0,0],"sum_hessian":[6.105796E1,3.1265905E1,2.9792055E1,1.2342503E0,3.0031654E1,2.888047E1,1.1511853E0],"tree_param":{"num_deleted":"0","num_feature":"11","num_nodes":"7","size_leaf_vector":"1"}},{"base_weights":[-0E0,9.257897E-1,-4.8325878E-2,2.7761012E-1,5.323228E-2,3.338604E-2,-1.8220399E-2],"categories":[],"categories_nodes":[],"categories_segments":[],"categories_sizes":[],"default_left":[0,0,0,0,0,0,0],"id":33,"left_children":[1,3,-1,5,-1,-1,-1],"loss_changes":[5.461763E1,1.8224964E0,0E0,2.2622712E0,0E0,0E0,0E0],"parents":[2147483647,0,0,1,1,3,3],"right_children":[2,4,-1,6,-1,-1,-1],"split_conditions":[8.4E1,1.219E3,-4.8325878E-2,1.243E3,5.323228E-2,3.338604E-2,-1.8220399E-2],"split_indices":[7,5,0,6,0,0,0],"split_type":[0,0,0,0,0,0,0],"sum_hessian":[5.902405E1,2.9989704E1,2.9034348E1,6.455507E0,2.3534199E1,4.475071E0,1.9804356E0],"tree_param":{"num_deleted":"0","num_feature":"11","num_nodes":"7","size_leaf_vector":"1"}},{"base_weights":[-2.6120802E-2,9.42803E-1,-8.9854735E-1,6.896809E-2,1.0024439E0,-0E0,-4.800146E-2,6.3602002E-3,-0E0,5.153454E-2,-0E0,-4.4653613E-2,2.9169563E-2],"categories":[],"categories_nodes":[],"categories_segments":[],"categories_sizes":[],"default_left":[0,0,0,0,0,0,0,0,0,0,0,0,0],"id":34,"left_children":[1,3,5,7,9,11,-1,-1,-1,-1,-1,-1,-1],"loss_changes":[4.9548344E1,8.2969856E-1,1.2539997E0,1.9455578E-2,3.596592E-1,2.4928882E0,0E0,0E0,0E0,0E0,0E0,0E0,0E0],"parents":[2147483647,0,0,1,1,2,2,3,3,4,4,5,5],"right_children":[2,4,6,8,10,12,-1,-1,-1,-1,-1,-1,-1],"split_conditions":[7.2E1,9.52E2,8.4E1,4.8729183E1,2.266E3,2.142E3,-4.800146E-2,6.3602002E-3,-0E0,5.153454E-2,-0E0,-4.4653613E-2,2.9169563E-2],"split_indices":[7,10,7,7,10,10,0,0,0,0,0,0,0],"split_type":[0,0,0,0,0,0,0,0,0,0,0,0,0],"sum_hessian":[5.6639256E1,2.6525759E1,3.0113499E1,2.3681693E0,2.4157589E1,2.4969172E0,2.7616581E1,1.1925045E0,1.1756649E0,2.3136116E1,1.0214719E0,1.1047999E0,1.3921174E0],"tree_param":{"num_deleted":"0","num_feature":"11","num_nodes":"13","size_leaf_vector":"1"}},{"base_weights":[-7.331864E-2,8.345199E-1,-9.5680594E-1,-1.1717858E-1,9.5268714E-1,-2.6298254E-3,-4.9322806E-2,-3.173569E-2,1.0001108E-2,4.8967503E-2,-0E0],"categories":[],"categories_nodes":[],"categories_segments":[],"categories_sizes":[],"default_left":[0,0,0,0,0,0,0,0,0,0,0],"id":35,"left_children":[1,3,5,7,9,-1,-1,-1,-1,-1,-1],"loss_changes":[4.507576E1,3.6157627E0,1.975975E-1,9.1137934E-1,1.7687798E-1,0E0,0E0,0E0,0E0,0E0,0E0],"parents":[2147483647,0,0,1,1,2,2,3,3,4,4],"right_children":[2,4,6,8,10,-1,-1,-1,-1,-1,-1],"split_conditions":[8.4E1,1.6785024E3,1.7050759E3,1.2450624E3,1.6464555E2,-2.6298254E-3,-4.9322806E-2,-3.173569E-2,1.0001108E-2,4.8967503E-2,-0E0],"split_indices":[7,1,1,2,3,0,0,0,0,0,0],"split_type":[0,0,0,0,0,0,0,0,0,0,0],"sum_hessian":[5.4127964E1,2.6444288E1,2.7683676E1,2.4543614E0,2.3989927E1,1.5024433E0,2.6181232E1,1.151277E0,1.3030844E0,2.2832157E1,1.1577687E0],"tree_param":{"num_deleted":"0","num_feature":"11","num_nodes":"11","size_leaf_vector":"1"}},{"base_weights":[-6.457675E-2,8.0141914E-1,-4.9279906E-2,-1.8869744E-1,1.0083097E0,-3.294731E-2,2.4078375E-2,1.4247911E-2,5.6335416E-2],"categories":[],"categories_nodes":[],"categories_segments":[],"categories_sizes":[],"default_left":[0,0,0,0,0,0,0,0,0],"id":36,"left_children":[1,3,-1,5,7,-1,-1,-1,-1],"loss_changes":[4.2939457E1,6.2227974E0,0E0,2.035195E0,9.668617E-1,0E0,0E0,0E0,0E0],"parents":[2147483647,0,0,1,1,3,3,4,4],"right_children":[2,4,-1,6,8,-1,-1,-1,-1],"split_conditions":[8.4E1,1.6826437E3,-4.9279906E-2,1.289394E3,1.219E3,-3.294731E-2,2.4078375E-2,1.4247911E-2,5.6335416E-2],"split_indices":[7,1,0,4,5,0,0,0,0],"split_type":[0,0,0,0,0,0,0,0,0],"sum_hessian":[5.1730003E1,2.6448565E1,2.5281439E1,4.168858E0,2.2279705E1,2.8983066E0,1.2705514E0,4.2069974E0,1.8072708E1],"tree_param":{"num_deleted":"0","num_feature":"11","num_nodes":"9","size_leaf_vector":"1"}},{"base_weights":[-2.1142398E-3,8.1955236E-1,-9.4381E-1,-3.7871223E-2,9.3468153E-1,-3.6384591E-3,-4.8777744E-2,4.9707424E-2,-1.9685286E-3],"categories":[],"categories_nodes":[],"categories_segments":[],"categories_sizes":[],"default_left":[0,0,0,0,0,0,0,0,0],"id":37,"left_children":[1,3,5,-1,7,-1,-1,-1,-1],"loss_changes":[4.2345085E1,6.0436783E0,1.16744995E-1,0E0,2.1197128E0,0E0,0E0,0E0,0E0],"parents":[2147483647,0,0,1,1,2,2,4,4],"right_children":[2,4,6,-1,8,-1,-1,-1,-1],"split_conditions":[8.4E1,1.647E3,1.7050759E3,-3.7871223E-2,-3.4806771E0,-3.6384591E-3,-4.8777744E-2,4.9707424E-2,-1.9685286E-3],"split_indices":[7,1,1,0,8,0,0,0,0],"split_type":[0,0,0,0,0,0,0,0,0],"sum_hessian":[5.2646423E1,2.7900707E1,2.4745718E1,1.2232628E0,2.6677444E1,1.5397493E0,2.3205969E1,2.560681E1,1.0706351E0],"tree_param":{"num_deleted":"0","num_feature":"11","num_nodes":"9","size_leaf_vector":"1"}},{"base_weights":[-0E0,-9.078232E-1,7.1368927E-1,-5.0124116E-2,-4.810783E-2,-3.529284E-2,8.1500894E-1,-1.3685799E-2,-0E0,1.9143384E-2,5.285538E-2],"categories":[],"categories_nodes":[],"categories_segments":[],"categories_sizes":[],"default_left":[0,0,0,0,0,0,0,0,0,0,0],"id":38,"left_children":[1,3,5,7,-1,-1,9,-1,-1,-1,-1],"loss_changes":[3.5043327E1,5.6224823E-1,4.9490957E0,1.4270534E-1,0E0,0E0,1.8907547E0,0E0,0E0,0E0,0E0],"parents":[2147483647,0,0,1,1,2,2,3,3,6,6],"right_children":[2,4,6,8,-1,-1,10,-1,-1,-1,-1],"split_conditions":[3.026738E1,1.714E3,1.647E3,1.7062153E3,-4.810783E-2,-3.529284E-2,3.5462997E1,-1.3685799E-2,-0E0,1.9143384E-2,5.285538E-2],"split_indices":[9,1,1,1,0,0,9,0,0,0,0],"split_type":[0,0,0,0,0,0,0,0,0,0,0],"sum_hessian":[5.1991463E1,2.2960844E1,2.903062E1,2.0306265E0,2.0930218E1,1.207756E0,2.7822865E1,1.0063895E0,1.0242369E0,1.1658824E1,1.616404E1],"tree_param":{"num_deleted":"0","num_feature":"11","num_nodes":"11","size_leaf_vector":"1"}},{"base_weights":[4.103684E-2,8.2934135E-1,-4.637089E-2,6.428341E-2,1.0242963E0,-4.0635515E-2,2.2330064E-2,5.395186E-2,8.37117E-3],"categories":[],"categories_nodes":[],"categories_segments":[],"categories_sizes":[],"default_left":[0,0,0,0,0,0,0,0,0],"id":39,"left_children":[1,3,-1,5,7,-1,-1,-1,-1],"loss_changes":[3.8512577E1,3.5813675E0,0E0,2.625732E0,2.1901894E-1,0E0,0E0,0E0,0E0],"parents":[2147483647,0,0,1,1,3,3,4,4],"right_children":[2,4,-1,6,8,-1,-1,-1,-1],"split_conditions":[8.4E1,1.221E3,-4.637089E-2,3.353845E1,7.2E1,-4.0635515E-2,2.2330064E-2,5.395186E-2,8.37117E-3],"split_indices":[7,5,0,9,7,0,0,0,0],"split_type":[0,0,0,0,0,0,0,0,0],"sum_hessian":[4.8503048E1,2.7102243E1,2.1400803E1,6.29466E0,2.0807583E1,1.1722028E0,5.1224575E0,1.876594E1,2.0416427E0],"tree_param":{"num_deleted":"0","num_feature":"11","num_nodes":"9","size_leaf_vector":"1"}},{"base_weights":[-2.0605054E-2,7.814338E-1,-8.8910025E-1,1.8538125E-1,9.3866867E-1,-0E0,-4.8323564E-2,3.3250716E-2,-3.0858522E-2,4.8674136E-2,1.9428226E-3,-5.4596243E-3,2.7834828E-4],"categories":[],"categories_nodes":[],"categories_segments":[],"categories_sizes":[],"default_left":[0,0,0,0,0,0,0,0,0,0,0,0,0],"id":40,"left_children":[1,3,5,7,9,11,-1,-1,-1,-1,-1,-1,-1],"loss_changes":[3.459956E1,1.6536388E0,1.4469833E0,3.218197E0,5.952835E-2,2.5126921E-2,0E0,0E0,0E0,0E0,0E0,0E0,0E0],"parents":[2147483647,0,0,1,1,2,2,3,3,4,4,5,5],"right_children":[2,4,6,8,10,12,-1,-1,-1,-1,-1,-1,-1],"split_conditions":[7.2E1,1.219E3,8.4E1,1.243E3,1.394E3,3.2729507E1,-4.8323564E-2,3.3250716E-2,-3.0858522E-2,4.8674136E-2,1.9428226E-3,-5.4596243E-3,2.7834828E-4],"split_indices":[7,5,7,6,6,9,0,0,0,0,0,0,0],"split_type":[0,0,0,0,0,0,0,0,0,0,0,0,0],"sum_hessian":[4.7596848E1,2.449797E1,2.3098875E1,6.2320833E0,1.8265886E1,2.1549106E0,2.0943966E1,4.398045E0,1.834038E0,1.69717E1,1.2941861E0,1.1020975E0,1.052813E0],"tree_param":{"num_deleted":"0","num_feature":"11","num_nodes":"13","size_leaf_vector":"1"}},{"base_weights":[-0E0,7.587676E-1,-8.898978E-1,-0E0,8.891212E-1,-0E0,-4.808199E-2,3.174658E-2,-2.7372966E-2,4.6418183E-2,-0E0],"categories":[],"categories_nodes":[],"categories_segments":[],"categories_sizes":[],"default_left":[0,0,0,0,0,0,0,0,0,0,0],"id":41,"left_children":[1,3,5,7,9,-1,-1,-1,-1,-1,-1],"loss_changes":[3.1948814E1,2.3823347E0,1.5889397E0,2.082488E0,5.798416E-1,0E0,0E0,0E0,0E0,0E0,0E0],"parents":[2147483647,0,0,1,1,2,2,3,3,4,4],"right_children":[2,4,6,8,10,-1,-1,-1,-1,-1,-1],"split_conditions":[8E1,1.6826437E3,1.7050759E3,4.8E1,-3.5398977E0,-0E0,-4.808199E-2,3.174658E-2,-2.7372966E-2,4.6418183E-2,-0E0],"split_indices":[7,1,1,7,8,0,0,0,0,0,0],"split_type":[0,0,0,0,0,0,0,0,0,0,0],"sum_hessian":[4.5337822E1,2.4620378E1,2.0717442E1,3.948118E0,2.067226E1,1.4013004E0,1.9316143E1,1.898365E0,2.049753E0,1.9551567E1,1.1206936E0],"tree_param":{"num_deleted":"0","num_feature":"11","num_nodes":"11","size_leaf_vector":"1"}},{"base_weights":[-4.0446077E-2,7.0867527E-1,-8.531731E-1,5.047805E-2,8.9788675E-1,-4.58125E-2,-0E0,2.7277926E-2,-2.5215684E-2,4.6792727E-2,-0E0],"categories":[],"categories_nodes":[],"categories_segments":[],"categories_sizes":[],"default_left":[0,0,0,0,0,0,0,0,0,0,0],"id":42,"left_children":[1,3,5,7,9,-1,-1,-1,-1,-1,-1],"loss_changes":[2.8139376E1,2.4318151E0,1.5174103E0,2.2022057E0,3.3508682E-1,0E0,0E0,0E0,0E0,0E0,0E0],"parents":[2147483647,0,0,1,1,2,2,3,3,4,4],"right_children":[2,4,6,8,10,-1,-1,-1,-1,-1,-1],"split_conditions":[7.2E1,1.219E3,3.2729507E1,4.402668E1,2.325E3,-4.58125E-2,-0E0,2.7277926E-2,-2.5215684E-2,4.6792727E-2,-0E0],"split_indices":[7,5,9,7,10,0,0,0,0,0,0],"split_type":[0,0,0,0,0,0,0,0,0,0,0],"sum_hessian":[4.410693E1,2.2698072E1,2.140886E1,5.9409647E0,1.6757107E1,2.0237183E1,1.1716759E0,3.624471E0,2.3164937E0,1.5728113E1,1.0289936E0],"tree_param":{"num_deleted":"0","num_feature":"11","num_nodes":"11","size_leaf_vector":"1"}},{"base_weights":[5.032146E-2,7.8692675E-1,-9.0393656E-1,-0E0,5.027331E-2,-0E0,-4.7421586E-2,-3.4383323E-2,2.8125307E-2],"categories":[],"categories_nodes":[],"categories_segments":[],"categories_sizes":[],"default_left":[0,0,0,0,0,0,0,0,0],"id":43,"left_children":[1,3,5,7,-1,-1,-1,-1,-1],"loss_changes":[3.2006577E1,4.4362164E0,6.443596E-1,2.969162E0,0E0,0E0,0E0,0E0,0E0],"parents":[2147483647,0,0,1,1,2,2,3,3],"right_children":[2,4,6,8,-1,-1,-1,-1,-1],"split_conditions":[8.4E1,1.233E3,1.7050759E3,1.698E3,5.027331E-2,-0E0,-4.7421586E-2,-3.4383323E-2,2.8125307E-2],"split_indices":[7,4,1,1,0,0,0,0,0],"split_type":[0,0,0,0,0,0,0,0,0],"sum_hessian":[4.360555E1,2.5003958E1,1.8601591E1,5.6874113E0,1.9316547E1,1.0797217E0,1.7521868E1,2.4304125E0,3.2569988E0],"tree_param":{"num_deleted":"0","num_feature":"11","num_nodes":"9","size_leaf_vector":"1"}},{"base_weights":[-1.8368386E-2,6.3849366E-1,-8.941622E-1,-0E0,4.084777E-2,-4.663327E-2,-1.7810243E-3,2.3778101E-2,-2.4361802E-2],"categories":[],"categories_nodes":[],"categories_segments":[],"categories_sizes":[],"default_left":[0,0,0,0,0,0,0,0,0],"id":44,"left_children":[1,3,5,7,-1,-1,-1,-1,-1],"loss_changes":[2.4306286E1,2.4519634E0,8.857441E-2,1.7463654E0,0E0,0E0,0E0,0E0,0E0],"parents":[2147483647,0,0,1,1,2,2,3,3],"right_children":[2,4,6,8,-1,-1,-1,-1,-1],"split_conditions":[8.4E1,1.235E3,3.0393461E1,1.239E3,4.084777E-2,-4.663327E-2,-1.7810243E-3,2.3778101E-2,-2.4361802E-2],"split_indices":[7,4,9,6,0,0,0,0,0],"split_type":[0,0,0,0,0,0,0,0,0],"sum_hessian":[4.0036907E1,2.2706581E1,1.7330326E1,5.5522027E0,1.7154379E1,1.5946451E1,1.3838748E0,3.138864E0,2.4133387E0],"tree_param":{"num_deleted":"0","num_feature":"11","num_nodes":"9","size_leaf_vector":"1"}},{"base_weights":[2.5435438E-2,8.358392E-1,-8.716979E-1,8.953405E-1,-0E0,-6.70924E-2,-4.8627045E-2,1.5463446E-2,5.0535776E-2,-2.4452444E-2,1.3950142E-2],"categories":[],"categories_nodes":[],"categories_segments":[],"categories_sizes":[],"default_left":[0,0,0,0,0,0,0,0,0,0,0],"id":45,"left_children":[1,3,5,7,-1,9,-1,-1,-1,-1,-1],"loss_changes":[3.0678892E1,1.4121504E0,1.0182056E0,4.7008705E-1,0E0,8.003544E-1,0E0,0E0,0E0,0E0,0E0],"parents":[2147483647,0,0,1,1,2,2,3,3,5,5],"right_children":[2,4,6,8,-1,10,-1,-1,-1,-1,-1],"split_conditions":[7.2E1,1.6502638E2,1.5758122E2,1.231E3,-0E0,1.2397126E3,-4.8627045E-2,1.5463446E-2,5.0535776E-2,-2.4452444E-2,1.3950142E-2],"split_indices":[7,3,3,4,0,4,0,0,0,0,0],"split_type":[0,0,0,0,0,0,0,0,0,0,0],"sum_hessian":[4.0219482E1,2.1459873E1,1.8759607E1,2.0335443E1,1.1244291E0,2.8270087E0,1.5932599E1,4.663002E0,1.5672442E1,1.7387639E0,1.0882448E0],"tree_param":{"num_deleted":"0","num_feature":"11","num_nodes":"11","size_leaf_vector":"1"}},{"base_weights":[-5.1852677E-2,6.317216E-1,-8.321918E-1,8.544231E-2,8.187505E-1,-1.343287E-1,-4.6967026E-2,2.1823434E-2,-3.2320615E-2,4.303415E-2,-0E0,-3.1045321E-2,1.4078665E-2],"categories":[],"categories_nodes":[],"categories_segments":[],"categories_sizes":[],"default_left":[0,0,0,0,0,0,0,0,0,0,0,0,0],"id":46,"left_children":[1,3,5,7,9,11,-1,-1,-1,-1,-1,-1,-1],"loss_changes":[2.2634048E1,1.7481413E0,8.353834E-1,2.0950475E0,3.3974075E-1,1.2460841E0,0E0,0E0,0E0,0E0,0E0,0E0,0E0],"parents":[2147483647,0,0,1,1,2,2,3,3,4,4,5,5],"right_children":[2,4,6,8,10,12,-1,-1,-1,-1,-1,-1,-1],"split_conditions":[7.2E1,1.235E3,1.5758122E2,1.5249133E2,1.6464555E2,2.004E3,-4.6967026E-2,2.1823434E-2,-3.2320615E-2,4.303415E-2,-0E0,-3.1045321E-2,1.4078665E-2],"split_indices":[7,4,3,3,3,10,0,0,0,0,0,0,0],"split_type":[0,0,0,0,0,0,0,0,0,0,0,0,0],"sum_hessian":[4.02585E1,2.1219765E1,1.9038733E1,6.4654675E0,1.4754297E1,3.4551709E0,1.5583562E1,5.1041327E0,1.361335E0,1.3715221E1,1.0390762E0,1.9191654E0,1.5360054E0],"tree_param":{"num_deleted":"0","num_feature":"11","num_nodes":"13","size_leaf_vector":"1"}},{"base_weights":[-5.553746E-2,6.512347E-1,-8.23045E-1,-2.860353E-1,8.729148E-1,-0E0,-9.409875E-1,-4.3458246E-2,9.485507E-3,4.710583E-2,-0E0,-1.6764674E-2,1.258142E-2,-4.995298E-2,-0E0],"categories":[],"categories_nodes":[],"categories_segments":[],"categories_sizes":[],"default_left":[0,0,0,0,0,0,0,0,0,0,0,0,0,0,0],"id":47,"left_children":[1,3,5,7,9,11,13,-1,-1,-1,-1,-1,-1,-1,-1],"loss_changes":[2.2102402E1,4.871932E0,1.8509493E0,1.699433E0,1.2799444E0,3.9020455E-1,8.593607E-1,0E0,0E0,0E0,0E0,0E0,0E0,0E0,0E0],"parents":[2147483647,0,0,1,1,2,2,3,3,4,4,5,5,6,6],"right_children":[2,4,6,8,10,12,14,-1,-1,-1,-1,-1,-1,-1,-1],"split_conditions":[7.2E1,1.6826437E3,1.7062153E3,1.2503292E3,1.6550948E2,1.2383577E3,1.278E3,-4.3458246E-2,9.485507E-3,4.710583E-2,-0E0,-1.6764674E-2,1.258142E-2,-4.995298E-2,-0E0],"split_indices":[7,1,1,2,3,4,4,0,0,0,0,0,0,0,0],"split_type":[0,0,0,0,0,0,0,0,0,0,0,0,0,0,0],"sum_hessian":[3.8598827E1,1.9834204E1,1.8764624E1,3.306866E0,1.6527338E1,2.5536718E0,1.621095E1,1.5864073E0,1.7204587E0,1.5489069E1,1.0382684E0,1.074752E0,1.4789199E0,1.5129248E1,1.0817037E0],"tree_param":{"num_deleted":"0","num_feature":"11","num_nodes":"15","size_leaf_vector":"1"}},{"base_weights":[9.251799E-3,7.985913E-1,-7.9411656E-1,-0E0,8.846967E-1,6.682934E-2,-4.8218768E-2,-0E0,4.7411766E-2,-1.5687874E-2,2.7497789E-2],"categories":[],"categories_nodes":[],"categories_segments":[],"categories_sizes":[],"default_left":[0,0,0,0,0,0,0,0,0,0,0],"id":48,"left_children":[1,3,5,-1,7,9,-1,-1,-1,-1,-1],"loss_changes":[2.4147758E1,1.74681E0,3.234171E0,0E0,1.0358801E0,9.3697995E-1,0E0,0E0,0E0,0E0,0E0],"parents":[2147483647,0,0,1,1,2,2,4,4,5,5],"right_children":[2,4,6,-1,8,10,-1,-1,-1,-1,-1],"split_conditions":[7.2E1,1.667E3,1.7062153E3,-0E0,2.898344E1,1.2407324E3,-4.8218768E-2,-0E0,4.7411766E-2,-1.5687874E-2,2.7497789E-2],"split_indices":[7,1,1,0,9,4,0,0,0,0,0],"split_type":[0,0,0,0,0,0,0,0,0,0,0],"sum_hessian":[3.607652E1,1.8514072E1,1.7562445E1,1.3818573E0,1.7132215E1,2.5151064E0,1.5047338E1,1.1964978E0,1.5935718E1,1.0240475E0,1.491059E0],"tree_param":{"num_deleted":"0","num_feature":"11","num_nodes":"11","size_leaf_vector":"1"}},{"base_weights":[1.7152729E-2,6.473336E-1,-4.3621577E-2,-4.7425017E-2,9.111404E-1,1.7141676E-2,-3.6089726E-2,-0E0,4.912236E-2],"categories":[],"categories_nodes":[],"categories_segments":[],"categories_sizes":[],"default_left":[0,0,0,0,0,0,0,0,0],"id":49,"left_children":[1,3,-1,5,7,-1,-1,-1,-1],"loss_changes":[2.2147236E1,4.7924013E0,0E0,2.2559378E0,7.6792526E-1,0E0,0E0,0E0,0E0],"parents":[2147483647,0,0,1,1,3,3,4,4],"right_children":[2,4,-1,6,8,-1,-1,-1,-1],"split_conditions":[8.4E1,1.218E3,-4.3621577E-2,1.243E3,1.4397948E2,1.7141676E-2,-3.6089726E-2,-0E0,4.912236E-2],"split_indices":[7,5,0,6,3,0,0,0,0],"split_type":[0,0,0,0,0,0,0,0,0],"sum_hessian":[3.769973E1,2.255568E1,1.5144051E1,5.9116697E0,1.6644009E1,3.5864036E0,2.3252664E0,1.67267E0,1.4971339E1],"tree_param":{"num_deleted":"0","num_feature":"11","num_nodes":"9","size_leaf_vector":"1"}},{"base_weights":[-0E0,-4.5481406E-2,5.0950027E-1,2.4481264E-1,4.7738638E-2,-3.0552376E-2,3.3631723E-2],"categories":[],"categories_nodes":[],"categories_segments":[],"categories_sizes":[],"default_left":[0,0,0,0,0,0,0],"id":50,"left_children":[1,-1,3,5,-1,-1,-1],"loss_changes":[1.7437302E1,0E0,2.0659542E0,6.8417125E0,0E0,0E0,0E0],"parents":[2147483647,0,0,2,2,3,3],"right_children":[2,-1,4,6,-1,-1,-1],"split_conditions":[2.8822748E1,-4.5481406E-2,2.163E3,3.5462997E1,4.7738638E-2,-3.0552376E-2,3.3631723E-2],"split_indices":[9,0,10,9,0,0,0],"split_type":[0,0,0,0,0,0,0],"sum_hessian":[3.595741E1,1.2355902E1,2.3601505E1,1.6478653E1,7.1228533E0,4.9597187E0,1.1518934E1],"tree_param":{"num_deleted":"0","num_feature":"11","num_nodes":"7","size_leaf_vector":"1"}},{"base_weights":[1.2732731E-2,7.0709217E-1,-8.325706E-1,-2.0480235E-1,9.3807197E-1,-0E0,-9.046883E-1,1.9172821E-2,-3.1284325E-2,4.9314983E-2,-0E0,-4.846867E-2,-0E0],"categories":[],"categories_nodes":[],"categories_segments":[],"categories_sizes":[],"default_left":[0,0,0,0,0,0,0,0,0,0,0,0,0],"id":51,"left_children":[1,3,5,7,9,-1,11,-1,-1,-1,-1,-1,-1],"loss_changes":[2.2107658E1,4.993061E0,7.911463E-1,1.5093904E0,3.1259918E-1,0E0,8.208704E-1,0E0,0E0,0E0,0E0,0E0,0E0],"parents":[2147483647,0,0,1,1,2,2,3,3,4,4,6,6],"right_children":[2,4,6,8,10,-1,12,-1,-1,-1,-1,-1,-1],"split_conditions":[7.2E1,1.6826437E3,1.699438E3,3.9E1,2.325E3,-0E0,2.319E3,1.9172821E-2,-3.1284325E-2,4.9314983E-2,-0E0,-4.846867E-2,-0E0],"split_indices":[7,1,1,7,10,0,10,0,0,0,0,0,0],"split_type":[0,0,0,0,0,0,0,0,0,0,0,0,0],"sum_hessian":[3.5769573E1,2.005267E1,1.5716902E1,3.6381416E0,1.6414528E1,1.5923381E0,1.4124563E1,1.0589815E0,2.57916E0,1.5074453E1,1.3400749E0,1.3046983E1,1.0775807E0],"tree_param":{"num_deleted":"0","num_feature":"11","num_nodes":"13","size_leaf_vector":"1"}},{"base_weights":[-4.7294866E-2,5.7012874E-1,-7.6251364E-1,-0E0,7.595748E-1,-4.490691E-2,-1.3719556E-1,-2.9069483E-2,1.5422801E-2,-0E0,3.9671887E-2,-3.0331254E-2,2.480475E-2],"categories":[],"categories_nodes":[],"categories_segments":[],"categories_sizes":[],"default_left":[0,0,0,0,0,0,0,0,0,0,0,0,0],"id":52,"left_children":[1,3,5,7,9,-1,11,-1,-1,-1,-1,-1,-1],"loss_changes":[1.558702E1,1.9946747E0,7.668896E-1,1.1857797E0,9.899902E-2,0E0,1.7819707E0,0E0,0E0,0E0,0E0,0E0,0E0],"parents":[2147483647,0,0,1,1,2,2,3,3,4,4,6,6],"right_children":[2,4,6,8,10,-1,12,-1,-1,-1,-1,-1,-1],"split_conditions":[7.2E1,1.219E3,3.0393461E1,3.360897E1,8.18E2,-4.490691E-2,2.15E3,-2.9069483E-2,1.5422801E-2,-0E0,3.9671887E-2,-3.0331254E-2,2.480475E-2],"split_indices":[7,5,9,9,10,0,10,0,0,0,0,0,0],"split_type":[0,0,0,0,0,0,0,0,0,0,0,0,0],"sum_hessian":[3.309497E1,1.7495493E1,1.5599478E1,4.6181703E0,1.2877322E1,1.1803538E1,3.795939E0,1.2896856E0,3.3284845E0,1.0020018E0,1.187532E1,2.6576083E0,1.1383308E0],"tree_param":{"num_deleted":"0","num_feature":"11","num_nodes":"13","size_leaf_vector":"1"}},{"base_weights":[-0E0,4.2009014E-1,-4.380906E-2,-6.730282E-2,6.5463084E-1,-4.0841933E-2,2.1445543E-2,4.630622E-2,1.3290164E-2],"categories":[],"categories_nodes":[],"categories_segments":[],"categories_sizes":[],"default_left":[0,0,0,0,0,0,0,0,0],"id":53,"left_children":[1,3,-1,5,7,-1,-1,-1,-1],"loss_changes":[1.2392435E1,3.0227914E0,0E0,3.4621592E0,9.148264E-1,0E0,0E0,0E0,0E0],"parents":[2147483647,0,0,1,1,3,3,4,4],"right_children":[2,4,-1,6,8,-1,-1,-1,-1],"split_conditions":[-3.4022703E0,1.2227769E3,-4.380906E-2,1.7044249E3,-4.2202864E0,-4.0841933E-2,2.1445543E-2,4.630622E-2,1.3290164E-2],"split_indices":[8,5,0,1,8,0,0,0,0],"split_type":[0,0,0,0,0,0,0,0,0],"sum_hessian":[3.2231552E1,2.2488646E1,9.742907E0,6.8451457E0,1.5643499E1,2.8705852E0,3.9745605E0,7.6407185E0,8.002781E0],"tree_param":{"num_deleted":"0","num_feature":"11","num_nodes":"9","size_leaf_vector":"1"}},{"base_weights":[-0E0,5.3874904E-1,-8.236756E-1,-2.8312492E-1,7.597578E-1,-0E0,-4.452264E-2,6.134775E-3,-4.4339176E-2,-0E0,4.0868428E-2],"categories":[],"categories_nodes":[],"categories_segments":[],"categories_sizes":[],"default_left":[0,0,0,0,0,0,0,0,0,0,0],"id":54,"left_children":[1,3,5,7,9,-1,-1,-1,-1,-1,-1],"loss_changes":[1.4382193E1,4.080958E0,6.059532E-1,1.5886695E0,7.4833775E-1,0E0,0E0,0E0,0E0,0E0,0E0],"parents":[2147483647,0,0,1,1,2,2,3,3,4,4],"right_children":[2,4,6,8,10,-1,-1,-1,-1,-1,-1],"split_conditions":[8.4E1,1.6826437E3,1.714E3,-5.4372E0,2.898344E1,-0E0,-4.452264E-2,6.134775E-3,-4.4339176E-2,-0E0,4.0868428E-2],"split_indices":[7,1,1,8,9,0,0,0,0,0,0],"split_type":[0,0,0,0,0,0,0,0,0,0,0],"sum_hessian":[3.062581E1,1.897087E1,1.1654942E1,3.4813235E0,1.5489546E1,1.0626625E0,1.05922785E1,2.0629392E0,1.4183842E0,1.1224381E0,1.4367108E1],"tree_param":{"num_deleted":"0","num_feature":"11","num_nodes":"11","size_leaf_vector":"1"}},{"base_weights":[-7.6469337E-3,6.240266E-1,-7.942345E-1,1.431465E-2,3.944489E-2,-4.418963E-2,-1.0704198E-1,2.3299126E-2,-1.7538756E-2,6.0610897E-3,-2.4103247E-2],"categories":[],"categories_nodes":[],"categories_segments":[],"categories_sizes":[],"default_left":[0,0,0,0,0,0,0,0,0,0,0],"id":55,"left_children":[1,3,5,7,-1,-1,9,-1,-1,-1,-1],"loss_changes":[1.5229664E1,1.2516704E0,2.668934E-1,1.076653E0,0E0,0E0,5.287905E-1,0E0,0E0,0E0,0E0],"parents":[2147483647,0,0,1,1,2,2,3,3,6,6],"right_children":[2,4,6,8,-1,-1,10,-1,-1,-1,-1],"split_conditions":[7.2E1,1.235E3,3.0393461E1,4.481463E1,3.944489E-2,-4.418963E-2,1.259E3,2.3299126E-2,-1.7538756E-2,6.0610897E-3,-2.4103247E-2],"split_indices":[7,4,9,7,0,0,4,0,0,0,0],"split_type":[0,0,0,0,0,0,0,0,0,0,0],"sum_hessian":[2.8482637E1,1.5558948E1,1.2923691E1,4.1885858E0,1.1370362E1,1.0536798E1,2.3868933E0,2.3609414E0,1.8276441E0,1.0756757E0,1.3112175E0],"tree_param":{"num_deleted":"0","num_feature":"11","num_nodes":"11","size_leaf_vector":"1"}},{"base_weights":[2.7396042E-2,7.1217895E-1,-7.875043E-1,2.8910807E-1,4.6443135E-2,-0E0,-4.6820525E-2,2.9113427E-2,-4.0330933E-3],"categories":[],"categories_nodes":[],"categories_segments":[],"categories_sizes":[],"default_left":[0,0,0,0,0,0,0,0,0],"id":56,"left_children":[1,3,5,7,-1,-1,-1,-1,-1],"loss_changes":[1.7387802E1,7.066164E-1,1.974843E0,1.1743417E0,0E0,0E0,0E0,0E0,0E0],"parents":[2147483647,0,0,1,1,2,2,3,3],"right_children":[2,4,6,8,-1,-1,-1,-1,-1],"split_conditions":[7.2E1,1.2388413E3,1.7050759E3,1.5249133E2,4.6443135E-2,-0E0,-4.6820525E-2,2.9113427E-2,-4.0330933E-3],"split_indices":[7,5,1,3,0,0,0,0,0],"split_type":[0,0,0,0,0,0,0,0,0],"sum_hessian":[2.9221718E1,1.6280445E1,1.2941275E1,7.08631E0,9.194135E0,1.8291368E0,1.1112137E1,4.386291E0,2.700019E0],"tree_param":{"num_deleted":"0","num_feature":"11","num_nodes":"9","size_leaf_vector":"1"}},{"base_weights":[1.7179871E-2,6.5168166E-1,-7.55865E-1,3.382588E-2,8.5391545E-1,-0E0,-8.940965E-1,-2.120795E-2,2.2232426E-2,-0E0,4.8229896E-2,-1.7515147E-2,1.6243689E-2,-4.8141986E-2,-0E0],"categories":[],"categories_nodes":[],"categories_segments":[],"categories_sizes":[],"default_left":[0,0,0,0,0,0,0,0,0,0,0,0,0,0,0],"id":57,"left_children":[1,3,5,7,9,11,13,-1,-1,-1,-1,-1,-1,-1,-1],"loss_changes":[1.5120781E1,1.6926341E0,1.341291E0,1.3135395E0,1.0080938E0,4.8049003E-1,5.225096E-1,0E0,0E0,0E0,0E0,0E0,0E0,0E0,0E0],"parents":[2147483647,0,0,1,1,2,2,3,3,4,4,5,5,6,6],"right_children":[2,4,6,8,10,12,14,-1,-1,-1,-1,-1,-1,-1,-1],"split_conditions":[7.2E1,3.353845E1,1.5758122E2,-3.8756177E0,1.196E3,1.2663224E3,1.306965E3,-2.120795E-2,2.2232426E-2,-0E0,4.8229896E-2,-1.7515147E-2,1.6243689E-2,-4.8141986E-2,-0E0],"split_indices":[7,9,3,8,4,2,2,0,0,0,0,0,0,0,0],"split_type":[0,0,0,0,0,0,0,0,0,0,0,0,0,0,0],"sum_hessian":[2.8929338E1,1.632986E1,1.2599479E1,4.9244742E0,1.1405386E1,2.202171E0,1.0397307E1,1.7377257E0,3.1867483E0,1.6001213E0,9.805264E0,1.153883E0,1.0482881E0,9.391574E0,1.0057334E0],"tree_param":{"num_deleted":"0","num_feature":"11","num_nodes":"15","size_leaf_vector":"1"}},{"base_weights":[5.5442292E-2,-4.364736E-2,6.3155544E-1,4.3681104E-2,-0E0,-1.7033817E-2,2.8660014E-2],"categories":[],"categories_nodes":[],"categories_segments":[],"categories_sizes":[],"default_left":[0,0,0,0,0,0,0],"id":58,"left_children":[1,-1,3,-1,5,-1,-1],"loss_changes":[1.4758621E1,0E0,2.6272407E0,0E0,1.354933E0,0E0,0E0],"parents":[2147483647,0,0,2,2,4,4],"right_children":[2,-1,4,-1,6,-1,-1],"split_conditions":[3.0162039E1,-4.364736E-2,6.3E1,4.3681104E-2,2.15E3,-1.7033817E-2,2.8660014E-2],"split_indices":[9,0,7,0,10,0,0],"split_type":[0,0,0,0,0,0,0],"sum_hessian":[2.5788454E1,9.345435E0,1.6443018E1,1.15581875E1,4.8848305E0,3.268917E0,1.6159136E0],"tree_param":{"num_deleted":"0","num_feature":"11","num_nodes":"7","size_leaf_vector":"1"}},{"base_weights":[-0E0,4.6242422E-1,-7.92543E-1,-1.4052075E-1,7.518554E-1,-4.2782217E-2,-0E0,1.5478449E-2,-3.5359766E-2,4.1781966E-2,-0E0],"categories":[],"categories_nodes":[],"categories_segments":[],"categories_sizes":[],"default_left":[0,0,0,0,0,0,0,0,0,0,0],"id":59,"left_children":[1,3,5,7,9,-1,-1,-1,-1,-1,-1],"loss_changes":[1.074315E1,3.5798986E0,2.1518326E-1,1.9917297E0,6.756458E-1,0E0,0E0,0E0,0E0,0E0,0E0],"parents":[2147483647,0,0,1,1,2,2,3,3,4,4],"right_children":[2,4,6,8,10,-1,-1,-1,-1,-1,-1],"split_conditions":[8.4E1,1.235E3,3.0393461E1,4.402668E1,7.2E1,-4.2782217E-2,-0E0,1.5478449E-2,-3.5359766E-2,4.1781966E-2,-0E0],"split_indices":[7,4,9,7,7,0,0,0,0,0,0],"split_type":[0,0,0,0,0,0,0,0,0,0,0],"sum_hessian":[2.7079176E1,1.7156898E1,9.922278E0,5.171196E0,1.19857025E1,8.664619E0,1.2576585E0,2.64318E0,2.5280159E0,1.04798355E1,1.5058669E0],"tree_param":{"num_deleted":"0","num_feature":"11","num_nodes":"11","size_leaf_vector":"1"}},{"base_weights":[-1.5077649E-2,-5.308238E-1,3.5651484E-1,2.1612597E-1,-4.6166677E-2,6.948791E-1,-0E0,-9.251385E-3,2.7832204E-2,4.813041E-2,-0E0,-3.8278636E-2,2.2456428E-2],"categories":[],"categories_nodes":[],"categories_segments":[],"categories_sizes":[],"default_left":[0,0,0,0,0,0,0,0,0,0,0,0,0],"id":60,"left_children":[1,3,5,7,-1,9,11,-1,-1,-1,-1,-1,-1],"loss_changes":[5.6968985E0,4.3087654E0,2.0532792E0,9.4230735E-1,0E0,1.2133913E0,3.4289806E0,0E0,0E0,0E0,0E0,0E0,0E0],"parents":[2147483647,0,0,1,1,2,2,3,3,5,5,6,6],"right_children":[2,4,6,8,-1,10,12,-1,-1,-1,-1,-1,-1],"split_conditions":[1.218E3,1.5249133E2,1.322E3,1.702E3,-4.6166677E-2,1.712E3,1.305747E3,-9.251385E-3,2.7832204E-2,4.813041E-2,-0E0,-3.8278636E-2,2.2456428E-2],"split_indices":[5,3,6,1,0,1,2,0,0,0,0,0,0],"split_type":[0,0,0,0,0,0,0,0,0,0,0,0,0],"sum_hessian":[2.7283693E1,1.1809678E1,1.5474015E1,3.784072E0,8.025606E0,7.588823E0,7.885192E0,1.272848E0,2.511224E0,4.785107E0,2.803716E0,2.7331688E0,5.1520233E0],"tree_param":{"num_deleted":"0","num_feature":"11","num_nodes":"13","size_leaf_vector":"1"}},{"base_weights":[1.9103428E-2,6.266564E-1,-6.851784E-1,5.307048E-2,8.020051E-1,-0E0,-4.326896E-2,-1.2811482E-2,1.9728405E-2,4.4202976E-2,-0E0,-2.5139017E-2,2.2730932E-2],"categories":[],"categories_nodes":[],"categories_segments":[],"categories_sizes":[],"default_left":[0,0,0,0,0,0,0,0,0,0,0,0,0],"id":61,"left_children":[1,3,5,7,9,11,-1,-1,-1,-1,-1,-1,-1],"loss_changes":[1.1854731E1,1.066267E0,1.4174628E0,7.3166025E-1,6.780815E-1,1.0970476E0,0E0,0E0,0E0,0E0,0E0,0E0,0E0],"parents":[2147483647,0,0,1,1,2,2,3,3,4,4,5,5],"right_children":[2,4,6,8,10,12,-1,-1,-1,-1,-1,-1,-1],"split_conditions":[7.2E1,-5.1346903E0,1.5758122E2,1.2771963E3,1.6122572E2,2.004E3,-4.326896E-2,-1.2811482E-2,1.9728405E-2,4.4202976E-2,-0E0,-2.5139017E-2,2.2730932E-2],"split_indices":[7,8,3,2,3,10,0,0,0,0,0,0,0],"split_type":[0,0,0,0,0,0,0,0,0,0,0,0,0],"sum_hessian":[2.5770102E1,1.4275456E1,1.1494646E1,4.3149314E0,9.960525E0,2.7690477E0,8.725598E0,1.6269369E0,2.6879945E0,8.887933E0,1.072592E0,1.4157425E0,1.3533053E0],"tree_param":{"num_deleted":"0","num_feature":"11","num_nodes":"13","size_leaf_vector":"1"}},{"base_weights":[-0E0,4.6965107E-1,-6.728684E-1,-0E0,6.558178E-1,-7.6450145E-1,-0E0,2.3248458E-2,-2.366787E-2,3.540158E-2,-0E0,-0E0,-4.6999525E-2],"categories":[],"categories_nodes":[],"categories_segments":[],"categories_sizes":[],"default_left":[0,0,0,0,0,0,0,0,0,0,0,0,0],"id":62,"left_children":[1,3,5,7,9,11,-1,-1,-1,-1,-1,-1,-1],"loss_changes":[9.109913E0,1.485843E0,9.5588446E-1,1.4724617E0,3.4808922E-1,1.2799587E0,0E0,0E0,0E0,0E0,0E0,0E0,0E0],"parents":[2147483647,0,0,1,1,2,2,3,3,4,4,5,5],"right_children":[2,4,6,8,10,12,-1,-1,-1,-1,-1,-1,-1],"split_conditions":[7.2E1,1.235E3,1.3137314E3,1.244E3,1.3381375E3,1.5758122E2,-0E0,2.3248458E-2,-2.366787E-2,3.540158E-2,-0E0,-0E0,-4.6999525E-2],"split_indices":[7,4,2,6,4,3,0,0,0,0,0,0,0],"split_type":[0,0,0,0,0,0,0,0,0,0,0,0,0],"sum_hessian":[2.6693495E1,1.5716018E1,1.0977478E1,4.688658E0,1.102736E1,9.913805E0,1.0636724E0,2.33473E0,2.3539286E0,1.0013215E1,1.0141447E0,2.2460575E0,7.6677475E0],"tree_param":{"num_deleted":"0","num_feature":"11","num_nodes":"13","size_leaf_vector":"1"}},{"base_weights":[-3.7308536E-2,-4.1424703E-2,3.0228117E-1,-4.513109E-2,5.0061494E-1,3.4724742E-2,-0E0],"categories":[],"categories_nodes":[],"categories_segments":[],"categories_sizes":[],"default_left":[0,0,0,0,0,0,0],"id":63,"left_children":[1,-1,3,-1,5,-1,-1],"loss_changes":[7.0400023E0,0E0,4.3818693E0,0E0,1.2177148E0,0E0,0E0],"parents":[2147483647,0,0,2,2,4,4],"right_children":[2,-1,4,-1,6,-1,-1],"split_conditions":[2.8822748E1,-4.1424703E-2,1.647E3,-4.513109E-2,1.5650069E2,3.4724742E-2,-0E0],"split_indices":[9,0,1,0,3,0,0],"split_type":[0,0,0,0,0,0,0],"sum_hessian":[2.3290956E1,7.0044556E0,1.62865E1,1.4437159E0,1.4842785E1,9.756607E0,5.0861783E0],"tree_param":{"num_deleted":"0","num_feature":"11","num_nodes":"7","size_leaf_vector":"1"}},{"base_weights":[-2.8270964E-2,4.0444785E-1,-7.710236E-1,-6.6672814E-1,8.2773316E-1,-0E0,-4.222995E-2,1.5752843E-3,-5.2481342E-2,1.9978813E-3,4.4099733E-2],"categories":[],"categories_nodes":[],"categories_segments":[],"categories_sizes":[],"default_left":[0,0,0,0,0,0,0,0,0,0,0],"id":64,"left_children":[1,3,5,7,9,-1,-1,-1,-1,-1,-1],"loss_changes":[8.348442E0,7.73742E0,3.770156E-1,1.7873647E0,1.7266273E-2,0E0,0E0,0E0,0E0,0E0,0E0],"parents":[2147483647,0,0,1,1,2,2,3,3,4,4],"right_children":[2,4,6,8,10,-1,-1,-1,-1,-1,-1],"split_conditions":[8E1,1.6826437E3,1.7050759E3,4.1E1,1.698E3,-0E0,-4.222995E-2,1.5752843E-3,-5.2481342E-2,1.9978813E-3,4.4099733E-2],"split_indices":[7,1,1,7,1,0,0,0,0,0,0],"split_type":[0,0,0,0,0,0,0,0,0,0,0],"sum_hessian":[2.343448E1,1.4670137E1,8.764344E0,3.6576462E0,1.1012491E1,1.0985862E0,7.6657577E0,1.1579534E0,2.499693E0,1.4153459E0,9.597145E0],"tree_param":{"num_deleted":"0","num_feature":"11","num_nodes":"11","size_leaf_vector":"1"}},{"base_weights":[-6.2300358E-2,3.997155E-1,-6.5694004E-1,-8.2136296E-2,6.7898726E-1,-3.7482392E-2,-0E0,1.6459325E-2,-3.256641E-2,3.7314776E-2,-0E0],"categories":[],"categories_nodes":[],"categories_segments":[],"categories_sizes":[],"default_left":[0,0,0,0,0,0,0,0,0,0,0],"id":65,"left_children":[1,3,5,7,9,-1,-1,-1,-1,-1,-1],"loss_changes":[7.1019306E0,2.2239609E0,9.387455E-1,1.6241393E0,3.3957672E-1,0E0,0E0,0E0,0E0,0E0,0E0],"parents":[2147483647,0,0,1,1,2,2,3,3,4,4],"right_children":[2,4,6,8,10,-1,-1,-1,-1,-1,-1],"split_conditions":[7.2E1,1.219E3,1.306965E3,4.481463E1,1.378E3,-3.7482392E-2,-0E0,1.6459325E-2,-3.256641E-2,3.7314776E-2,-0E0],"split_indices":[7,5,2,7,6,0,0,0,0,0,0],"split_type":[0,0,0,0,0,0,0,0,0,0,0],"sum_hessian":[2.342637E1,1.2894622E1,1.0531749E1,4.3333817E0,8.56124E0,9.526335E0,1.005414E0,2.2503805E0,2.083001E0,7.52406E0,1.0371804E0],"tree_param":{"num_deleted":"0","num_feature":"11","num_nodes":"11","size_leaf_vector":"1"}},{"base_weights":[5.678161E-2,5.0239205E-1,-7.310324E-1,-0E0,6.3736E-1,-4.0513348E-2,-0E0,1.974234E-2,-1.5054113E-2,3.4108058E-2,-0E0],"categories":[],"categories_nodes":[],"categories_segments":[],"categories_sizes":[],"default_left":[0,0,0,0,0,0,0,0,0,0,0],"id":66,"left_children":[1,3,5,7,9,-1,-1,-1,-1,-1,-1],"loss_changes":[8.709483E0,7.9599094E-1,3.3158684E-1,7.887273E-1,1.970787E-1,0E0,0E0,0E0,0E0,0E0,0E0],"parents":[2147483647,0,0,1,1,2,2,3,3,4,4],"right_children":[2,4,6,8,10,-1,-1,-1,-1,-1,-1],"split_conditions":[8.4E1,1.235E3,3.0393461E1,4.481463E1,1.3652096E3,-4.0513348E-2,-0E0,1.974234E-2,-1.5054113E-2,3.4108058E-2,-0E0],"split_indices":[7,4,9,7,2,0,0,0,0,0,0],"split_type":[0,0,0,0,0,0,0,0,0,0,0],"sum_hessian":[2.3088713E1,1.5384026E1,7.7046876E0,4.244819E0,1.1139206E1,6.5905523E0,1.1141351E0,2.4117906E0,1.8330288E0,1.0020583E1,1.1186222E0],"tree_param":{"num_deleted":"0","num_feature":"11","num_nodes":"11","size_leaf_vector":"1"}},{"base_weights":[-0E0,4.683993E-1,-4.2903874E-2,-3.9097544E-2,6.575221E-1,-0E0,3.6073875E-2],"categories":[],"categories_nodes":[],"categories_segments":[],"categories_sizes":[],"default_left":[0,0,0,0,0,0,0],"id":67,"left_children":[1,3,-1,-1,5,-1,-1],"loss_changes":[1.0065449E1,4.184082E0,0E0,0E0,7.2824526E-1,0E0,0E0],"parents":[2147483647,0,0,1,1,4,4],"right_children":[2,4,-1,-1,6,-1,-1],"split_conditions":[8E1,1.647E3,-4.2903874E-2,-3.9097544E-2,2.898344E1,-0E0,3.6073875E-2],"split_indices":[7,1,0,0,9,0,0],"split_type":[0,0,0,0,0,0,0],"sum_hessian":[2.2750267E1,1.4782765E1,7.9675007E0,1.1830231E0,1.3599743E1,1.0746176E0,1.25251255E1],"tree_param":{"num_deleted":"0","num_feature":"11","num_nodes":"7","size_leaf_vector":"1"}},{"base_weights":[-1.4022325E-1,2.9110977E-1,-4.1139144E-2,-4.8436466E-1,5.905106E-1,-3.93542E-2,-0E0,3.5331644E-2,-0E0],"categories":[],"categories_nodes":[],"categories_segments":[],"categories_sizes":[],"default_left":[0,0,0,0,0,0,0,0,0],"id":68,"left_children":[1,3,-1,5,7,-1,-1,-1,-1],"loss_changes":[7.386764E0,3.7317595E0,0E0,8.5858023E-1,5.537865E-1,0E0,0E0,0E0,0E0],"parents":[2147483647,0,0,1,1,3,3,4,4],"right_children":[2,4,-1,6,8,-1,-1,-1,-1],"split_conditions":[7.2E1,1.6826437E3,-4.1139144E-2,1.2503292E3,1.762E3,-3.93542E-2,-0E0,3.5331644E-2,-0E0],"split_indices":[7,1,0,2,1,0,0,0,0],"split_type":[0,0,0,0,0,0,0,0,0],"sum_hessian":[2.2373512E1,1.3612359E1,8.761154E0,3.154401E0,1.0457957E1,1.9592205E0,1.1951805E0,8.110626E0,2.3473318E0],"tree_param":{"num_deleted":"0","num_feature":"11","num_nodes":"9","size_leaf_vector":"1"}},{"base_weights":[-8.941807E-2,-3.845914E-2,2.3771939E-1,-0E0,3.6525514E-2,-3.4218054E-2,1.8955754E-2],"categories":[],"categories_nodes":[],"categories_segments":[],"categories_sizes":[],"default_left":[0,0,0,0,0,0,0],"id":69,"left_children":[1,-1,3,5,-1,-1,-1],"loss_changes":[5.2047005E0,0E0,1.3989539E0,3.114953E0,0E0,0E0,0E0],"parents":[2147483647,0,0,2,2,3,3],"right_children":[2,-1,4,6,-1,-1,-1],"split_conditions":[3.0162039E1,-3.845914E-2,2.163E3,3.5462997E1,3.6525514E-2,-3.4218054E-2,1.8955754E-2],"split_indices":[9,0,10,9,0,0,0],"split_type":[0,0,0,0,0,0,0],"sum_hessian":[2.0387686E1,6.6814137E0,1.3706272E1,1.0527443E1,3.1788294E0,3.0490372E0,7.4784055E0],"tree_param":{"num_deleted":"0","num_feature":"11","num_nodes":"7","size_leaf_vector":"1"}},{"base_weights":[-0E0,3.7548712E-1,-7.1215045E-1,-4.27772E-1,6.55524E-1,-0E0,-4.0027298E-2,-0E0,-3.6469247E-2,3.9462104E-2,-6.1194245E-3],"categories":[],"categories_nodes":[],"categories_segments":[],"categories_sizes":[],"default_left":[0,0,0,0,0,0,0,0,0,0,0],"id":70,"left_children":[1,3,5,7,9,-1,-1,-1,-1,-1,-1],"loss_changes":[6.177285E0,3.7170632E0,4.1918707E-1,8.239534E-1,1.6584625E0,0E0,0E0,0E0,0E0,0E0,0E0],"parents":[2147483647,0,0,1,1,2,2,3,3,4,4],"right_children":[2,4,6,8,10,-1,-1,-1,-1,-1,-1],"split_conditions":[8E1,1.6826437E3,1.7114705E3,4.1E1,-3.433311E0,-0E0,-4.0027298E-2,-0E0,-3.6469247E-2,3.9462104E-2,-6.1194245E-3],"split_indices":[7,1,1,7,8,0,0,0,0,0,0],"split_type":[0,0,0,0,0,0,0,0,0,0,0],"sum_hessian":[2.0845324E1,1.3771673E1,7.0736513E0,2.9621096E0,1.0809564E1,1.0304453E0,6.0432057E0,1.0505148E0,1.9115949E0,9.760056E0,1.0495085E0],"tree_param":{"num_deleted":"0","num_feature":"11","num_nodes":"11","size_leaf_vector":"1"}},{"base_weights":[-2.963693E-2,-3.7165474E-2,2.9519403E-1,-3.9137718E-1,6.638954E-1,1.9523818E-2,-4.2587172E-2,3.890393E-2,-0E0],"categories":[],"categories_nodes":[],"categories_segments":[],"categories_sizes":[],"default_left":[0,0,0,0,0,0,0,0,0],"id":71,"left_children":[1,-1,3,5,7,-1,-1,-1,-1],"loss_changes":[5.2765303E0,0E0,4.08214E0,2.4503381E0,5.7716036E-1,0E0,0E0,0E0,0E0],"parents":[2147483647,0,0,2,2,3,3,4,4],"right_children":[2,-1,4,6,8,-1,-1,-1,-1],"split_conditions":[3.0162039E1,-3.7165474E-2,1.698E3,4.690861E1,7.2E1,1.9523818E-2,-4.2587172E-2,3.890393E-2,-0E0],"split_indices":[9,0,1,7,7,0,0,0,0],"split_type":[0,0,0,0,0,0,0,0,0],"sum_hessian":[1.984803E1,6.2867155E0,1.3561316E1,4.2428846E0,9.318431E0,1.2261688E0,3.016716E0,7.4655256E0,1.8529052E0],"tree_param":{"num_deleted":"0","num_feature":"11","num_nodes":"9","size_leaf_vector":"1"}},{"base_weights":[2.313591E-3,-3.8692325E-2,3.5792702E-1,-1.765594E-2,5.184581E-1,-0E0,3.747729E-2],"categories":[],"categories_nodes":[],"categories_segments":[],"categories_sizes":[],"default_left":[0,0,0,0,0,0,0],"id":72,"left_children":[1,-1,3,-1,5,-1,-1],"loss_changes":[5.6163135E0,0E0,1.9674791E0,0E0,1.4192724E0,0E0,0E0],"parents":[2147483647,0,0,2,2,4,4],"right_children":[2,-1,4,-1,6,-1,-1],"split_conditions":[2.8822748E1,-3.8692325E-2,1.675E3,-1.765594E-2,3.2776546E1,-0E0,3.747729E-2],"split_indices":[9,0,1,0,9,0,0],"split_type":[0,0,0,0,0,0,0],"sum_hessian":[1.9097942E1,5.1894226E0,1.3908519E1,1.7670981E0,1.214142E1,4.3277774E0,7.8136435E0],"tree_param":{"num_deleted":"0","num_feature":"11","num_nodes":"7","size_leaf_vector":"1"}},{"base_weights":[-7.439438E-2,2.7649134E-1,-4.6796578E-1,-3.330579E-1,5.8723694E-1,-6.5387636E-1,2.4191623E-3,7.506153E-3,-4.3685656E-2,3.3414565E-2,-0E0,-0E0,-4.115924E-2],"categories":[],"categories_nodes":[],"categories_segments":[],"categories_sizes":[],"default_left":[0,0,0,0,0,0,0,0,0,0,0,0,0],"id":73,"left_children":[1,3,5,7,9,11,-1,-1,-1,-1,-1,-1,-1],"loss_changes":[2.9272945E0,2.273913E0,1.3198214E0,1.42639E0,3.0857253E-1,9.9754095E-1,0E0,0E0,0E0,0E0,0E0,0E0,0E0],"parents":[2147483647,0,0,1,1,2,2,3,3,4,4,5,5],"right_children":[2,4,6,8,10,12,-1,-1,-1,-1,-1,-1,-1],"split_conditions":[1.5667053E2,1.6826437E3,1.2692106E3,1.337E3,1.5600757E2,1.716E3,2.4191623E-3,7.506153E-3,-4.3685656E-2,3.3414565E-2,-0E0,-0E0,-4.115924E-2],"split_indices":[3,1,5,10,3,1,0,0,0,0,0,0,0],"split_type":[0,0,0,0,0,0,0,0,0,0,0,0,0],"sum_hessian":[1.8566956E1,9.301413E0,9.265543E0,2.5731542E0,6.728258E0,7.3288093E0,1.9367336E0,1.2518815E0,1.3212729E0,5.6582007E0,1.0700569E0,1.6016321E0,5.727177E0],"tree_param":{"num_deleted":"0","num_feature":"11","num_nodes":"13","size_leaf_vector":"1"}},{"base_weights":[-5.8242332E-2,-3.7993576E-2,1.7224061E-1,-5.325224E-1,4.7229728E-1,-3.694853E-2,-0E0,-0E0,2.591516E-2],"categories":[],"categories_nodes":[],"categories_segments":[],"categories_sizes":[],"default_left":[0,0,0,0,0,0,0,0,0],"id":74,"left_children":[1,-1,3,5,7,-1,-1,-1,-1],"loss_changes":[3.822943E0,0E0,3.6253395E0,6.6489744E-1,2.879238E-1,0E0,0E0,0E0,0E0],"parents":[2147483647,0,0,2,2,3,3,4,4],"right_children":[2,-1,4,6,8,-1,-1,-1,-1],"split_conditions":[2.8822748E1,-3.7993576E-2,1.6826437E3,1.277E3,3.026738E1,-3.694853E-2,-0E0,-0E0,2.591516E-2],"split_indices":[9,0,1,4,9,0,0,0,0],"split_type":[0,0,0,0,0,0,0,0,0],"sum_hessian":[2.0013988E1,4.917321E0,1.5096667E1,3.779176E0,1.1317492E1,2.6994317E0,1.0797443E0,1.0178283E0,1.0299664E1],"tree_param":{"num_deleted":"0","num_feature":"11","num_nodes":"9","size_leaf_vector":"1"}},{"base_weights":[8.388039E-3,-3.7537295E-2,3.056936E-1,-4.8650908E-1,5.907946E-1,-3.905296E-2,-0E0,1.6673864E-4,3.490642E-2],"categories":[],"categories_nodes":[],"categories_segments":[],"categories_sizes":[],"default_left":[0,0,0,0,0,0,0,0,0],"id":75,"left_children":[1,-1,3,5,7,-1,-1,-1,-1],"loss_changes":[4.725964E0,0E0,4.000381E0,4.136423E-1,4.562254E-1,0E0,0E0,0E0,0E0],"parents":[2147483647,0,0,2,2,3,3,4,4],"right_children":[2,-1,4,6,8,-1,-1,-1,-1],"split_conditions":[2.8822748E1,-3.7537295E-2,1.6826437E3,1.647E3,1.218E3,-3.905296E-2,-0E0,1.6673864E-4,3.490642E-2],"split_indices":[9,0,1,1,5,0,0,0,0],"split_type":[0,0,0,0,0,0,0,0,0],"sum_hessian":[1.9908737E1,4.700258E0,1.5208479E1,3.373742E0,1.1834737E1,1.3749853E0,1.9987569E0,2.707186E0,9.127551E0],"tree_param":{"num_deleted":"0","num_feature":"11","num_nodes":"9","size_leaf_vector":"1"}},{"base_weights":[-4.6260297E-2,-3.9797E-1,4.216969E-1,-9.6017563E-1,1.7490168E-1,-3.20716E-2,7.341471E-1,-0E0,-5.9432704E-2,-2.6506731E-2,3.572283E-2,4.1843276E-2,-0E0],"categories":[],"categories_nodes":[],"categories_segments":[],"categories_sizes":[],"default_left":[0,0,0,0,0,0,0,0,0,0,0,0,0],"id":76,"left_children":[1,3,5,7,9,-1,11,-1,-1,-1,-1,-1,-1],"loss_changes":[3.4907362E0,4.648348E0,3.3638668E0,2.006559E0,3.0165353E0,0E0,4.8351192E-1,0E0,0E0,0E0,0E0,0E0,0E0],"parents":[2147483647,0,0,1,1,2,2,3,3,4,4,6,6],"right_children":[2,4,6,8,10,-1,12,-1,-1,-1,-1,-1,-1],"split_conditions":[3.5462997E1,2.164E3,1.647E3,1.261E3,2.8822748E1,-3.20716E-2,1.3381375E3,-0E0,-5.9432704E-2,-2.6506731E-2,3.572283E-2,4.1843276E-2,-0E0],"split_indices":[9,10,1,6,9,0,4,0,0,0,0,0,0],"split_type":[0,0,0,0,0,0,0,0,0,0,0,0,0],"sum_hessian":[1.926172E1,1.1692126E1,7.5695953E0,6.0002813E0,5.6918445E0,1.1167221E0,6.452873E0,1.0123209E0,4.987961E0,2.0733576E0,3.618487E0,5.4259877E0,1.0268857E0],"tree_param":{"num_deleted":"0","num_feature":"11","num_nodes":"13","size_leaf_vector":"1"}},{"base_weights":[-0E0,-3.5671737E-2,2.1396595E-1,-3.9224806E-1,4.263694E-1,-0E0,-3.5264403E-2,3.546746E-2,-0E0],"categories":[],"categories_nodes":[],"categories_segments":[],"categories_sizes":[],"default_left":[0,0,0,0,0,0,0,0,0],"id":77,"left_children":[1,-1,3,5,7,-1,-1,-1,-1],"loss_changes":[3.2598166E0,0E0,2.093009E0,4.9800026E-1,1.7038417E0,0E0,0E0,0E0,0E0],"parents":[2147483647,0,0,2,2,3,3,4,4],"right_children":[2,-1,4,6,8,-1,-1,-1,-1],"split_conditions":[2.8822748E1,-3.5671737E-2,1.6826437E3,-5.4372E0,1.323E3,-0E0,-3.5264403E-2,3.546746E-2,-0E0],"split_indices":[9,0,1,8,6,0,0,0,0],"split_type":[0,0,0,0,0,0,0,0,0],"sum_hessian":[1.7894701E1,4.071179E0,1.3823523E1,2.756256E0,1.1067266E1,1.5932792E0,1.1629769E0,6.745914E0,4.321353E0],"tree_param":{"num_deleted":"0","num_feature":"11","num_nodes":"9","size_leaf_vector":"1"}},{"base_weights":[-2.1334628E-2,-5.5736774E-1,3.6591068E-1,2.7262809E-2,-4.238753E-2,5.275609E-1,-1.5105459E-2,-3.2069043E-3,1.6295265E-2,-0E0,3.1191377E-2],"categories":[],"categories_nodes":[],"categories_segments":[],"categories_sizes":[],"default_left":[0,0,0,0,0,0,0,0,0,0,0],"id":78,"left_children":[1,3,5,7,-1,9,-1,-1,-1,-1,-1],"loss_changes":[4.0413585E0,1.8760719E0,1.4089081E0,2.3961623E-1,0E0,6.461327E-1,0E0,0E0,0E0,0E0,0E0],"parents":[2147483647,0,0,1,1,2,2,3,3,5,5],"right_children":[2,4,6,8,-1,10,-1,-1,-1,-1,-1],"split_conditions":[1.218E3,1.244E3,1.04E2,-5.032457E0,-4.238753E-2,8.18E2,-1.5105459E-2,-3.2069043E-3,1.6295265E-2,-0E0,3.1191377E-2],"split_indices":[5,6,7,8,0,10,0,0,0,0,0],"split_type":[0,0,0,0,0,0,0,0,0,0,0],"sum_hessian":[1.7025578E1,7.498228E0,9.5273485E0,2.217654E0,5.2805743E0,8.443016E0,1.0843331E0,1.0172973E0,1.2003566E0,1.0292249E0,7.413791E0],"tree_param":{"num_deleted":"0","num_feature":"11","num_nodes":"11","size_leaf_vector":"1"}},{"base_weights":[-8.68519E-2,2.4825783E-1,-6.4001644E-1,5.0105953E-1,-0E0,-0E0,-4.2777445E-2,3.2991033E-2,-0E0,-3.2074627E-2,1.2396877E-2],"categories":[],"categories_nodes":[],"categories_segments":[],"categories_sizes":[],"default_left":[0,0,0,0,0,0,0,0,0,0,0],"id":79,"left_children":[1,3,5,7,9,-1,-1,-1,-1,-1,-1],"loss_changes":[3.7408488E0,8.5565156E-1,1.1485834E0,6.4296114E-1,1.263606E0,0E0,0E0,0E0,0E0,0E0,0E0],"parents":[2147483647,0,0,1,1,2,2,3,3,4,4],"right_children":[2,4,6,8,10,-1,-1,-1,-1,-1,-1],"split_conditions":[7.2E1,4.8E1,1.5758122E2,1.5650069E2,1.2495068E3,-0E0,-4.2777445E-2,3.2991033E-2,-0E0,-3.2074627E-2,1.2396877E-2],"split_indices":[7,7,3,3,2,0,0,0,0,0,0],"split_type":[0,0,0,0,0,0,0,0,0,0,0],"sum_hessian":[1.7266525E1,1.0532936E1,6.733589E0,5.239325E0,5.293611E0,1.8365445E0,4.8970447E0,4.074864E0,1.1644609E0,1.32901E0,3.9646008E0],"tree_param":{"num_deleted":"0","num_feature":"11","num_nodes":"11","size_leaf_vector":"1"}},{"base_weights":[-4.0848803E-2,2.4361376E-1,-5.045837E-1,-5.4821825E-1,5.926911E-1,4.300741E-3,-3.8819782E-2,-4.0098555E-2,-0E0,3.9666757E-2,5.580812E-3],"categories":[],"categories_nodes":[],"categories_segments":[],"categories_sizes":[],"default_left":[0,0,0,0,0,0,0,0,0,0,0],"id":80,"left_children":[1,3,5,7,9,-1,-1,-1,-1,-1,-1],"loss_changes":[2.8187973E0,3.680559E0,1.7584579E0,6.287252E-1,3.555498E-1,0E0,0E0,0E0,0E0,0E0,0E0],"parents":[2147483647,0,0,1,1,2,2,3,3,4,4],"right_children":[2,4,6,8,10,-1,-1,-1,-1,-1,-1],"split_conditions":[7.2E1,1.6826437E3,1.7062153E3,1.2771963E3,1.5625626E2,4.300741E-3,-3.8819782E-2,-4.0098555E-2,-0E0,3.9666757E-2,5.580812E-3],"split_indices":[7,1,1,2,3,0,0,0,0,0,0],"split_type":[0,0,0,0,0,0,0,0,0,0,0],"sum_hessian":[1.8447252E1,1.1059588E1,7.3876643E0,2.7710447E0,8.288544E0,1.9640906E0,5.4235735E0,1.7397441E0,1.0313008E0,4.6575646E0,3.6309793E0],"tree_param":{"num_deleted":"0","num_feature":"11","num_nodes":"11","size_leaf_vector":"1"}},{"base_weights":[-0E0,4.6454197E-1,-4.2654514E-1,-0E0,6.162017E-1,2.2472642E-2,-3.662072E-2,3.897096E-2,-0E0,-1.38609875E-2,1.961213E-2],"categories":[],"categories_nodes":[],"categories_segments":[],"categories_sizes":[],"default_left":[0,0,0,0,0,0,0,0,0,0,0],"id":81,"left_children":[1,3,5,-1,7,9,-1,-1,-1,-1,-1],"loss_changes":[3.612372E0,9.1795516E-1,1.6160583E0,0E0,4.722464E-1,6.0728E-1,0E0,0E0,0E0,0E0,0E0],"parents":[2147483647,0,0,1,1,2,2,4,4,5,5],"right_children":[2,4,6,-1,8,10,-1,-1,-1,-1,-1],"split_conditions":[5.9841354E1,1.6826437E3,1.712E3,-0E0,1.762E3,1.68E3,-3.662072E-2,3.897096E-2,-0E0,-1.38609875E-2,1.961213E-2],"split_indices":[7,1,1,0,1,1,0,0,0,0,0],"split_type":[0,0,0,0,0,0,0,0,0,0,0],"sum_hessian":[1.6161364E1,8.099029E0,8.062336E0,1.5101839E0,6.588845E0,2.9798067E0,5.082529E0,4.5206537E0,2.0681913E0,1.03724E0,1.9425665E0],"tree_param":{"num_deleted":"0","num_feature":"11","num_nodes":"11","size_leaf_vector":"1"}},{"base_weights":[-1.9936524E-2,-3.45164E-2,1.6278957E-1,-2.3674022E-2,3.601187E-2,1.5291916E-2,-4.2590257E-2],"categories":[],"categories_nodes":[],"categories_segments":[],"categories_sizes":[],"default_left":[0,0,0,0,0,0,0],"id":82,"left_children":[1,-1,3,5,-1,-1,-1],"loss_changes":[2.5920153E0,0E0,1.8660398E0,3.5665238E0,0E0,0E0,0E0],"parents":[2147483647,0,0,2,2,3,3],"right_children":[2,-1,4,6,-1,-1,-1],"split_conditions":[2.8822748E1,-3.45164E-2,2.163E3,2.014E3,3.601187E-2,1.5291916E-2,-4.2590257E-2],"split_indices":[9,0,10,10,0,0,0],"split_type":[0,0,0,0,0,0,0],"sum_hessian":[1.708901E1,3.6513212E0,1.343769E1,1.0114894E1,3.322796E0,7.255041E0,2.8598523E0],"tree_param":{"num_deleted":"0","num_feature":"11","num_nodes":"7","size_leaf_vector":"1"}},{"base_weights":[-1.8581841E-2,-5.5789846E-1,3.3391353E-1,-0E0,-4.0089704E-2,8.340739E-1,-1.1194601E-1,4.752862E-2,-0E0,1.6053878E-2,-3.1905215E-2],"categories":[],"categories_nodes":[],"categories_segments":[],"categories_sizes":[],"default_left":[0,0,0,0,0,0,0,0,0,0,0],"id":83,"left_children":[1,3,5,-1,-1,7,9,-1,-1,-1,-1],"loss_changes":[3.6294367E0,1.3115025E0,2.8319764E0,0E0,0E0,2.5028634E-1,1.7281264E0,0E0,0E0,0E0,0E0],"parents":[2147483647,0,0,1,1,2,2,5,5,6,6],"right_children":[2,4,6,-1,-1,8,10,-1,-1,-1,-1],"split_conditions":[1.218E3,1.243E3,1.322E3,-0E0,-4.0089704E-2,1.7183696E3,7.2E1,4.752862E-2,-0E0,1.6053878E-2,-3.1905215E-2],"split_indices":[5,6,6,0,0,1,7,0,0,0,0],"split_type":[0,0,0,0,0,0,0,0,0,0,0],"sum_hessian":[1.6522558E1,6.8610005E0,9.661558E0,2.014993E0,4.8460073E0,4.6716604E0,4.9898977E0,3.6436467E0,1.0280136E0,2.4297342E0,2.5601637E0],"tree_param":{"num_deleted":"0","num_feature":"11","num_nodes":"11","size_leaf_vector":"1"}},{"base_weights":[-2.7114207E-2,3.142905E-1,-5.9859234E-1,-3.2054168E-1,6.424257E-1,-0E0,-4.0026512E-2,-0E0,-3.204377E-2,3.927146E-2,-0E0],"categories":[],"categories_nodes":[],"categories_segments":[],"categories_sizes":[],"default_left":[0,0,0,0,0,0,0,0,0,0,0],"id":84,"left_children":[1,3,5,7,9,-1,-1,-1,-1,-1,-1],"loss_changes":[3.56176E0,2.5492377E0,1.0752828E0,6.095872E-1,3.906741E-1,0E0,0E0,0E0,0E0,0E0,0E0],"parents":[2147483647,0,0,1,1,2,2,3,3,4,4],"right_children":[2,4,6,8,10,-1,-1,-1,-1,-1,-1],"split_conditions":[7.2E1,1.6826437E3,1.7062153E3,-5.802256E0,1.76E3,-0E0,-4.0026512E-2,-0E0,-3.204377E-2,3.927146E-2,-0E0],"split_indices":[7,1,1,8,1,0,0,0,0,0,0],"split_type":[0,0,0,0,0,0,0,0,0,0,0],"sum_hessian":[1.5562731E1,9.476516E0,6.0862155E0,2.7178202E0,6.758695E0,1.4462491E0,4.6399665E0,1.303575E0,1.4142451E0,4.823922E0,1.9347732E0],"tree_param":{"num_deleted":"0","num_feature":"11","num_nodes":"11","size_leaf_vector":"1"}},{"base_weights":[-1.1304033E-1,-5.3545976E-1,1.4186525E-1,4.3308E-3,-4.3372456E-2,3.8091224E-2,-0E0,-2.420642E-2,8.61468E-3],"categories":[],"categories_nodes":[],"categories_segments":[],"categories_sizes":[],"default_left":[0,0,0,0,0,0,0,0,0],"id":85,"left_children":[1,3,5,-1,-1,-1,7,-1,-1],"loss_changes":[2.0673892E0,1.9566531E0,1.140866E0,0E0,0E0,0E0,9.349245E-1,0E0,0E0],"parents":[2147483647,0,0,1,1,2,2,6,6],"right_children":[2,4,6,-1,-1,-1,8,-1,-1],"split_conditions":[1.218E3,1.243E3,1.2691329E3,4.3308E-3,-4.3372456E-2,3.8091224E-2,1.2421338E3,-2.420642E-2,8.61468E-3],"split_indices":[5,6,2,0,0,0,5,0,0],"split_type":[0,0,0,0,0,0,0,0,0],"sum_hessian":[1.5666767E1,6.220045E0,9.446722E0,1.8975246E0,4.3225207E0,1.3279957E0,8.118727E0,2.0999708E0,6.018756E0],"tree_param":{"num_deleted":"0","num_feature":"11","num_nodes":"9","size_leaf_vector":"1"}},{"base_weights":[-0E0,-3.343269E-2,2.2408533E-1,4.895786E-1,-1.7094198E-1,-0E0,4.4254538E-2,-4.2439085E-2,1.0620545E-2],"categories":[],"categories_nodes":[],"categories_segments":[],"categories_sizes":[],"default_left":[0,0,0,0,0,0,0,0,0],"id":86,"left_children":[1,-1,3,5,7,-1,-1,-1,-1],"loss_changes":[2.6313803E0,0E0,1.6484438E0,1.9219403E0,1.894038E0,0E0,0E0,0E0,0E0],"parents":[2147483647,0,0,2,2,3,3,4,4],"right_children":[2,-1,4,6,8,-1,-1,-1,-1],"split_conditions":[2.8822748E1,-3.343269E-2,1.327E3,1.215E3,1.306965E3,-0E0,4.4254538E-2,-4.2439085E-2,1.0620545E-2],"split_indices":[9,0,6,5,2,0,0,0,0],"split_type":[0,0,0,0,0,0,0,0,0],"sum_hessian":[1.5781195E1,3.3804061E0,1.2400788E1,8.030179E0,4.370609E0,3.8138983E0,4.216281E0,1.6114482E0,2.7591608E0],"tree_param":{"num_deleted":"0","num_feature":"11","num_nodes":"9","size_leaf_vector":"1"}},{"base_weights":[-0E0,3.099955E-2,-3.143284E-1,-6.8916565E-1,1.7677242E-1,-4.8409853E-2,1.0455246E-2,3.0763809E-2,-1.8713677E-2],"categories":[],"categories_nodes":[],"categories_segments":[],"categories_sizes":[],"default_left":[0,0,0,0,0,0,0,0,0],"id":87,"left_children":[1,-1,3,5,7,-1,-1,-1,-1],"loss_changes":[3.2375603E0,0E0,2.441401E0,2.371237E0,1.5759872E0,0E0,0E0,0E0,0E0],"parents":[2147483647,0,0,2,2,3,3,4,4],"right_children":[2,-1,4,6,8,-1,-1,-1,-1],"split_conditions":[4.8E1,3.099955E-2,2.164E3,1.289394E3,-3.4806771E0,-4.8409853E-2,1.0455246E-2,3.0763809E-2,-1.8713677E-2],"split_indices":[7,0,10,4,8,0,0,0,0],"split_type":[0,0,0,0,0,0,0,0,0],"sum_hessian":[1.4750459E1,4.541493E0,1.0208966E1,6.138507E0,4.0704594E0,5.0489283E0,1.0895783E0,2.7070694E0,1.3633897E0],"tree_param":{"num_deleted":"0","num_feature":"11","num_nodes":"9","size_leaf_vector":"1"}},{"base_weights":[-0E0,3.1995523E-1,-3.642054E-2,-1.0728877E-1,3.0599326E-2,1.8428076E-2,-2.25353E-2],"categories":[],"categories_nodes":[],"categories_segments":[],"categories_sizes":[],"default_left":[0,0,0,0,0,0,0],"id":88,"left_children":[1,3,-1,5,-1,-1,-1],"loss_changes":[3.9757416E0,1.8422129E0,0E0,1.0431496E0,0E0,0E0,0E0],"parents":[2147483647,0,0,1,1,3,3],"right_children":[2,4,-1,6,-1,-1,-1],"split_conditions":[8E1,1.221E3,-3.642054E-2,3.8315327E1,3.0599326E-2,1.8428076E-2,-2.25353E-2],"split_indices":[7,5,0,7,0,0,0],"split_type":[0,0,0,0,0,0,0],"sum_hessian":[1.5352398E1,1.1216253E1,4.1361446E0,4.115586E0,7.1006675E0,1.084162E0,3.0314238E0],"tree_param":{"num_deleted":"0","num_feature":"11","num_nodes":"7","size_leaf_vector":"1"}},{"base_weights":[-3.4698762E-2,1.9384131E-1,-3.517739E-2,-0E0,2.9624859E-2,2.332495E-2,-2.8822644E-2],"categories":[],"categories_nodes":[],"categories_segments":[],"categories_sizes":[],"default_left":[0,0,0,0,0,0,0],"id":89,"left_children":[1,3,-1,5,-1,-1,-1],"loss_changes":[2.831873E0,1.0863943E0,0E0,2.645452E0,0E0,0E0,0E0],"parents":[2147483647,0,0,1,1,3,3],"right_children":[2,4,-1,6,-1,-1,-1],"split_conditions":[8.4E1,2.163E3,-3.517739E-2,4.8E1,2.9624859E-2,2.332495E-2,-2.8822644E-2],"split_indices":[7,10,0,7,0,0,0],"split_type":[0,0,0,0,0,0,0],"sum_hessian":[1.4966649E1,1.112721E1,3.8394394E0,7.7345166E0,3.392693E0,4.1388626E0,3.5956542E0],"tree_param":{"num_deleted":"0","num_feature":"11","num_nodes":"7","size_leaf_vector":"1"}},{"base_weights":[3.4646373E-3,2.3885396E-1,-3.1019298E-2,-1.3682204E-1,4.2226607E-1,-2.9375166E-2,1.5482373E-2,3.2695565E-2,-0E0],"categories":[],"categories_nodes":[],"categories_segments":[],"categories_sizes":[],"default_left":[0,0,0,0,0,0,0,0,0],"id":90,"left_children":[1,3,-1,5,7,-1,-1,-1,-1],"loss_changes":[2.1599457E0,1.0406892E0,0E0,1.0977781E0,9.7367406E-1,0E0,0E0,0E0,0E0],"parents":[2147483647,0,0,1,1,3,3,4,4],"right_children":[2,4,-1,6,8,-1,-1,-1,-1],"split_conditions":[-3.4022703E0,1.698E3,-3.1019298E-2,1.2771963E3,5.9841354E1,-2.9375166E-2,1.5482373E-2,3.2695565E-2,-0E0],"split_indices":[8,1,0,2,7,0,0,0,0],"split_type":[0,0,0,0,0,0,0,0,0],"sum_hessian":[1.3998729E1,1.1193744E1,2.8049846E0,2.8611913E0,8.332553E0,1.8239976E0,1.0371938E0,5.16873E0,3.163823E0],"tree_param":{"num_deleted":"0","num_feature":"11","num_nodes":"9","size_leaf_vector":"1"}},{"base_weights":[9.803286E-2,-3.0535925E-2,3.4634784E-1,-1.2394756E-2,5.4222524E-1,8.65171E-3,-1.9817974E-2,-0E0,3.2047577E-2],"categories":[],"categories_nodes":[],"categories_segments":[],"categories_sizes":[],"default_left":[0,0,0,0,0,0,0,0,0],"id":91,"left_children":[1,-1,3,5,7,-1,-1,-1,-1],"loss_changes":[2.7284765E0,0E0,1.1364857E0,4.951458E-1,6.0238886E-1,0E0,0E0,0E0,0E0],"parents":[2147483647,0,0,2,2,3,3,4,4],"right_children":[2,-1,4,6,8,-1,-1,-1,-1],"split_conditions":[2.8822748E1,-3.0535925E-2,1.218E3,1.243E3,9.52E2,8.65171E-3,-1.9817974E-2,-0E0,3.2047577E-2],"split_indices":[9,0,5,6,10,0,0,0,0],"split_type":[0,0,0,0,0,0,0,0,0],"sum_hessian":[1.4052485E1,2.744887E0,1.1307598E1,3.4228587E0,7.88474E0,1.8004899E0,1.6223688E0,1.0599391E0,6.8248005E0],"tree_param":{"num_deleted":"0","num_feature":"11","num_nodes":"9","size_leaf_vector":"1"}},{"base_weights":[-2.0613629E-4,1.2653205E-1,-2.9851243E-2,-4.7730544E-1,4.5034212E-1,-0E0,-3.5214704E-2,3.3074506E-2,-0E0],"categories":[],"categories_nodes":[],"categories_segments":[],"categories_sizes":[],"default_left":[0,0,0,0,0,0,0,0,0],"id":92,"left_children":[1,3,-1,5,7,-1,-1,-1,-1],"loss_changes":[1.4913805E0,2.7449586E0,0E0,5.8500683E-1,9.406922E-1,0E0,0E0,0E0,0E0],"parents":[2147483647,0,0,1,1,3,3,4,4],"right_children":[2,4,-1,6,8,-1,-1,-1,-1],"split_conditions":[-3.4022703E0,1.6826437E3,-2.9851243E-2,4.8E1,1.324E3,-0E0,-3.5214704E-2,3.3074506E-2,-0E0],"split_indices":[8,1,0,7,6,0,0,0,0],"split_type":[0,0,0,0,0,0,0,0,0],"sum_hessian":[1.4608087E1,1.2008269E1,2.599817E0,3.4872115E0,8.521058E0,1.2469137E0,2.2402978E0,5.5627093E0,2.9583488E0],"tree_param":{"num_deleted":"0","num_feature":"11","num_nodes":"9","size_leaf_vector":"1"}},{"base_weights":[1.9836036E-2,-2.969245E-2,2.5957936E-1,5.1320875E-1,-1.5068603E-1,-0E0,3.116487E-2,-3.2224696E-2,7.1409578E-3],"categories":[],"categories_nodes":[],"categories_segments":[],"categories_sizes":[],"default_left":[0,0,0,0,0,0,0,0,0],"id":93,"left_children":[1,-1,3,5,7,-1,-1,-1,-1],"loss_changes":[2.017583E0,0E0,1.4246495E0,5.6495404E-1,9.662484E-1,0E0,0E0,0E0,0E0],"parents":[2147483647,0,0,2,2,3,3,4,4],"right_children":[2,-1,4,6,8,-1,-1,-1,-1],"split_conditions":[2.8822748E1,-2.969245E-2,1.324E3,-5.4372E0,1.5778906E2,-0E0,3.116487E-2,-3.2224696E-2,7.1409578E-3],"split_indices":[9,0,6,8,3,0,0,0,0],"split_type":[0,0,0,0,0,0,0,0,0],"sum_hessian":[1.2801466E1,2.5953677E0,1.0206099E1,6.9051085E0,3.30099E0,1.0916476E0,5.813461E0,1.419853E0,1.8811371E0],"tree_param":{"num_deleted":"0","num_feature":"11","num_nodes":"9","size_leaf_vector":"1"}},{"base_weights":[-1.15332425E-1,-4.784043E-1,9.453701E-2,-0E0,-3.938953E-2,4.6349713E-1,-1.2661324E-1,-2.7609493E-3,7.8929536E-4,3.9027106E-2,-7.931835E-4,-3.2987684E-2,1.0205899E-2],"categories":[],"categories_nodes":[],"categories_segments":[],"categories_sizes":[],"default_left":[0,0,0,0,0,0,0,0,0,0,0,0,0],"id":94,"left_children":[1,3,5,7,-1,9,11,-1,-1,-1,-1,-1,-1],"loss_changes":[1.336794E0,8.512535E-1,9.702518E-1,8.269948E-3,0E0,1.0748208E0,1.3556342E0,0E0,0E0,0E0,0E0,0E0,0E0],"parents":[2147483647,0,0,1,1,2,2,3,3,5,5,6,6],"right_children":[2,4,6,8,-1,10,12,-1,-1,-1,-1,-1,-1],"split_conditions":[1.2361567E3,1.5249133E2,1.269E3,-4.2202864E0,-3.938953E-2,1.5863504E2,1.289394E3,-2.7609493E-3,7.8929536E-4,3.9027106E-2,-7.931835E-4,-3.2987684E-2,1.0205899E-2],"split_indices":[4,3,4,8,0,3,4,0,0,0,0,0,0],"split_type":[0,0,0,0,0,0,0,0,0,0,0,0,0],"sum_hessian":[1.3431323E1,5.323912E0,8.107411E0,2.620141E0,2.7037709E0,3.4749587E0,4.6324525E0,1.5424222E0,1.077719E0,2.3412406E0,1.133718E0,1.9714435E0,2.6610088E0],"tree_param":{"num_deleted":"0","num_feature":"11","num_nodes":"13","size_leaf_vector":"1"}},{"base_weights":[-6.0901973E-2,4.1873977E-1,-3.3480608E-1,2.7369842E-2,-0E0,-5.770297E-1,1.4022075E-1,-1.1502831E-2,-5.0315674E-2,1.976372E-2,-2.5804708E-5],"categories":[],"categories_nodes":[],"categories_segments":[],"categories_sizes":[],"default_left":[0,0,0,0,0,0,0,0,0,0,0],"id":95,"left_children":[1,3,5,-1,-1,7,9,-1,-1,-1,-1],"loss_changes":[2.0003803E0,2.7876276E-1,1.5000067E0,0E0,0E0,3.126588E-1,3.2793552E-1,0E0,0E0,0E0,0E0],"parents":[2147483647,0,0,1,1,2,2,5,5,6,6],"right_children":[2,4,6,-1,-1,8,10,-1,-1,-1,-1],"split_conditions":[1.515444E2,4.9787994E1,1.306965E3,2.7369842E-2,-0E0,1.322E3,1.378E3,-1.1502831E-2,-5.0315674E-2,1.976372E-2,-2.5804708E-5],"split_indices":[3,9,2,0,0,6,6,0,0,0,0],"split_type":[0,0,0,0,0,0,0,0,0,0,0],"sum_hessian":[1.3478691E1,4.043594E0,9.435098E0,2.8816874E0,1.1619062E0,6.8036504E0,2.6314473E0,5.2560396E0,1.547611E0,1.5558839E0,1.0755633E0],"tree_param":{"num_deleted":"0","num_feature":"11","num_nodes":"11","size_leaf_vector":"1"}},{"base_weights":[-0E0,5.786351E-1,-5.103918E-1,-0E0,3.5881497E-2,-4.5709994E-2,4.8235923E-2,-1.4828536E-2,2.2922141E-2],"categories":[],"categories_nodes":[],"categories_segments":[],"categories_sizes":[],"default_left":[0,0,0,0,0,0,0,0,0],"id":96,"left_children":[1,3,5,-1,-1,-1,7,-1,-1],"loss_changes":[4.427917E0,6.843965E-1,2.3780873E0,0E0,0E0,0E0,7.778819E-1,0E0,0E0],"parents":[2147483647,0,0,1,1,2,2,6,6],"right_children":[2,4,6,-1,-1,-1,8,-1,-1],"split_conditions":[5.2001434E1,3.270877E1,2.164E3,-0E0,3.5881497E-2,-4.5709994E-2,2.8822748E1,-1.4828536E-2,2.2922141E-2],"split_indices":[7,9,10,0,0,0,9,0,0],"split_type":[0,0,0,0,0,0,0,0,0],"sum_hessian":[1.3095404E1,5.6681414E0,7.4272623E0,1.0039558E0,4.6641855E0,4.461079E0,2.9661832E0,1.0998279E0,1.8663554E0],"tree_param":{"num_deleted":"0","num_feature":"11","num_nodes":"9","size_leaf_vector":"1"}},{"base_weights":[-0E0,4.281726E-1,-4.315333E-1,-5.9867575E-4,5.748041E-1,-4.3881465E-2,1.2776029E-2,3.3544656E-2,-0E0,2.0233085E-2,-6.1612325E-3],"categories":[],"categories_nodes":[],"categories_segments":[],"categories_sizes":[],"default_left":[0,0,0,0,0,0,0,0,0,0,0],"id":97,"left_children":[1,3,5,-1,7,-1,9,-1,-1,-1,-1],"loss_changes":[2.8653102E0,7.799113E-1,2.0069818E0,0E0,2.729342E-1,0E0,4.2379767E-1,0E0,0E0,0E0,0E0],"parents":[2147483647,0,0,1,1,2,2,4,4,6,6],"right_children":[2,4,6,-1,8,-1,10,-1,-1,-1,-1],"split_conditions":[5.9841354E1,1.2004692E3,1.2808019E3,-5.9867575E-4,-3.896771E0,-4.3881465E-2,1.331E3,3.3544656E-2,-0E0,2.0233085E-2,-6.1612325E-3],"split_indices":[7,2,2,0,8,0,6,0,0,0,0],"split_type":[0,0,0,0,0,0,0,0,0,0,0],"sum_hessian":[1.3504795E1,6.6172757E0,6.8875194E0,1.030986E0,5.58629E0,3.511737E0,3.3757823E0,4.4411387E0,1.1451511E0,1.3079475E0,2.0678349E0],"tree_param":{"num_deleted":"0","num_feature":"11","num_nodes":"11","size_leaf_vector":"1"}},{"base_weights":[-1.3254814E-1,1.3928998E-2,-3.1113675E-2,-1.6703399E-1,2.5872452E-2,1.4285321E-2,-3.378397E-2],"categories":[],"categories_nodes":[],"categories_segments":[],"categories_sizes":[],"default_left":[0,0,0,0,0,0,0],"id":98,"left_children":[1,3,-1,5,-1,-1,-1],"loss_changes":[1.2616491E0,1.2068782E0,0E0,2.1512341E0,0E0,0E0,0E0],"parents":[2147483647,0,0,1,1,3,3],"right_children":[2,4,-1,6,-1,-1,-1],"split_conditions":[8.4E1,2.163E3,-3.1113675E-2,4.8E1,2.5872452E-2,1.4285321E-2,-3.378397E-2],"split_indices":[7,10,0,7,0,0,0],"split_type":[0,0,0,0,0,0,0],"sum_hessian":[1.22268505E1,9.373737E0,2.8531132E0,6.6566305E0,2.717107E0,3.2336688E0,3.4229617E0],"tree_param":{"num_deleted":"0","num_feature":"11","num_nodes":"7","size_leaf_vector":"1"}},{"base_weights":[-1.9994104E-2,-2.8036091E-2,8.476037E-2,-8.268771E-2,3.1565506E-2,9.3852235E-3,-3.5018545E-2],"categories":[],"categories_nodes":[],"categories_segments":[],"categories_sizes":[],"default_left":[0,0,0,0,0,0,0],"id":99,"left_children":[1,-1,3,5,-1,-1,-1],"loss_changes":[1.1261042E0,0E0,1.472856E0,2.0199032E0,0E0,0E0,0E0],"parents":[2147483647,0,0,2,2,3,3],"right_children":[2,-1,4,6,-1,-1,-1],"split_conditions":[2.8883623E1,-2.8036091E-2,2.163E3,2.044E3,3.1565506E-2,9.3852235E-3,-3.5018545E-2],"split_indices":[9,0,10,10,0,0,0],"split_type":[0,0,0,0,0,0,0],"sum_hessian":[1.3840085E1,2.3143063E0,1.1525779E1,8.772119E0,2.7536604E0,6.0224266E0,2.7496917E0],"tree_param":{"num_deleted":"0","num_feature":"11","num_nodes":"7","size_leaf_vector":"1"}}]},"name":"gbtree"},"learner_model_param":{"base_score":"1.6620111E-1","boost_from_average":"1","num_class":"0","num_feature":"11","num_target":"1"},"objective":{"name":"binary:logistic","reg_loss_param":{"scale_pos_weight":"1"}}},"version":[3,0,0]}